solver_type L1R_LR
nr_class 2
label 0 1
nr_feature 49999
bias 0.000000000000000
w
1.895378419865805 
0 
0.2393651992829532 
0 
7.408267266407711 
0 
-0.03984740002473608 
0 
-2.671404934374137 
-2.150748654251231 
0 
-0.3412410969275561 
-1.109576476909886 
2.328466131554736 
0 
-3.933961013330652 
0 
10.33359435993877 
0 
1.085229227460350 
1.755052883912200 
0 
0 
-1.507812946098644 
0 
1.357600670074588 
0 
0.1434031067983954 
0 
-3.437177360340398 
0 
10.67729306556149 
9.664118791873335 
1.705041138994082 
0.03025200259424812 
-0.5958227832534642 
0 
0 
1.487950663223404 
0 
0 
1.090769247025562 
0 
0 
0 
1.290139122042239 
1.819890996626440 
0 
3.591089922648153 
1.451828166944624 
11.17480523634382 
1.390103247868378 
2.398212334110656 
2.621405216373341 
11.45139405853986 
0 
0 
5.492352360290195 
0 
0 
0.5273245572575249 
-4.343889139348144 
0 
0 
-4.231792665538453 
1.121520050804982 
-1.475270447100045 
-0.1579013307121945 
-0.6991274060757107 
-2.411174962178106 
-0.1625019975754178 
-1.187947360299487 
-0.6713222796179827 
-1.496014494456670 
0 
0 
0 
-0.4112903834014406 
-1.092579743224765 
-2.858794600866231 
1.585571489289483 
1.224675698915512 
-2.239596569743822 
0 
-1.308061124457591 
0 
0 
0 
0 
-2.702206942978575 
-2.767747610313702 
-0.6017232577807299 
0 
1.184787808892432 
-0.4908651567281438 
0 
-5.477474917464868 
-1.144202192325535 
0 
3.858755890057581 
1.117429011881822 
0.7810970652702379 
0 
-1.099893510434399 
0.3020366847958416 
0 
-4.376219937408545 
-0.1408898089887605 
-0.7856309859474144 
-4.775808419691828 
2.111483521469362 
0 
1.240976196936513 
0.5960161345269910 
0 
1.185919538282899 
0.8701736804280309 
-3.424138358029560 
1.761932292247003 
0.8851213238388443 
-1.295999017362506 
-0.5936705098504615 
-1.046463038030096 
-0.8305956461501862 
3.616925881796325 
0 
0 
0 
0 
-1.005751570552089 
-0.4423842227247373 
0 
-0.9414624792722380 
0 
0 
-0.6051234218677544 
0 
-1.621863663069765 
-1.844814009199357 
1.702223667636008 
-1.923168117244440 
0 
2.442635909901962 
0 
0 
0.9152218259636600 
1.994732521266850 
-1.079633814962367 
0.9068051072170061 
-0.3821410027116433 
-1.355373084257838 
2.311903994893441 
0 
0 
-1.605193806050430 
-9.511625442081960 
0 
-1.346648693242615 
0 
0 
3.086519476099711 
-5.855037616779925 
3.903606271963426 
1.065013535165275 
0 
0 
0 
0.5091589307623661 
0 
-11.20270388287079 
0 
-0.01062389182660232 
0.9604640969254516 
1.121718062400794 
0 
0 
0 
0.8104390234258154 
3.910980293697904 
1.459571624719128 
6.210227434756190 
10.13214373426662 
0 
-0.2257304060909334 
0 
0 
0 
0 
0 
-4.472366387331532 
0 
0 
0 
-0.1059339029114892 
-1.005173195058971 
-2.197950697772165 
1.472649759867479 
1.134713200805208 
0 
0 
0 
0 
0 
-0.5999688344784451 
0.6983009646395049 
1.592025421465269 
0 
0 
2.357178151738582 
0 
0 
3.045907975187216 
-2.767689509543051 
0 
-2.064397875760478 
-2.500935116763277 
-1.141318038742020 
-1.184534869054812 
-0.8586862743831055 
0 
0.02918847961834870 
0 
0 
0.3258984954812602 
-1.525641167139160 
0 
0 
-1.651163369275530 
0 
-1.364372924120965 
0 
-0.4661852499986556 
0 
1.698225117080997 
-1.274975662215992 
2.561749079166511 
0 
0.7941629128791522 
0 
3.562140500385133 
5.395865447865718 
-0.7077162045209265 
0 
0.7404100217762205 
0 
1.958999905414491 
-0.5502432827519561 
0 
0.2231626491156462 
0.3793430792503471 
2.838640882812315 
0.1003846722580798 
1.035376351812994 
-1.243522339515322 
-6.799509775856388 
0 
-0.08546521414592600 
0 
-0.04555897703225997 
-0.3515196877823050 
0.9099613383983210 
0 
1.019939121210601 
-0.2522921658746802 
-1.925920841673644 
0 
-1.761054426593260 
0 
-3.986330175065303 
0 
-0.01451162266960107 
0 
0 
0 
0 
-0.1637912251735628 
0.7521111368782449 
-8.945468358578504 
0.9880720187676961 
2.273124305515069 
0 
-0.4625697281964771 
6.323034101375152 
0 
1.297021340423834 
0 
-1.406060671129394 
1.100846591102879 
3.164906375143391 
-0.1388443959031311 
1.407342604241495 
0 
-0.4477517876842412 
0 
0 
0 
8.616256662445130 
2.123101238861794 
0 
5.466786868720250 
9.882845012883642 
-1.293202306469794 
9.202189281452206 
0.7948993867646463 
0 
0 
0 
0 
0 
0 
0 
0 
-4.497082948643457 
0 
0 
-0.1091859813254203 
-1.595935746035651 
-0.09880243530568686 
-2.857924407514755 
-2.659823354143950 
0 
-3.002976135938537 
-2.786623537733139 
-1.066339372069643 
-0.6819079777214616 
-7.588983064152964 
-0.1641898016898349 
0 
0.5651250673344183 
0.2655960636865007 
0.3667368844846516 
-9.388618764906392 
0.6563635225469635 
-0.3033429348050724 
0.8597916074448866 
0 
-2.436716712862880 
-1.324190112515477 
0.2025724791066323 
7.899189453468340 
0.3834575360445734 
0 
-1.030858821284798 
-1.067868918833212 
2.447297852347663 
-0.7708631000011785 
2.342810420006527 
1.073378499267239 
0 
-1.878985001272630 
-2.512816054006512 
0.7673071410171355 
-4.679585176939688 
1.715869475983315 
-2.239100180402190 
0 
8.005336024903098 
-3.497563933004961 
-0.3498864607644407 
0.8809797237647494 
0.2864640659789130 
0 
0.7799178325189796 
0 
-1.259058648510747 
0.9225857323421722 
0.3646757114742216 
-0.4357552571638428 
0.4826937338461985 
-0.6233898538479106 
-1.029589531117019 
0 
-0.09344704544706506 
1.661819996839276 
0.9669074021243808 
0 
0.06241216539930730 
-3.175968875495195 
0 
-0.9776491251421695 
-1.769499601395015 
-6.804452903878957 
0.1137997633406055 
1.333750596416474 
0 
0 
0 
0 
-2.003309960140549 
-0.3527690116988155 
3.255859670331364 
0 
0 
11.22231589269550 
-0.2348605300086627 
0 
-2.823536435111981 
1.265933217291265 
0 
-0.6778592133171527 
-0.2008076645725651 
0 
-0.9768775875685175 
-0.08609542869261869 
-3.193471031442209 
0.8283865393070642 
0.2742916189722123 
0 
0 
-1.093351785633625 
0 
-1.232403810181078 
-1.046189405036884 
-0.2888440946838751 
-2.466725585437260 
1.863330697953237 
-1.527194783901843 
-0.5055074717115582 
-0.2531572565839728 
-0.7207165910320719 
1.461158515832311 
0 
0 
-1.376452146316848 
-2.448976939810692 
3.396431179092271 
8.616587758039868 
-0.4608988748458416 
0 
-0.3864540392674548 
-0.6653142901604041 
0 
0 
0.04759874697587525 
0 
0 
0 
0.6745665768839771 
-1.137986317749406 
0 
0 
0 
0 
0 
0 
0 
-3.356727720385391 
-6.550876632904429 
0 
1.473805910320991 
0.03780149868808191 
0.4683828890509383 
-1.004905675186947 
0 
0 
0.1184059290639863 
-1.600295292768008 
0.3345503620311328 
0 
0.6949442396139688 
0.2356356392094959 
0 
-0.4767661479617803 
0 
0 
0.2149718242750622 
0 
0.9355504079346422 
-0.6020643197409920 
0 
2.489823813232407 
0 
1.221087818593480 
0.9137334074293328 
-0.6814026321740756 
0 
1.954305611430513 
5.829326884456964 
-0.5873420752081066 
1.595592915069930 
3.068659041055597 
0 
-0.7323943636409238 
0 
0.9829103465617935 
0 
0 
0 
0.06319208995916070 
0.3648056999217084 
-0.4541296724996541 
0 
0 
29.54573710113757 
28.13470006582171 
35.92230991187461 
0 
0 
3.129633272658614 
0 
0 
0 
0 
0 
5.043034842251911 
0 
0.3225487258142302 
0 
0 
-1.957325609434787 
0.9219461215097449 
0 
-0.9035589908784463 
0 
-6.223540559089507 
1.823755847223577 
0 
0 
0 
0 
0 
0 
-1.517078954546512 
4.378365527564537 
0 
-1.950413060050213 
0 
0 
0 
1.560008698297978 
0 
-1.574236960007546 
-3.526849042343811 
0 
0 
0 
0 
0 
0 
3.709337182875468 
0 
4.249512006983175 
0 
0 
0.4240635749325552 
0 
-4.100056459333135 
0 
10.00000000000000 
0 
0 
0 
0 
0 
0 
1.211850754268455 
1.015217643429015 
1.003060949797584 
0 
-0.2895910126411483 
-0.3119005784546586 
-0.01498498070251059 
6.295962123586178 
0 
1.602802746445957 
0.6606099161346733 
0 
0 
-6.450049391007896 
-6.735383681387214 
0 
0 
0 
-5.001444514317462 
0.02583774826686994 
0 
0 
0 
1.663302900158075 
1.957820180648081 
0 
0 
0 
0 
0 
0 
2.426066395491569 
-0.3275069325595492 
1.519807313621049 
-1.614364967064465 
0 
4.769412686268096 
0.3645110002896650 
0 
0.2005311395925935 
0 
1.713020918926349 
0 
-1.943058761570856 
0 
0.4790196603319455 
0.2654461254847518 
0 
0 
2.992691963709120 
0 
0 
0 
0 
2.005540458427225 
-1.744801442674605 
2.225846360148756 
-2.986117546176886 
9.483458760909054 
2.591501698131732 
-1.019209893110972 
-4.031601500043013 
-0.4171290774542987 
0 
1.120816433821859 
0 
-1.477870432254484 
-3.449189750265958 
-2.996188522208355 
-0.6819056026706042 
-1.403727342502861 
0 
0 
-1.727646805638226 
1.009201658917353 
0 
2.172274446631612 
0 
5.191262556590715 
0 
-1.258823915410428 
-0.8560031805447175 
0 
-6.341115243866695 
0 
2.506225884950557 
2.561001950785053 
0 
-0.3623582108826063 
-0.09987395011723188 
0.4620533280404788 
-2.433785029648839 
0 
8.255056122851652 
2.312162940107741 
0 
0 
-0.2099774229806805 
2.555181486079774 
1.739869660005355 
0 
0 
1.197533514025397 
0 
6.066877270328592 
-1.126785024732425 
-0.6561476073050535 
0.6811451435378513 
0 
2.931850587700644 
0 
-2.148832784038076 
0.3156829886187448 
4.773606416251639 
0.05262475135984124 
0 
0 
0 
0.9564646420192979 
1.967436927078796 
-0.2117169741677942 
0 
-0.05436883188370559 
-2.112963956402161 
0 
3.934619797852691 
0 
-0.4869278652881356 
0 
0 
4.139361587962863 
-5.480762333663997 
6.361381279342825 
3.614662472958083 
0 
0.5699838823842771 
0 
0.4610620000704101 
7.968955223123368 
0 
0 
0 
0 
0.08894858603294908 
9.164959211131393 
0 
0 
-1.755505506173819 
0 
-4.582900780630919 
0 
0 
0 
0 
0 
0 
-1.928054181068298 
-1.052490191853261 
6.969446807952068 
0.7552395040508548 
-1.482525059504534 
0 
-3.764261431548857 
4.575656226331430 
0.7280787135776922 
0 
-2.741836072887099 
0 
0 
-1.814705956914247 
0 
0 
1.660372006517369 
0 
6.783231967944320 
6.967158497642228 
-0.1820273340076190 
0 
0 
0 
0 
0 
-0.7773560197257293 
0 
0 
0.5444157253526970 
0 
-0.2974581019190368 
0 
0 
-1.647144915985291 
0.8408006008378874 
0 
0 
-1.769777183184434 
-3.647380518394335 
-0.6077662265542995 
0 
0.4553328727273357 
0 
0 
0 
0 
0 
-0.9995158572525709 
-1.280419272229125 
0 
0 
-2.919268762916372 
0 
-6.693631652114260 
-7.804503464701040 
-1.264908582113762 
0 
-0.8840669795211997 
0 
-4.084403123655042 
-0.07502235688724451 
-0.1741599705196324 
0 
0.2702830467279574 
3.342321045452388 
-1.184728667244972 
0.1212010591815385 
0 
0 
0 
0 
-1.716280540633213 
-1.060906407099361 
1.454977448416464 
0 
-2.335402156461680 
8.887291475696342 
-1.845254696095029 
0 
-0.7150010856587363 
0 
0.5185493950414191 
0 
-2.099683364814662 
1.923467378986144 
0.9938671094962666 
0 
-1.314506515500220 
-1.294374654176937 
0 
0.1654050307892605 
5.207482363603111 
-0.9166962216830570 
0.9922589902429102 
3.411122326812232 
0 
0 
0 
-0.3901786592574307 
-2.347521667258576 
0 
-2.073929035405115 
-1.811638245118424 
2.628304340774295 
1.017377480206972 
0.5032465102569876 
0.7819795653131488 
0 
0.1302854949683772 
0 
0 
1.741338499985969 
0 
0 
0 
0 
-0.5969717418087187 
0 
0 
0 
8.760100497317334 
0 
0 
-1.646184102170237 
0 
0.6770635817744669 
8.216317695317118 
-0.2234280898062986 
0 
0 
0.6462480840098276 
2.042075566411297 
0 
2.300863201189108 
-0.8860087266997158 
0 
-2.172419914132331 
0 
0 
0 
0 
-3.480517016741879 
0 
-0.3795868853070435 
0 
-1.875290500416095 
-1.194817000231408 
0 
0 
-8.231879748197315 
0.01859646975031924 
0 
0 
-0.5279892518475342 
0.9750589211054097 
1.134010473372929 
0 
0 
-0.4769790126973231 
-0.8174844319722733 
0 
-1.247833614329156 
1.332387231876988 
-2.131519381810249 
-0.3708112961816349 
0 
-0.1217837769915609 
0 
0 
0.2102926302594663 
1.489335679749247 
0 
0 
0 
0.009231243365631810 
-0.8752071707215436 
2.178201288242329 
-2.102696584231067 
0 
0 
0 
0 
3.212331766291424 
1.224801605991798 
0 
0 
0 
0 
-1.497322238937190 
0.9592320386080403 
7.793081111101119 
0 
0 
9.566342790140933 
0.09334045129113641 
1.752713178972449 
0 
-0.2483012213949476 
0 
0 
0 
1.504656171012268 
-0.09037788496731691 
0.7234743514638010 
-1.398685389108957 
-5.466531217088013 
-0.7779380432338051 
0 
-0.7408177240069616 
0 
0.3909984854922419 
1.742465764551314 
4.604402642175633 
2.193042493411450 
-2.165495350446526 
0 
0 
0 
-3.136962291638547 
0 
7.064943853353883 
0 
-0.2197438729466356 
0 
0.1924013008262560 
0 
0 
0.1783893451426024 
0 
0 
0 
0 
0 
-5.449542542760143 
-3.515698495491717 
0.1882316132231767 
-1.507077159722997 
0 
0 
0 
0 
0.7578024818797717 
0 
0 
0 
0 
2.042897071040826 
1.628974353570540 
0 
2.829310286959009 
0 
0 
-1.117332292460367 
-0.7701571676435977 
0 
0 
0 
-3.326166613398502 
0 
0 
-1.334165224670464 
0.2725472206725126 
0.6826607202308516 
-7.089300809748217 
-1.580687770585759 
0.1910227078209935 
0 
0 
0.5160591537554552 
1.144445285394347 
-4.578186838839386 
1.059466287848813 
0 
0 
-0.6462785015560660 
0.3504169038419677 
0 
2.870927504483649 
4.764784082575385 
8.465670747933200 
0 
0 
1.666141567237228 
-3.390073822572342 
0 
0 
6.082772608712448 
-1.697244379749793 
0.2465110418734746 
0 
0 
0.2769025976418680 
0 
0.3803318038004792 
1.817493825472547 
0 
0 
0 
-0.4194149057451249 
0 
0.1730594111099337 
-0.7508851079200600 
-0.3812627972999413 
0 
6.497287724063979 
1.320638698970660 
0 
0.3823741850595884 
0 
0 
-0.8332753316508987 
1.547011102745435 
-0.2123126671699631 
0 
-1.535821944668673 
0 
0 
-0.4586038235468015 
0.3841741431593414 
0 
2.204903297989679 
0 
1.495627750581291 
0 
0 
0 
-2.190777108748536 
0 
-3.413282168371743 
0 
0 
0 
-0.8794861376917635 
-0.5076524703071759 
0 
0 
-0.2728649515760144 
-2.523324745950131 
-0.1008969469612577 
-4.664497817862948 
0 
0 
-0.6768874310512996 
-3.243618049608136 
-1.085444882169183 
-0.3064029793349707 
0 
0 
0 
4.292386138394193 
0.1364239290137403 
0 
1.044955115346851 
0 
0 
0 
0 
-2.578930365433421 
0 
-0.1123591482872874 
0 
1.268728468944822 
3.196619031024683 
0 
0 
-0.3281147797431110 
0 
0 
1.894583584510780 
2.326958723958023 
1.434156501393624 
4.825371838783957 
-2.673914239176542 
5.315854035447786 
0.8082699112581496 
0.5816712405265578 
0.8493184470558757 
-2.334918356920928 
0 
3.608132410030022 
-0.9382959113205968 
0.6519938388705570 
0 
0 
-8.840825914798714 
0 
0 
0 
-0.9581069357923745 
0 
0 
-0.1489507298303172 
0 
-0.7026481797026819 
-0.5352198071804468 
-2.829908615553006 
0 
0 
0 
0 
0 
0 
-1.062966399627420 
0 
0 
0 
0 
-4.355389049902110 
0 
0 
-3.007959839364228 
0 
0.8528372799597292 
-1.217633686579827 
0 
-0.2468440708996633 
0 
0 
0 
0 
11.10197255450684 
0.3097666212199804 
-0.3826801676100350 
-2.731670027659917 
0.7417394933974983 
-0.1590587199562852 
0 
1.697744471532582 
2.344250881522914 
1.710121639569091 
0 
1.349397237989025 
-0.5322674199551647 
0.2847845080951217 
0 
-0.4548171796376122 
0 
-1.490856841937192 
0 
0 
0 
-0.06046144614356547 
-2.680989553594398 
0 
0 
-0.9392813270481701 
0 
1.761570287592795 
-0.4542164680416190 
0 
-2.073777812775958 
0 
0 
0 
0 
-0.1719047671948117 
0 
0 
0 
0 
0 
0 
-1.539895161316686 
0 
6.481633324440968 
0.007436601195624559 
0.2579082915365820 
1.476113417982931 
0 
0 
0.06556303585003670 
-2.149850652290025 
0.1577474227213541 
0.2882299750881618 
0 
4.035923370127564 
-0.9884753454347955 
-2.116581047075922 
0 
-0.7205088365452654 
0 
-0.7810035319301173 
0.6093672864585216 
0 
0 
0.03788629136263411 
3.833135480037435 
0 
0 
-2.229964677228267 
1.069013134876669 
-0.5001960608472795 
0 
0 
0 
0.3140846520368032 
0 
-0.6224031209655845 
-8.494126712201426 
7.126441285227616 
-2.977662535355390 
0 
1.065262254280609 
0 
0 
-2.482046453124728 
-0.5351780973601048 
0 
-2.309731438863027 
0 
0 
0 
0 
1.537672449001258 
0 
0 
0 
0 
0 
0 
0.4882191621816258 
0 
0 
0 
0 
-0.2694012301598305 
0 
0 
-0.5446161278569277 
0 
0 
0 
0 
0 
2.174652480518843 
0 
1.116621572416330 
1.115232112543627 
0.9914652128499778 
0 
0 
0 
0.06849368315808224 
-0.3721740923021973 
0.9971481331521990 
0 
0 
0 
0 
0 
3.669325848273175 
2.716284923699635 
0 
-3.221373791782553 
0 
0.4888149271595372 
0 
0.7642170051620816 
-0.3114580843206110 
0 
0.5251620375842450 
-0.8524975078161487 
-1.357230782098548 
0 
-1.405493101585652 
-2.741100999003312 
-0.3081872760366738 
1.899593711180468 
-0.7594007765845272 
1.727303078847686 
5.691243353041307 
-0.6411230458479279 
4.352007016836896 
0 
1.230625078743071 
0 
0 
0 
0 
0 
0 
0 
-0.1871561147213053 
1.448020437061673 
0 
-1.261188316388531 
-0.1225712868449405 
3.277824387701821 
-0.4109075027500257 
-0.8265726843082501 
0 
0 
-1.068800800856662 
-1.085473980119009 
0.8589249888870719 
0 
0.2783247836679282 
-0.3661198661769908 
0 
0 
0 
-0.2322213568789420 
0 
0 
3.313880566281602 
0 
0 
2.162966097802462 
0.9458129260846014 
-1.018528239557820 
-5.371619826800579 
1.466556775112155 
0 
0 
0 
4.313398175653228 
0.1794000118227235 
0 
-2.130449851311109 
0 
3.315042710847398 
1.018116069537786 
0.3106349175567927 
0 
0 
0 
0 
-2.494087494821325 
0 
0 
0 
0 
0 
-0.4828292857662023 
0 
1.287451228461602 
0.09267250654780268 
0 
0 
0 
-2.808964665276498 
0 
-1.157039849418236 
0.3294899652204965 
0 
0 
-3.263230922965822 
0 
-0.8464539381928304 
0 
0.7509090502390774 
0 
-1.943211199505562 
0 
-0.7132861100132437 
-1.041803921474626 
1.004158910581639 
0 
0.09188325338539060 
1.540191159642237 
3.142998778449173 
0 
2.044659073087120 
0.4024632765314125 
0 
0 
0 
0 
2.641950910062297 
0 
2.558327266576942 
0 
4.239880983825557 
0 
0 
0 
0 
2.492596622206138 
0 
0 
0 
0 
0 
0 
-1.890874876848968 
0 
0 
2.920122614004714 
-1.632571604620460 
0 
3.692325017523817 
-0.1542688816253971 
-0.1762715050119408 
-0.9137181692796055 
0.3975468564095094 
0 
0.9698872764352297 
0 
0 
0 
0 
0 
0 
0 
3.397130998063587 
-0.9671709824234944 
0 
0.5594572862279306 
0.2598379470907523 
0 
0.2316302862089654 
0 
0.09692338091209815 
0 
-1.049124216918941 
0 
2.043743362401035 
5.768394963282716 
0.2006598884056127 
1.844301755908686 
-1.791102968391027 
0 
0.9603584600432231 
0 
-0.1289687700696920 
0 
0.9204995062916537 
0 
0 
-0.7798463217955012 
9.520366174021536 
3.926372549570080 
0 
1.525236134896345 
-1.423284617060844 
2.396852765779694 
-0.1209611143869543 
3.031916125361736 
0 
1.539155372259358 
-0.7983786461115197 
0 
1.999747712577711 
0 
0 
0.5911031795337602 
0 
0 
5.148229522095068 
2.459717012847475 
0 
0 
0.2339005022367329 
0 
0 
6.874985367971076 
0 
0 
0 
0 
0 
0 
0 
0.5367663613597171 
0 
4.171811469805331 
0 
5.914811612597076 
0 
-0.8851462111143981 
3.658148620183499 
0 
0.4219588119698778 
1.648986895216989 
0 
0 
-2.332128276051130 
2.147067996859423 
2.353522958693813 
-0.3408855202122747 
-1.823999265242302 
10.02121194343264 
1.410846819170014 
4.038935341117337 
3.082958454565480 
-1.403093058664611 
0 
0 
-0.2935868381204996 
0 
0 
0 
0 
4.261702824281519 
0 
-0.08161124514471285 
0 
-6.562358041192963 
-0.5598372327840709 
0 
9.428701032709839 
-2.530535202208848 
0 
-6.632279775345984 
-3.700023995741522 
1.629794777012309 
0 
0 
-3.133929743361726 
-1.562885783874983 
3.334282727266671 
-1.584826158349067 
-0.6341541020689413 
-0.9963449181260695 
0 
-0.1838025889073903 
0.6550486729818837 
-0.6209446871345639 
0 
0 
4.803370705685927 
-0.1686442162047762 
0.4764174323795994 
-0.8906858478347903 
-0.2719292449368919 
0.5385581845975381 
0 
0 
0.2154014724492904 
-0.6270614319447759 
0 
-0.1777203251369146 
0 
0 
0.02940433459922599 
0 
0 
0 
1.064539320978771 
0 
0 
0 
0 
0 
1.552151454886546 
-3.302957712584655 
6.287453673372167 
0 
0 
0 
0 
0 
0 
0 
-2.518048649265841 
-0.04499649371536240 
0.1823860240181976 
0 
2.417447353235984 
0 
0 
0 
0 
-1.499343757782955 
0 
11.22148414142722 
0 
0 
0.2904060216893307 
-0.8673423254602661 
0 
0 
0 
0 
-0.2222592711903435 
4.661219201437768 
0 
0 
0.5213735942392029 
0.03303765226086486 
0 
1.966385698016552 
0 
0 
0.1920603527416512 
2.924176459103450 
0 
0 
-0.7348427214323912 
0 
2.338433110754408 
0.3502544261221764 
0 
0 
0 
0 
1.345310796345388 
-2.095167091314993 
0 
0 
0 
0 
1.141978033193380 
0 
0 
0 
0 
1.775889576180202 
-1.313982651709483 
0 
-0.8885138494705689 
0 
1.441198186575830 
0.1453698629873143 
2.215847915789872 
0.4442768875682968 
-0.9082089006900104 
0 
1.258996286477665 
0 
0 
-2.113684161419522 
0 
-1.045269864165065 
-1.013375500333577 
1.446427666619260 
-1.445864254320201 
-0.004780748324277911 
0.3915866620090651 
-0.02500521466432888 
-0.6735945550697059 
0 
-0.7234904613286375 
-2.171339340564946 
1.874670460305378 
0.7227312179754175 
0 
0 
-0.6957444846175467 
0.4470925493585423 
9.104742655352300 
-0.1053148933542857 
0 
0 
1.064047436641090 
0 
0 
0 
0 
0 
0 
0 
0 
2.014827040079917 
0 
-0.6532360639744472 
0 
0 
0 
-0.05656755203236957 
-1.054506803594497 
1.245240278157441 
0 
0 
0 
2.106384222588327 
-6.246522989000733 
0.4932007462772046 
0 
0 
0 
0 
0 
0.08389200303938389 
0 
0 
0 
5.270219893863620 
0 
-1.189697378264515 
0.2361831099564756 
0 
0 
0 
4.944063169017112 
0 
0.1989001235986988 
0 
0.3873246409202391 
2.229245226164090 
0 
0.1730699556638775 
0 
-1.408845102224190 
0 
0 
0 
-5.797974163235494 
0 
0 
0 
0.8260230656232718 
0 
0 
0 
-4.869290682968869 
0 
0 
0 
0 
0 
0 
1.721194941126350 
0 
1.277765891270885 
0 
-6.365662996400209 
0 
0 
0 
0 
-3.665642158567628 
0 
0 
0 
0 
0 
0 
0 
0 
1.417039017079365 
0 
-5.254339631366986 
1.184266644378518 
0 
7.328653134127642 
0 
0 
0 
0 
-2.613649677780406 
0 
0 
0 
3.833955198091897 
0 
0.7295594563411036 
0 
3.589422049355710 
-1.857242757081402 
2.483153883499181 
0 
0 
0 
-2.948128298520037 
2.078627059614409 
0 
0 
0 
-1.007181268790786 
0 
0 
0 
0.4788606961828946 
0 
0 
0 
0 
0 
2.828570926414611 
1.570040247305906 
2.257936845932516 
0 
2.034867436974307 
0 
0 
0 
0 
0 
0 
0 
-0.4698255972767011 
1.316745114134589 
0 
-0.5382202290082330 
0 
0 
0 
0 
0 
0 
0 
1.963581055065752 
-2.921340175932135 
-0.1164155838807336 
0 
0 
0 
0.2744948882718933 
0 
2.400983964006288 
2.167736084469331 
0 
0 
0 
0.6841858337127573 
0 
2.325322735227485 
2.988008468317947 
-1.112201116710575 
-1.029628839679270 
-2.674766787983210 
-2.289326513294274 
-1.023363657251259 
0 
0 
0 
0 
0 
0 
0 
0 
0.5295188656103926 
0 
0 
-4.542122318896283 
0 
0 
0 
0 
0 
0 
0 
0 
-1.029288600873018 
0 
0 
0 
0 
1.966725364980356 
0 
0 
0 
0.5246329971314752 
0 
0 
0 
0 
-2.522869162063042 
-1.899625325893843 
0 
1.772563764564997 
0 
0 
0 
-3.225783263566372 
1.473524303534368 
-0.2705830332048069 
0 
0 
0 
0 
0.3579145568289310 
0 
0 
0 
0 
0 
0 
0 
7.461355324915640 
2.274638096896653 
0 
0 
0 
-2.014975808616819 
0 
-0.4690001066067003 
0 
0 
0 
0 
0 
-0.2733573385874247 
0.1184771697784911 
5.050913947764745 
0 
0 
-0.2523507586091867 
-1.488819260361974 
-0.4353330794055744 
0 
0.07331879059973893 
3.509819502798936 
3.301748759449581 
2.503277488753938 
-5.253128387131143 
0 
0 
0 
0.9943383086584794 
-3.056772580760177 
0 
0.3561745433312704 
-0.1382616695344848 
0 
0 
0 
-0.7584118896221306 
0 
0 
0 
0 
0 
0 
0 
0 
0 
6.527887989717215 
0 
0 
0.6341447033582873 
0 
0 
0 
0 
0 
0 
1.327417039107840 
-0.2953942187241243 
0 
0 
-0.8572145561666352 
-1.848654847274271 
6.178933591684202 
1.864196472885189 
0 
0 
0 
0 
0 
0 
0 
-0.4119348688955399 
-2.075548361640484 
0 
-6.261383139952217 
1.840843170294526 
0 
0 
0 
0 
0 
0 
0 
1.174763165663273 
0 
-0.6800196930605134 
5.728811917637681 
1.042995981327544 
0 
-2.306015270916295 
0 
2.839229834900420 
-3.135727489464679 
0.7311059042205887 
0 
-1.396568254426470 
0 
0 
2.330293580725305 
1.299586759525906 
0 
-0.4288284053466047 
2.746015433251544 
0 
0 
-2.577294417602908 
0 
-0.4842038463217305 
2.288930608792064 
0.5076931120143761 
-0.5572195092818394 
-2.354985081819117 
0 
0 
0.5423083820094166 
-0.6281440784538332 
-1.462915175518212 
0.6800855655174176 
-6.709328236957411 
2.287090647428077 
-1.458068235577458 
0 
0 
0 
-1.447837960464878 
0 
2.182795587963923 
0 
-0.3566342935659628 
0 
-4.112618994808404 
1.160009521051962 
0.2168712320309557 
0 
0.1277241086521085 
0 
-2.908342177436157 
0 
-0.5829596051093652 
0 
0 
-2.325908651358103 
0.8788378275269448 
0 
0 
-0.8483835037892148 
0 
-0.8339778708316464 
0 
-0.3093532707176079 
-0.7703706347339595 
0 
0.9558266208549844 
1.178252746311606 
-0.3759453474126198 
0 
-0.4736102068245204 
0 
1.221537938141024 
-1.585936052730651 
0 
3.991471654684204 
0.6878448773755615 
0 
0 
-0.001441083162208590 
0 
0 
0 
-0.5227836966515853 
0 
0.1663300971884852 
0.1311947555723150 
0 
4.372949312850258 
-0.2708588229062703 
0 
0 
0 
0 
3.546914906058771 
-1.411616694152074 
-0.6624550291025871 
3.788758087886953 
0 
2.852800268370945 
3.668743928509014 
-1.860226430291024 
0 
-2.888974133267038 
0.7315297375271328 
-0.8809739793273482 
0 
0 
0.1296438743036432 
0 
0 
0.8269754828783749 
-1.093230268662433 
2.287308075842641 
0 
0 
0 
0 
0 
1.073267805742075 
9.638930917618080 
0 
7.674674160725918 
0 
0 
0.3983192861430094 
0 
1.495884635633431 
0.6834131626377575 
0 
0.4522537425896112 
1.085682771860677 
0 
-1.254593526279034 
0 
0.2318329183858439 
0 
0 
0 
0 
5.610690510552571 
2.568221778111699 
0.9991322945469308 
4.191074524613023 
-2.845250276715345 
0 
0.6585468098788991 
0.1013914742533507 
0 
0 
0 
-0.4402008488897006 
0 
0 
1.156257773239056 
1.318898960828787 
0 
0 
5.404478474815807 
0 
0 
0 
0 
-1.069026890529626 
0 
0 
0 
-0.9042019070591253 
0 
-1.601010735710213 
0 
-2.436842247739329 
0 
0 
0 
0 
0 
0 
1.393228107489226 
-2.496318624670515 
0.1319256054736161 
2.143491211454365 
-0.9021127902663031 
0 
0 
0 
-1.199626422716133 
0 
0 
3.057823476207467 
-2.706457149390396 
0 
0 
0 
0 
0 
6.728303588112500 
0.7709837517044619 
0.6757164827839901 
0 
0 
-0.9504855082227248 
3.458687447109083 
2.009593735259179 
0 
0 
-0.6959396669044868 
-0.2770660443476943 
2.005896020929979 
0 
-6.770030182909934 
1.361974994082452 
0.1104496299953345 
-3.196894256562992 
0 
8.819484356385335 
1.187047084010716 
0.5389107829802675 
3.219936101115950 
-0.07253638619332503 
0.003634468363519439 
0.4145021967593464 
-0.2952494779306534 
0.5327505395953572 
-0.1480901934106069 
0 
0 
0.08957019721996250 
-0.6065824782867536 
0 
2.813399340669706 
0 
0 
0 
0 
1.529423879559596 
10.00000000000000 
0 
0 
0.07608061299972299 
-0.3511734308817334 
0.6148990713238037 
0 
-0.09318278985973780 
-3.196132432878550 
-0.1461826683593150 
3.732893049832449 
0 
-0.8100982133729060 
1.460207745666705 
0 
0 
2.095625029087043 
0.3736833605162757 
5.165619031090145 
-2.049870390986497 
-4.289466632880037 
0 
-2.593892127617511 
0 
0 
0 
0 
0 
0 
0 
0 
0 
0 
0 
0.1249325703120335 
1.159675652015467 
0 
0 
0 
2.510724986407137 
0 
0.6008661679932990 
0.8258929669420665 
0 
2.896321682792148 
1.102004193818622 
-1.662736386713561 
-0.05302591061150930 
0 
-0.7108098842737368 
3.230958801667592 
0.3248903712103024 
0 
0 
0.3890470746303062 
0.1681127701404136 
-0.1413830916385804 
-1.704928077059768 
0 
0 
0 
-0.02879489279192820 
0 
0.9210322688778732 
1.813816862139170 
2.361557373198009 
2.783877537444969 
0 
0 
0 
0 
0 
0 
0.2234816267332803 
5.316491181621828 
-0.4849774893826769 
0 
0 
0.2948740327670515 
0 
1.376865615060205 
0 
0 
0 
0 
0 
-3.437527993829147 
0 
0 
-0.2115177117926572 
0 
0 
1.826488856295440 
0 
0 
0.2217660061910484 
-2.440468693360849 
0.1081329119984828 
1.275399311040715 
-4.710566880340091 
0 
0 
-1.944767711983127 
2.901105925677487 
0 
0 
1.388146928830376 
0 
0.007033039302623473 
0 
0 
0 
0 
0 
0 
-2.544675281373565 
0.3253962557144077 
0.6276758263504352 
0 
1.575301383123896 
0 
0 
0 
0 
0 
0 
0 
0 
0 
0 
-0.05414640645145713 
0 
0 
-0.9036675034818082 
0 
0.4015336409502539 
0 
0.9582236681530939 
0 
-1.054684661827269 
0 
-1.293365706805591 
0 
0 
0 
0.9488261092862420 
2.129465476709947 
0 
0 
-0.1597191815431822 
-1.675585721078396 
0.8410156459677550 
1.811408826069547 
0 
0 
0 
-0.9836412164768231 
0 
0 
1.233252940514379 
0 
0.9194322580276013 
0 
0 
-1.164299446153041 
6.355008598657607 
0 
-0.5151131588697360 
0 
0 
0 
0 
0.4130864737418171 
-1.333863371180164 
0 
0 
0 
0 
2.945289899146612 
0 
0 
0 
0 
0 
0.9741693926866570 
0 
0 
0 
0 
0.6299376498923581 
0 
0 
1.813492738399974 
2.327783595828904 
0 
0 
0 
0 
0 
0 
0 
-1.764490114346474 
0 
0 
0 
0 
0 
0 
0.5227902822921653 
7.855033718305739 
0 
2.161170104009074 
2.047652932193228 
1.477753740244111 
-0.6872221246873994 
0 
0 
0.4659032883313576 
0 
-2.000271095351595 
0 
0 
0 
-0.9230158155400134 
-0.3066217910893671 
-0.7835573905232758 
-0.2179339051529077 
-1.999780976566186 
0 
1.138904707787208 
-1.456121216410370 
0.9130444193084103 
0.08482490644011256 
-8.552255376287310 
0 
0 
0 
0 
0 
-0.3885972865081864 
0 
-3.140989193625420 
0 
-1.544173566456823 
0.3418069122172662 
-0.09245667681310893 
3.124115250082934 
0 
3.222795696746490 
0.3045770627147889 
0 
-0.2037448052150420 
4.084996519540972 
1.575156001058712 
0 
-0.1447851949689032 
-4.286810703403801 
0 
0 
-0.03873349805308368 
-1.045620370951467 
0 
0 
-10.93795502198627 
-3.377995162228575 
-0.3570455453869859 
-0.1450889083147667 
0 
-1.507883876538973 
-1.105184755322452 
0.1803103250123030 
-0.6738637580617180 
-0.3757128524743574 
0 
2.362673809817458 
0 
0.3841550677035452 
-1.117896859435706 
0 
-0.2258960533733933 
-1.557514469410533 
0 
0 
3.157915256401210 
0 
-0.8763170428226851 
0 
0.4941736154247536 
0 
0 
0 
0.5188173062627941 
-0.8100554024575037 
5.776153097545082 
0 
4.415924124781504 
0 
0.09645258679700108 
-0.4199170036014149 
-0.1958877405508699 
0 
0 
-0.5799945252319988 
0 
0 
0 
5.224701947299626 
0 
0 
0.8965966375575901 
0 
0 
-2.024761444740685 
9.835179939195179 
3.589821182584676 
-1.125636817597863 
0.1020964054779209 
-0.6859521835749893 
0 
0 
-0.3913791337950548 
-2.730161194567807 
-0.1410513062642021 
0 
0 
-0.6980685504347466 
0 
0.07497306516833440 
0 
-1.057505273857929 
0 
0.3266789049029136 
4.872717674962313 
0 
0 
0.5142964430537831 
-1.696671049011814 
0 
3.285718630505734 
-2.052396394409414 
0 
0 
-1.711805435361136 
0 
-7.394917369952086 
-0.3764641664236877 
0 
-4.839883376113495 
0 
0 
0 
1.383657646967319 
1.170799204511286 
0.3588687796471602 
0 
0 
-1.700320268310129 
0 
0 
0 
-0.7030415049520097 
-0.2917292418494570 
0 
1.603234400648316 
-2.792297667994970 
5.385094814588446 
0 
0 
0 
0 
0 
0 
0.4632171749300859 
-1.897591642006674 
0 
-2.941823597272573 
0 
-1.608122080707688 
0 
0 
0 
0 
0 
0 
1.890923948274088 
-0.04778560144808752 
0 
0 
0 
-2.568923398258961 
1.657524360980794 
0 
-1.475573205526725 
4.583511387832011 
0 
0 
0 
-0.1998059258447573 
7.093879596157207 
1.154861409527606 
0 
0.004794796714307662 
0 
-0.05914302268711047 
1.086612904411950 
-0.6790966393573998 
-3.763711877925278 
0 
-3.045694062353868 
0 
-1.714609766870784 
0 
-6.455505779645892 
0 
0 
0 
-1.095804365711932 
-0.4482691948375759 
0 
0 
-0.6072323999893052 
-6.347555633283971 
-4.354961521537950 
-0.3010522005483372 
4.492834743983849 
0 
2.423385101589445 
1.779258293212680 
-3.382465586256162 
-0.6406144409807649 
0 
0 
0 
-1.666345395370598 
0 
0 
0 
2.451267614814559 
2.720457955626401 
0 
0 
0 
0 
0.3096836511880776 
-2.060820286521868 
0 
-1.368417818531908 
0 
-0.6843125488599878 
0.9224289017098780 
0 
3.916774440419907 
0 
0 
0 
5.717791587078530 
0 
0 
0 
-1.341662989692370 
-4.765625387616191 
0 
0 
-1.827949637493831 
0 
0 
-2.001407426572054 
0 
0 
0 
0 
-1.818517771054357 
0 
-0.7361368496810505 
0 
0 
0 
0.4945550284776620 
-0.4301671491631183 
-0.1547129005279941 
0 
0 
2.989920885293280 
0 
0 
0 
0 
0 
0 
0 
0 
4.570415945784978 
0 
0 
0 
-1.370596255560467 
0 
0 
-2.138710858145252 
1.485639510380495 
0 
0 
-2.982380996391667 
0.1778602638589522 
0 
-0.8163598903003179 
0 
0 
0 
-1.696423141037183 
0 
-0.4698283718258953 
0 
0 
-0.7337937094014606 
1.544481285494264 
-2.229357430598396 
-5.190402276714402 
6.348871877938439 
0 
0 
0.8001883565627925 
0 
0 
0 
0 
2.861428168642244 
0 
0 
-0.2012551503744301 
0 
-1.769564387939641 
0.4264567827264802 
0 
0 
2.972303649790760 
0 
0 
0 
1.335128785175657 
-5.603928630609143 
2.121811794592504 
0 
0 
-0.8283608127819915 
-0.6761499677342737 
-0.9958909730213704 
0 
0 
-1.476366000848129 
0 
1.836176079712332 
0.9149349746517609 
0.9793524390834336 
9.014465161355517 
-0.8372136185531853 
0 
0 
0.6604349130073257 
7.139371307606644 
0 
0 
0 
0 
-2.189995546156336 
0 
0.7793434176380203 
0 
0.6564068519921634 
0 
-3.292946464726315 
-0.1248934671892173 
-3.006325291600176 
0 
0 
2.395579827798683 
-1.945385471549929 
0 
0 
-2.483921297750102 
1.487814084650209 
3.563211426973092 
0 
1.259448337953536 
0 
0 
2.863155415996852 
-3.973765245239822 
-1.567404069485313 
0.6476942327512945 
13.47068325377824 
0.5340419767915930 
0 
0 
1.211087551929387 
0.7346616096030798 
0 
0 
0 
0 
1.198168386153884 
0 
0 
0 
0.5190024921498730 
0 
-0.3270832157456936 
0 
0.5455914620473954 
0 
-0.3018484993962801 
2.251376755207119 
0 
0 
0 
0 
0 
1.388323496425395 
0.4247070952524684 
0 
0.6168405873732853 
1.119595392048056 
0 
0 
-3.864456787465595 
-0.3598468798974283 
0 
0 
0 
1.647282492910886 
1.885209295185838 
0 
0 
0 
-3.495714554090188 
-0.3725935880360003 
0.2514722176943937 
0.1983404403086100 
-0.2922456007767113 
0 
0.5382906986224639 
0 
0 
0 
0 
0 
0 
0 
0 
0 
0 
0 
0 
0 
0 
0 
0 
5.920226788223962 
0 
0 
-1.746273502254422 
0 
-0.01332694795679970 
-0.6346844078595877 
0 
0.7122597152467066 
3.003420719351917 
1.537784324140092 
0 
-0.9216825019662755 
-1.448036017659143 
-1.412618004581694 
-2.146699413927601 
-0.6373647801475006 
-3.258225040091127 
-0.9056879875349748 
-0.7520351517016612 
0 
-1.938284453182708 
1.252440793557711 
0 
-0.2796059512232945 
2.869817571257666 
-0.6576557537558375 
0.5952272799548882 
0 
0 
0 
3.480109003861472 
0 
1.045005233221697 
0.2909428111487867 
0 
0 
0 
0 
-0.6312807787538990 
3.199851417720899 
1.112720365842662 
-1.135838217915502 
0.6463754720722646 
-0.9034712361157227 
0 
1.606322498953132 
0 
0 
0 
0 
0 
0.05266681302135090 
4.658868273771050 
-0.3082852527387647 
3.034898128142858 
-0.6879267431467593 
0 
0.6686891730584366 
1.140084350600637 
0 
1.057928871033987 
1.027173905487349 
0.3180202379433261 
1.519997461991839 
0.2987332706055027 
0 
-2.024269741936554 
0 
0 
0 
0.4115063782783215 
0 
-1.128718279618135 
-1.505980543184011 
0 
0 
0.3862753504257279 
0.5685433543158140 
-1.019822292005071 
-1.624823796549846 
-0.2901875742866863 
0 
2.688070435128433 
1.068874058266959 
-2.671278935319847 
0 
-0.5506853643363765 
0 
2.498673432855624 
-2.568313737319681 
0 
0 
0 
0 
0 
2.150605859914106 
1.397152433573543 
0 
0 
0 
0.2034182543413153 
0 
0 
0 
0 
-0.4934990991439556 
0 
-0.02069829715524235 
0.6424800694930599 
-1.705782876269785 
0 
-3.505511497322031 
0 
0 
1.032919344085176 
0 
0 
1.019503441285569 
0 
0 
1.262902970364900 
-0.3337623230339918 
0 
-1.062499279032166 
0 
-0.04833847924732826 
-0.4292988896996493 
4.460091555602928 
0 
0 
0 
0 
0 
0 
0 
0.3993276756025513 
-5.301690482743437 
0.5840401579345327 
0 
0 
-5.589363278354242 
-0.2582179533642595 
0 
0 
0 
-0.3258921876292444 
1.156894978969332 
0 
-1.291880379506837 
0.6007224705350507 
0.1257346791830875 
0 
0 
-1.295242264767734 
-1.259721376673144 
-0.02596960349984825 
-0.1725491611697673 
4.001344988256036 
-4.052638170507553 
0 
-0.7331765528411852 
6.631409676765190 
-0.3622048532445534 
-1.686102537241918 
0 
0.3953869009826581 
0 
0 
0 
0 
0 
0 
0 
2.540964617362474 
0 
0 
1.766009950949049 
0 
-2.134884262074128 
0.2657415540528454 
1.406594528098078 
0 
0 
-1.665030623683121 
0 
0.4840942325813892 
0 
0 
0 
0.8952725432982884 
0.5267698188473977 
-2.588512108231257 
-3.539690691218801 
2.005574603254124 
-0.1674052055198864 
0 
0 
-0.1900050292265904 
2.750924627964679 
-1.536281889925637 
0 
0 
0 
0 
0 
-4.438692153098678 
2.838342375220142 
2.785926181353638 
0 
7.408184814588915 
0 
0 
-0.8229860899337085 
-0.5481569331913534 
2.113330906586919 
0 
2.964834641605035 
-0.5223847761737406 
0 
0 
-1.601269440546881 
-1.399083919583068 
0 
0.2749790481915695 
0.2787255396405797 
0 
0 
1.509496149065221 
0.4790757164483477 
0 
0 
0 
0 
-1.822184052442598 
0.6498732085117026 
0 
0.9726112422603654 
0 
-0.7231472728640767 
0 
4.574650385850624 
-2.545680744902076 
0.1095445245864442 
0 
0 
-1.358192653177301 
0 
-0.2644076185440127 
0 
1.498771437373374 
0.02383370159190656 
-1.123351241427273 
0 
0 
0.5170491945666797 
3.467252728273680 
0 
0 
-2.972800825582974 
0 
-2.608398238453617 
0 
2.301096855665262 
0 
0 
0 
2.217819959895299 
0 
0 
0 
0 
0 
0 
0 
5.499425358317776 
0 
4.386207503890315 
-1.404765656251052 
2.200000962707860 
0 
0 
2.595095815364865 
0.5389488348788183 
5.003937774480046 
1.531909081013363 
0.3037321975381870 
0 
-2.121220930303696 
0 
0 
0 
-2.450564139657317 
0 
0 
0 
4.887577593946569 
-2.021145700531465 
0.6475970017524282 
0 
4.766323998302171 
2.121656846787334 
-2.065902202859451 
2.296935610846647 
0 
1.456791563104402 
1.201305979766338 
-5.903788871784032 
-2.004043854623354 
-3.570780138987850 
0 
0 
0 
0 
1.349083666947430 
0 
0 
0.9165286881306680 
1.252281861122900 
6.558959419403980 
0 
0 
0 
0 
0 
-2.139205383754319 
0 
0 
-0.08398862849792388 
-0.1729889107555678 
0 
-3.578884962979220 
0 
0.1043823645606504 
0 
0 
0 
0 
0 
-4.245232582569692 
0 
-1.400405098506476 
-4.404908328348962 
-1.585908439869571 
-1.131379219940902 
0 
-2.274017665680128 
1.089830015492753 
0.1167467092520819 
-7.844195659849766 
1.183501176260636 
0 
-1.870325881672544 
0.2806389648817943 
0 
0 
0 
1.040535753336580 
-2.902579285769486 
0 
0 
-3.293037693380636 
0 
-0.07126652451400461 
0 
0 
3.361083452187235 
-3.341220417848002 
0 
7.589330968453458 
0.2167364626459465 
0 
0 
-1.633098478581007 
0 
2.635352079970998 
0.03125581186044441 
0 
0 
-1.450214949544013 
0 
0 
0.1397097496885107 
-0.2648658056504429 
0 
0 
0 
0 
0 
0 
0 
-0.009890419072695056 
0 
0.7917280534000226 
0 
0 
0 
-2.248898918706461 
-1.148660485381527 
0.6531510973989871 
0 
-0.8544357857558008 
3.392109726759907 
0 
0 
-1.167459658337220 
-0.7820277107092444 
2.170183401649270 
0 
0 
0 
0 
-1.869825092615793 
-1.722480098007657 
-0.8699572486103115 
2.519968559223591 
-0.9401490761934463 
0.9747658975510626 
0.1580763742405810 
0.9590784787755577 
0 
1.869809506933712 
0 
5.995184186553018 
0.1715729517266374 
0 
0 
0.3913665393216165 
0 
1.005736735668771 
1.919722552863967 
0.8380440006134036 
-0.1484401668143252 
-1.836280716833209 
1.009710668387649 
0 
1.290463769343217 
0.8867139098958826 
0 
0 
0.07241403160994775 
0 
-2.056906459682816 
0.7744527194484794 
-4.339917500634871 
-0.7232974551386792 
-0.01844575475988159 
6.588377580127638 
0.5115850132883546 
-0.6889431833524179 
0 
0 
0 
2.819979981894798 
0.1195622287206979 
3.537781879966051 
0 
-0.3111324189873934 
0 
0 
1.186478029165281 
0 
0 
3.410409925414087 
-2.733307614177195 
2.941221557037961 
0 
2.169951527826109 
1.135593373652533 
0 
0 
2.087297783409896 
0 
0 
-0.3686203474083944 
-0.8914613349026357 
-2.191339277968555 
3.344205780769983 
0 
0 
-2.178588302927766 
0 
0 
0 
0 
-1.781518941839477 
0 
0 
-0.9432348605705034 
-0.3140984074308000 
1.760161946198136 
0 
0 
-0.5313818691057683 
2.283844124827347 
0 
0 
0 
0 
0 
0 
1.956836254358011 
0 
1.492340964832565 
0 
-0.8071512941308959 
0 
-1.537931738389238 
0 
0 
0 
0 
1.193985416407356 
0 
0 
2.595563845654239 
0 
0 
0 
0 
0 
-0.7593848998838204 
0.3441087379911622 
0 
-0.3150669868237835 
-0.2166231934602214 
0 
0 
0.8355302811392898 
0 
0 
1.842155750832085 
0 
1.456542528386052 
-1.159093981055967 
0 
-3.776489151885363 
0 
1.441144125953397 
2.571912443754824 
2.087732533740097 
-1.568924962261789 
-5.479599509107409 
-1.608735037201670 
-0.4546858494897401 
-0.3243032269169892 
-0.5319409151970175 
-8.371265151946070 
0 
1.464181206574545 
0.7731025486190038 
0 
-0.8228967275796804 
-3.572968305257018 
-4.784348794223825 
7.614140186029392 
3.333402330449561 
0 
4.208056643474084 
-0.9601490351962519 
0.6092576772528613 
3.076937614045172 
1.331799573823445 
-0.6323074915982262 
0 
0 
1.346183333555122 
-0.3938868030396184 
2.534350331029776 
0 
1.799455622942030 
0 
3.584777733040768 
0 
-1.458483756450413 
0.4645272802773807 
0 
0 
0 
-1.465651697545180 
-1.430197204137672 
-0.5952792756784894 
1.491206342438042 
0.04790383806077539 
-0.2026524169062867 
0 
-0.5158465881226237 
0 
0.8537648285210102 
0 
0 
0 
5.785883578950915 
0 
1.365788847663633 
0.2984043699174369 
1.081739792381868 
0 
-0.5442974823776837 
0 
0 
-0.1577323200631515 
0 
0 
-4.091305179023579 
9.964209673783930 
0 
0 
-3.809883056001671 
9.392344323772877 
0 
0 
3.234064176338100 
0 
0 
0 
0 
0.1859660219824542 
1.097213103723044 
-0.6954670372814835 
-0.6738124371609466 
0 
0.3549549227385784 
0 
-0.8966635460205005 
4.525264102686784 
0 
0.7012688527799246 
0.08906364516738940 
0 
0 
0.5098587512891655 
0 
8.566899110438670 
1.785622367190351 
5.430530577183568 
0 
0 
2.331149890774636 
0 
0 
0 
0 
4.834155260123197 
0.2400382291984136 
0 
-0.6052212718714169 
0 
0 
0.1675484260399549 
0 
-7.476982769881300 
0.3450343978952415 
-0.5686666234282695 
0 
-0.6965712884011759 
0.6098201927757421 
-0.3471347662631076 
-0.4929880823849734 
0 
0.3698214691784897 
-1.695390038315723 
0 
-0.5832885322475349 
0 
0 
0 
0.03418627720412686 
0 
1.191387113451289 
1.261320253256635 
0 
0 
0 
12.19662887533080 
0 
0 
0.7738048119118820 
0.6034972966946270 
-0.0009069493009936369 
-0.2311994846568634 
2.618085489802064 
-1.305604621164205 
-1.187048979925141 
0 
0 
3.866767910393010 
0 
0 
-0.1828322659866485 
-1.756942929384227 
0 
0 
0 
0 
5.806318475417090 
0 
-0.4109773714375172 
0 
0 
-0.5379896604978850 
-3.999787629958177 
-4.209326632059245 
0.6385082627914730 
-1.432628656702404 
-1.571255077515202 
1.815925418881358 
-0.1577054354076217 
0 
0 
-0.04151481556676676 
1.779435961352674 
2.568049945254844 
0 
0 
0.7190634483174322 
0 
-0.4919374634825079 
0 
1.508232617605572 
2.527136162633433 
0.4591630748707479 
0.4006726907967765 
6.056198309497338 
0 
-1.690467917362526 
0 
-1.297300723223888 
0 
0 
-0.2198014017201408 
0 
0 
0 
-0.3229550938924479 
0 
0 
0 
3.001974281530955 
0.5348631176301986 
1.026924136704700 
0.3555023244107139 
0.6639840280450358 
0 
0 
0.6250716128486785 
0 
-0.005288307501934764 
0 
0 
0 
-0.6684863356824820 
0 
0 
0 
0 
-1.307795492495176 
6.392455069107130 
2.655639162498574 
0 
0 
0 
0 
0.05092124863680697 
0 
0.6836429267269484 
0 
-0.3022537118473235 
0 
-0.3224256502382527 
-0.9360029696587404 
0 
-2.457245448364219 
-17.50827200712449 
-1.538294550808724 
-0.08511447340090106 
0 
0.08558540321684727 
-2.183989684111156 
1.573483229914310 
0 
-0.4976827132007042 
0.4755667885771325 
-1.284558419449631 
0 
0 
0 
1.301807462992889 
-0.9473789246214926 
0.1139886687685019 
0.03019533090947596 
0 
0.2301274281211074 
1.012852176268316 
0 
-0.3835363252139264 
0 
0 
-0.6412360201834080 
0 
1.103871647697427 
1.339768987413864 
-0.007347111280315538 
0 
-0.2456513975995756 
-0.1740087449879948 
-1.281693611004863 
-0.4362777534372815 
-0.9145758883212218 
0 
5.406383146120261 
-0.1477873617697765 
0 
0 
0 
1.684373107160567 
0 
1.228856436104465 
0 
-5.482350916568603 
-1.842821051055184 
0 
0 
0.7251306484952318 
-0.5452563544419732 
-3.118615181881690 
0 
-0.6349979729048836 
0 
0 
-0.5649128807808432 
0.1415803905829597 
-0.6677947873125643 
0.9195582321964264 
0 
0 
-0.3346420556398706 
0 
0.2864116355226318 
0.6452131530202053 
0 
0 
0 
0 
-0.7977593968417170 
1.034039302065650 
0.1894906129178878 
2.103355070436181 
-2.346583149969398 
0 
4.194979721552737 
-2.492133155354034 
4.032128820889869 
0.7520478970028796 
2.004453476880451 
0.6626724979581033 
0 
-2.836751813010469 
0 
0 
0 
0 
0 
3.421636097098341 
6.732583218959752 
-0.1752040868378593 
-5.391492158516488 
2.417647509419710 
-0.3173872676579121 
1.801618473730248 
0 
0 
-0.02964918003602812 
0 
0 
0 
0.2352790167293521 
0.5313093209417770 
0 
0 
-0.07190118757844476 
-0.7666388510662984 
0 
0 
0 
0.6044224077598692 
0.9360994730162998 
-8.727500626939640 
2.333309259640036 
0 
1.087943892986860 
0.6463829037613924 
0 
0.5787634518326030 
0 
4.355471371452470 
0 
-0.3972636587338310 
0 
-1.819527197039037 
0 
0 
1.466631570578391 
0 
0 
0 
-1.601361604710293 
0 
-0.6857944996382873 
0.9108019205318076 
2.966233195655487 
0 
0 
-5.320463857299222 
1.167610788314968 
0 
-5.471447361081992 
-0.1829937153175320 
-0.2048160055288668 
-0.1773075046920130 
-3.785700653660125 
-0.04411683822122070 
0.4358683541073807 
3.060197993706501 
0 
0 
0 
0.9432118475320957 
0.4265635398326943 
0 
-1.011683262922463 
1.730242983993175 
0 
0 
0 
2.582580432070983 
0 
-11.91510782708692 
0 
-1.544634173411547 
-0.1632491085515934 
5.143032208662296 
0 
0 
0 
5.137196538060038 
0 
0 
0 
-12.76199969345249 
0 
0 
0 
0 
0 
1.665658336258082 
-0.8030167892242228 
0 
5.318196247998792 
-0.08939013063155422 
0 
0 
0 
0 
6.504501564740568 
0.6048970370245217 
0.4002912622300194 
2.575978695302166 
-0.5581309729455646 
0 
0 
0.8605538575962803 
0 
0.4414295503231031 
0 
0 
0 
0 
0 
0 
0 
1.465795235742392 
0.5655616819724119 
5.050556972500425 
0 
0 
0 
0 
0 
0 
0 
0 
2.340922286644738 
0 
0 
0 
0 
0 
2.793547059241997 
0 
0 
0 
0 
0 
0.6876989228325923 
-0.3031462053145541 
-1.186335504881905 
0 
0 
0.2083842055597325 
-0.5646861712621909 
-0.5480618600120417 
0.5013962977612603 
3.610277998870101 
-1.476522620686225 
0 
0.07980370626447786 
4.803290470439126 
-0.6225450446502201 
0.6419159896608960 
3.609779875981645 
0 
0 
1.903348845088609 
0 
-0.7560896583301091 
0.5698101292037370 
0.2728798165700629 
-0.3332615981411732 
2.215798713604781 
2.658666786739987 
1.004903292399150 
0 
-1.106111655781765 
-0.2970872569757826 
0 
0 
1.490547935290144 
0 
0 
-3.427614209552448 
-2.013711671791343 
0.4953334348140310 
0 
-2.310101230821474 
0 
0 
0 
0.8824796489701865 
1.192040595169940 
0 
2.435157168061309 
0 
-3.668832260578549 
0 
0 
-0.8439649432748604 
2.620024108685641 
-0.8851052588454671 
-0.4558551566239163 
0 
0 
0.4975125540598823 
0 
0.1407788754200274 
-1.466365569798737 
0.5013142285694894 
-4.874156194476806 
0 
3.154555861135641 
0.9366898303800243 
0 
0 
-1.141243266498865 
0 
0 
0 
0 
-0.5081586200559438 
0.01235513832394930 
0 
0.8675905282154324 
0 
0 
0 
0 
-0.8376851868546721 
0 
0 
0.1239371947662523 
0 
0 
0.6988203577230180 
-1.312536048859347 
0 
0.04337293759912558 
8.264672903484394 
2.402208612497371 
-2.509987123233714 
-1.179171616316172 
1.631710138181641 
0 
0 
-5.437946424535635 
0.8234139571436024 
0 
-0.5482469234440548 
-0.5922956588665164 
3.973176124187503 
0 
0 
0 
0 
0 
0 
0 
1.879358538114367 
0 
0 
0 
0.04550832442262520 
-0.9044041853231366 
-3.221144703460868 
0 
0 
0 
0 
0.5824319666902598 
4.782194545996475 
-1.165550288294452 
0 
0 
1.317005738307320 
0 
-0.7196395376381747 
0.1450908395276829 
1.203774707742078 
0 
0.9044907612646523 
0.4690162422844932 
0 
1.704342166642882 
0 
0 
-0.8152501382785139 
-1.892146222416633 
0 
0 
1.970094793332640 
0.08295658258446936 
0 
0 
-7.750445904583348 
0.4893169605508873 
0.01528629264691084 
0 
0 
0.9041573499300467 
0 
-2.190109833156579 
0.8355626282425399 
2.236111209405924 
0.4185203072041848 
0 
1.540663153153381 
-4.299344408792640 
-4.860295207047029 
-3.176309626231730 
0 
0 
0 
3.834625681379737 
0 
-0.7788941772761291 
3.867575908097787 
0.8756932807572693 
0 
0 
0 
0 
1.301028455141650 
1.664150534527652 
-1.095711364035436 
0 
-0.01704614335161678 
0 
0 
0.7567448174053459 
0 
0.3884371742399764 
0 
0 
-3.631906678512411 
1.620708595182105 
0.5280222731298332 
-0.6678461262458986 
0 
-1.159271140525346 
0.6516201798471152 
0 
0 
0 
0 
0 
-1.231481294735469 
-0.6316807910639964 
-0.2634263007870971 
0 
0 
0 
0.1514446044869643 
0 
3.189520244473960 
0 
0 
-2.803316785997915 
1.090216406083352 
0.3574054465888401 
0 
7.084028290775873 
0 
-2.837389345607606 
0 
-2.886559686676412 
-5.601112175710805 
0 
3.501704954279824 
0 
0 
0.4956038167702582 
0 
-2.349446578612145 
1.657046647844480 
1.422751448065814 
1.840723076513271 
0 
4.917832070120945 
3.870101958112421 
2.861391916912050 
1.411343300315785 
-0.6859551582603348 
0 
1.772604052866813 
0 
0 
0 
0.8266444092177958 
0 
1.598993793932516 
0 
0 
2.114374692863207 
0.7246227988538944 
0 
1.719324449325497 
0 
0 
2.282907704355244 
4.612196857277261 
0 
12.41294840718682 
0 
-0.2571783692257355 
0 
0.4816126902222703 
0 
0.5338701882155903 
0.02801825233581012 
0 
0 
0 
0.9720690560537428 
1.434115001822479 
0 
0 
0 
0 
0.4104953673286005 
0 
5.683391551853600 
0 
0 
0 
0.4550813392049382 
0 
-0.5280912547341006 
3.331360541927914 
0.2922061753591312 
1.777983719383431 
0 
0 
1.391601626287127 
1.967259311415754 
0 
0 
0.5698110887695239 
0 
-1.186096961135495 
-0.8863449330892557 
0 
4.327099826186185 
1.032028344039661 
0 
4.132215759471381 
0 
0 
0 
0.1059099839113791 
0 
1.176290593466809 
0.3626873767808395 
2.203475967565149 
-2.258282420466691 
0.9287811372835554 
0 
-4.557890233772205 
2.134828217598805 
-2.016815935999480 
-0.3431317195172866 
0 
0 
-0.2107511031985143 
-1.509510680034206 
0 
0 
4.473340903142124 
0 
0.8392549114466268 
14.06893940830589 
0 
0 
-1.758303111883360 
0.07679654875196643 
0.02550737548434437 
-5.279022808515213 
-1.281144268672340 
0 
-0.5137470241293574 
0 
3.232324875519758 
0.3676009365509839 
-2.726967642255581 
0 
-1.732316541559946 
0 
0 
0.2994308150033402 
0 
0 
0 
1.815803817289011 
0 
-0.1951189904304548 
-0.6418812516772323 
0 
0.1927402869240231 
2.426231392326922 
1.494038812634678 
-0.7612226771223903 
1.259290381468366 
0 
1.132008185769862 
-0.5461647825337541 
0 
-1.243855949986375 
3.380334391205741 
0 
0 
10.00000000000000 
-5.454878270462446 
-2.089852990896310 
0 
0.1255955572497661 
0 
-3.636009452984069 
0 
0 
-3.072360517066225 
0 
0 
0 
-1.269251636736950 
0.3633527051164374 
2.825915126977289 
0 
0 
0 
0 
-0.3554828597847327 
-0.7374424714089146 
-1.165985488641324 
0 
0 
-4.499236617922928 
0 
0 
0.1907012126002901 
0 
0 
1.521057791322329 
0 
0 
0 
0.8186749233874082 
-1.834455933633870 
4.792732217888277 
0.2876667100053789 
2.121039614065523 
0 
3.707492333196057 
0 
0 
0 
0.1202806745689418 
0 
0 
0 
0 
0 
-2.316759760474438 
0 
0.2291698670471624 
2.717680977959600 
0 
1.840180952004318 
2.531665725853909 
0 
0 
0 
0.9876331217155617 
0 
0 
0 
0 
-1.364705871214575 
0.7399287132182775 
0 
0 
0 
-1.464549844864423 
0 
0.6997167782541602 
0 
0 
2.416226129370136 
0 
0 
0 
0 
0 
0 
0 
0 
-1.492690749781438 
0.7953702706786226 
0 
2.006861161196944 
1.177099928079737 
0 
1.200263312501833 
-0.3327596293758817 
2.066007773347962 
0 
-1.000230820601176 
0 
0 
0 
0 
8.711689298340765 
0 
0 
1.444141110989333 
0 
-3.372631500977756 
0.5665180877322077 
0 
0 
-2.298385867460497 
0 
0.5062250244314308 
4.040389320072288 
0 
-3.506869806590790 
3.521691172074001 
-0.3440920664843021 
0.1610911519743271 
0 
-2.238834046367313 
0 
0 
-1.891329671153438 
0 
4.713896058257561 
0 
1.445668544447407 
0 
0 
8.946748233929360 
0 
0.05771797026444570 
0 
0 
0 
1.864838148198886 
-2.188682810690671 
-0.3530858834606801 
0 
0 
0 
4.305989444092914 
2.147597230682489 
-1.065304300607415 
0 
0 
0 
2.483981756837800 
0 
0 
0.1128091505362197 
6.047471166813504 
0 
0 
0 
-0.3944413135379746 
0 
1.375125521006373 
0 
4.267583115825916 
0 
0 
-0.4241847937154932 
0 
2.946459889428668 
-0.7674672924599255 
1.129997374734589 
0 
-2.182050519696567 
1.361661940432091 
1.324373360915413 
0 
-7.910663819536664 
0 
4.436601995044199 
-0.6847201266332825 
0 
0.03677923499465485 
-2.347434165561882 
0 
0 
-2.482870549284115 
-2.466620233068317 
0 
0 
0 
-0.4861141568931588 
0 
0 
0 
0 
2.067219750972707 
0 
-1.892137705148584 
0 
0 
0 
1.866858678469155 
0 
0 
0 
0 
1.942049136221753 
0 
-0.3669107170278840 
-0.9178761723316609 
0.8313362343845716 
1.488235646912202 
0 
0 
-0.02275464926598770 
0 
0 
-1.239194894089620 
0 
0 
3.482152319488947 
0 
1.343121670580447 
0.2001810547432448 
0 
0 
2.794660270274126 
0 
0 
1.996933485988878 
-1.992341667780945 
0 
12.05722287959376 
11.92717642010970 
0.7173164025056679 
0 
-0.8387717463100324 
0 
0 
0 
-0.9379682071501341 
0 
0 
-2.567275850306536 
0 
-2.630465719357107 
-0.7147629465558282 
0 
0.4852187868055411 
0 
3.142373762059069 
0.2551931471602829 
-3.010137893560067 
3.046255850921356 
0 
-1.631318693662158 
-1.262684332377498 
0 
0 
0 
0 
0 
0 
0 
1.910107086025509 
0 
0.09317523367478943 
0 
0 
-0.7987778752439093 
1.090752909638321 
0 
0 
0 
0.6333917204225684 
1.138513688342234 
0 
-6.132203740955958 
-1.612823010925199 
-1.398648825713920 
0 
0 
0 
0 
1.563698983514632 
-0.9517469320966349 
-2.928369844809543 
0 
0 
0 
-0.2122343826083724 
0 
1.693563984129672 
-9.025923908498730 
4.824976897108225 
-0.07549781147108726 
0 
0.2400221417499392 
3.989881726115301 
0 
0 
0 
0 
0 
0 
3.289839844292815 
0.5776381955868715 
-2.223915620595041 
0 
0 
-1.228388977099141 
0 
0 
0 
1.378207148106486 
0.8667735190347688 
-1.432316654168957 
0 
4.193980729259062 
0 
0 
-0.2728514769670773 
-3.153225038915657 
0 
0.1663462863215658 
4.415350640276205 
-3.940818409312251 
0 
0 
0 
0 
0 
0 
-0.08062465496731647 
-2.200972494955347 
0 
-0.5576849642239305 
0 
0.01776706207616213 
0 
0.01089532430477669 
2.934654953994401 
0 
3.535101140305032 
0 
-0.4974080132606045 
0.7004538619542143 
-0.7575481879388207 
0.06189658646044516 
1.887085730809428 
0 
-2.061357933312611 
-0.5246125410983687 
0.2588675144111294 
0 
0 
0.4268743489756577 
-1.010728386820674 
-0.4556092255483906 
-3.363460463270741 
0 
0 
-0.5995578506247162 
0 
-1.798998243260385 
0 
1.761716483087132 
2.503595287516484 
1.235956385159740 
0.8770528193105023 
-1.181799782138274 
0 
0 
-6.312588577463326 
-0.6947626459127587 
0.1857175846123780 
0.1058219270961838 
0 
-7.085473419164154 
0 
0 
0 
0.4337386298135787 
0 
0 
0 
0 
0 
-0.5180729356353580 
0 
0 
-2.828388258183423 
-0.7594733432488415 
2.637879028714364 
1.152228754530920 
-1.261120126634348 
3.492512226329405 
0 
0 
0 
0 
0 
0 
1.526650823426288 
0 
4.820361303706156 
0.3023080918904377 
2.551640267737642 
0 
0 
0 
1.758082906300205 
0 
-1.895117643674980 
-0.1582809072404090 
0 
0.06542241905082120 
-1.061250693175579 
-0.3301512984912363 
-3.593078231845588 
0 
3.596278888917012 
0 
-0.1246053307616997 
-0.6309164829621763 
-0.9820677737851617 
0 
-0.1650294683624894 
0 
-3.036924280245940 
-2.555144348189166 
0.1091816225801932 
-0.1562630120788123 
0 
0 
-2.591175272588778 
0 
0 
0 
0 
3.043535805725059 
0 
-0.8496774811035176 
1.446004530034930 
-0.2852402089138122 
1.079230424914513 
0.2911103002630552 
0 
5.289539264379437 
0.4019087671820611 
0 
0 
0 
3.375784944987410 
0 
-2.008333459649225 
-1.359921219826809 
-2.797857053102951 
-0.3206657448800530 
0 
-3.472786084721854 
0.8089187030518876 
1.011957235725572 
10.06899499124019 
-0.5691047943040973 
0 
-0.8349885613774116 
0 
-0.7958325476462660 
2.846747232258895 
7.819294944573605 
0 
0 
-0.4383449898280737 
0 
0 
-4.170891164492811 
0 
2.290248587415764 
-2.424159579260133 
0 
-0.8057066162012510 
0 
0 
8.925555443376423 
0 
0 
3.063296790546885 
0 
0.6070191471183521 
0 
0 
0.4371546236175143 
0.04339015940477342 
1.874210591225639 
0.07626441265469563 
0 
-0.9081979297332039 
-1.336508411178747 
0 
1.424826672632812 
0 
-2.852825989561902 
0 
0 
0 
3.963244552190792 
-0.6843301562950626 
1.529895878387715 
-3.026293783445051 
1.676790681320212 
3.671855171852720 
5.127797176585754 
0 
0.5258289216070581 
0 
0.3032186332404074 
0 
-2.940915453763630 
0 
1.761020517289356 
0 
0 
-0.2393837495978932 
-2.702663907111872 
2.621687478308853 
0 
1.350552390048765 
-3.162297745289123 
-5.223090955442702 
2.336361738108399 
-1.153517857142114 
2.893844023795597 
4.378044319269334 
0 
-0.3468863798249160 
0 
1.144415021129869 
0 
0.02237832619950070 
-1.165612815995231 
0 
0.1277297763485953 
1.402721006001249 
0 
0 
0 
0 
0 
0 
2.042281692558265 
4.115890863013759 
2.642838916814362 
0 
0 
0 
0 
0 
0.8723788639262897 
0 
-0.7197162130160997 
0 
0 
-1.460901555594577 
0 
-0.6976947786339660 
-1.246976772107454 
-3.056662802426073 
-1.424361487503443 
0.8466355209115941 
0 
2.382470508815965 
0 
-6.354648871403560 
-2.533791496819897 
0.9460993019255524 
-1.986676969486515 
0 
0 
0 
0 
0 
2.093893032745950 
0 
0 
-0.3827996300074547 
0 
0 
0 
-4.461284097544385 
0 
0.6967157452647150 
0 
0 
-0.1725637557288878 
0 
0 
0 
0 
-0.2236782132596268 
0 
0 
0 
0 
0 
0 
0 
0 
0 
0 
-0.7895523879587274 
0.1522151973632587 
-1.904010074621528 
0 
0.6667582383990907 
0 
0 
0 
0 
-3.031109783143781 
0.007210217639002231 
0 
3.726409941618684 
0 
1.739737086294711 
0 
0 
0 
0 
0 
0 
0 
0 
0 
0 
1.098487848318802 
0 
0 
-4.172892721960102 
0 
4.348350051226341 
-0.3721385517801666 
0.1837066884973022 
0 
-0.3373756628439487 
-1.055560262307303 
0 
0 
0 
0 
0 
0 
2.978638111845930 
-0.5751621588055793 
0.9920737742734513 
0 
0 
0.9738014587914800 
2.183487576186408 
0 
0.8132677379280304 
0.6161931059898211 
0 
0 
-0.5032494369058118 
0 
-1.363043741740472 
0 
0 
0 
0 
4.299578950717390 
0 
0 
0 
0 
0 
9.129549819704142 
0 
1.517101508428552 
2.241235194865087 
0 
0 
0 
0 
-0.1320562875266529 
0 
1.855324720533608 
6.406902581609845 
0 
-4.022781540014160 
0 
0 
0.5594386980047340 
0 
0.02573031155377681 
0 
0.004924008976714078 
0 
0 
0 
0 
0 
0 
-2.295281344109480 
0 
-0.07867353264272542 
0 
0 
-1.165274391128921 
0 
-0.8398958664230108 
-1.867403714930809 
0 
0 
0 
0.6741609013990759 
0 
0 
0 
0 
0 
1.400286058130054 
0 
0 
0 
0 
0.6912666675677747 
6.777677339815041 
-0.2868344443261593 
-1.970016727610303 
0 
0 
0 
-0.4679887078170700 
2.838503971333289 
1.152974669260674 
0.3795890285933275 
1.680863281628623 
0 
0 
0 
0 
2.553128054258339 
0 
1.254345384691652 
0.3962179697706607 
0 
0 
0 
0 
0 
0 
0 
-1.946562003762936 
0 
0 
-1.805527657150658 
-2.007530423431866 
0 
0 
0 
0 
0 
1.914470488684914 
0.4151934119666987 
1.888787104939561 
0.1248244554082284 
2.371282271452674 
0 
0.2643086760695392 
0 
0 
-3.381527102818299 
-0.2664349727172862 
-2.566821242484805 
1.215536273072467 
3.306863265153985 
0 
-0.2584541904379165 
1.086490927701419 
0 
-2.327759887638041 
0 
-0.3943804552524288 
0 
0.9836951335109640 
0 
-1.326254892541418 
1.663549737320793 
0 
0.4359889876366909 
0 
2.199044993711699 
0 
0 
0 
-2.948393185005974 
0 
0 
-1.417973962971968 
0.4908680129646981 
0 
2.845773676777101 
0 
0 
3.972292334261138 
-0.7541208508909374 
0 
0 
-0.4879426315168929 
-2.981211398605696 
1.046151986448894 
0 
-1.063416496405176 
-3.751629230109308 
4.932510974838446 
-0.4026445419191480 
0 
0 
0 
1.185955285712395 
0.1468856496597701 
0 
1.784878455360569 
0 
-6.550121536001324 
6.547431529985866 
0 
3.089237440629140 
-0.6599718355523987 
-0.5289237637099694 
0 
1.231535198642249 
-3.887102298911403 
0 
0 
0 
0 
0 
1.635391032064220 
0 
0 
0 
-0.2695971408212389 
0 
0 
-0.08588903108455889 
0 
0.06164130023576125 
0.1644473872137562 
-1.453015547161398 
2.097091502792865 
0 
0 
0.3383102741718232 
0 
-0.06700403883220164 
0 
1.187431855976338 
-0.7758870618581224 
0 
0 
3.254492723167861 
0 
0 
-1.153406011863099 
0 
0 
-1.021426332841871 
0 
0 
-5.035645297192748 
0 
0 
0 
0 
1.149754711695884 
0 
0 
0 
1.548876760203364 
0.1968886621244537 
0 
-0.04870860100631314 
0 
0 
0 
0 
0 
0 
0 
0.2840173684153340 
2.296729918901358 
-0.6283906762528781 
-3.748667917647658 
0 
9.212324885487952 
0 
0 
0 
0 
0 
0 
0 
5.512155601408399 
0 
0 
2.540354049167338 
0 
0 
0 
0 
0 
-2.109035169421154 
2.383529154607256 
0 
0 
-0.5885907735819715 
0.003611227337413592 
0 
0 
0 
0 
0 
0 
0 
0 
0 
5.654101491343467 
-1.037951039052020 
0 
-0.08778583817007125 
0 
-0.7207712166441962 
0.2882551754504887 
-1.348563615961720 
0 
0 
0.2600919465098281 
0 
0 
2.682142297044350 
0 
0 
0 
0 
2.369039535296230 
3.552677940377980 
0 
0 
0.04889005891464779 
0 
0.6887822342396216 
-0.9864644389780481 
0 
0 
0 
0 
0 
0 
4.357856361781334 
0 
0 
0 
0 
0 
3.913102313785015 
0 
0 
0 
0 
0 
0 
4.817882283238861 
-0.8030669483486017 
-1.283836445402627 
0.7343625377765255 
0 
0 
0 
0 
1.920938417177771 
0 
1.308126481296563 
0 
0 
0.4959003559498535 
0 
0 
0 
-0.1095492795961883 
0.1713423558537724 
-2.448592400396483 
0 
0 
0 
0 
1.672103569687000 
2.493511406174269 
0 
0.5486097586534279 
-0.2649882141592833 
-0.1860387274069369 
0 
0 
0 
0 
0 
1.320509783314391 
-0.4579354321219416 
0 
0 
2.068720834560546 
-0.2130466322391142 
-1.008490360417932 
0 
0 
-1.388109725610682 
0 
0.02271489357390977 
0.5680657435861812 
0 
0.2852965145632020 
-2.371070358234134 
2.290316084902513 
1.805310759932902 
0 
3.477653566162092 
-0.5317879924696569 
0 
0 
2.233106382439630 
0 
3.559086442266215 
0 
2.134354685319890 
0 
0 
0 
0.8691664788639368 
0 
0 
0 
0 
0 
0.6451708451797864 
3.858865688985597 
1.608769769717321 
0 
0 
0 
-0.02029062696449430 
0 
0 
0 
0 
0.7442919042253046 
0 
0 
3.082448917412133 
-0.04590271174907645 
0 
1.180617789636919 
0 
3.242953722382127 
0 
0 
-3.510352062229076 
0 
0 
-4.660507057167231 
0 
-3.591680806552286 
4.600374678547453 
0 
-1.722942978695254 
0.7511910612859911 
0 
0 
0 
0 
0 
0.6196386685863674 
-2.112519204864681 
0 
-0.3215306133395015 
3.999465034767497 
-2.475621458033145 
0 
0 
0 
0 
1.655898073268064 
1.710269138740862 
0 
0 
0 
0 
0 
0 
0 
3.017413181771675 
1.860422656551768 
0 
0 
0 
0 
0 
0 
1.271526173937567 
0 
0 
0.6015365518173317 
0 
0 
0 
1.085462035715719 
0 
0 
-1.215735233079732 
0 
0 
0.1053298199701172 
-0.6580714097291166 
-1.124549451562440 
0 
0 
0.1873202228786700 
0 
0 
0 
0 
0.9081436021535870 
0 
0 
0.6915712585758853 
2.293373249806578 
-2.662809015871786 
0 
-1.777603086587156 
0 
0 
0 
0 
0 
0 
-3.149977383518436 
0 
0 
0.2023922838443309 
0 
0.9977797079071529 
0 
-0.8474397030477818 
0 
0 
0 
0.8540567258850548 
0 
0 
2.525521363627298 
1.736030281308269 
-1.095209070089330 
0 
0 
-0.09358114956455510 
-0.6552915214074713 
1.925657754286780 
0 
0.5598450151535770 
0 
0 
0 
0 
6.441087334147848 
-1.807597460706377 
-1.680574769016896 
0 
2.450400589014337 
0.3573642589476302 
0 
0 
0 
0 
0 
-3.013484749269305 
-0.8904094381290183 
0 
0 
0 
2.842370281515189 
-0.5205069446280330 
0.5472358276899252 
-3.057647128364567 
0 
-0.4938458189718979 
0 
0 
-1.788857293599969 
-0.8712146495033208 
0 
0 
0 
2.265814390390180 
0 
0 
0.8094617039579124 
0 
0 
0 
1.125376605936926 
-1.020103192787878 
0.2928948886528661 
-0.5487912257223764 
0.03385388511227340 
-0.2061807720434630 
2.628896010626067 
0 
0.9401416998663789 
-1.186900999077383 
0 
0 
-0.1941929768373298 
0 
1.118185474823872 
0 
-1.258221208522909 
0 
0 
1.505417543509142 
0.04728181325636185 
0 
-2.289937636596940 
0 
0 
0.5163364959351180 
0 
-1.108533068676920 
-2.411916837282178 
-4.604615895114865 
2.613170722118863 
3.192267392437540 
0.1416794533167545 
-0.1149403485243436 
0 
-0.01619823502821074 
0 
0 
0 
0 
0 
-0.9977744992130568 
-0.02979514800334951 
0 
0 
-2.403974933315171 
0 
0.4687781303444929 
-2.084258543373217 
0 
0 
0.7037408616885630 
-0.05929754791393815 
0 
-5.774192121886117 
-2.492242293055265 
-1.326683341387477 
0 
0 
0.4776542549790517 
-0.3594598891218429 
1.415833126291436 
10.03125581886384 
-1.989115537573746 
-0.1968601433864736 
0.02266871956505900 
4.412613922421999 
1.455970858419953 
0 
0 
-0.8949835129836043 
0.3368132115586269 
1.359243560119958 
0 
0.9864416674027574 
0 
0.1945112866135844 
-1.924220918666675 
0 
3.139960725340342 
-0.04927866931839967 
0.7270584566215725 
-2.406138390404571 
0.04997191476394566 
0 
1.118318202930968 
-0.7303049172218951 
-3.789873686282289 
-0.8184762323281782 
0 
0.1165981807448038 
0 
0 
1.476610687059783 
0.3981737285902638 
1.797174763470061 
0 
-0.6972493761415346 
-0.7330386773626160 
0 
0.5200815956198889 
7.005776849408330 
-0.3218439591473202 
-0.3559212342742081 
0 
0.6891726029762757 
0 
0 
8.227486318329127 
2.664160798011911 
0 
0 
0 
1.447562762475802 
-0.6074123508307001 
0.2820149226676275 
0 
2.579955788924960 
0.2646525039278661 
0 
-1.461034785325646 
1.530014115379118 
-6.542131109289350 
0 
-1.826930733031084 
0 
-1.431653213757950 
0 
0 
0 
0 
0 
0 
0 
2.427900639238819 
0 
-1.159066120579104 
0 
0 
0 
0 
0 
3.441571736133586 
-2.199786015568205 
-1.603582144772292 
0 
0 
0 
0 
2.698636590084546 
1.541448419919233 
3.483081261921950 
0 
-0.09574315235362629 
0 
0.2311590303374378 
0 
0 
0 
6.022606749848598 
0.03085735656535105 
0 
0 
1.635130967383680 
1.504699222932082 
0 
1.174970121114692 
1.744966327408084 
-1.176189578512943 
0 
0 
0 
0.07511419754265258 
0 
0.6138376355984628 
0 
0 
0 
0 
0 
0 
-1.723336652652833 
-0.8209739217806236 
-0.6617212097830345 
0.4905243279148078 
0 
0 
0 
0 
0 
0 
0 
0 
4.799689346432359 
0 
0.7238303582908058 
0 
0 
-0.8190465483910101 
0 
-0.9808865767250357 
0 
0 
0 
0 
1.789620785152197 
0 
0 
-2.501033967085760 
0 
1.489915429680487 
0 
3.237322924584544 
-3.849647568694861 
-1.446059635218961 
0 
0 
0 
-0.01834995461769973 
0 
1.505810771345046 
-4.125232112298295 
0 
0 
0.3106772184462938 
0 
0 
0 
-1.175506485115384 
0 
-3.672939479901702 
0 
0 
0 
0.9071338746707569 
0 
0 
0 
0 
0 
1.323043276872490 
0 
0 
0 
0 
3.670366856403839 
0 
0 
0 
0 
0 
0 
0 
0 
0 
0.8021493807438198 
0 
0 
0 
0 
0 
2.225698285572977 
1.349787985711239 
3.026159823161973 
0.4536889928979662 
0 
-0.5796599802151923 
0 
0 
0 
4.945921635157880 
-2.611408737299664 
0.4569656026606456 
1.235737404963694 
0 
0 
0 
1.276105844125606 
-1.783481594488492 
-3.048904417007707 
0 
-3.132090409149648 
0 
0 
-2.710173763210976 
0.5250652783843197 
0 
2.053332622530002 
1.603827761889381 
0 
0 
0 
0 
0 
0 
0 
0 
0 
0 
0 
0 
0 
0 
0 
0 
0 
0 
0 
0.6580819015983596 
0 
1.234376178091660 
0 
0 
0 
0 
0 
0 
0 
0 
0 
0 
-0.1361205222262197 
0 
0 
0.5800038186566262 
0 
0 
0 
0 
0 
0 
0 
0 
1.198281794056546 
1.500207308804884 
8.272294590205080 
1.905381996442298 
-0.07534740042218135 
0 
1.739128448340592 
-1.506313746216366 
0 
0.8872801347242331 
1.643005667120324 
-0.9180003089210277 
0 
2.895326186183591 
0 
0 
0 
0 
0.7175838862584220 
-0.7753959143838167 
0 
0 
0 
-10.00070987265620 
0 
0 
0 
0 
0 
0 
0 
0 
-3.871388163516097 
1.307251380076798 
0 
4.056381659413196 
0 
0.02501197942466860 
3.353588910154381 
2.968617719648326 
-4.302595753256125 
-1.464992834750055 
3.368092806237894 
0 
0 
-3.960984675330117 
0.1411879024854317 
0 
0 
-0.3806468504460773 
0 
0 
-0.9459395451629924 
0 
1.492513560148759 
-0.4747107732872290 
0 
0 
0 
0 
0 
0 
0 
2.719569997493151 
0 
0.4187149030460377 
0 
2.712052375265714 
1.024306209568099 
0 
0 
0 
1.667886853888750 
0 
0 
0.6142211218112161 
0 
0 
0 
0 
0 
-0.004740140905556578 
0.3911716762710374 
0 
0 
3.226306297163360 
0 
0 
-0.3767646362157429 
0 
0 
0.3406324086744421 
0 
0 
2.404406829679074 
8.167150344622613 
0 
0 
0.6578836952319658 
0 
0 
0 
-0.3899233396871801 
0 
0 
0 
0 
-3.373541165656638 
0.04640288189064293 
0.7070239249919232 
-1.714678761055111 
0 
1.083569744489786 
0.1754119499192148 
0 
0.2438354348196988 
0 
0 
0 
-0.1157202276575204 
0 
0 
0 
-2.428454926070371 
0 
0 
1.453497033611180 
-1.644665592650822 
0 
0.6498040145547511 
0.2235552286237885 
0 
-3.024031632787864 
0 
0 
-1.663929556649562 
0 
0 
-2.484372838429966 
0 
0 
-3.487522909102266 
0 
0 
0 
0 
2.055149634406481 
1.358819255553625 
0 
0 
0.1135005175576121 
0 
0 
4.654522160845731 
-0.3804121889177030 
0 
0 
0 
0 
0 
0 
4.313807084904084 
-2.086397334124288 
0 
0 
0 
0 
1.035910665186519 
0 
0 
0 
-1.993986414467852 
-0.2421789559324443 
-1.174010206245391 
0 
0 
0 
0 
0 
0 
0 
0 
0 
2.978675751960567 
0.9947585370106211 
0 
0 
-0.4831371597193769 
-3.840002456605554 
0 
-0.01210206521510723 
-0.7174425164051633 
0 
1.873147623618880 
0.1935292418064172 
0 
3.560220829942337 
-0.1392757250755369 
0 
-0.6693310051414939 
0 
0 
0 
0.6020634962566025 
0 
0.1713070708017812 
0 
0 
0 
0 
0 
0.9494028161130081 
0 
0 
0.7081506960255446 
0 
0 
0 
0 
1.125281576464558 
-5.320463395864369 
0 
0 
0.5590378339964779 
0 
0 
0 
0 
0 
1.260385355262008 
0 
0 
0 
0 
-0.7615280174279755 
0 
0 
0 
0 
0 
0 
0 
3.812409878672110 
0 
0 
0 
0 
0 
7.939052496120766 
0 
-2.978507056936754 
0 
0 
0 
0 
-1.653665158241295 
0 
-0.5549059369353773 
0 
0 
0 
-0.4789172494160635 
0 
0 
0 
0 
0 
0 
-2.017896445820264 
0 
0 
0 
0 
0 
-0.09605796833737834 
0 
5.045998891830772 
-8.917823126465574 
0 
0 
0 
0 
0.8875618307416562 
0 
4.342000051227373 
8.736310501442250 
0 
0 
-1.039506232268801 
0 
0.4461692069504131 
0 
0 
0 
0 
0.9119645210138834 
3.091927448810138 
1.947497173801910 
-2.431493907152000 
0 
2.153802956864939 
0 
-3.174561124053484 
-0.6309327205710680 
0 
0 
0 
0 
0 
0 
-0.07723257831244701 
0 
0 
0 
0 
0 
0 
-2.912390429633734 
0 
0 
-1.221266081626586 
2.682878435281225 
0 
0 
0 
0 
-0.4160074369377222 
0 
0 
5.223755021395057 
0 
0 
-2.047290453864167 
0 
0 
0 
3.805439462452837 
0 
1.460453043357388 
0 
0 
0 
0 
0 
2.455756998873255 
1.836363429959887 
0 
0 
7.629667771227757 
0 
0 
-2.203468306265511 
0 
1.480822162863868 
0 
0.1653037340902142 
-2.135262414055109 
0 
0 
-1.261465511588275 
0 
0 
0 
0.6734944466336616 
-2.357771593773518 
0 
0.7063812945971707 
0 
0 
0 
0 
3.087248091663533 
0.5453902568275826 
0 
-1.053318256692510 
-2.784510520205690 
-0.5721038553523096 
0 
-3.306640541118019 
8.080797989924552 
0 
2.856255693433051 
-0.7120250879308365 
0 
-2.195910400881080 
0 
-0.9866797078347294 
1.328238155906737 
0.6594372830531864 
0.3881633766289410 
0 
0 
-1.035045046025691 
0.2926854137179445 
0 
0 
0 
-2.835458198100871 
0 
0 
0.8301089526347143 
0 
-0.4220947384480009 
0.7013105972510416 
0 
0.4848439602441736 
0 
0 
0 
1.252035921943429 
0 
0 
0 
-0.5162853706866535 
-0.001516529119993226 
0.6780716387217495 
-1.356284988076301 
0 
-1.087340299200885 
2.668855836610739 
0 
0.3478111584316149 
6.951262118662683 
0.3769086997929565 
0 
0 
3.630024825550188 
0 
0 
0 
0 
1.203189252244828 
-2.138434519712592 
0.9443563434391900 
0 
0 
2.624242185203144 
0 
0 
5.829207672394333 
1.197761624786567 
1.788071133706003 
0.1974003107096720 
0 
-2.851243197222945 
0 
0 
0 
0 
0.4745298576638591 
0 
0 
0 
-0.3122514824751766 
-1.091014393047262 
0 
-2.731682909217692 
0 
0 
2.772480667998238 
0 
-0.6551073225050967 
0 
0 
1.534546849999011 
5.198290052204579 
0 
-0.9790878088829563 
-2.948188414006362 
1.261717641939604 
3.726431479375238 
0 
0 
0 
0 
-3.158505349579945 
0 
1.568014336931312 
0.09778849368164988 
0 
0 
0 
0 
-0.3990233140050180 
0 
0 
-0.6639141137458158 
0.002269794246650540 
0 
0 
0 
0.6476659801503277 
-1.940226942373025 
-2.265420430478263 
0 
-1.410168612275084 
0 
0 
0 
0 
0 
0 
5.069146661856947 
0 
0.4591844343729347 
0 
0 
0 
0 
0 
1.759755076208713 
0 
0 
-0.8352525499037461 
3.657548549773025 
0 
1.826204740988983 
0 
0 
0 
0 
0 
0 
-2.297552249016846 
0.8112812990384680 
0 
0 
0 
0 
0 
-1.119984025882334 
0 
0 
0 
0 
0 
0 
0.7990648008561808 
1.386554059088049 
0 
-0.7826927811169335 
0.8960177317334543 
0 
0 
0 
4.353898541598071 
-3.005450202611274 
0 
-1.035436558551795 
-1.556557515006099 
0.2758318563370459 
0 
0 
-0.4754799314814485 
-4.481673001480953 
0 
-2.957770217920830 
0 
-5.996865471668729 
-2.123524093220179 
0 
1.734464235822564 
3.107903145676402 
-0.2240542823135421 
0.4690335946546136 
-0.4427921537393269 
0.2419440430643581 
0 
3.253189766557428 
10.35106364572266 
1.964220620425917 
0 
0 
2.748922861436027 
1.912819812926593 
0.3457350778589195 
-0.7577569576837216 
0 
-0.6260265668862284 
1.178608834531137 
-1.348731801660082 
0 
4.652040994284350 
0 
0.7515057434377110 
0 
0.03318664632582657 
-0.1009490164950988 
0 
0 
0 
0 
0 
0 
4.106526908566910 
1.932257352061792 
0 
0.3138427703884279 
0.3053728637163467 
0 
0.6003004437046229 
0 
0.6165546767394490 
-1.440335301402030 
0 
2.069418336416282 
0 
2.117790452357186 
2.521639257659808 
0 
0 
-1.958583784363601 
3.154677554198198 
0 
2.321687348932229 
-1.017566880934675 
4.492670421049798 
0 
0 
-2.512597011678790 
0.5766076601489596 
0 
-1.309839010209905 
0 
-0.3627382461949655 
0 
0 
2.593102930799639 
0 
7.605793477759938 
-1.607340490955332 
0 
0 
0 
0 
0.1109697032268282 
1.327990108976552 
2.375907846168661 
0.9389790135239244 
0.6634378421195490 
0 
-3.910710784775929 
1.290424897724762 
0 
-1.982293450117178 
0.1956240005541449 
0.4785852834715174 
-0.7235145437124509 
0 
0 
0 
0 
0.4396724383192434 
0 
4.439246096149343 
0.8941129511579458 
-1.307994886118828 
-0.8616097831934018 
3.339001905791205 
-0.3093437893730809 
0 
0 
-1.947022012286777 
0 
0 
0 
-1.426642496527411 
0 
0 
0 
-2.811446675978608 
0 
0 
0 
-2.533714807500657 
-0.09092853862382291 
0.6314069576750281 
1.664414583416954 
11.53977097930843 
2.343865861060834 
0 
-1.360778266224152 
1.219466577718009 
-2.281667277921821 
0 
0 
0 
-1.147223190012501 
-3.837219224969138 
1.176676988509614 
0 
0 
-1.097121912626671 
1.312070141982140 
0 
0.9763516105954037 
6.030300109125943 
0 
0.5684087638863253 
0 
-0.6870154066665413 
1.368568914656775 
0.1858740144241973 
0 
4.801077147041868 
-1.304474685645195 
0 
0.9300692314849173 
0 
0 
1.772168556581453 
-1.943118232166982 
1.536723407783615 
-0.7780386161976334 
0 
0 
0.1453619886172866 
0 
-1.110571127908331 
0 
0 
0 
0.3587088469965424 
0 
0 
0 
0.3489294533553085 
-1.518899455403622 
3.412436468766761 
-1.078212505201757 
0 
-1.315436863985613 
0.7218640731827521 
0 
0 
0.2747709047707206 
0.7351253148474313 
1.703886862737611 
3.082007311504596 
-0.1088841772736365 
0 
0 
0 
0 
0 
0 
0 
0 
0 
0 
0 
2.956925558745100 
1.931981080413033 
1.199674743359534 
0 
0 
0 
0.4563153784376965 
0 
0.01545054892149811 
-1.549730524710934 
0 
0 
0 
0 
-3.203143656132657 
2.520406644324527 
-0.5339712676113020 
0.7962836446632112 
1.456426415963770 
0.3729145972737162 
-2.599192779914733 
0 
-0.3290878883806224 
0 
1.650793840207341 
1.250446197616152 
0 
2.843849932537764 
0 
0 
-0.5991987684327285 
0 
1.683147647979451 
0.2805982946688234 
-0.03010760033700598 
-1.871442326685227 
0 
0 
0 
4.022927875653340 
-0.07270436728323015 
1.102887717138672 
-3.352934848043868 
0 
2.955000632433372 
-0.3252184343641017 
-2.805034086787456 
0.3846324768604671 
-9.441909805312184 
-0.07872372310346742 
0 
1.433841385545464 
0 
3.599240529159312 
-4.441847387977169 
-0.6574601213131110 
2.496224444219338 
0 
5.895380151656237 
-0.9387720510058064 
0 
-0.6533729362874646 
0.1206685974858268 
-6.979139187772169 
0 
1.030599669375348 
0 
-0.3941398333615709 
0 
0 
0 
0 
-0.2174763442109582 
0 
0 
0 
1.876382074454589 
1.657107780577811 
-0.7549775419673933 
0 
0.7448417835313745 
-6.714304501489874 
0 
1.844121393475499 
1.268159599177372 
0 
-1.441044376820498 
0 
0 
0 
-2.230849922912832 
0 
0 
-1.202850276117564 
0.2918420590163461 
0 
0 
0 
0 
-0.9794871022101921 
-0.4591581886031983 
0 
0.4110534577125339 
0 
0 
0 
2.464560307359130 
-0.7831390548935742 
0 
5.134526349056635 
0 
-0.1950764188294607 
0 
0 
0.4471081182884164 
0.5820086630790262 
0 
0 
0 
-2.166953680220445 
-10.13881990620795 
0 
1.659118145133798 
0 
1.843940993212117 
-1.514236968361994 
0 
1.440049938651373 
4.820262393761229 
2.605240626655865 
-0.5576450454692933 
-2.262888029545649 
0 
0 
2.974869236463596 
0 
0.8278973932094158 
0.3896548163456744 
3.055105224020942 
0 
1.017668307298597 
2.237802377239330 
-1.877007824907242 
-1.861929921313473 
0 
0 
0 
0 
0 
0 
0 
-2.875076648775676 
0 
0 
0 
0 
0.003579627925351436 
-2.639874939324447 
-0.7393051577391374 
0 
0 
3.987240366708475 
0 
-0.9938272145853393 
-2.702629512581720 
0 
4.787431683854783 
-0.2779736678949006 
0 
0 
0 
1.068641992916813 
0 
1.855940464173258 
-1.704137214763330 
0.1840842847673565 
0.9145717184801985 
0 
0 
0.1127339389131131 
0 
0 
0 
0.06520621649954550 
0 
7.177744509056353 
-3.612599564356541 
2.739562360408635 
0 
0 
-2.698758987007820 
0 
2.075465132738876 
0 
0 
-0.7647341747642116 
0.7822391124723187 
-3.766503223613705 
0 
0 
0.5277391624627987 
0 
0.9154637962373628 
-0.9468735739361269 
0 
0 
5.609391820559644 
-0.2414037172928880 
0 
1.839985358967520 
0 
0 
0 
0 
0 
1.886639682402131 
0 
-1.312581354997292 
0 
2.916426388908980 
0 
0 
-0.3801308834939255 
2.238073270655522 
0 
0 
0 
0 
0.6756234470662416 
0 
0 
1.978153090361334 
0 
0 
-0.9088052442970771 
0 
-3.281156953731180 
0 
0 
-3.942159384019710 
-1.355166797221184 
0.9238151770977971 
0 
0 
0.5045846250821779 
-2.662661183987238 
5.251179319127800 
0 
0 
-0.9412453563040553 
0 
0 
0 
3.778624478821655 
-0.8257600832340082 
0 
0 
0 
0 
0 
-0.2017226894424571 
-0.1025382728723234 
0 
-1.292516209018747 
0.9764039296894309 
-1.645876334443704 
-0.8957632397790568 
0.08754019293398627 
0 
0 
-0.2517153256812519 
-1.984402279343478 
0 
-0.3743193046385785 
-2.046940063182305 
0 
2.110749092358300 
-3.278846989684949 
0 
7.572792480226153 
0 
0.2757877072135926 
0 
0.1180709428221837 
-2.737378815934841 
-0.1048845583784309 
0.6719230804101353 
0 
0 
-2.187223190120367 
0 
-1.468908235208784 
0 
-1.425062727606521 
0 
0 
0 
0 
-3.466539996167687 
-2.304563739132384 
0 
-3.175452170817681 
0 
2.148177612023116 
0 
1.349697041770166 
0 
0 
0 
0 
0 
0 
0 
0 
0.2485009290122109 
-1.170121317475115 
0 
-0.7578827433108003 
0 
0 
2.642672445964060 
-1.048944307947356 
7.212404193186025 
-1.511972355545226 
0 
0 
0 
0 
0 
0 
0 
0 
5.721484363560661 
0 
0 
1.032060775523797 
0.6354935304474092 
0 
-5.184213464957021 
0 
8.627301383720543 
0 
0 
0 
0 
0.6392197335692793 
0 
2.927619542638478 
0 
0 
0 
0 
1.887954029693010 
0 
-0.08283560921007782 
0 
0 
0 
-0.5532473155651723 
0.4067352534498772 
5.824642677881565 
1.143319214534547 
1.129717775457928 
0 
0 
0 
0 
0 
0 
1.515958230955083 
0 
0 
0 
0 
0 
0 
0 
2.191943997266932 
0 
0 
0 
0 
0 
0 
0 
-2.377655299255142 
0 
2.100495121339289 
1.428215215408931 
2.114944428229068 
0 
0 
-1.392961240078787 
0 
0 
0 
0 
0 
-0.4998381475199041 
0 
1.822121749626841 
0 
0 
0 
0 
1.016241327681525 
0 
1.017510563577013 
2.394401270588590 
0 
0 
0 
0 
0 
5.263863045705363 
0 
-2.098063908514863 
0 
-0.7279180945884853 
0 
0 
0 
2.625781048085369 
-1.186529067322864 
-1.720283902667502 
0 
0 
0 
0 
0.3367732384648865 
-2.566704071113798 
0 
2.901160663380697 
0 
-1.823477203610059 
0 
0 
0 
-1.359793757889150 
0 
3.270747157632163 
0 
2.542312605108266 
-1.534031952241187 
0.9704866412950068 
1.033867704331142 
0 
1.733755708801759 
2.627396842837300 
0.2920299195584000 
-1.219277119808940 
0 
4.274653813548825 
1.291774208861728 
0 
0 
0 
0 
0 
0 
3.208939710607087 
0 
0 
6.373870560615932 
0 
-0.7009359159002936 
0 
0 
0 
1.704742951107790 
0 
0 
0 
0 
-0.4291942231031256 
-2.066565775013049 
0 
0 
0.4394771973708522 
0 
1.327910626694945 
0 
0 
0 
2.452242675438755 
-1.397845619121345 
3.165832863127834 
5.277716549826914 
0 
-0.2096635855693270 
0 
0 
0 
0 
-0.6499833542545768 
0 
6.239121410433313 
-1.114321134802899 
0 
-0.1275851929179104 
-1.323908562245889 
-0.2795523542115555 
-0.8578644431313625 
0 
0 
-2.900358682993526 
1.171984172433100 
0.03844010746119625 
1.748525750117564 
0.9811339467606308 
0.8115104350116862 
0 
0.4776491047404903 
-4.263009963367418 
6.187633162171070 
0 
2.185627760268924 
0 
0 
-0.4874785584290484 
0 
-2.403466577313246 
-0.5520413260468070 
-3.777779769908452 
-3.320464508483077 
-4.170261633506230 
0.2927729617067570 
0 
-0.5608098298639530 
0 
0 
-1.343945794108020 
0 
-0.2707254934044810 
0 
0 
0 
0 
-1.239038365346912 
0.2087925380751097 
0 
0 
-0.3023327772278959 
0 
0 
0 
-1.681175334057158 
0 
3.340376623497325 
0 
0 
-0.6092793797595089 
0 
0 
0 
0 
-0.6510071216949757 
-0.1953760239772338 
0 
0.7085074051966317 
0 
0 
0.1181228956344543 
-0.8255745858556208 
0 
0 
0 
0 
0 
1.633013366416544 
0 
0.9276479476151990 
0 
3.901142234328828 
0 
2.693738719363976 
0 
0 
0 
0 
0 
0 
0.1771630386658468 
-1.075083984529176 
0 
0 
0 
0 
0 
0 
0 
1.977821925555617 
-1.016468220581685 
0 
9.361699226635196 
-4.620022127198293 
-1.501849949627591 
0 
0.8517361174716208 
0 
3.098213143751867 
-2.530231127388120 
1.535970625584462 
-0.7983662416934598 
0 
0 
3.487063847494679 
-1.053771907392967 
0 
0 
0 
0 
0.4226995220024359 
1.143344627726068 
0 
0 
0.06028620193598788 
-1.311489834475412 
0 
0 
0 
0 
0 
0 
-3.032974978769343 
0 
0 
0 
-2.880897947084375 
0.2305565237709019 
0 
0 
-1.622440663587586 
0 
0 
-1.036805638034934 
0.3157926784938226 
2.330734114669734 
9.288228219725882 
0 
0 
0.3777334346703063 
0 
0 
0 
0 
0 
0 
0 
-0.1349091508074460 
0 
0 
0 
1.313221355699507 
0 
0 
0 
0 
0 
0 
0 
0 
0 
0 
-0.9458932725869379 
0 
0 
0 
-0.1704157886934580 
0 
0 
0 
0 
0 
-1.366289078475833 
-1.758301472973306 
0 
0 
-0.4421931384155733 
0.7434001254755951 
0 
0 
0 
0 
0 
-3.168470783026308 
0 
0 
0.5437594799673540 
0 
-2.699006845280468 
-0.7371930756629851 
0 
0 
0 
3.025288930100492 
0 
0 
-3.669354955956383 
0 
0 
5.279692246514141 
7.397699233579168 
0 
0 
0 
0 
0 
0 
-5.447471586609363 
0 
3.722181683723412 
1.726080501132841 
0 
0 
0 
0 
0 
0 
0.005023412534677418 
1.462909097764692 
0 
0 
0 
0 
-0.4010773274601962 
0 
0 
2.483529433848249 
0 
2.032206017357531 
0 
0 
0 
0 
0 
0 
0 
0 
0 
0 
-0.6451823261589491 
-0.007721791930969835 
0 
0 
0.6134475408226175 
0 
0 
0 
-0.6473514559073961 
0 
0 
0 
0 
0 
0 
0 
2.330527480636734 
0 
-0.06676898556164335 
0 
0 
0 
0 
0 
-0.5774917555495496 
0 
0 
-0.4087960825765077 
0 
1.166296783733291 
0 
0 
0 
0.6688095454877461 
2.754808428798778 
0 
1.365568278059575 
0 
0 
0 
0 
0 
0 
0 
0 
-0.009259892226885561 
0 
-0.4324189834859363 
0 
0 
0 
-0.3065102368475698 
-0.6863400619174632 
0 
0 
0 
-1.786850918069152 
0 
0 
0 
0 
-0.7904640543348698 
0 
0 
1.244293552224516 
1.340927655400987 
1.078619298407170 
0 
0 
0 
0 
0.4381729453889911 
0 
0 
-0.9804612368627568 
-0.6834894732046054 
0 
0.6356292997239570 
0 
-0.8334986541952278 
0 
-0.4676313759398997 
0.4265594464494968 
0.3304748359014585 
0 
0 
-1.452466366388820 
0 
0 
1.389071984415718 
4.558410296217557 
2.030589100265557 
-0.4605924119112378 
0 
8.935870318491897 
0 
0.2527786951899089 
-1.227476994222646 
-1.064195315336715 
0 
0 
0.1447308719169116 
0 
0 
3.445177060284545 
0 
0.5397718212512004 
1.589155593289568 
0 
4.179817208112088 
1.166398737072958 
2.656005295353095 
7.493182904866439 
0 
-0.8018419362538600 
-1.472931899195170 
0 
0 
0 
0 
0 
-0.7815712378012649 
0 
0 
-4.914096491151597 
1.223087769117186 
0 
0 
-0.7624405244640866 
-0.03533205623618119 
-0.3624990366276906 
0 
0 
-1.201618339198641 
0.6709663767966324 
0.04119741608736427 
-0.4971691075285643 
1.607886173742559 
0 
0 
0 
0 
0 
0 
0 
0 
0 
-9.923153322043940 
-0.1154826749594203 
0 
0 
0 
-0.06098798602273592 
0 
0 
-0.8841935531449161 
-1.883712981650198 
0 
0 
0 
0 
0 
0.6260113579710653 
0 
0 
0 
-0.6510591890944448 
0 
0 
0 
0 
0 
4.381017297601144 
0 
0 
0 
-3.199063088114709 
0 
0 
0 
0 
-0.5591490399029970 
0 
4.008067898531424 
0.8566068797408377 
-1.741476693523240 
1.359932466521193 
0 
-0.2300582601603615 
0 
0 
0 
-1.896931229512575 
0 
2.002336868366717 
0 
2.301234118642723 
1.619607884581811 
0 
2.368564698029687 
0 
0 
0 
0.1755696836319952 
0.3257411922814161 
0 
4.829596401391854 
0 
0 
1.088804106809029 
-0.5504099945947766 
-2.459330894227464 
-0.5287572737322258 
0 
0 
0 
0 
0 
0 
0 
0 
0 
0 
0 
0 
0 
0.8014614785936499 
0 
0.4189712097572242 
0 
-1.142632657784896 
0 
0.3371581368337885 
0 
0 
0 
3.227560908470723 
3.122914454003293 
0 
0 
0 
-3.343991280401339 
0 
0 
0 
0 
0 
0 
1.574751441615345 
10.02673587791200 
1.142163846016218 
0 
2.318018142897357 
0 
0 
1.576500809734305 
0.5611206198071338 
-0.1737706110530780 
0 
0 
5.103517963445023 
-8.933533360844134 
0 
-1.135669506537534 
-0.9220246505387976 
-1.665655083146886 
2.873727306220100 
0 
0 
-0.1185937404914870 
0 
-2.230273089473122 
0 
0 
-0.002035073280951094 
0 
0 
0 
-0.4345219128303590 
0 
0 
-10.07577208205274 
0 
0 
-1.403260557530482 
0 
0 
0 
0 
0.6965146335768267 
0.5064467453654045 
-0.2102158451558570 
0 
-3.784660913154632 
-0.04302964117782149 
0 
0 
1.137945028313979 
-2.686110507951610 
-5.558907337579624 
0.05083247424931048 
0 
3.103856542184496 
0 
-0.1514590245200149 
6.358632750424507 
0 
-1.319687184898607 
0 
0.5455780018266316 
0 
0 
-1.345681210618750 
0 
0.04737983938527773 
4.296390823368109 
-2.648547105172142 
0 
0 
-0.7408643301403113 
5.241764102078605 
-1.125473032883462 
0 
0.7660265408469855 
1.730106407183500 
0.4717352038935505 
0 
0 
0 
-0.04212610992286364 
-1.476096403192868 
0 
0 
3.507022580390650 
0.6948381147196104 
0 
0 
5.470506073877430 
0 
0.8845586566131529 
2.882195818966815 
0 
0.1793935048506027 
2.567397844766844 
3.866576712423407 
-0.8574460979482909 
0 
0 
0 
0 
0 
0 
0 
0 
0 
0 
-0.7205996361702021 
0 
0.4027332980203287 
0 
0 
0 
0 
0 
0 
8.220307912342152 
0 
-0.9744729818126970 
0 
0 
0 
0 
0 
0 
0.1144130190715130 
0 
1.865023925934114 
0 
0 
0.4387253244651765 
0 
0 
0 
0 
-0.1463141010570104 
1.965941853082357 
0 
0 
0 
0 
0 
0 
4.924058073799954 
0 
2.760682136283196 
0.4253844333541787 
0 
0 
0 
6.265390438839711 
2.976978979094214 
1.291872416464875 
0 
0 
1.957934668286096 
0 
-0.5251024909579465 
0 
0 
0 
0 
0 
0 
0 
0 
0 
-1.658468881804210 
0 
0 
0 
-7.943055161234621 
0 
0 
-0.6730901752799032 
0 
0 
0 
0 
4.547034030309475 
0 
0 
-0.4813861175983467 
0 
0.2976341363760999 
2.333211272730159 
0 
0 
2.892218966012081 
0 
0 
-0.3494441464095851 
0 
0 
0.7536280958234571 
0 
-0.8254326769153258 
0 
-0.3434540524656314 
0 
0 
0 
0 
0 
0 
0 
0 
0 
0 
-2.527357298726970 
0 
0 
0 
0 
0 
0.8830609086001888 
0 
-3.284306344283722 
0.04305327454125973 
0 
0 
-0.5926147670500242 
0 
0 
-2.673782154502781 
-3.878280734848212 
0 
0 
0 
0 
0 
0 
-0.4675233369365212 
0 
1.481146701992460 
1.793355517980668 
0 
0 
0 
-0.9135697853556046 
0 
0 
0 
0 
0 
-1.123000028532496 
0.6549881366042404 
0 
-1.584377067270986 
0 
0 
0 
0 
7.031777155016823 
1.724658686802986 
0 
-1.068195524860590 
0 
0 
0 
1.715005812406762 
-3.757112495779495 
0 
0 
0.3291116926282208 
-3.891864178730075 
0 
1.825902404891480 
0 
0 
0 
0 
-0.3877307661503234 
-2.435727255219658 
0 
0.5142715599149409 
0.7029612794237847 
0.05858262498254252 
-0.9525880157930539 
-0.4326396349018964 
0 
0 
0 
0 
0 
0 
0 
3.384079297241791 
0 
0.2891956642737629 
0.7968461025390392 
2.290656216469377 
-1.543128674898039 
0 
0.05672398811025609 
0 
4.684129384215227 
0 
0 
0 
4.586476627084892 
-0.6132957817998970 
5.593336389327077 
0 
0 
0 
0 
0 
0 
0 
0 
0 
1.085448565758862 
-0.2973397617924719 
0 
0.3193039145618315 
0 
0.2419734211996724 
0 
0 
0 
0 
8.540621511326762 
0 
0 
0 
0 
0 
3.631603333196691 
0 
0 
-1.463733262244841 
0 
1.454338240792896 
0 
0 
-3.479920603220996 
-1.737262420312283 
0 
0 
2.971156325985733 
0.8576773371157317 
-2.781865052796579 
-1.454541833739955 
0 
0 
0 
0 
0.1643143217093665 
-2.250035439580476 
0 
0.3572661547553223 
-0.04543183192078293 
0.1267190299483275 
0 
0 
-4.221274792536153 
2.066698242268839 
0 
2.230663266434353 
-1.801332073045606 
1.747063287315203 
0 
0 
0.5096994004412494 
0 
0 
2.287031363883661 
0 
0 
5.204531216032502 
2.883086489558919 
0 
0 
0.5734451893963834 
1.395757038800202 
-2.008097810345746 
0 
0 
0 
4.879912557391379 
0 
0 
0 
0 
0 
1.146396858989364 
0 
0 
0 
0 
-2.432428825703905 
0 
0 
0 
0 
0 
0 
0 
0 
1.554187825761978 
0 
0 
0 
0 
0 
0 
5.636519444525365 
0.3170727709462167 
0 
0.2327715069266577 
0 
0 
0 
0 
0 
-1.858595201867769 
0 
0 
0.9030338975084762 
-0.8683857300861064 
0 
0 
5.212746773424376 
0 
3.575172345721612 
-0.1423682007275260 
0 
0 
0 
-0.5116278657748884 
0.07127000946504258 
0 
0.2017573152430169 
0 
-0.4520451806940755 
0 
0 
3.336252728710121 
0 
0.2645490540303485 
1.384330747916228 
0 
0 
0 
0 
0 
0 
-0.6261416220440728 
0 
0 
0 
-0.6532166492032161 
5.746203865263118 
3.113501706978948 
3.182924808115986 
-0.7892881150010609 
0 
-0.2638534137554425 
-2.866062488169123 
0 
0 
0 
0 
6.356132976249633 
0 
0.8573076740521280 
-0.8029600332741118 
0 
0 
0 
0 
3.278493625926548 
0 
0.7449684402826671 
0 
-4.300206165507031 
0 
0 
0 
0 
0 
0 
0 
0 
0 
0 
0 
0 
0 
-2.492643065685982 
0 
0 
0 
0 
-1.804161507591983 
0 
0 
2.412186034194106 
0 
0 
0 
0 
0 
0 
0 
0 
0 
0.7833773358805655 
0 
2.290758376504338 
0 
0 
3.519294192868580 
0 
0 
0 
0 
0 
0 
0 
-0.2656073313493375 
0 
-2.470286287110669 
0 
0.1552270330275950 
0 
0 
0 
0 
0 
0 
0 
0 
0 
0 
0 
3.071667292112942 
2.851138093546199 
0 
0 
0 
0 
0.7385145534497777 
0.4216971204051464 
1.587213702547419 
0 
0 
-2.985189099538963 
-0.02635729007964471 
0 
-0.2839632207057493 
2.086432632699415 
0 
0 
-8.184154522778930 
3.375504156096057 
-2.728953586862011 
0 
-0.07285194828875619 
7.653697215131944 
0 
0.6066109785327429 
-0.1210800839307684 
0 
0 
0 
0 
0.4666760383320656 
-0.2035538212578243 
0 
0 
0 
0 
0 
0 
0 
0.02577759291591530 
0.9752488753943908 
0 
6.952085973226251 
0 
0 
0 
2.535136915357010 
0 
-0.03587044753597105 
-3.811724195576319 
-0.2380315413872932 
2.189644759836451 
0 
0 
0 
3.629004866797163 
0.6962961452310957 
-0.8875822854958684 
0 
0 
0 
0 
8.405416178214281 
2.152883024018364 
0 
0 
0 
0 
0 
-0.03655084190958247 
0 
0 
0 
1.788993197591503 
3.655457630023064 
0 
0 
0 
-2.169367653488974 
0 
1.254620182293064 
1.848964006611309 
-1.235488230551965 
0 
0 
0 
0 
0 
0 
0 
0 
-1.966898098647593 
-3.384658916168361 
0 
0 
0 
-1.713383070067033 
0 
0 
0 
-0.7379937603491470 
0 
0 
0 
0 
-0.5585314891995314 
1.209830308674796 
0 
0 
-6.569827707521134 
0 
0 
0 
0 
0 
0.1840308409552086 
0 
0 
0 
0 
0.8176102029372672 
0 
0 
-4.489885235346292 
1.264569367398841 
0 
0 
0 
2.293587256188385 
0 
0 
0.1364154655874993 
0 
2.516303005328092 
0 
0 
0 
0 
0 
0 
0 
-0.07345712308838730 
0 
-0.06622456239309928 
0 
0.5520546522006899 
2.366904458259423 
0 
0 
-1.027925950766339 
0 
0 
2.518350002885372 
0 
0 
0 
0.2763445449425945 
0 
1.767601540277175 
3.586146038698820 
-2.053771258424584 
1.066740925138575 
0 
0 
0 
0.5113528569195652 
-1.366299386954573 
-2.329486682887586 
-2.104333926982917 
0 
0 
0 
0.4573968012376254 
0 
0 
0 
0 
3.137758646664874 
-0.8072471462274304 
1.829619472155350 
1.050423608167740 
0.5583716946318635 
0 
-0.9249840767439590 
0 
0 
0 
0 
0 
0 
0 
0 
0 
0 
0 
0 
0 
0 
0 
0 
0 
-1.377589125118270 
0 
11.36643187662833 
0 
0 
-1.592884101416318 
0 
0 
0 
0 
0 
0 
0 
0 
0 
0 
0 
0 
0 
0.3458792248760059 
3.361984159110141 
0 
0 
0 
-0.6718858231946991 
0 
2.237411215374433 
0 
0 
0 
0.1996605438287689 
-4.902223229650007 
0 
2.426847124059278 
0 
0 
0 
0 
0 
0 
0 
0 
0 
-0.9177821588229542 
0.8057629011649826 
0 
0 
0 
0 
0 
0 
0 
0 
-0.4609006621022134 
-0.9007075347278494 
2.123105135711477 
0 
-0.4642988856384953 
0 
0.8516058052662916 
2.533589476289932 
0.1502931434135811 
0 
-4.956570480444294 
0 
0 
0 
-1.480275612866511 
0 
2.756074629438642 
0 
0 
0 
0.7391875313432490 
0 
0 
1.785552828287693 
0 
0 
0 
0 
-0.3953337244791683 
0 
0 
0 
0 
-1.044969336571991 
-0.2756420205856990 
0 
0 
0 
0 
0 
2.020551500844373 
0 
0 
-1.446164216545858 
-0.7163918494047920 
0.5096207241598384 
5.836462046093265 
0 
-3.668499273602882 
0 
0 
0 
3.133963001349226 
0 
0 
0 
0.6917814047580872 
0 
0 
0 
-1.031446867619269 
-5.819065502384165 
5.858217416454183 
1.605944159943277 
-2.955620066794010 
-3.361759187378302 
2.046641466160268 
0 
-5.244410725179293 
0 
0 
0 
-5.251841269888564 
0 
0 
0 
5.606183628149038 
0 
0 
0 
0 
0 
0.1381068730097474 
0 
0 
0 
3.657764360461538 
-0.3319666376764294 
2.663291255261694 
0 
0 
0 
0.6816377254698797 
0 
0 
0 
0 
-1.232759594499201 
-0.6868974822625946 
0 
1.012524780975133 
0 
0 
0 
-1.855798681866318 
0 
0 
2.043838420861910 
-0.8882592343316416 
0 
0 
0 
-1.093852235071439 
0 
0 
0 
0 
0 
0 
0 
0 
0 
0 
0 
0 
0 
0 
0 
1.017155817258521 
0 
0.9788159481507641 
0 
0 
0 
0 
-1.520134067225415 
0 
0.3198828140216601 
0 
0 
0 
0 
-0.8312414654430844 
0 
0 
-0.8493685521561951 
2.267232132833999 
0 
-1.182784972710383 
-1.562241861634286 
0 
0 
-4.247229496450911 
0 
0 
0 
-2.665688487879907 
0 
0 
0.01843787516468318 
0.5803646375776025 
0 
4.420656998219966 
0 
0 
1.076137854194603 
0 
0 
-0.1445110611411533 
0 
1.394672694814698 
0 
0 
1.365673050946266 
0 
0 
0 
0 
0 
0.2982144411086461 
0 
0 
0 
0 
-0.2332524288445197 
-0.5894771694333805 
2.725639208889297 
0 
0 
0 
-0.7024957676284174 
-1.247882757418278 
0 
0 
0 
1.019885367352456 
0 
0.9462915242144491 
0 
-1.322559734567926 
-1.480758556788371 
0.2792918527776536 
0 
0 
0 
1.095315176483563 
0 
0 
0 
0 
0 
0 
0 
0 
0 
0 
0 
0.4055176389183226 
0 
-6.307790911139279 
0 
0 
0 
0 
4.446736737886837 
0 
0 
0 
0 
0 
0 
0 
0.2436632877545274 
0 
0 
0 
0 
0 
0 
0 
0 
2.948778338316508 
0.7771285477855930 
0 
0 
-10.04454093257201 
0 
0 
0 
0 
0 
0 
1.865678244653581 
0 
0 
0 
0 
0 
0 
0 
0 
0 
0 
0 
0.6461482206257245 
4.127875714348053 
0 
0 
-0.4071671158450592 
7.080176558318083 
0 
0 
0.3725468092880095 
0 
0 
0 
-0.5247357379137985 
0 
0 
0 
0 
0 
0.1157664967003041 
1.762460674510652 
0 
0 
0 
0 
0 
0 
0 
-3.756611089843630 
-4.297223355274807 
0.06310603274804327 
0 
-0.5259657063686296 
0 
0 
1.124676043570839 
0 
1.865168296743059 
0 
0 
0 
0 
0 
-2.122203415818449 
0 
0 
0 
0 
0.8609667051347627 
0 
0 
0 
0 
0.6861377809502289 
0 
0 
0 
0 
0 
0 
0 
0 
0 
0 
0 
0 
0 
1.067954860836080 
0 
-1.293298900022875 
0 
1.272518204714128 
0 
0 
0 
0 
0 
0.2210875996973923 
0 
0 
0.4601390187353583 
0 
0 
0 
0.9687270433317570 
-3.743179824733159 
0 
0 
0 
0 
0 
0 
1.873037740656744 
-2.135571906565532 
0 
0 
0 
-0.9750469610363761 
0 
0 
-1.117421284516216 
-0.4228703612684975 
0 
-1.454495721462278 
0 
0 
-1.730349622639344 
-2.138947997270635 
-0.3204218125098590 
0.8419884257583020 
0 
0 
0 
0 
-0.007616731959588952 
0 
0 
0 
2.026428414974342 
0 
0 
-0.7040035702758546 
0.4938021808378355 
0 
1.475069842303210 
0 
0 
0 
-2.526218327137508 
0 
0 
-0.5179465246961569 
0 
-2.233720686292905 
3.630683474233411 
0 
0 
0 
0.1814669165262196 
-1.979011040933816 
0 
0 
0.009311024629357512 
0 
0 
0 
-0.09136569419573537 
0 
2.324383368403586 
-4.149974600909594 
0 
0 
0 
0 
0 
-1.661402848551819 
2.241689131978866 
-2.113249272960575 
1.524157367351377 
0 
0 
0.2305591562191215 
0 
0 
4.173319196045241 
0 
-0.01975507769355689 
0 
0 
0 
0 
0.4556865018073188 
0 
-1.743522887046416 
-1.821068291071125 
0 
0 
0 
0 
1.441403420365952 
0.4161554839011707 
0 
-0.2238462667679908 
0 
-1.502659220851969 
0.2133464510833179 
0 
0 
1.163863314553240 
0 
0 
0 
0 
-1.207507961136222 
0.7381504211879439 
0.2045374294576625 
0 
0 
0.7435150049650310 
2.413578642447750 
-0.7416861363908060 
0.5235523598005332 
0 
0 
0 
0 
0 
0 
0 
0 
0 
0.1845335772478833 
1.711901062881169 
0 
0.4494892518841476 
0 
0.5002245176642135 
0 
0 
0 
2.998016574822184 
0 
0.2450826439511544 
0 
0 
0 
0 
0 
0 
2.050481251332873 
0 
0 
1.484365198659586 
0 
0 
0 
0 
0 
0 
0 
0 
1.758451305301577 
3.137060718754279 
0 
0 
1.524959116218368 
0 
0.5361597385583130 
0 
0 
0 
0 
4.094701371460157 
0 
0 
0 
0 
1.074916557915129 
0 
5.905727707881859 
0 
0.7987127772381357 
0 
-0.03218659993273987 
0 
0 
0 
0 
0 
0 
0 
0 
-0.2528806734719247 
-0.5100796082197565 
0 
0 
-1.594795716837874 
-7.811523627516443 
0 
0 
0 
0 
0 
-2.902314576785613 
2.989384125069748 
0 
0 
0 
-3.027102904116220 
0 
0 
-0.002853069189469926 
0 
4.070559151736431 
0 
0 
0 
0 
0 
0 
-3.593924056024300 
-1.858569693717634 
5.875304987079775 
2.619195126840177 
-4.612796089900028 
0.6398323779517456 
0 
0 
0 
0 
1.169820379118568 
0 
1.066062854119476 
0 
0 
0 
0 
0 
0 
0 
0 
0 
1.495500690486806 
0 
0 
8.360486033743713 
0 
0 
0 
0 
1.028657896925256 
0 
0 
-1.703631035102536 
-0.9290306681495714 
-0.7100612924298060 
0 
0 
1.631632549430556 
0 
0 
0 
0 
0 
3.642633231165910 
1.268884617792680 
0 
-3.147704188982560 
0.1333293948585690 
0 
0 
0 
0 
0 
0.2548365825622316 
0 
0 
0 
4.210569206932544 
0 
0 
2.529863182591625 
0 
0 
0 
0 
-0.8872559617530249 
-0.7883784549428610 
0.1851566461798233 
-2.806414661013066 
0 
0.5874640958023438 
0 
0 
0 
0 
7.628882759781024 
0 
0 
0 
0 
-1.628007595637030 
0 
0 
0 
0 
0 
0 
2.433284585963752 
0.7210105364393444 
0 
0 
0 
0 
0 
0 
0 
0 
0 
0 
0 
-0.2150955964330990 
0 
0 
0 
2.053336393706000 
0 
0.2917461214352612 
0 
0.8324410489153085 
1.159740700801125 
0.04098458380586623 
-0.01236655582581259 
0 
0 
-1.435358074811688 
0 
0 
-1.191066342774912 
0 
-3.069162922710064 
-0.06610320841436623 
0 
0 
1.263760182829095 
-1.382967638652471 
0 
0 
0 
0 
0 
-7.650863317724591 
0.5163542890892929 
0 
0 
0 
0 
1.198736237732935 
-2.699312427681909 
-0.8363449247764260 
0.5317051792382321 
1.023007415047331 
0 
0 
0 
0 
-7.202058925120941 
3.064887926358032 
0 
0 
0 
0 
5.211234054260249 
2.428677598697704 
0 
2.228653458731549 
0 
0 
-0.09743401062309431 
0 
0 
0 
-1.038845979918825 
0 
0 
0 
0 
-0.5641175355810082 
0 
0 
2.182090893847649 
0 
0 
0 
0.8963667628356035 
0 
2.856431465730765 
0 
0 
0 
0 
-1.023500426960323 
-0.1743076409034630 
0 
0 
3.986558908558322 
0 
-2.677224832558882 
0 
0 
-0.4625222607782107 
0 
-1.141471644556171 
-1.206356707476958 
-0.2385061777758128 
0 
0 
0 
0 
3.288904256795114 
-1.230764977928937 
0 
0.5437091760975610 
0 
4.575105169720156 
0 
0 
0 
0 
-0.8437079700417669 
0.08310719941504974 
1.633246251913552 
-6.405046568569022 
0.6096968269485792 
0 
0 
0 
0 
0.08476228146291076 
0 
0 
2.129946237718372 
0 
0 
-0.8241241033484319 
0 
0 
1.447805092707623 
1.069670481465129 
0 
2.311563535279877 
0 
0 
0 
-1.955801308767806 
0 
0 
1.054889731769247 
0 
0 
0 
0.6777680776997077 
-1.666837330213931 
0 
0 
0 
0 
1.809769236949641 
1.438287159211926 
0 
0 
0 
-0.7114525787069790 
0 
0.5645134724528460 
0 
-4.102830998080590 
0 
0 
1.071586046424039 
1.636314405933679 
0 
-4.805557185992450 
0.4831466681450465 
9.389611290562204 
0 
0 
-1.375546869394392 
0 
0 
0 
0 
0 
0 
0 
0 
1.133485314366345 
0 
0 
0 
0 
0.1352047996237508 
0 
0 
0 
0 
0 
0.1297710686422811 
0 
2.531690706947360 
-1.813304991185812 
0 
0 
0 
0 
0 
0 
0 
0 
0 
0 
0 
0 
0 
0 
0 
0 
0.2526176166115645 
0.9585276465134718 
-0.5851101561566179 
2.475002595900806 
0 
0 
0 
0 
-0.7517935607059153 
0.1229278498690379 
0.8585842970270949 
0 
0 
0 
-0.1397744770135924 
0.4787717540615966 
0 
0 
6.754186669843270 
0 
0 
0 
0 
0.4726519393156086 
0 
0 
2.394454554769150 
-0.9631156466255029 
0 
1.960184504840982 
0 
0 
0 
0 
0 
1.098658359695558 
-0.2791411076583263 
0 
2.116748382662967 
0 
-0.1593724653047054 
-0.2610629240538798 
0.04256033227397915 
0 
0.5809533037960366 
3.086040213270816 
0 
0 
0 
0 
0 
0 
0 
-0.1325548689365642 
0 
0 
0 
1.112538150067129 
0 
0 
0 
0.5011821577615677 
0 
0 
-0.04983876878815574 
0 
0 
0 
0 
0.8918826731944238 
0 
0 
0.1219650807485309 
-0.4095081708380730 
0 
-1.724239288961774 
-1.862543112551526 
0 
0 
0 
0.8576315168219990 
0 
0 
0 
0 
0 
1.243653422940999 
-2.679942084472196 
0 
0 
0 
-2.141264549460134 
0 
1.764534166545904 
0 
0 
4.237168371363921 
1.107986990337005 
1.455182949255246 
0 
0 
0 
0 
0 
-0.1398365111694393 
0.7165257599232762 
0 
0 
0 
0 
0 
0 
0 
0.2182504651564642 
0.3104681268117865 
-0.1748880254274397 
0 
0 
0 
0 
0 
0 
1.648764183225883 
0 
0 
0 
0 
0 
0 
2.749195257571528 
0 
0 
0 
0 
0 
-4.784173902432299 
0 
0 
0 
0 
-1.913968861045541 
-2.055551579453936 
0 
0 
0 
1.098812130274310 
0.6850365038302413 
0 
0 
0 
0 
1.724745797569788 
0.5968168176165317 
0 
5.218152125691835 
-2.453069297965898 
0 
0 
0.2447710797733298 
0 
0 
0.3956195408258576 
0 
0 
0 
0 
0 
2.245374062207202 
0 
0 
0 
0 
0 
0 
0 
0 
0 
0 
0 
0.9983314248832846 
0 
0 
0 
0 
-1.664761063956396 
0 
0 
0 
0 
0 
0 
7.097272958153663 
0 
0 
0 
0.4203013595444806 
0 
0 
0 
0 
0 
1.484823707581140 
0 
0 
0 
0 
0 
0 
0 
0 
0 
0.2983048819507076 
0 
0 
1.718102495107734 
0 
6.016640006024126 
-3.213282411160699 
0 
0 
0.3015696432644899 
1.101377185605409 
-0.5396588561677347 
0 
1.302851574894130 
0 
0 
-0.5677734795484177 
0 
0 
0 
0 
0 
0 
0 
0.4131132286938186 
0 
0 
-2.775785059052985 
0 
0 
0 
0 
-1.396356542326666 
0 
0 
0 
0 
-0.7054311907451124 
0 
0 
0 
0 
0.3235618225275547 
0 
-0.3637448362848972 
0 
0 
0 
0 
0 
0 
0 
