solver_type L1R_LR
nr_class 2
label 0 1
nr_feature 49999
bias 0.000000000000000
w
0 
-3.380298141368365 
-0.3767160457712848 
4.790497035815905 
0 
2.350176998244594 
1.640184390150069 
-0.3398073743329941 
0 
8.307797561203278 
3.490755307121840 
1.244720532388808 
-1.193148647663134 
-1.588945126402979 
0.5077953019268848 
0 
-2.039796727794803 
-2.726392964834473 
-2.094425527175115 
-1.675196965188731 
0.2784193536229257 
0.3702777731582900 
0.6711185221102481 
0.4305327675670898 
1.025312746532624 
3.420853527406794 
-0.01292329049995525 
8.222255984657208 
1.126155806658407 
0 
0 
-0.05959018189813581 
1.199356175665876 
-1.136016490305060 
-0.9808678412252253 
0.1041493393636430 
0 
-1.265533681167246 
-1.724852154793802 
-2.879802641438944 
0.1607095940372557 
-0.5403117182660847 
-0.1970935840134733 
1.028239568635681 
0 
-0.5765530933624226 
0.5229702604714943 
0 
-0.6930115274963867 
0.6304379187550636 
4.667008074339528 
0 
0 
0.1299013524653853 
4.854952012470454 
4.679019439513994 
0.5822063939217166 
0 
-0.8053279265813309 
3.648097304212929 
0.1150788290699256 
-2.992297141324376 
0 
-1.071077790732917 
-1.430603247273776 
-0.2859249288011705 
0.6565595130216899 
0 
0 
6.698075409374217 
-0.3275918000351194 
-2.998906411826739 
-0.9519469354767525 
-2.661185461774066 
-0.2593217682758788 
-2.353291408997163 
-2.314602840273144 
-1.518229774151925 
-0.7602895342361850 
1.077012643622404 
-0.5919761374816398 
2.978835479062570 
1.072786221363486 
9.016711370022040 
4.474023371195249 
-1.874035569167451 
-0.5606147067149663 
-1.686545930824078 
0.04000700516858424 
-1.242790164125441 
9.079553466478256 
0.6493302655003956 
-1.145120714883475 
2.281770391230811 
1.991572161991119 
-0.4317752597400438 
-0.5148807982806430 
0 
0.1775446363143334 
-0.6588722182061129 
0.002215255795481985 
0.2519607497777253 
0.7173515291408499 
0.09765853672181705 
-0.4225970739624694 
-0.7309424560094177 
0 
-1.454528141768136 
-0.1922865841625857 
-0.3325148413291104 
-0.8402839827891768 
0 
-0.2876971064059481 
0.4666270407911439 
0.04693273729225040 
-1.153048474026801 
1.345085909095079 
1.790410892187160 
0 
0.8162634667706258 
0.3459700891259078 
0 
-1.099527682768178 
0 
0 
0 
-0.2866770759885400 
0 
8.499457076767962 
-2.569897006570534 
-0.1228773369750721 
-0.01622042417745262 
0.9701673221318006 
-0.3606805969662886 
0 
0.01081441711082881 
0.4668871131105623 
0.8699136538102518 
-5.336900896261006 
-2.828671434729130 
-0.8376990289154377 
-2.197217686383412 
0.2601098862768794 
0.9700467221610366 
-0.6013066528301475 
0 
0.4326332166112082 
0 
1.590736737814590 
0 
1.356595833716686 
0 
0 
0 
10.47096605339653 
0 
-0.5248891719089783 
1.169750538100531 
0.9129484918260070 
-0.6115559563058959 
0.5761668532468431 
-0.8248593938869733 
0.4499353603051111 
0.06422242996200200 
-0.4491450184147424 
1.884281845546455 
-1.467245813659389 
0 
-1.779790886657066 
0.4390724708342719 
0 
-0.03151216706628679 
-0.7412821590764134 
0 
-2.909488276647586 
4.478720725481236 
-0.6201284866490474 
-0.1874522817467123 
2.514953503237550 
5.849968895729033 
1.036254317281893 
2.135970596355900 
-1.177067530587378 
1.455934193247850 
12.73343511259749 
0 
0.5237135898212782 
-0.3620138775550353 
0 
-3.014437749056591 
-1.713614679349216 
0.1269138349806560 
0 
0 
0 
0 
0.5167654557329491 
1.520430374418291 
-0.04912809099571257 
0 
2.045157934334213 
0.2900594177185896 
0.3242332489154186 
-1.614964816432870 
9.375328167544100 
0 
0.1816699086419707 
0.9744517978779054 
-0.5807414542031240 
0.1228629276500693 
-0.6780101123300177 
0.3113366374410997 
1.019608310429969 
3.027467450236245 
-2.164911100533304 
-0.01731397058804995 
0 
0.04767692011564713 
-0.9783779006066468 
0 
0 
0.4411825707875140 
0.1333264775228027 
0.9749811484610444 
1.946976160008393 
4.448364726251558 
10.32445845810095 
3.450027653174397 
8.727585395476174 
-2.099210199589178 
1.814141999735082 
0.08950023192609840 
1.397218679646098 
0 
-1.709271777124300 
0.1999705998415598 
-9.203395997360943 
0.5540227732767149 
0.7439523438320387 
4.840097396171228 
-10.31077243967017 
-0.5532824948248820 
1.705142973881628 
0 
0 
0.1578172267029813 
0.7323097495827441 
0 
0.2955376840061367 
0.1613493916695415 
-0.03120553691592597 
4.953456415808590 
-0.3209616644278589 
-0.2138202046470377 
5.708558076083624 
0 
-1.442280830716462 
-0.9971204910328748 
-2.192618423479786 
-0.5439769781136592 
0 
0 
0.8437341272450491 
0.09443667604566461 
-1.111472268395365 
-0.5624444864351917 
-0.2525036348840460 
-0.05273338045828485 
-1.296506677375938 
0 
8.403468907889680 
0.5947093729528808 
2.392703574683701 
0.9230391572076653 
-0.07064596217987534 
0 
0.1825595259734336 
-1.012848879035837 
2.605108639338061 
0 
0.5403705900346680 
-0.5803973577750939 
-1.102683184328949 
0.03622848643544141 
-0.06321069459650895 
-2.316452512355438 
0 
2.063037996658976 
2.650402134879741 
0.3848081871930069 
0.07692056250699630 
1.878926946387280 
0 
-0.7848969716559622 
0.1724361350573519 
-0.2440286879682481 
-1.012220666945676 
0 
-1.192175329981190 
-0.6728494794091243 
-0.7239577649492417 
6.536230231447958 
1.895388146926703 
-2.597169971823619 
0.6386556886379089 
2.115304640131764 
-0.3353692152967657 
-1.424975491972604 
-0.4680874428186592 
-0.2744711407645860 
0 
-0.8379834454193635 
0 
-5.355370448590567 
0.4038121137801367 
0 
0 
2.397767681016422 
-1.068212884717059 
0 
0 
-0.7102658997604325 
0.07729092055193160 
0 
0.04345707847098951 
-0.5584932328302229 
-0.9363166398320856 
0 
-0.1872457683060469 
3.728380643584388 
0 
2.298036921640399 
0.07226682651625949 
-0.4384624612419517 
-1.095083131655492 
0.4602587473508831 
1.340250425367290 
1.919710453861764 
0.02198694840809320 
0.2650905814204363 
4.806030325883297 
2.647999616840520 
0 
1.040248838705187 
-3.020396789081881 
-2.542474092212336 
0 
-0.4951806210081198 
-2.394272594398120 
0 
9.238047891815555 
1.069554968881727 
0.1582697916501881 
0.3891393467584554 
0 
0 
1.766236104144996 
-1.217171548482411 
-3.233368379450736 
-0.5431791893987070 
-0.8829942132777271 
0 
1.322418985062227 
2.471233116065938 
0.1774892725352898 
0 
-0.4881969026786369 
1.832115087175592 
0.5241930116169726 
3.188461538645005 
-1.212016582415223 
0 
3.169081291780914 
0 
1.734964180908413 
0.4194290859809092 
4.556618395331165 
1.413744512719542 
1.062939627771925 
0.6066106103211749 
-0.04731115276477860 
-0.5289124351926409 
0.4538058506791952 
0.1383545999037877 
0 
-0.3626844629606448 
0.5956405962665550 
0.7783946582335468 
-0.3843086863268905 
-0.03960928673184930 
0 
1.326758723810163 
-0.6172837790633303 
1.238109097815699 
0 
0 
0.6816723031576049 
0 
0.4028272605684199 
1.069880273161117 
0.1170780438715835 
0.3759462343242592 
2.798932459214338 
1.259631220942642 
4.266186604562527 
0.3325436477742202 
-1.666776895446482 
0 
0 
-0.1808855719750798 
-0.4817598567683684 
-0.9015639212179510 
-0.1640572671432439 
-2.779118667980246 
-1.100653007334300 
-0.2334474681434531 
0 
0 
0 
7.122930251792562 
7.582560283393211 
0 
-0.8574185972223286 
-1.818307157769513 
-0.01819372357874927 
0 
-0.2117090467963234 
0.3913743481800787 
0 
0.1234518807474969 
-1.522450451346283 
1.584000576744100 
-0.5651280730800098 
0.4733250918947519 
2.274734661990884 
-3.252813315865430 
-0.3130451098539591 
0.2217744879971499 
-1.549006536703165 
-2.314670774445720 
-2.025495790973648 
1.038777106679077 
1.111422411821306 
0 
-0.4042947036258377 
2.555035943014395 
0.8925531174928888 
0 
0.5135948771610761 
0 
1.017905961941260 
-0.9737961479102122 
1.722414708056141 
-0.4819671441429272 
-0.07670633561213641 
-0.9166496624589435 
0 
0.6256021157740608 
-1.228726307249426 
0 
-2.222423261357386 
0 
0 
0 
0.6630085485064905 
-0.2803006780094194 
3.371710926703645 
0.8028251050067856 
-0.3145124435185509 
2.835896568505183 
-1.661792195603206 
-1.445311480779911 
1.075950966006423 
-0.1541927342886528 
0 
0.6552633238990069 
-2.040313713480447 
2.283490371497233 
-0.3415106619253330 
-0.01904673990619638 
0 
0 
0 
0.5849637597478944 
1.350541170508974 
0.5973393616891098 
0 
-0.1549861120784130 
-0.8533609448826665 
0 
0.04612993203583975 
-1.744625066504063 
1.076798031178143 
0 
1.476849752925738 
0 
0 
-0.7872997845777816 
-0.3251408692995338 
-0.3624018913026008 
-0.5404515218651230 
-0.6796241975783938 
-0.8593976345275338 
-0.5354097876394660 
1.376682139790161 
0.4851603350600159 
0.2869052854624451 
-0.4620230165062334 
2.087927551477413 
-2.277493922778645 
0.5281399503227334 
0 
0 
1.362794986622989 
-2.295801836691796 
0.6305217420663197 
-1.974558711690617 
-0.5339102535264699 
-0.6627937049039191 
-3.675534241547553 
-0.5792824677448849 
2.384118904421145 
-2.005332383405412 
0 
0.3181394675163983 
-0.06982701609045848 
1.940100677830217 
0 
0 
-6.524115788807417 
-0.6910050260516029 
0 
0.07891636816186848 
0 
-0.8981114695164200 
0.03243615546607386 
1.075714692396151 
0.1163447823758417 
0.08265237418975767 
-0.3126828321392093 
0.6739501929051527 
1.775503765106064 
2.902632680652409 
-0.2208237641482287 
-2.188851645444633 
0.7684870774419577 
1.230038133483299 
-0.4069203876372873 
0.08631296142658454 
-0.3266066757830657 
-0.7537878743097635 
-2.555831863006220 
0.9437956679288692 
-1.510640298231172 
0 
1.198225557169204 
-1.295630263469581 
2.107299624467053 
0 
-1.090459484038459 
0 
0.3359049704301664 
0 
1.612080540247614 
1.176130486697052 
4.705303496479242 
4.313843336898215 
2.456282540547037 
0 
0 
-1.688674813295005 
4.108645714636547 
-0.5341178056337131 
-1.196902441007682 
-1.140856682341617 
0 
2.200199854449537 
9.118486302444955 
0.9953518105989068 
-0.3206936256931670 
-0.2653479135457365 
0.8535058573283762 
-1.809088739006783 
0 
-0.004670704849875368 
-1.482897403965942 
0.3256134239174643 
0.07676012424364635 
-0.8704506616406656 
-0.4867848431761777 
0 
4.454598425909557 
1.070017518987322 
-1.819202363269947 
0.2116301796398615 
0 
-0.2920358279104510 
1.579639503567650 
0.05216003594680108 
5.085684876492644 
2.886037153103106 
0 
-1.513487494074781 
-0.02091519843852152 
2.709758564496126 
2.482286379907007 
-0.5421842386082064 
0.2204645217138699 
0.2122202641626236 
-0.7503965274360334 
-0.2248317893065571 
-1.224095069866838 
0 
0.3950012656716425 
0 
-0.2984265266395132 
-6.361431732642656 
0 
-0.7834497785204364 
-0.7129271724569506 
2.133744086796149 
0 
-0.4558102562201239 
2.324836167293405 
0.008571132760474054 
0.1325829155807418 
0 
0.1835134557652497 
-1.395665348774407 
0.3333541061992921 
-1.072042841915567 
-0.4840629456296075 
-0.1038287705850240 
0 
0 
2.284277008132944 
0.02552008167406761 
0 
0 
1.393949857276665 
-0.8456467473161554 
1.837776491611588 
1.366416522629625 
0 
0 
0.3003984001896709 
0 
-0.2435468506127981 
-2.899417601108250 
0 
0.5804175665804989 
0.1061558018713704 
6.979166739721394 
-0.8762921399353496 
-0.9529724986183785 
-0.8790214831798795 
-1.547498122348096 
3.645122116746758 
0 
1.180705037551434 
0 
-3.331827766063177 
8.215927622953492 
0.1273381346043642 
0 
2.285344947220180 
-0.8945212861360528 
0.1654868356460909 
0 
1.016063870732633 
3.953049883877250 
1.253072365967358 
0 
-0.008154964357182659 
2.276139118228847 
-1.531520000492870 
1.386120379341943 
0.2719053209077380 
-0.6999660146263951 
0 
-1.278059147988753 
-0.7661848990135303 
0 
-2.969653259468938 
0 
0 
0 
0.07724945631261565 
7.389219329301928 
-2.945701370092806 
0.6757677189353972 
0 
-1.632126146672824 
-0.2000153668155073 
8.983627549679392 
0 
1.091367039509198 
1.441332779873908 
2.266484188907463 
1.349307414511070 
0 
-0.3131074454582474 
-0.2214052592633883 
0.5427122742074888 
-0.9610673956362998 
0 
1.830584950941694 
0 
0 
-0.1223522418241712 
9.624434969709887 
-0.1278680043746238 
0 
0 
1.280509600162784 
-0.4779585143714354 
0.7397087521296601 
0.9046154246128719 
0.4075036147047164 
0 
-0.5136509232435308 
-0.3680149709060797 
-0.2231382208086599 
-4.083759860869376 
-1.250052709718494 
2.580201713854906 
-0.1160086691493618 
0.08894721873497174 
-1.950367115656104 
-0.09460925059637468 
2.271330586445188 
-0.5564444214741410 
-0.1789604245468512 
0.5641380803918570 
0.3378947163233658 
7.260235708894817 
0.4638900863194900 
3.089522710570468 
-0.6098911264552659 
1.079017653160324 
0.1567082422890468 
-9.226021642918605 
-1.558709102084698 
1.228603087789678 
0 
0.3797726055603258 
0.2796858712158090 
0.2722487201284064 
7.921287188072312 
0.2939048558514082 
-0.06994754675146399 
0 
0 
0 
0 
1.481092317372540 
1.600279299001487 
0 
0.4426577415796939 
0.7912950562157974 
-3.390095381026965 
0.1696572711268129 
0.6277997199156784 
-1.601252891670607 
-2.471361039880754 
-2.176788385141323 
0.06064427568123323 
0.3825408386422166 
0.2412193852489759 
0 
-0.3418755701069495 
0.4471331576878374 
1.097526094693705 
-0.7373901046871495 
0.4181152495631582 
-5.531968646395934 
1.736075738382164 
-0.1549378117939059 
0.6588486265285940 
-1.039563559015190 
-0.5017154849614034 
2.194514390671845 
0.01623369914925044 
0.4386357788626631 
0 
0 
0.5884418673137270 
0 
0 
-4.662773054062977 
0.4099763175654356 
0.7352105309423580 
1.448186414978893 
0.08672511971601307 
0 
1.071311295378850 
4.608406184186217 
-0.1433117238218215 
-1.161530840150819 
-0.9047054395637444 
0 
0 
0 
-1.200979867249910 
0 
-0.5279317449882124 
-0.3590203844465133 
3.208361160357726 
-2.675276371335535 
4.538661167322343 
-2.820089619648134 
0 
0.03976960933810458 
-0.8476003297874556 
10.46481979464521 
5.025494320052946 
0 
0.02843284588488737 
-1.016508618826036 
0 
0.05632852852219011 
0.4156760410369946 
0 
0.1567084783857823 
2.860275512307365 
0 
0.6681154313382190 
0.1147057557271709 
1.933912690655432 
0.9640019715526061 
-2.037659602299035 
0 
0 
-6.037819905302101 
-0.4702551055139460 
-4.002672273729891 
5.346342081258960 
-0.7319094420738869 
0 
-0.6742177857973539 
-0.6798353093932532 
0.4763544149730612 
0 
0 
-0.8331870705372395 
-0.4829264579298580 
-0.5279469691874425 
2.099299047769183 
1.116487149866422 
0 
0.5885413553837741 
-3.099431229622229 
1.898561402866752 
-0.8069647334877440 
-1.890002164806195 
-0.7369155585999659 
0.08252159677108958 
1.641910987053626 
-0.6754460381209751 
-0.4997937861685995 
0.4296840989933244 
-0.7027580276146186 
0 
-0.2942743045600298 
-0.5070734517705989 
0 
-1.560465137882241 
10.29563726756039 
-0.2745218937992986 
0.7505655992391658 
0 
1.352291188464625 
8.096613725407474 
0 
6.478963358890912 
-0.7466608381819808 
1.779840021294243 
0 
0 
-0.9855221335433966 
-3.292192137512793 
1.989022399162494 
0 
0.3091468504711399 
0 
1.438019202542468 
-1.675470184193642 
0.1524850960270998 
0.06800168775441873 
0.1018842511941374 
1.744107784203397 
4.129900733145511 
-0.7441714074044983 
0 
0.6806717688366781 
1.755218021572138 
3.660661086928815 
0.6376673230006470 
0 
-4.200686262586370 
-0.6792131190769330 
1.284605764406760 
0 
-0.3583296739121412 
0.2241436786658840 
-3.733545965021616 
0 
0 
0 
0 
1.780095039059511 
-1.376737508738152 
0 
1.935906130814809 
0.7163764991382272 
-1.701513532384401 
-2.602245569189542 
-1.515323469179247 
-0.8725719117804269 
0 
0 
-0.2739866288447375 
10.00000000000000 
0 
1.473450025099265 
4.640166667258819 
1.354077987348185 
1.100840458059232 
-0.2998140046663524 
0 
-1.221539335653719 
0 
-0.6660138083613010 
-2.871162539220373 
-0.6351654506321840 
0 
0.5748119953184877 
-0.8253541655735281 
0 
4.676638073035185 
-1.126204078759742 
0 
0.05037559029799599 
5.248837222539766 
-2.044455471152255 
1.247245361715897 
0.9319200700591700 
0.7474033325023088 
0 
0 
-0.9854658688663140 
-0.2884274749237414 
2.009852159879725 
1.201481447764901 
0 
-0.9663813635030188 
-0.7255496698439109 
0 
-0.2378372917800818 
-4.432564638190597 
-0.3446272096417678 
0.2191651752979654 
-1.117344553215487 
-1.364440727679470 
0.1336828137448005 
-0.1575888027966904 
0 
0.2712850768722465 
0 
0 
0.1676804913575605 
-3.111902430973330 
0 
-1.614531815148906 
-1.313649612474559 
-0.4784897880302673 
0 
2.094068419576227 
0 
0 
-1.334325200614957 
2.159276314124439 
2.199589301548320 
-8.703315213917474 
-0.6070106045599399 
-0.5360395734413124 
0.7989375630177202 
0.4839604943840090 
-3.998623140688030 
0 
0 
-0.6602040504855443 
-2.002430430451359 
-0.5207480959427650 
0 
-0.001356064890913333 
-0.7441741448688781 
-0.1736332092363830 
0.001874292913766118 
3.491437071321997 
-0.3701280816052061 
0.5846192509824385 
-0.4771705279567129 
6.742726184678372 
0 
0.8796918429901959 
-0.1128104737460933 
1.469600792332274 
4.526514197094551 
3.535873519317634 
1.084218759116617 
2.190921080478688 
2.087244323959492 
-4.660269109158335 
0 
1.126677463499795 
-0.1135786118175797 
1.624304929111753 
0.9563263705849607 
-0.5794255908917236 
0.1409322637647700 
-0.9379395582734812 
-4.483731716929275 
-0.6768960773512940 
0 
0.06794700786255060 
-0.2692741184776149 
6.373330909726972 
0.5237945825291357 
0 
10.12425540394121 
-4.066742500248209 
-0.1367377752843243 
0.4933017698845822 
0 
-2.279588197804199 
1.724439877340119 
0 
4.734439114779131 
5.582640875500111 
-0.3087048883891210 
-0.7459862323389541 
-1.032021831824040 
0.4800665674840133 
-0.3385924002738147 
-0.5459055972173368 
0 
0.5682249805403206 
0 
-4.120431063296323 
0.5593120832232911 
0 
0.2892938823642149 
0.7867761997225367 
-0.03337768408639585 
0.2751947380156799 
1.800849700228077 
-2.238164007434704 
0 
4.312848789749156 
-1.680500563958606 
-0.7730228594782844 
2.309217527287746 
0 
0.09639928553823454 
-2.112326755099278 
0 
0.7451549067325272 
-2.438486124087083 
-4.781903272132698 
0 
0 
0.08976922638650886 
0 
1.700982973874309 
-1.631610142002880 
0.5835252058295750 
0.03984604568408789 
0 
-2.191282302177862 
-2.009037453229065 
0.4030017443617900 
1.365683043965159 
-0.6962226591026651 
0.6900676795291373 
0 
0 
1.101312896167770 
0.6202955835793853 
-2.021956008810292 
-0.6049149871263462 
0.2930530680998957 
0 
0 
0.1017228382286398 
1.949042927750488 
1.193548297521242 
0.2657785941074676 
-0.6683939825638663 
8.927670129167435 
-0.06403776636687514 
0 
6.931423791173076 
-0.8856710316189396 
-1.806063911526607 
1.527829659979750 
0 
1.807782979580408 
6.856789876711990 
-1.549413759528190 
1.964297169874298 
1.737223337397523 
-0.2890878796839386 
0.1964183967061018 
2.188041172242831 
-1.305639399435424 
0 
-0.04011820217315193 
2.168174237686347 
1.131891219802464 
5.734962022765561 
4.005808788643463 
0 
0.08444059745612464 
0 
-3.402539464747591 
-0.2192447694567407 
-1.168891670853826 
0.2095298398999562 
-0.1140251145486375 
-2.026400197334672 
0 
-0.4780571951453634 
-0.1572974023897138 
0 
-0.1652455253640596 
0 
2.620720957384015 
-1.030143555049444 
-1.873276897170978 
0 
0 
0 
2.642642599738007 
-0.6587692864631328 
0.4810642875962510 
0 
0 
-0.3982952862011989 
2.326720236202843 
-1.319361627855542 
1.799754725211025 
-0.6809995936432884 
1.250391308807415 
-0.003024005462319845 
0.3146715145031346 
1.808101697318200 
4.350460350420613 
0.6981778866737738 
-0.6189391051480482 
1.333818475585861 
0.01269357497805138 
2.596707070140563 
-2.872421096875321 
3.086514742727973 
2.941048370828778 
0 
1.178334897228432 
-1.044131295595325 
2.087060101393599 
-0.8202140157562803 
-0.5344560338528537 
-0.3968566420050012 
-0.2752024544436951 
0 
-2.497196428816602 
0.5790518018640252 
0.4810569553344779 
-1.726020368321821 
-0.4153207319337050 
0.8912325499442149 
0.7855684058963976 
1.117726356842885 
-0.1142264313199296 
0 
-0.7110812859877611 
-1.438627615225159 
1.173904447119228 
3.765629585345476 
0 
-0.6044306859107618 
0.9174616682334616 
0.5815859428223832 
0 
-1.199507910473746 
1.290985704834609 
2.346071576240088 
1.110968232604387 
-0.5053609076940985 
-3.098315378081592 
-0.9632485501595127 
1.251195281677990 
1.650031405082000 
-0.1595918334854940 
3.264939519141607 
-0.7717522383229042 
0 
0.5630402121554614 
-3.347852374101526 
1.455514778422347 
0.4932283206348049 
1.304768233638885 
0.1401354833546109 
0 
0.5919537677194900 
-1.545460565748491 
-1.607228537359888 
-1.034609940259009 
3.803078254565905 
0.1786677830235212 
3.085101387150737 
0.8229515375698947 
0 
0 
0 
2.795118160251213 
0 
0.3490881343408790 
0 
-0.6172033679425980 
0 
-1.208320132037890 
3.515946656532302 
0.06718219146398008 
8.283161199572763 
0 
0.6518094445802122 
0 
-0.7499989831518860 
0 
0 
0.06884430207012576 
1.622129627389115 
1.417760662082873 
4.605363720770525 
-1.453385303387149 
3.856907947147205 
0.1270936589565285 
6.601541328157461 
0.6542504842540768 
-0.03800842016163575 
-0.7805687793139326 
0 
1.922059083043223 
-0.9075104132123436 
1.949563309018046 
0.01859674948438521 
-0.8740770578701850 
0.03715318342826957 
-2.021812912962090 
1.586974362068624 
0.8045545562813613 
-0.8828449501241895 
1.227186052125155 
0.1080554014924506 
-1.003624328822459 
0 
0 
0 
1.601916408410281 
0.004186914081904414 
-0.1322735278874683 
-0.1744354685060541 
0.4267950092285017 
0 
-2.391388458140416 
0 
3.373289785304879 
-0.5904907804151353 
-0.6027627301988097 
1.750064935265574 
0 
-1.679631678310778 
0 
-0.9890303986655332 
0 
0 
0.5177571112865527 
0 
-3.131173439968606 
0 
5.938407606650534 
-0.1177715189125094 
0.5534906874427379 
0 
0.5273619447079533 
2.729782018580389 
-1.233668389141142 
-0.06968155861707070 
5.225604938544825 
0.3209341523404355 
-2.547074418215838 
-1.884374567980308 
-0.6097421229148576 
-0.3821865890443490 
0 
-1.853877741293674 
1.943510028966522 
-0.4587170010800292 
6.044607279444726 
-0.4372042848496989 
0.1840748450178875 
-3.019999746287088 
3.960558571522502 
0 
0.1514455464097133 
-2.734508463982368 
1.453080359382796 
0.09488691542302541 
-1.421939234319909 
2.908923352743408 
0 
-0.02689313948949597 
0 
1.032188778633022 
-2.181785546941890 
-0.1649519623574533 
1.777012267516711 
2.043915830888663 
0.5558276689269578 
-0.1492671315369341 
0 
1.504410676714252 
0 
1.353886883975355 
-2.960036175888165 
0.7341600174568597 
-3.711648025444119 
0 
0 
0 
-2.890622485866557 
-0.5247053154432285 
-0.4484593673956900 
-0.07743351885334260 
0 
0 
0.8779735596378322 
0 
-0.5951814011021259 
0.4986515828943721 
0.9143363841153025 
-0.09723246113722439 
0 
-4.269945728434765 
1.251210966348927 
0 
0 
0.2658560920969768 
0.9826056414623381 
-1.998940592928966 
0 
0 
0.1941632348704214 
1.068908770489494 
-0.2708517790330517 
9.701480463563017 
-0.3242906307394686 
-0.2449074329981336 
-3.086910374245602 
-0.1340321063018185 
1.827342008840805 
0 
0.3704332990103872 
0 
-0.8729360329463669 
0 
0.9116122546302652 
0.1286316238936788 
0 
0 
-3.747214418529034 
-0.2976080320607922 
-1.289187688958099 
0.2856637544061791 
0 
0.1139230494509287 
2.904712776091870 
0.06837798304508635 
-1.117653908989664 
-1.615434923178714 
0.2340441752931631 
-0.9597754822055079 
1.379406267567371 
0.2296044983419450 
0 
1.067525113601099 
-0.4800320486244598 
0.8969690906820449 
-1.115131458380932 
0.8728821578567433 
2.419117841356774 
0 
0.7809577560577126 
-1.177161484485004 
3.977912297985216 
-7.426618460840947 
0 
0 
0 
2.293442342508818 
8.207738185221412 
0 
0.4595143493458790 
0 
0.1497345877864211 
-7.220294725713334 
1.077072141216883 
0 
0.6304674902295195 
-1.293926024990990 
0 
0.7024617696796891 
0.7660658227987613 
-0.4202442308928636 
0.6925721454461928 
0.9668937164460676 
0 
0 
11.18756158122189 
1.384966532188828 
3.335077525753966 
-5.111762682924621 
6.975390228012072 
3.202859410719319 
0.1283819636202823 
0.2288758991191104 
0.1287884238432391 
0 
0 
-1.461574958116350 
0 
0 
1.509150230419839 
0 
-3.140128693873456 
6.989778496332094 
0.3802381077603416 
0.7545435315490949 
-0.3201768055597207 
-0.5087002839207646 
0 
-0.3674472533087900 
0.01752475675989440 
0.1522876623445234 
1.482240357157692 
-0.003939178752922989 
0 
-1.081506643025553 
0.1813688255674713 
-0.2752987308848392 
0 
-0.2881166052813813 
0.4928968142423960 
-0.03973808326426376 
-0.9933528398962557 
0 
0.2276093965221797 
-0.4218004582923500 
-1.869779868868319 
0 
1.037413515851372 
2.247764750708197 
0.3065086692453317 
0.09362290918909043 
0 
-0.1074347529178591 
-0.5353164180813492 
0 
1.278480942463584 
0.009753655244725962 
1.117465085761789 
0.6310849130374492 
-0.2908342837190293 
-0.5367285445361747 
0 
-0.5290395563927799 
0 
-1.680016552397884 
-2.185536908456498 
0 
0 
0 
4.777896184387574 
-0.3264502168620436 
0 
-1.122631456760971 
0 
0 
0.2715295708555748 
-0.8517314617587027 
-0.1695844191726954 
0 
-1.803683206194957 
-0.8601181218582387 
-0.3769919708121583 
0 
1.013953412457544 
0.06128745743407026 
-0.8552443887982302 
0.3340750428276662 
-2.251364373345348 
0.7972433465269608 
0 
-0.3225079422783542 
-3.374439320132224 
1.507609378310055 
0 
1.035779708300727 
7.646655328690128 
0 
-3.523493474014859 
3.895217580694231 
3.174212372039420 
0 
-0.1898410494742368 
2.845485800056600 
-0.3699135273807748 
0.3815969933316768 
-0.3921554496437835 
0 
1.260672579604445 
0.8569276593692885 
-0.1892660736323286 
0.2777983947611382 
0 
-0.7212865176663705 
0 
0 
-0.4477701721694279 
1.732065581621508 
-0.9930307582763409 
1.240416158685561 
-0.9241925549995149 
0.5085272075160490 
0 
0.1372569061634735 
2.401033474248484 
2.983895494992876 
6.455127388618265 
0 
0 
-3.248598701454263 
0.6768590058639570 
-0.7452943909820857 
0 
0.6234085964994227 
-1.035421787180383 
0 
0 
-0.7608681883862255 
1.126262861142588 
-1.273258086446439 
0 
1.812855099394258 
0.2855448043681023 
6.969566823017814 
0.7813806918596526 
-1.366362536910456 
0 
1.825137940494599 
-1.621947761126932 
-1.355211168075936 
-1.298809925246993 
0 
0 
1.153927487662297 
0.5513973709579745 
-0.6884577804320648 
-0.7473164734522993 
0 
0 
0.1175056457362137 
0 
-0.5231838601656039 
0 
4.271682313226216 
7.309585557852011 
8.979094878851287 
2.532617028772145 
0.9969110478976118 
0 
2.043471088217109 
-0.08962313208970896 
0 
0.3730350317482489 
4.889985072303674 
1.201650854466093 
0 
4.137486684096356 
0.4401108588307683 
-0.2264239114782798 
0 
0 
0 
-0.5173231015887036 
0.8019711426901370 
0 
8.760018707578210 
0 
0 
0 
-1.357435551613312 
-0.2134135834246057 
0 
0.9624665426217026 
0 
-0.9096511565152770 
-0.1504331382491526 
0 
0.1292607423618731 
0 
0.9469964213228620 
0.7658067089371008 
-0.3893933577943718 
0.2760827769381283 
-0.5237598140693067 
4.410509146323967 
7.035273228605306 
0 
9.065064694728660 
1.563244888847971 
0.4702894506554832 
8.068457553826052 
0 
0 
0.1110533458126759 
-2.019288671401708 
-2.245769839619557 
0 
3.581966254265591 
0.3031021260994650 
-1.540382205528945 
-0.4155921642752327 
0 
0 
0.3952783475829582 
0.7575897429230469 
0 
-5.328482598610172 
-0.3070741492413551 
0.04850471668623894 
0 
-0.1448019085459066 
-0.07389180182421132 
0 
0.3535535965065820 
3.453602377233949 
-4.932982406249055 
0 
0.4602881286161167 
-1.827396712120682 
0 
-0.3275502688346075 
-0.3181657075351526 
0.3917189401102079 
0 
0 
2.389244333573115 
0 
0.3926196782448936 
-0.2923996982861495 
0.3900443632956853 
-6.022048742945734 
8.765085429168938 
0 
0 
-0.5131212367783988 
0.2882175891995899 
-0.1143572615129246 
0 
0.1969555267805247 
-0.7094861554994984 
0.5301821498022726 
1.188003176106288 
-0.1101565650761542 
2.073330939303756 
11.12803200103011 
-5.419170594505157 
-10.32647263153875 
-0.6169753306841493 
-2.108617951052365 
1.334502726448521 
0 
0.1908201540041288 
0 
1.043611850695150 
-1.738870686356116 
0 
0.6109383692100937 
-0.6969706294731081 
0 
0.3980570985069072 
-1.307309225367201 
0.1470774051972226 
0 
-1.095153317657536 
-0.02566387157649291 
-0.1971961491533584 
0.08929759257073311 
0 
1.477117572409336 
0 
0 
0.2071289598825472 
0.3101422366920998 
0.9218244291481965 
-0.04090495538891119 
2.511709280334625 
-1.347337872819696 
0.1182705467486538 
0.1593450231174184 
0.4930174621708400 
0 
10.04892084141745 
0 
-2.323249596198100 
0 
-1.036460500391868 
0.2016934366938497 
-0.2922227991577879 
-0.6876463614464430 
-0.9298290674556790 
0 
-1.338475402996585 
0.7155584380473081 
0 
-1.395293005821894 
0 
0 
0 
0 
-0.6083464856845306 
0 
0 
0.2647826018646093 
0.9122750321944291 
0 
2.432301093489215 
-1.727162930802237 
0 
0.5326616865694342 
0.1469839216956564 
-0.9118684264329474 
0.06891054144833975 
-1.054368542844141 
-0.7542444240506266 
-1.529782950004214 
-1.013672583104294 
0 
0 
-1.034169727459906 
3.216340624329958 
0.8115162857603004 
0 
0.4256586049072391 
3.469172049197227 
0 
-0.9855541397330398 
6.554399511192655 
0 
0.1421381655178941 
0 
0.2531052293487670 
-1.079860132154946 
3.116367629972856 
0 
0 
8.381493476793064 
0 
-0.9030885177808199 
-0.02659550411151079 
0.8896681355691463 
0.1623648597219554 
-0.6779385568355270 
0 
-0.03563807363032384 
-0.7696587703567294 
0 
0.1974337345302102 
-0.3947040248742841 
0 
-1.140380468002919 
6.870079280683042 
1.628980478064576 
-1.268144799114141 
1.124229749129557 
-0.2929488642669796 
0.2918522251225479 
-0.1409035595103035 
0 
-3.392037797468211 
2.838819668783516 
-0.4640361628758911 
-0.4317795288618505 
0 
0 
0 
-2.131635933749128 
-1.377935798555177 
-2.388702466273465 
4.769572980622717 
-0.1167968860125649 
0.2703452422042277 
1.492904043606178 
-0.1691611886063897 
0.6313626033001161 
0.4008568277866451 
1.610682649376261 
0 
0 
0 
4.586301887617649 
2.010123439023831 
0 
-2.510579976237579 
-0.5419723282311540 
0 
0 
5.206803069339856 
0 
0 
0 
0 
-0.4210211939735950 
-0.3796808610780955 
0 
0 
-1.061079652190618 
0 
0.1214461414116505 
0 
0 
0 
-0.09481364096971832 
0 
1.259929496815434 
0 
0 
0 
3.155651329974981 
0 
9.180546726188197 
-4.441551858435280 
0 
0.4373945434282553 
0 
0 
0.4462094660313056 
-0.3051953119339185 
2.472826491988324 
0 
1.192007540156230 
0 
-2.092935478968834 
-1.523391581724368 
2.147689032101496 
0 
1.525612589903012 
0.4344062089781999 
-1.154459900503739 
-1.846756829637515 
0 
1.638173083978973 
-0.6429483658275010 
-0.3412416124961158 
0 
0 
0 
0 
0.3779374423199157 
0 
-0.5268475812315933 
0 
-0.09391867311425878 
-1.143945718321758 
-1.200515300903866 
0 
3.094882477416567 
-0.7405264069969667 
2.914069567425310 
1.152983277824557 
-15.82360679217157 
-0.2572115402721860 
0.07398080081600561 
0 
-0.3548529356819036 
-0.07738111026990690 
0.06000938223203778 
0.6251097941279015 
1.051052961913193 
-0.1009531745429062 
0.8217560467286948 
-0.2879358313349115 
-0.06133927171167009 
-0.4527239667756312 
-0.7377934511523225 
-0.4348208403149275 
-0.5455346059094554 
3.931682290372949 
3.219599810468628 
2.008219199790347 
-0.4934941848341829 
0.3536875961100620 
0 
-0.3567422046913503 
-0.07883671017577265 
0 
-0.07293161907512290 
0 
1.416958466706535 
0.2967255682625866 
0 
5.631610136945230 
-2.096465892408277 
-0.4429568973690822 
-0.3247360905122475 
0 
-0.08244223614012869 
0 
-2.953867719950783 
0 
-1.329537198123367 
8.050076739106390 
-0.7531134581306353 
-0.3605636141592670 
0 
2.335157033568972 
0.4547230772826150 
0 
1.672537251100829 
1.272832077788958 
-0.4273423145849705 
1.381005264486759 
0.1279840319039992 
-0.8820172540688108 
-0.3667728519284046 
-0.9348376088218021 
0 
-0.3589688795152010 
-0.06717073793263884 
0.6185931268420369 
0.03557609958962662 
0 
0 
2.337073364196350 
-0.1843744460021723 
0 
0.1235203149818096 
0 
0.03109155503168415 
0 
-0.07875154091981379 
0.4013445100379779 
-0.6189192310488676 
0.3386215917726502 
0 
0 
1.398510011566358 
-1.098917842845373 
0 
0 
0.5729036013166310 
-0.7385891110502666 
0.5005052229047675 
0.5905293071555635 
0 
0 
0 
-0.1579686904406701 
-0.2556826071928866 
1.612574085148229 
2.526081265773249 
0.1995525955997945 
-3.447554313229503 
0 
0.1743640245715244 
-0.5988613783445141 
0 
0 
1.157654301557957 
-3.241168943268113 
0.7839585174808792 
-0.1758996660283838 
0 
-0.3744296082381873 
0.5382042617534131 
0 
0.1997531974296766 
-0.5166946219245890 
0 
10.64522816912808 
0 
0 
-1.181103932203244 
-0.8916623595557060 
0.1612329789251161 
0 
0 
0 
0 
0.1778813148195130 
-0.5632324411133074 
0 
0 
-0.001176117046862379 
0 
0.6030359334924137 
0 
-2.998845334385008 
0.9053512759285940 
-0.2078822978265924 
-0.08317148654066903 
0 
0 
0 
0.5976563874590635 
-1.294368750483133 
7.565555744503208 
0.2769814936844628 
-0.9059098698658334 
0 
1.389543526185387 
0 
0.04638732933398465 
0.9764863221507678 
1.527255015843168 
-2.603385293247330 
0.8927168484874882 
-3.939468927022116 
0.4950402792789110 
1.475071422263031 
-0.1802159792003573 
-0.2969149643474683 
5.426298397478216 
0 
-1.747016181840555 
0.7827073209057400 
2.405881713862011 
-0.03410747461596427 
0 
2.389594336400704 
1.487551092342449 
0 
5.458690961136846 
-0.6231837973917780 
0 
1.186434597360473 
0 
1.008094432605040 
0.4073160065700086 
-0.1087161575132869 
0 
0.9560233148250649 
2.515899123057315 
-1.849675716564700 
-1.033966520459535 
0.2090792715900279 
0 
-1.634424186410578 
0 
0 
1.125797169391483 
-1.142333373351671 
0.8732602796149076 
0 
0.01098032390986448 
-0.9791712405855998 
-0.1409633328347840 
-2.257390393132505 
9.269002826483310 
-0.3851195171330634 
2.556493198713078 
1.724750414206276 
-1.347028149843920 
4.510781728907411 
2.510665201343232 
0 
5.451070524694774 
2.475528107847008 
5.298639040737728 
-2.896080046286286 
0 
0 
-2.879795436758196 
-0.8452307367936650 
0 
0.3608315609760922 
0 
-0.01936147638073327 
1.042534968833337 
3.978584202880274 
0 
1.102667597007503 
-0.1295481840620777 
0.3111284669697171 
0 
-3.413224538725313 
-0.1536001958571832 
-0.01799346147933691 
0 
1.645789306857259 
0 
0.3966089524403886 
0.7435993223101229 
2.106107939623537 
0.4722041415896827 
-2.182393266175982 
-0.1480308729175622 
-0.1176399341710102 
0 
0 
0 
5.960418960253817 
0.4975720300925569 
1.376447538008867 
-0.3143085282511440 
0.1313639811085704 
-0.1868654083972924 
-0.1167870903525785 
0.3855661396035968 
0 
-0.2292878080508041 
0.9816360706514551 
2.066740519794601 
-0.9065998016001547 
-0.5397954399023532 
0.1255555165651989 
-1.598036860976395 
-0.2333746159481274 
-3.242992511836801 
0 
0.2432130764461046 
0 
0 
0 
0.4732465494907591 
0.1950085283683479 
-0.2395978820977183 
0 
-0.7744295203003752 
-2.082489692964155 
-1.792374546069528 
0.3950489146248708 
0.7128170447863962 
0 
0.06062493063427898 
1.023840539567866 
0 
-0.1515972953288199 
1.055921202366847 
2.602151762454775 
0.9409262898217845 
0 
0 
-0.4707580756960256 
2.287700748440435 
1.248441180167557 
-1.187111315859637 
0 
0 
0.4074277523109893 
-0.3983393422536393 
0.4532110699537645 
-0.5620589126497120 
0 
-2.107028122927663 
0 
0 
-0.2798093928707506 
0 
6.197687870879467 
-0.7938074092554899 
1.011853008222803 
2.656526281198127 
0.9558415697732614 
-3.223229097151278 
-1.515499606680942 
-1.620799491255009 
1.088325500365190 
-0.9000290256131253 
0.7542180722852162 
0 
0.07225630183049936 
-0.6397054969816102 
-3.572111775162422 
0 
0.8395724625017489 
0.3507787669301418 
0 
0 
1.047932139237835 
0 
-1.614456806311101 
0.4573995226585247 
0.8196712534787130 
0.7672427359031566 
0 
8.671490255702476 
0 
0.8585910629772385 
0.8536669880688706 
0 
0.5404781326104786 
0.5505138763067093 
0 
-0.7307754142675733 
-0.3282360889577860 
0 
0.01903819398013793 
6.267482186810513 
0 
-0.9904929418386978 
0.1551152654671359 
0.7051289520692733 
0.6037080077561182 
0 
-1.065688514093591 
0.2047121993205687 
0.006879054342617715 
-0.4003966381239567 
1.895202418129824 
0 
0 
1.150037447209793 
0.2428819683452025 
0.4731056641238877 
2.537230584564167 
0.8594858930857442 
0 
9.173285361283700 
0 
0 
-2.808754331710534 
0.03390264609129390 
1.510504876698488 
0 
0 
-0.1582622728634742 
0 
-0.9246167180709566 
1.142435972204496 
-5.350927483379046 
7.334003075818064 
0.8467871677321042 
0.06936658786187488 
-0.1631862037961726 
1.428895729350829 
0.7914564812732721 
0.5129398345435146 
1.038653649209024 
0 
1.883425720379215 
0.01509618181105008 
0.6747644375864399 
0 
0 
1.291183285565759 
5.181285627181980 
0 
1.609026340739434 
0.2855275928139845 
1.120645173181098 
-1.729905470051597 
-0.3335385108212545 
1.566069584023586 
0 
-0.06125664937571234 
0 
1.082484285081025 
-1.038226990365510 
-0.2535369011145813 
0 
0 
0.6213798192305419 
0 
-1.872715004822889 
1.081249167229895 
-1.065095602731296 
2.135355047082940 
0 
0 
0 
-0.06968254033308030 
0 
0 
1.148519769981121 
-1.597394437516720 
-0.06771112028713816 
0 
2.021866305161858 
-0.6303080182973164 
0.1345498500961109 
0.4560671600021478 
0.4233513510900140 
1.218128934442417 
-0.4524396381792591 
0.1243888786021060 
4.146731556109158 
-2.506350500076568 
-0.2972679841105999 
0.03657579291393642 
-1.545501255409745 
0.004608537885544828 
0 
-0.1811550366635226 
-2.432119091656830 
0 
-0.3970874718366382 
-0.02244650941387488 
0 
0 
0.1209760103506484 
0 
0 
0 
-0.8719309135442168 
-4.779639604271221 
0.08642692176452951 
0 
0.1059613952578398 
-0.1239955629576455 
0 
-1.718937574316897 
0.3624819263418329 
0.4962719624579320 
-0.2242035181281468 
0 
-0.5339933072851060 
0.2297935309488630 
0.5690400383292635 
0 
0 
-0.5134341479202865 
0.2073173850795683 
0 
-1.426234340797867 
1.325393681555529 
-0.7723853733658232 
-0.6671232354845382 
0 
0 
0.2873171374607595 
2.636658451798489 
1.916733509935254 
8.552051814191520 
0.9687926574985952 
-1.200706419454205 
0 
8.013047481961769 
1.923554534719783 
0.7073764789166539 
0 
0 
1.243921805674856 
-1.668688351292704 
-1.109226358170873 
0 
0.3896154466035569 
1.123345551376779 
-0.3931136657195876 
0.06190082670098010 
-0.01869598986675358 
0.9584687448774519 
8.524516278595193 
0 
0 
-0.09406890667841226 
-0.3873529059392869 
0.5086941777873516 
0.2257571606168110 
0 
0.7733603641944661 
1.173100929313222 
0.7013078536354833 
0.2455464404907474 
-1.823527094172473 
0 
4.762377518538460 
0.8305878957578607 
-0.9180145530925748 
0.1321201731610611 
-3.286149858398315 
1.416420157235364 
0 
0.8429512272408468 
1.452266971374843 
-0.1962710920615837 
-0.02973064420849725 
0.9888894244936001 
0.8515108458652069 
0 
0 
-0.08378785180251648 
1.334872039201417 
0.3914063808800185 
2.311815012572065 
0 
0 
-1.208291886074035 
-0.6498839973772362 
-1.226691359071870 
-0.2091272707414896 
-0.8250985993741337 
0 
1.710217335124185 
0 
0.8413057976027288 
-0.2318958282110502 
0 
-0.3597740710360547 
0 
0.3438461166461407 
2.009046758017425 
-0.09582750878003005 
-0.7015055076682898 
0 
0.1315708915600894 
0.2092631085668227 
1.535267781455980 
0.2208304993882035 
-0.5993296994844071 
-3.605073438905614 
-1.594263434188675 
-0.6176433001955220 
0 
0 
0 
0 
0 
0 
-0.1254163324776429 
0 
0 
-1.973187944680805 
-1.818041568361396 
-0.2889145985717649 
0.4426248919740738 
-0.3821289241860865 
0 
-0.1855152139544358 
0 
0.5565329255912524 
1.963937090521885 
0.4563663636220763 
0 
-0.2437760064949429 
0 
-1.042132821709068 
0 
-2.000551606280403 
0.8488671099942553 
0 
0 
0 
-0.3158963667892287 
0 
-0.2338100363353667 
0 
0.5986757031377645 
0 
-0.3945980826034763 
0 
0 
0.1642705923012769 
0 
0.8910717912599015 
-1.002094118708490 
0 
0 
0 
-0.3660504645820827 
4.673190124317386 
0.2509870392481539 
0 
0 
0 
-1.011085651255478 
4.121122359599615 
-0.3735898550006441 
1.414178012169074 
0.3932436241017259 
-0.4171795355800989 
-2.247245364162239 
1.252593982128922 
0.3573255118420604 
3.342141529113810 
9.866636260037772 
-1.014201471585426 
1.398702500122509 
2.538573092963755 
0 
1.620141729563081 
0 
0.6848137832446390 
0 
5.700441735270893 
0 
-0.3415391881293651 
0 
-1.502455882134822 
-0.2241734153226517 
-2.033941660492741 
0.9491863961277553 
-1.370376792929861 
-1.553926340231886 
0.6764943834277726 
0 
1.627731084432079 
0.7143744346512275 
0 
0.4354807392215834 
0 
-1.753992834704490 
3.356442044480109 
-0.1613532385680448 
-1.115415684399971 
0 
1.136502968883536 
0 
2.315890763740642 
-0.4259057352392234 
-3.868392101321043 
4.023368433061237 
0 
0.8958691448834387 
0.1113744989296004 
0 
-0.7741036257819640 
-2.652439486038919 
-0.9062304480591895 
0 
-3.010302482631743 
-1.350941480412094 
1.340510131305851 
1.994104361863552 
0.7272476552065318 
2.358011094646351 
0 
0 
-1.010243255454663 
0 
1.255511402145184 
3.704558405623341 
0.03749638492941930 
-0.2499983317516236 
-0.2329112350888272 
0 
0.08467384795550156 
-0.9796382326262175 
0 
0 
-0.6134765548249627 
-1.897968000574578 
-1.057735700228136 
0 
0 
0 
-4.320054720906642 
0 
0.8855082402855738 
1.318624467765475 
0.3293309162982610 
-0.5669271523698166 
-2.971324415076952 
-0.4739540442327557 
-0.3931455962620750 
1.588856060195460 
0 
0.09455789861655946 
-0.1876647448136293 
-1.698506200829109 
-1.092937042048733 
1.890294384438123 
0 
1.317472303303294 
-0.7938715366338098 
-3.021991671326610 
-2.020899442112138 
0.2298146353276749 
0.7661687678345162 
-0.3386607702348647 
-0.2800386698894622 
0.7798107499110902 
-3.107055172532880 
7.033352433068052 
0 
-2.431989333693681 
2.172286435647536 
0 
0 
0 
-1.062047991900312 
-3.561063042298667 
0.7060365244038953 
-0.6804807929264940 
5.364208483863957 
-0.6878014256503494 
0 
0 
3.129625144576672 
-0.9116585334529546 
0 
-0.04631399804828384 
0.07043258777640830 
-0.4195836201628485 
0 
-0.3017801246468448 
0 
0.4377075646002297 
0 
0.9960165887974257 
0 
1.476482342590659 
0 
-2.095509172027368 
2.378288204451289 
-2.081948688572904 
0 
0 
-0.5927877354180386 
0.2637366636921292 
0 
-0.8546138970993464 
3.543793713789877 
0 
5.263599411362725 
0 
-0.2862872115915405 
1.761463169412441 
0 
-0.4079502447139196 
-0.5490064173021834 
-0.7171800385932566 
0 
0 
-0.004601523377431166 
0.06156409194947576 
0.7377176615256121 
7.959980676770786 
-1.871798542113897 
0 
0 
0 
0.1347617274924266 
0 
0.6358034914805151 
1.804844558539222 
1.228459808456258 
0 
0.6773197763373645 
-0.5560617597232467 
-0.6886259746682671 
0 
0.9265745442621275 
-0.4191525252450582 
2.894950085530029 
0 
-0.3430301948755556 
-0.3849447451292760 
-1.056362786612977 
2.805695753458095 
0.9869391814587872 
0 
0 
-0.6214116843539897 
0 
0 
-2.075026396860244 
0.9536545318349721 
-1.030320168189433 
0 
0.5391512009641497 
-0.5747491110485277 
-0.3196037729545901 
0 
-0.2404538614495241 
3.044024343360100 
0.7473469330231086 
0.6427491504212405 
1.500944381785988 
0 
1.489393009549186 
0 
0 
0.5644604994570628 
-1.097479728462119 
1.489545703020173 
0 
0.4032704109523281 
-0.5082355983426287 
1.246991718648193 
0 
-0.3427896425542262 
-0.04697227669558235 
0 
4.067914222549030 
0.9095183693880275 
0 
-0.01319770492823880 
-0.7945517257126610 
0.5249668103200160 
-0.9389326292329733 
0 
0 
0 
0 
-0.5875208444900124 
0.9426180871312175 
0.5777827086595559 
0 
-2.643440528933161 
0.2678843960725897 
-1.302022510073295 
2.583529291988358 
-0.7802578292379045 
-1.544892868638065 
1.246713092894006 
0 
1.933440436629776 
2.726203652141165 
0.3388106343628042 
-0.8983498787206532 
1.387808429992960 
1.795667058781289 
0 
-0.09707400326921872 
-0.3088021271641644 
0 
0.01178797045503869 
0 
-1.449780970332111 
0 
1.755699472031525 
0.1525045105752546 
2.415085242971059 
1.217522066876852 
0 
0.8345359754140756 
0 
0 
-1.107938339678529 
0 
-1.216948390732965 
-2.241623959074194 
0.8324822564111548 
-0.3924597351687685 
0 
8.979999126983493 
0 
4.283545567073362 
-0.5857099691135044 
1.525339924137183 
0.9252240323914376 
0 
0 
0 
0.7037889143985323 
-1.625631319885735 
0 
1.563739244462724 
-2.627792411728646 
2.103541613045970 
1.482935803987616 
1.795530815563358 
4.281184878893096 
0 
2.156646822448693 
0.4099589046383660 
0.04496479774158269 
0 
6.416423147006628 
0 
1.198309355764456 
1.109677796407393 
0 
0 
-0.05446243390429023 
0 
0 
0.3757389351647628 
-0.02982780600453020 
-0.4284061104354382 
0 
6.816530135772797 
-1.272485550269603 
11.13727936133957 
0.2442468454397160 
0 
0.2693365080829127 
0 
-1.132710258070802 
0 
9.637854958016723 
-1.143952698501949 
2.688048812161641 
-1.186681148050217 
0 
0 
0 
-0.8991481205581840 
-3.067278421074757 
1.357210792290271 
0 
0.2128731019190562 
1.899037484320446 
0 
-0.6590427356174224 
0 
0 
1.883748703377492 
0 
0 
0 
0 
0.8980894173327364 
0 
0 
0 
-0.7940736368545696 
0 
0.03526134723120333 
3.675015817290205 
0 
-2.385221103731992 
-1.244702186984334 
0 
0 
1.027842827172467 
1.668483480789557 
0 
0.8836835022941304 
0 
0 
1.289425786661816 
10.61766886648706 
-0.4492029483946533 
0.2124872349646330 
0.8502976585533645 
0 
-1.065352229777388 
0 
2.994349448280878 
-0.9853569236609017 
-0.6156898075619254 
0 
0 
0 
0.6606267836212824 
-0.2103830604041060 
0 
0.2383193686516492 
10.65751355297999 
0 
6.362549233234197 
2.695145319292276 
0.8788192461382538 
0 
0 
0 
4.182529625735345 
-6.059648603018197 
-0.6574758302234930 
0 
0 
0 
-0.1096082434582679 
0 
1.862840730823562 
3.331000565677730 
-0.3352404158595997 
0 
0.3467213161187218 
-2.535184653844001 
-1.012373165176691 
2.693941467510298 
0 
0.7362354117287288 
1.541942946055581 
1.261550250653075 
-0.2789504930873897 
0.4781667266643448 
0 
0 
0 
-0.6800353775997136 
0.3909312723131008 
0 
-0.1379717336149226 
-0.4493660413617653 
0.08877609354135708 
-1.297105582712171 
-0.05375959399299973 
0.5658178549362121 
1.037110843618869 
0.7946941098996666 
3.042224727460046 
-0.4756807156737936 
0 
-2.365384258262169 
-0.07735589381902308 
-2.423445408437316 
0.3155770225241557 
-1.504825785355494 
2.025884115814673 
2.247551592432145 
-2.253932243542916 
0 
0.05959221865388531 
0 
0.6251591038757202 
-0.7371871241968204 
3.418533165630363 
-0.1174250115900708 
-0.9882664244398806 
3.322695580784603 
-0.5107061188384957 
-0.9878561702679329 
1.115959833669515 
0.2629910484525537 
0 
-2.995864561616819 
4.796612697738273 
0 
-0.2671974945971543 
-1.769096214640406 
0.9598597226276838 
0 
0 
0 
2.909586143280077 
-1.581382481328102 
-1.481339696219625 
1.133175722094236 
-0.3113122227900462 
-2.182031190347540 
0 
0 
0 
6.937503708116859 
0.9619990503789295 
-2.249960509719447 
2.881007985998984 
0 
0 
-0.8862904910542300 
-0.7413979089675757 
0.5021118130168292 
0.6781367446074222 
0 
-2.440179750847502 
-0.4055332405177630 
0 
0 
0.6286900921673462 
0.4316453356927078 
-1.089456279655827 
-1.865758733022691 
0.6515484770367701 
-0.2268787639851704 
0 
6.164638928033050 
-0.4991949889387337 
0 
0.1894688122777869 
0 
0 
-2.755471356426041 
1.556833170768049 
0 
0.2520468261756754 
0 
0.1149506968017424 
-0.6057041748689231 
1.901159699361224 
0 
2.167252211084143 
-2.291157954396419 
-0.3537405569804849 
-0.4219711446994212 
0.1985420031852093 
-0.7181159406807218 
0.9020597105421400 
0 
1.050936225763797 
2.530514017556087 
0 
-0.02593110366581891 
-0.08335777784239123 
-0.3865764823864473 
0.3343711462014805 
0.7050638075658707 
0 
1.491314206658026 
6.279495717811126 
0.4790781139801107 
1.607469516591231 
-1.697030093245154 
-1.585539550200227 
0.7797770434000619 
-0.8036915227354962 
0 
0.2155071662163219 
0 
0 
0 
1.896369217198004 
0 
-1.485450159680581 
0 
0.2005877837635383 
1.447097835636342 
1.443318074271133 
-1.525821053465806 
0.3186304277153432 
1.097827680746400 
0.6804611924651335 
0.6779244225425050 
0 
0 
0.5856783713194578 
0.2940504660964821 
0 
11.18760568207584 
0.06045509651110392 
0.3154217033593099 
0 
0 
-1.269104812560533 
-0.2786479815248592 
1.779999099834922 
-2.074171385889887 
0 
0.2794431502402053 
-0.02828223719593934 
-0.04226679892862631 
0.9944221071862169 
2.425806489339583 
1.095024897886268 
0.04612923681363568 
0 
0.6979455096531239 
9.118233982385604 
0 
0 
1.090084618768546 
-0.2822587814093247 
-1.718446470494480 
0.5677511304875016 
1.485050902323558 
0.6859189338944127 
-2.629564722722713 
0 
2.561340855622410 
1.349517601015212 
0 
-0.5313863401040233 
0.05974242345525538 
0 
4.570667565160230 
0 
0 
4.340390652361021 
1.319831240031149 
2.241503007946313 
1.305270771580945 
0.5315003945556708 
0.4616934569243701 
-0.2629750454330997 
-0.3164573154028340 
1.039988813161747 
3.135701161357698 
1.034117326450477 
0 
2.537527380599921 
2.074803367583622 
-0.6224217132508252 
-0.8438550363802032 
-1.765199707011150 
0.2646293840764852 
0 
5.246087701220411 
1.772984869224292 
-0.2952440100991651 
3.135311805229221 
0 
-4.212471310062508 
0 
-0.2431361505303168 
2.449768936733375 
0 
0.5049595520744179 
6.902381836927653 
-1.843563553167374 
0 
-4.351323823311692 
-0.4429009421777438 
0 
-0.5513269305687863 
0.2931575287753967 
0 
0 
-0.4486687486871802 
-0.3819881662528248 
-0.9698186322398414 
0.7533581689150224 
0 
-0.1145424255202898 
-1.303586208538834 
0 
1.052815035520603 
0.2206754789109107 
0 
-2.143567369194325 
-0.9825200140388330 
1.496476074850910 
0.1033204879652241 
-5.763387313910723 
2.207705329845059 
-0.3663627136138517 
-2.046554990023424 
-1.120512516065510 
-2.621513928631366 
0 
0 
0 
0 
0.6953943577700830 
0 
0 
0 
0.4581909026699864 
0 
0 
0.1208597892654399 
-1.751896861486870 
2.775009439837209 
-0.6352724647931440 
1.428899242327303 
-0.6917191391785744 
0 
-1.047456274965185 
0 
2.628185014695621 
0 
-1.877226658894903 
4.287316632260152 
0 
0.1900875393737014 
-0.2863960027794008 
-0.7659237507085588 
-1.812964156044331 
1.825318234988843 
-1.323816129508475 
-0.4737235259860587 
6.003677678123552 
-0.6724473517851611 
-4.765596329783969 
0.2680794324439196 
0.1523807213536528 
0 
-0.4319148269455477 
0.007483621822560960 
0.3301082337631867 
3.064540690778282 
2.152165685239986 
0 
0.1662185178346345 
-1.363610154741994 
-0.7835306164378225 
1.688010645391246 
-0.7958654745864660 
-3.079842027121646 
0 
1.611555556266777 
0.5737297823247206 
-1.149049673238375 
0 
0.8559556415321505 
0 
-2.072841892520755 
1.913015022402036 
-0.3569218532697308 
0 
1.092733303612306 
0 
0 
7.791611243346129 
0.4129837862806193 
0 
0 
0 
-3.903926319196588 
-0.1821254146694118 
0 
0 
0 
0.5684058626473579 
0 
-0.3831439869950196 
0 
3.008024848916158 
-3.869110692268873 
1.705907739192625 
0 
-0.8175130079154246 
4.049578608371415 
-0.7854017152085233 
-1.618658930738351 
-1.700554449830551 
-0.8348900978783458 
0 
0.4690349158255981 
0 
0 
-1.462291704591046 
0 
0 
0.4029371048616798 
0 
-2.311999948300981 
2.792274763026797 
0.007370803609558247 
0.2404782817276662 
1.565717102078134 
-1.585367265577778 
0 
0.6079438303462119 
1.538093849545629 
0.3170382018595203 
-1.499480068023257 
0.1225952943183868 
-0.8942624519256603 
-0.6788624814542676 
-3.143450927656730 
0.04128570523462111 
0 
0 
0 
6.035937221918014 
1.167438270354437 
0 
-0.09357933472438343 
2.690679123567293 
0.6347847742438245 
0 
0.3315404554707277 
1.145474121876676 
-1.397939565103692 
2.003828217256066 
0.04841619828939869 
1.342140758823307 
1.403918694150262 
0.06243329477896521 
0.9691902854910497 
-0.2840421287069708 
2.950233137249384 
2.681055705380954 
1.765222983784402 
2.796840792777660 
0 
0 
-1.010734549397637 
0 
0 
0 
0 
0 
0 
0 
-0.3303964234174494 
0 
0.1518291644795978 
0 
0 
-2.610070154859050 
0 
1.152148621352274 
-0.6482923498474249 
0 
0 
1.148738498437701 
-2.033985969098537 
0.6136438599928458 
0 
1.214535691372246 
-1.998165350902968 
-2.402647115416537 
3.144663267902177 
-0.9904572230002424 
0.9997641536609245 
0 
0 
-1.441273632453505 
0.1592738944974222 
-0.4234626520669822 
0 
-0.6062279355610748 
0 
-1.186017482913457 
-1.200632475293401 
0 
-1.350384701962398 
0 
-2.262127560037375 
0 
0.7229768998175158 
0 
0.2282909619874868 
0.8278071336266775 
-1.033083893747749 
0 
1.188054915981797 
0 
0 
0 
0 
0.5112679183900508 
4.037868572780686 
0.03226175241403528 
-0.2702351065172315 
0 
-2.156723285733696 
-3.155123146404788 
1.890921980877081 
-1.107264807463912 
3.087542187941661 
0 
-0.2540121128390980 
1.184079241739899 
0 
-1.129563791216276 
0 
0 
0 
-1.377791403918546 
0 
0.2175767033892532 
0 
0 
3.074600781144063 
-1.147901351568720 
0.09610722424977744 
-2.600924477680129 
0 
-1.001588649445858 
1.113353724413994 
0.06548646820355969 
0 
-1.046255042644174 
0 
0 
2.381261267229638 
-0.3624354763164168 
0 
-0.3604539311979196 
0.3578098508210664 
0.4624190243496286 
0 
0 
0 
0.2449583809493007 
0.4029086433919016 
-0.6741233172792603 
0.6083241111386382 
-0.6143316487419817 
0.5736870548737495 
-2.409122560408421 
0 
-0.03982801599873886 
0.9529735142115734 
0.8575136580194602 
0 
7.575184588952951 
0 
0 
1.065538769856008 
-0.6316450461856301 
0 
0 
-2.129466645605117 
0 
0 
0 
1.717688698279712 
0 
0 
1.226482778154395 
0.3729785281364001 
1.124499386520233 
-2.125508918507475 
0 
-0.3082660737850976 
0.6120444023261293 
-0.8051845892613703 
0 
0 
0 
4.280639422165811 
0.7446707374401262 
1.022145315947036 
0 
-0.3888099571563244 
-0.2467181294334166 
-0.3774324038443141 
6.922764730652538 
0 
0.1476103875253713 
0 
0.06012127430391168 
0 
0 
0 
-0.5292639082253545 
0.2389047939952516 
0.6720271571456006 
3.883772405619452 
0 
0 
0.04334509093704426 
0 
0.1006087150911698 
0.7390648533584137 
1.296799641760916 
-0.4245581452759271 
0 
-2.015178699841846 
-0.09969965381273965 
0.5980615105471018 
0.1739729295019825 
0 
0 
0 
-0.3020985799846348 
0.5635427739873782 
0 
-0.06437523427953046 
0 
0 
1.980921535923196 
0 
0 
0 
1.106560403914161 
-1.351575869628261 
1.103230485313156 
-1.066199399908675 
0.4442918284302815 
-1.457978556267489 
-0.7166544906006722 
0.3246826855712893 
4.135332074953009 
0 
-1.685247585495983 
1.831068975871029 
0 
0 
-0.8957623131904495 
-0.1173476805522115 
-0.4597735789811492 
-1.667386000427183 
-0.6187972100840714 
-0.2985347739105678 
0 
0 
0.8465201835545804 
0 
-0.5735288674433289 
-0.4780438346272935 
-1.303503470271677 
0.7058381947516026 
0 
0.5358718898335751 
-0.3963886830965506 
-0.4030668399473037 
-0.7375292153801469 
0 
0 
1.771520293308282 
0 
0 
0.6520231443907196 
0.6573698446080143 
0 
1.319299099525710 
2.879217567503877 
-0.2474857692224327 
0.3472456799480402 
0 
0 
0.3652473209332224 
-0.09470210366877074 
0 
0 
0 
1.117684497569893 
-0.5035557682446409 
0.3336706375498602 
0 
0 
0 
1.110694845478972 
1.146905666457818 
1.547541582882357 
2.342663821453328 
0.03032550748985465 
1.441007751833435 
0 
0.9789914467930512 
0 
0.7206082299206229 
-3.150479570299017 
-1.807849895435918 
5.525484141769549 
0 
0 
0.09356668535442769 
-1.839288211998567 
-1.027661723666784 
3.039759063858089 
0 
0.08539282947252418 
-0.1019903079566511 
0.4853883921406209 
0 
1.526455076096914 
0.8307258117560663 
-0.6519475292991530 
0.7717679061717204 
0 
-0.8479898571856279 
3.070252001818346 
0.1505635308820882 
0 
-1.214006646128351 
1.001115029922445 
0 
-1.931525005694744 
0.8634616800389516 
0.08657039177212353 
2.467511317221266 
-0.6096320912690607 
2.229223939420109 
0 
0.4594628618647565 
0 
1.064821788449901 
0 
0.08436785016051719 
-3.018373550783813 
-0.2787769114136974 
0.8515536501600314 
0.4554941938039061 
1.555653000524953 
0.9941493994071476 
-3.564138256557834 
-3.144471195752671 
0 
-0.6862744142371486 
-0.1510132212996870 
-1.200757190520102 
0 
-0.4834305956308262 
1.222865540184531 
-1.462581867830184 
-0.1351646654028233 
0.3493880896754273 
-0.3260299448060857 
0 
-0.08062756211874230 
0 
-0.8240378554898280 
-0.04961271930296410 
-0.7873589951997440 
1.006424475712980 
-2.105355056525018 
0.6918128149691055 
-4.097748597854706 
0 
0 
0 
0 
0.4791332027492850 
0.003230259601228138 
0.08872554280895473 
0 
0 
-0.9730999235330291 
0 
0 
1.651420691966226 
0.8913081614321103 
4.211022835009005 
0.2879564088873350 
0 
-1.000811657853522 
2.569689071257083 
2.040505864953946 
0.2683159687389348 
0 
0 
0 
2.292223660609238 
-1.915951493721324 
0.3044866917753943 
1.121257294764279 
-2.111455055523603 
0.1557085511770412 
-1.573712749853198 
-0.2915551304571776 
-0.6596537374165008 
1.242686659911492 
0 
0 
0.4633185525307854 
-1.575984068583530 
0 
0 
0.7321311683544506 
0 
0 
6.204594116140943 
0 
0 
0.7607869469103131 
0.7276579244223879 
0.1797884867943932 
0.4010377030450751 
-2.216431064405108 
1.641593924894078 
0.004723848972016717 
0 
-3.293980986646982 
0.8137161805742755 
0 
0 
0 
0.5787532866540890 
0.1628665035036034 
-0.2124907646413847 
0 
0.2980476302151710 
1.131207151815732 
0.05213948031253651 
0 
-0.6893169987721779 
0.8957265364849607 
0 
2.932307700330525 
0 
0 
0 
0 
0 
0 
1.434530044898533 
0 
-0.5009967018251293 
-1.509777622254974 
0 
-0.2911147991905019 
1.440927668361031 
-3.518407621790841 
0.8261417902418734 
-1.493629124793978 
0 
2.587060718179292 
-1.224227014884616 
0.4609470688058669 
2.680646871689165 
-0.5550579283878540 
-0.2536646012455910 
0 
0 
1.429834350855486 
0 
-0.6873019140946353 
0 
0 
-0.6857636933342043 
0 
8.558841009606274 
-1.395369312420091 
0 
0.6429721759597111 
-0.8103525121032996 
1.297970956565800 
-0.8460418956572561 
0 
0.3438533177998122 
0 
-0.1461231891756762 
0 
0.5124961792236665 
2.482979527707370 
0.4470491427634254 
0 
-0.9844837102708818 
0.7114639762569146 
-0.4449489591562312 
-0.04695742106342493 
0 
-0.1323005005586748 
10.18807179334759 
0 
0 
0 
0 
0 
-1.029882531681074 
0.2784274987098181 
-2.476317253042785 
-0.9334608241827309 
-0.3863749558347722 
0 
0 
1.414726771504761 
-4.174830338308279 
1.020537007468581 
0 
2.412376790852059 
0 
0 
-1.312099541933981 
1.578716472658035 
1.103855022327920 
1.273407181169570 
0 
0 
-1.838521565959472 
1.071050915110346 
0 
-0.5619247110192417 
-0.02687483631186960 
0 
0 
0 
0 
0 
0 
0 
0 
0.03196570427168499 
6.218323138731418 
-2.267779846108556 
-3.186408986784141 
-0.02692885500015779 
0 
0 
1.103360995972462 
1.139381259319583 
-1.336681509309022 
1.621240347380702 
1.149851351167571 
0 
-1.222363078720679 
-0.3177240992347889 
-0.6710769883720135 
1.867279537415727 
0 
1.085687515929351 
0.4879064357425751 
0 
0 
-0.2244388152984709 
0 
-0.3429549397294678 
0 
0 
-4.612667601205721 
0 
-2.991749004853864 
0.4059366935762063 
0 
0 
-2.234921713683224 
0 
0 
0.2763376904109298 
1.860357672843708 
0.3856327750346040 
0.2768515225650154 
0 
0 
0 
0 
-0.1444380462009187 
7.313653490934664 
0 
0 
-0.01537072404247009 
0.04143109834373196 
1.221219567523320 
0 
0.5857187553937058 
-0.2416410287009040 
0 
-2.110382978201075 
1.841026970926454 
-2.555913489878318 
6.573916645565744 
0 
-5.451671624816863 
0.2553434284668747 
3.196204711260667 
0 
1.152580280726573 
0 
5.950688360082740 
-0.3217268985422355 
-1.720640490967618 
0.9240006931279219 
0.2196263684036353 
3.421048272575304 
0 
1.919039834913308 
-0.4342290436246217 
2.778966676831940 
0 
-0.5547871741137406 
1.034276894326005 
0 
-0.1554693782669504 
0 
-1.214237012495013 
0 
-0.1339372168113185 
0 
0 
0 
0.3727839254178223 
2.551176028992403 
0 
-0.5735891299939122 
1.491371745540264 
0 
0 
-1.735771794036212 
-0.6593221055738959 
0 
1.662908070638022 
0 
-2.034590944532245 
-1.565530486314624 
0 
-1.201642895617419 
-1.225955755693698 
7.906299211197526 
0.8352192909034996 
0 
3.906054752774646 
0 
0 
-3.635785877280155 
0.03065241418204051 
0 
0 
1.505424852311311 
-0.9661765296355265 
1.070193792894117 
0 
0 
-0.8190331630276795 
-0.1642796566621658 
10.43128569285026 
3.308397292800801 
0.6350114108272977 
0 
0 
0 
2.109502558842816 
0.8892771141021405 
0 
0.3919882759832375 
1.449459027748632 
0 
0.2889805186920345 
0.6454735106090842 
-0.04923992937976411 
0.6866291900181288 
-0.6862965037581366 
1.191657789241833 
-0.8179200976017632 
1.628313860375548 
1.381758238629198 
4.396968014253076 
3.895545625537636 
-0.04221509830388358 
0 
-2.862210100546709 
0 
0 
0 
0 
0.09733682439472464 
0 
0.2424016661448671 
1.063393583160414 
2.301507052111794 
-1.764654676910384 
0 
0.7072609385330542 
1.704706714796425 
-0.1105178706312185 
0.1752937516091850 
0.2278961193059100 
-1.710023379929799 
0 
0 
0.05538114561567023 
-0.1890288738731545 
-0.2814654888405141 
0 
0 
-1.156173917346167 
-0.1754917190794108 
0 
0 
-0.6703554932949540 
0.9703203349651246 
6.782137621182066 
7.360231351097129 
-3.833545544340582 
-1.410404250856588 
-0.6739110660422215 
-2.344915888410185 
-1.890178152108436 
0 
0 
0 
-0.1455186188172832 
-1.648135140985670 
0 
-1.168056289176534 
-1.391642015152027 
4.000420581169864 
0 
4.680795030700088 
0.6216336115136220 
0 
0 
0.2788560167966736 
-1.395565372796834 
0.7385187105500313 
-0.4326752570394961 
0 
0 
0 
-1.573161552228932 
0 
0 
0 
-0.9694100113088876 
0 
0 
0.2433249651412642 
-1.311325840173741 
0 
0.1210243641415667 
-0.1365117302628054 
0.07025659560032427 
-0.9393816812298329 
-0.06999361611413035 
2.389116973557325 
-2.553370568981703 
2.458253869162422 
-0.03968663694920177 
-0.9383902702815683 
1.715453162133696 
0.1319315223007455 
0 
0 
1.206825303038474 
2.005383942551846 
0 
3.392961980520014 
-1.599210736301129 
-0.3899523059329708 
1.141870738099012 
1.273683866879502 
1.074742427793486 
2.655272773532539 
1.245992175489035 
0 
0.3482833953935605 
0 
0 
0.2809199901938571 
-0.1319211001427491 
0.2860556558099559 
0.3139325084980524 
0.1846617638638526 
0 
3.967009556428647 
0 
0 
1.507681122674580 
-2.002802315382209 
1.098537463487090 
0.9783195591189204 
-0.2614057811313612 
0.4015847932380741 
3.318520975270439 
3.079903209559819 
0.3716877107157462 
0.5218051116838212 
0.1648015563888760 
0 
0.5483075134557559 
0 
-0.2641304318751302 
0 
1.760309971953561 
2.585280213900287 
0 
0 
0.4239468379173369 
1.591256357230843 
0 
1.563176471539974 
0.2140227419869036 
0.4902867765133038 
0.6855683505958972 
-0.4545850603552768 
0.5887731981662088 
0 
-0.3905764815463204 
0.2079672919800704 
2.429689859043836 
0 
0.1251394985133217 
1.055304768817191 
-0.9638795590090742 
0 
-0.7142842287682164 
0.3793212056193698 
0.7245111327307550 
-0.08335601517411492 
1.566226574235349 
0 
-0.1818069678570241 
0 
0 
0 
0 
0.6295268588607836 
0.9539758925375605 
0 
0 
0.6844672554649549 
-0.1920886199251604 
-0.5557190379751087 
0.2745930953322136 
0 
-1.062882255421184 
-1.361180196547492 
9.561150775777826 
-1.324226471803247 
0 
0 
1.157702104310250 
0 
0 
-3.969269615532584 
0.2226844159870841 
-1.498170413926178 
0 
0 
-0.4870591069462315 
0 
9.696612504883568 
-0.1040035976654665 
0 
-3.196176110436545 
-1.746830439820919 
1.077791327643317 
3.097663148125597 
0.4250067373504634 
0 
0.8018548261803339 
0 
0 
0 
0.02491941114551304 
0.004621992318287971 
0 
0 
0.3861135742344099 
0 
0 
0.7285663136957581 
-0.9255269516255857 
2.671241060485723 
0.004770310860994220 
0.9659503601608271 
2.834313964976845 
0 
1.790567803334605 
0 
0 
0 
-0.1924239769585594 
0 
0.6765582905384994 
0 
0.6951476358865574 
-1.480052744022775 
1.661630213588197 
0 
-0.9573985050992510 
-2.170767486158918 
-0.07693118648761435 
-0.3642039084532168 
-0.6541182101227563 
1.636239435038942 
0 
-0.7494821244525783 
-0.2436394230011292 
0 
-3.269004879105095 
-0.01637814155735093 
0 
0 
0 
-0.0008497856660025782 
0 
0 
-9.197265194308121 
-3.126939135582370 
2.854252283037757 
0 
0 
-1.507206472545257 
0 
-1.094153616570652 
0 
0 
-1.163501742553640 
1.935520401695736 
0 
0.3651943276534638 
0.8142023384067925 
0.07643459961246313 
-0.3607417664184625 
0.5811820076467932 
0 
4.386662480050243 
0 
0.1043482955149283 
-0.3583497727708459 
0 
-1.517048717920757 
8.227439693635786 
0 
0.08737228024549326 
0.6737479314201359 
0.5259998847566115 
0.7323354765866907 
0 
-1.720849051034753 
0 
-0.3446235485462411 
2.246519411087617 
0 
1.933495883840528 
0 
0 
0.1116429753926901 
0 
-1.035048087526166 
0 
2.576985009413847 
-2.234162033299040 
-0.08717190156337308 
0 
-0.1295405479165722 
0 
0 
0.2498708016015557 
0 
0.7822049474982303 
0 
0 
1.792968407201998 
0 
-0.2105938981576828 
0 
0 
0.3901049153406654 
0.6416161273961078 
4.658446650889735 
0 
-0.008648618450772360 
-2.369632141510166 
0 
0 
0 
0.3826146632643676 
0 
1.492945909650334 
-1.582837971757470 
0 
-0.02731235036665858 
1.726505572764173 
-1.694805258953017 
0.8219526493759024 
0 
0.9323732476903858 
0.03419906843454282 
-1.399063468177655 
0 
-0.7152487425592682 
0.2050744744428187 
0.1116568487423761 
0 
0.8982589049937852 
0.07728679913140324 
-7.105521947003985 
-3.778555084681305 
0.05040814232116229 
0.6211063642725204 
1.751451404433030 
0.07585371954573382 
1.001243768221276 
0.05175736081297505 
0.7851088058705707 
1.370208992015199 
0 
-0.2376766680304699 
6.112049682412895 
2.352014170049843 
2.289491021793832 
0.3146326697067332 
0 
-0.1961353678632272 
0.05567290397944584 
2.591454890832576 
0 
0 
0.4388834264918102 
0.006683377078625197 
0 
1.188713662879072 
0.01418578104794731 
0.7987891324748599 
0 
-0.1042755686389818 
-2.343825502592660 
-1.067249811751172 
1.199354125861348 
-0.4079475758994862 
0 
0.1366506370638010 
2.722816862450096 
0 
1.068281374590492 
0 
0 
0 
0 
-1.711233019561479 
0.2406949629583748 
0.02288434999388489 
0.006339507701024300 
1.299598316559600 
4.258475813463763 
0.5881134358288024 
0.01891876499278461 
1.321711250584954 
-0.3374661327831378 
-0.5029117456208798 
0 
0.6906928197326700 
-0.6969538464126688 
-0.2446022401036353 
0.9505030478834600 
-4.621329476432122 
0 
0 
-3.063388482313647 
0 
0 
4.357276746696186 
0 
-2.014773340789051 
1.847616445853806 
0.6986201874124790 
-0.5436707654817912 
1.723677375227757 
4.047581152490119 
2.674252232275530 
0 
0.7307126913490977 
1.881723699492982 
0.2373662625933228 
-0.01288189614171098 
0 
0 
0 
-0.4736391483062869 
0 
0.9240506871439025 
-1.771219736143942 
0 
0 
0.5161157388191284 
0 
0.7079530538958910 
0 
0 
0 
0 
-0.4151275203471879 
-1.560194127925482 
0 
0 
-0.5733404391671987 
0 
1.549242540737924 
1.158603340257336 
1.676641242636424 
0 
0.3637119924376915 
0.04731523466885135 
-0.9859437334982103 
-0.8807811295966392 
0.01319276098549518 
-2.166031056044099 
0.7275185988679277 
-0.3043915170434854 
2.174140972031278 
-0.01784686786913453 
1.140730206395068 
0 
0.3525121859244482 
2.605461390098914 
0.7362267452949366 
0 
-1.841660815321800 
-1.585135939754579 
0.6815307457104052 
0 
0 
-1.970257602204534 
1.792849757263531 
-0.7851248138767721 
0 
0 
0 
0 
0 
0 
0.5146864434636231 
0 
0 
-0.5102028203942564 
0.07129738773288441 
0.9533688580637452 
0 
-4.524447732765613 
1.294477934239373 
0.02285997772415324 
0 
0 
0 
-0.01579321606239517 
0.5763242970675804 
0 
0.7101710139444568 
0.06158115514927676 
0 
0 
0 
0 
4.368772877213582 
0.3296777274337188 
0 
-0.9145127707826806 
0 
0 
1.630905807085723 
0 
0 
0 
2.927543598490038 
0.4258287937496739 
3.199656928318199 
0.2721090082294830 
0 
-1.705683271900695 
-7.501292880714313 
3.096753140492707 
-1.403332404419611 
-1.776871049444641 
0 
-2.495208323023729 
-2.831944741804957 
0.2110032620940571 
3.539855425877263 
0 
-1.637801852675888 
0.06896595704261001 
-1.904064468149406 
0 
-1.255019755633661 
0.6768584447430956 
0.05767826390502706 
0 
0 
0 
0 
-0.1622616587549589 
0 
0 
1.287569454763553 
0 
-0.1347261596487646 
1.229934670023387 
1.376304948689796 
0 
0 
-0.3342343039637619 
0 
-3.331192158006179 
0.3608182237381520 
0 
-1.808562355715180 
-1.565166863679322 
1.732537576271336 
0 
-0.6900983762384912 
0.08692679355642350 
0 
-2.456218190780441 
2.363910530353119 
-0.5277622793621922 
0 
-0.8924933474934025 
0 
0 
3.702258707113201 
0.2997267798285050 
0 
0.5680707300369687 
0 
0 
-0.3402974081952037 
0 
0.08993338670233911 
0.4078562146426014 
0.4694520580611004 
-2.202556242701323 
0.02631465078061956 
-0.3285869003164061 
0 
-1.071413764801503 
0 
-3.522952387694147 
0.2810160533525824 
0 
0 
0.6967476374084598 
0 
-4.049591748866359 
0 
0 
0.7560556900006843 
-0.8352496851653428 
-0.3557152553017190 
-0.9637276305662867 
0 
0.2807763210015060 
0 
0.3319712431927263 
0 
1.556077223584074 
-1.106395082321171 
0.7175659178714074 
-1.030282900729283 
0 
0 
-0.7650900278227231 
0 
-0.6403670275270741 
0 
0 
0 
-2.131715569981723 
-0.6516394113522033 
0 
0 
0.7020180424220861 
0.5636462736499741 
8.461813781722467 
0 
-3.564937996763633 
0 
1.556563104819764 
-1.673311187337212 
0 
0 
0 
1.868449264916103 
-1.477550182469735 
0 
0.1321565625444309 
1.663636313272217 
0 
1.020002016880133 
1.451171269152940 
0.1382669603919293 
0 
0.3265823256358217 
0 
-4.087673001730546 
2.390098829636928 
-0.8856720761042551 
0 
0 
0 
0.7483502406753828 
-6.181757123105442 
0.7485328925174431 
0 
0 
0.3928104120202997 
-1.521189695237446 
0.9774736055256040 
0 
0.9192605416568103 
0 
0 
1.514887618672143 
-5.560253146634588 
-3.249073229137933 
0.5686559232486295 
0 
1.062560397670846 
0 
0 
-2.478244288278712 
0 
1.071245500505496 
0 
0 
-0.9919712474710547 
0 
0 
-1.383800566195264 
0 
0 
-1.088112022728873 
-0.8516185502479959 
-0.06027444966385437 
0.1265890692460523 
0 
-0.08083417292529076 
0 
-1.348104882783536 
0 
-20.04559254482740 
0.1077255235025929 
-0.3164546567897948 
-2.529936532126298 
1.108216416598459 
2.498257196621365 
0 
0 
0 
0 
0 
0 
1.067168699392732 
-0.5004009099095332 
1.427533094758771 
0 
2.617121842517977 
0.3053668216502660 
1.221900223569028 
0 
-0.2528729639784815 
0 
-0.9677862997637411 
0 
-3.905850419235330 
0 
0.4515918607907062 
-1.803383738821418 
-0.1292062007457238 
1.371950871853717 
0.8415363510060554 
0 
0 
0 
-0.1720862018902041 
0 
0.004405621488085592 
2.463242425440572 
-0.1234422451010351 
-0.6244447169685695 
0.1403058564712454 
-0.2192065625505254 
0 
1.341785646775181 
0 
0.5128732726522048 
0 
1.955282069622601 
1.116757550604223 
4.144996545859865 
0 
0 
2.679559040020635 
2.179337176702625 
0 
0.1300454883375053 
0 
0 
2.177895629057518 
1.075683216724294 
0.9792206129030276 
0 
-2.709069654112213 
0 
1.574342273902530 
-0.04302515887702994 
0 
-1.703299657397891 
0 
-0.8686920381422656 
0 
-0.4193597579786552 
0 
1.267300414725325 
0 
1.155590089325778 
1.038616261982761 
-0.4337920430145903 
0 
0 
1.115887395338640 
0 
-0.9667013251732146 
0.007183945474003972 
0.6739551706512987 
1.977364152332645 
2.636289115698490 
-0.2137815980440630 
0 
0 
0.3908115694540743 
0.6479451932169186 
0 
-2.312298970945300 
-0.8807118875367124 
0 
0.8298335249315377 
1.314445628330869 
0 
-0.1365994010511433 
0.05583961923892433 
3.254522121853323 
0 
0 
0 
-1.917832702517742 
-3.924084436103097 
1.873956752640878 
0 
0 
-0.3727731543058226 
-2.293439557113529 
0 
2.061142583606251 
1.406844473222803 
1.337776951079804 
-0.04326534923841802 
0 
0 
0 
2.271194151070990 
-5.825034848395499 
0 
-0.8223069152445162 
3.600444306884635 
0 
2.885432849386814 
-2.487447110610878 
-0.08778743295424996 
0.3763325158013399 
1.788197619918095 
2.241396909106636 
-0.03197373427941053 
0 
2.868828274493930 
0 
0 
-0.3357663816570118 
-0.03398470933968119 
0 
-1.223701968782739 
0 
0 
-1.775973048904087 
6.493066080245542 
0.6767841003343334 
0.8155630685248305 
0 
0.6595131918416013 
0 
0.1000061303065236 
0 
1.750938988903166 
2.005078423866274 
0.5300980528351593 
1.126994437914441 
1.360449365856405 
1.384301387007998 
-2.289403972427653 
-2.205573108465443 
-1.113732446699432 
0.8171623507571240 
0 
1.480674652122014 
0.3060314854744986 
0.1962718307260434 
-0.6959757530945255 
1.373294644550595 
0 
0 
1.918880151093929 
3.289963488783102 
-1.961024210753571 
2.508916482028491 
-0.3547472913081708 
0 
-1.111160204635796 
-1.367093617619604 
-7.830483508934474 
0 
-0.06816779789088010 
0 
0.8427134160438170 
0 
0 
-1.278728642319118 
0 
0 
0 
0.4991727186851207 
1.150037842441997 
0.8449587962117895 
-0.4739673978043429 
0 
0 
-0.07769585784199840 
0 
1.206152733730440 
-0.3410450173580405 
0 
0.6992623131758389 
2.821335997125013 
3.535059223476218 
1.116965418712000 
0 
-1.500935030472000 
1.483108503105311 
0 
-3.364219232625716 
0 
-1.245002055248919 
-2.005834431549658 
-5.694138521030983 
-0.2393366512022689 
0 
0 
0 
-0.5936748505280767 
0.06807982529628995 
-0.7604270160198899 
0.5628255754058945 
2.109154757831927 
1.146796031353037 
0 
0 
3.990426031049287 
8.195194963754350 
0 
0.6010446761333172 
0 
0 
-1.996059301931034 
0 
0 
0.1046701807978849 
-0.5413181220917840 
0 
0 
0 
-0.3586326780481844 
0 
-0.2085085101128285 
1.374469122464282 
-0.6590725541119874 
-0.1455615884302488 
-1.428827366226764 
0 
-2.286656045138177 
-0.1504739798690078 
1.756096253545240 
0 
2.559716435361234 
1.259656629220208 
0 
0 
2.061313680293579 
0 
0.2128861194052187 
-2.660160674847247 
1.450269324642690 
-1.970415676014073 
-0.4567503309018591 
0 
0 
-1.029168545390290 
-0.5585715749598512 
0 
1.035828121865361 
-1.121161777188063 
0 
-0.8431199302669505 
3.626554135451582 
-2.191447717989234 
0 
8.266032386884387 
1.281845179908666 
1.093211809669646 
2.496319303255428 
0 
0 
0 
0 
-0.03686363720025310 
-1.699469641899557 
0.007139499435723121 
-1.667705937823148 
0 
0 
0.4791982053534742 
-0.03267106037734413 
0 
-0.01192269139918344 
0.2648079294521877 
0 
0 
0.6757505870193976 
1.019129381250088 
0.8791317530433891 
0 
0 
0 
-0.01409604388926322 
0 
0 
0 
0.7549721083810926 
0 
0 
0 
0 
0.08792943711827110 
0.8218121959862229 
1.090001014639680 
-2.635310738161834 
0 
-0.7036665785930962 
0 
0 
-0.1689051362828148 
0 
0 
-3.396231433978376 
-0.8654442345949263 
0 
0 
1.045490268688807 
-0.5300904666588604 
0 
0.5474288951281334 
0 
-1.686116289031012 
-1.138596169323283 
0 
-1.546859218289761 
0 
2.006209160043795 
-2.302865472520305 
-0.6611576120903806 
-1.299708512707831 
-3.730048539652913 
-2.835320614566292 
0 
0.1779659336487511 
-0.05335051704307955 
0.6654641805565102 
0 
0 
0 
2.017659003634929 
-0.2012812985027307 
0 
1.614143134629403 
1.001926364383531 
0 
0 
0 
1.485652237249327 
0.1503755844778816 
0.4783919939532729 
-0.5958036565400339 
0 
-0.9825836696653254 
0.1230704317728704 
-0.1588165085471844 
0 
0.5019103164416467 
3.109107971204398 
-0.5656430407963566 
0 
0.5232550505667893 
1.636325203207619 
0 
0 
-1.023425232992112 
0 
0 
-0.2705829758511493 
0 
-0.04384623226814122 
-0.5417410316275972 
-0.2962465647004334 
0.5422515012270521 
0 
0 
-0.1654332182089045 
-1.080826577041779 
2.142251729139595 
0.1266901184352087 
0.8534177466718325 
-4.698807268560206 
-1.269811481861472 
-0.4307492622726643 
-0.3844793354533273 
0 
-0.6447493494444827 
0 
0 
1.035730262688982 
0.4702298010333599 
0.5126532220150074 
1.006479479714846 
-1.642385855463486 
4.229292033359654 
1.898497046219172 
-0.9639420009232474 
0 
0.3503708060400004 
0 
1.543525395606967 
0 
0 
0 
0 
0 
0 
-2.061775990731882 
0.2900520749087974 
3.377248634400296 
-2.871307855044722 
0 
0.3259446247229780 
10.16680147368691 
0 
0 
0.3982819181553630 
0.3291941276856333 
0 
-2.452044263310897 
0.2215151807228368 
-0.9186162131618394 
0 
0 
-0.5927306389695295 
0.4405092754094175 
0 
0.7217171131818540 
0 
-0.8549228675365985 
0 
0 
-0.4548594234559482 
0 
-3.264391879598860 
0 
0 
3.932850997915414 
-0.06978869530023535 
1.409789682339426 
0.7579211670989974 
1.818139275101449 
0 
1.061288382881177 
1.344877860222541 
0 
0 
2.014840785784005 
-0.6396047784843536 
0.8014045018011233 
0.4378616893045242 
3.203854422269048 
1.022807392405917 
-1.143334078141096 
0 
2.705947832980625 
0 
-0.9510956058481130 
0.2573659231172653 
0 
0 
-1.166767604439810 
0.04461765069746487 
1.587402748483676 
0 
3.202797414826474 
0 
0 
-1.878792904509804 
2.261342609120023 
0.1046896831691137 
0 
0 
0 
0.1205220673433085 
-0.2129226184317138 
0.2861438417445177 
-0.3863972170632464 
0.5244369041506217 
0.1920491634840950 
0 
0.1012734524457946 
0 
0 
-0.3535613263247606 
3.289901258294686 
-2.808980896483137 
3.067003544724536 
0 
0 
-2.333968108029014 
-0.03586480257884328 
0.7368932975576681 
-0.2132238926145764 
0 
0.4320387483833756 
-0.2032713619085358 
0 
0 
0.1376902584800573 
2.404830893738482 
-0.2342975104159901 
-0.3705432058551890 
0 
0 
-0.3392477370664325 
0.3442444630879163 
3.246438202380390 
1.235922899813728 
-0.01287450122343870 
1.683710592940719 
2.600169665138555 
0.2470569411372971 
0 
0 
3.616969072459285 
0 
0.8882441003407100 
0.05255418111206800 
0 
-0.2299201376744547 
0 
0 
0.5636524918075093 
0 
0 
-1.637441610380294 
0 
-0.05685048498198020 
-0.03946875434550998 
0.7411283870716483 
0.6385264093847074 
1.052111938553924 
1.308905493748661 
0.9398637511322763 
0 
0 
1.087130075972546 
0 
-0.03740356863511196 
-1.657627908139338 
0 
0 
0.4279226498142744 
0 
-1.060857984379094 
-0.2380050626789575 
1.164543407863536 
5.372727007929008 
0.06422210062520417 
0 
0 
-1.207879330825558 
-3.334721325153389 
12.01449473418593 
0 
1.769390528763108 
0.7195363859237257 
0.3760997935887047 
0 
1.390319191341747 
0 
0.3209487692280518 
0 
1.181448282785338 
0 
0 
0.5395289394325130 
0 
0.7398140810425347 
0.3202129869363131 
0.1209312144867343 
0.5312247411173017 
0 
4.643199494555172 
-1.272717246458484 
-2.491950099558990 
-1.363693537972143 
-2.515208599287388 
-0.2743483065703193 
0 
4.606431407503148 
0 
0 
0 
6.347154630807585 
0.1203776723246683 
-2.938469228492059 
-0.1248841852680123 
0 
0 
0.1406771135711493 
2.026621394601194 
-0.04262014498946244 
0 
-0.1865767235671016 
0 
0.8833459280255854 
-1.369733938553452 
-0.2156099774303179 
1.170668487252406 
0 
-2.372754229892538 
0.5234310016094421 
-1.797582766527507 
1.480248982049997 
1.555896285129298 
2.039836688574053 
0.3761763154684916 
-0.2615009434066399 
1.067570904974270 
0 
0 
-3.008550185596404 
0.07501728886103376 
0.8503978482067965 
0.5287293203774940 
-0.8065806795180549 
4.766442971002871 
0 
0.7860737587178015 
2.953386774669927 
0 
-0.8086635052088695 
2.170363915542326 
-1.680488330292338 
0.2914863592541429 
0 
-1.435897204055148 
0.1902204076550304 
0 
-0.3583147188316720 
0.4593028171881981 
0 
0 
0 
-0.1243828458062981 
0.03226809902424327 
0.1034155611753796 
0.4864811286164198 
0 
-0.1157415042602762 
0 
0 
0 
2.861457297853625 
0.02930518584235367 
1.365357930714384 
0 
-1.491292607693602 
0 
3.490218946803863 
1.627035542323414 
0 
0 
0 
-1.566722218454291 
0 
0 
0 
-1.456303693436443 
0.05925372719791855 
0 
1.652594501649285 
1.381659845398310 
-0.1605208667747278 
0 
-2.482262041667219 
-3.733141060309278 
0.008169900069705013 
-0.2369707554645897 
-0.07636654067837823 
0 
0 
-1.798511397871654 
-0.9196430260188471 
-0.3348035299357668 
1.084274836992284 
1.857595174051481 
0 
0.9260304122769013 
0.07245406813740624 
0 
0.09215688783515419 
0 
0 
0.5857435146177238 
0 
0 
0.4991676280033639 
-1.066557998386674 
-0.06197599943986509 
-3.548537452436455 
-0.2650554298828121 
5.447529837044637 
0 
1.532827314549826 
6.822117244488561 
0 
0 
4.812386481334434 
2.461171300254646 
3.475070871603822 
-1.880049126609613 
-0.1398386779459796 
-0.3790974547826186 
0 
0.3750265588021110 
1.532049217505038 
-0.3751348799667860 
1.990797717446312 
0.8626737204644328 
0 
0.8528828178353421 
0.5881438475678108 
-1.013804371117455 
0 
-0.6121936785435349 
-0.6397415775136626 
-0.6967420852421252 
0.7906592778917474 
-1.081472054408944 
-1.417343952168743 
-4.670991016385046 
-0.2159504048439720 
-0.9165769898325156 
2.065413242739422 
-0.1243574475025132 
1.210888641188756 
-1.515341805314229 
0.05140185417882929 
0.2968380115220539 
5.656014804393619 
0 
-0.2839385029061696 
-2.332207772929757 
0.3175797947977250 
-2.011202891887659 
-1.721884966168012 
5.005158504608581 
0 
0 
0.3500038477008999 
0 
-1.438332871582404 
3.896091165684531 
0 
-0.6681123611797782 
0.08028517685564743 
5.638939000264524 
0 
2.864556180305554 
10.83671406766736 
0.4086286482946711 
0 
0.9193243393780004 
-0.3952136234678697 
0 
-2.050517683199999 
0 
0.3345547654332561 
0 
2.043115448723538 
-0.8168430744850703 
0 
0 
0 
0 
-2.156535950770816 
0 
0 
0.8817227261811902 
0 
7.650399636309163 
0 
0 
0 
0 
-4.769624505658400 
0 
-0.4200178694720539 
0 
0 
-2.491421008821590 
1.244609331833899 
0.1424528288547572 
2.318647480044606 
-0.009345706077264926 
-0.2473540280599317 
0 
0 
0.2702776939774007 
0 
-0.08152083782517192 
3.086462428801015 
0.2421737193196535 
0.4207058857410204 
0.06572711070552718 
-4.182225737919539 
0 
-0.1403137677334263 
-0.5156954888557430 
0.8240411530216574 
-0.6013359467135216 
-2.502052527467044 
0 
0.8427494559753849 
0.7123306163339748 
0 
0 
1.290571023815613 
-0.6945454561192069 
0 
-1.549585589812563 
0.1461448119353383 
0 
0.2604473504860956 
3.076059328619881 
-1.266169053366776 
0 
0.1403151148603466 
0.04920055933534422 
0 
0 
0 
0 
0.9086038119404857 
-0.9203275338976284 
0.08572541967521163 
0 
0 
-0.6659553271748679 
0 
0.3406695223784314 
0 
2.362100273765980 
0.04697782490788871 
-5.619445810644258 
0.1608705621928646 
4.150873839415205 
0 
0 
0 
0.5725346838408947 
2.019099570100953 
-0.9770661909015159 
-0.1524105352852846 
0 
0.6657001615446352 
-2.699933830203226 
2.558617974238326 
-0.8760594574852010 
0 
1.328838165037648 
2.616164561312364 
0.6801109588466279 
2.022161584059596 
0 
1.900282557571935 
0 
0 
2.076541597603375 
-1.589373347719169 
-2.814008980900534 
-1.375764489621291 
2.738461096921085 
1.063094140855379 
-0.6853213085265255 
0.9282357664652088 
0 
-2.137788627029535 
1.704086434098644 
-0.4860792720280669 
6.408229641521311 
0.9732173462116515 
0.6841106039129009 
1.312427943971561 
2.487937970715963 
0 
1.811647911576784 
1.280757552525779 
-2.246979160308628 
-0.8200660388466174 
-1.350299745244478 
4.676007486449525 
-0.8794526137601447 
-0.03047319226480028 
0 
0 
0.9907108279898333 
0 
0 
0.09530259132657415 
0.1029696060008685 
2.424576473509636 
-0.6706671536901612 
2.327016244206078 
-0.9180450179031978 
3.956735307940618 
0 
-0.2782002477598903 
0 
-1.545721621974860 
5.994842374544392 
0 
0.07145971770583472 
-0.7810302567165030 
3.468499880548103 
0 
0 
2.997611661421551 
0.9109006516469635 
0.2130104141438459 
1.371395541159162 
-0.5329180944536853 
-0.2272259747500051 
-0.3521189837463669 
0 
-1.883232212604078 
-1.977149449886135 
0.8665333984776445 
-1.404243572321981 
0 
0 
3.540407134083872 
0.5696218215533104 
-0.7757183359481818 
2.779983888895101 
0 
0 
3.956990510829038 
-1.591462893440864 
7.890092483906031 
-0.4859784263648741 
0 
0.3078075463224101 
0 
1.071665478432630 
0.03288342663890999 
0 
0 
5.335847550445815 
0 
0 
-1.205860653920636 
0 
0 
0 
0 
0 
-1.241394418372322 
1.400440579353847 
2.450511900780489 
-0.7720672884747051 
0 
1.381642978887284 
0 
-1.182308303014576 
1.314705282203044 
0 
0.1975194600385316 
0 
0 
0.7442277889546820 
-1.199347732232457 
0.1144037456110763 
-1.760849877552215 
0 
0 
0 
-0.2418826285886067 
0.4616768721115823 
0 
0 
0 
-1.003957043878350 
0 
0 
-0.8163104273786639 
-0.9975810837139997 
0 
-0.06430537382172163 
0.4559438667023020 
0.3711588295116249 
0 
1.110736354733979 
-1.203535573740770 
-6.734540914440931e-05 
-0.2354620602924167 
0.6622213666946319 
-0.2795078914151200 
-0.2012289576327361 
-0.8260694625258719 
0 
-2.909095565839621 
-1.758037598608985 
0.6164141426746842 
1.168513970236026 
0 
0 
0.5747177906509516 
-1.714523428333011 
0 
0 
-2.200906016934253 
-0.3217091275263813 
-0.5434491645471624 
0 
0 
0 
0.3958444980021396 
0 
0.2697885939475524 
-2.944088032746492 
0 
-0.2769914253947469 
0.08851538997143482 
0 
0 
0 
0.8625507766091800 
-1.152585511057656 
0.1654561092089167 
0.2841742203984567 
0.09308282116916587 
-1.219081481840318 
1.847300417915205 
0 
-0.9190478610136945 
0.6289295910119359 
0 
0.3827310061449794 
0 
0 
1.017711260982362 
-0.8097883083244983 
10.16055651042719 
-0.02730969555949231 
0 
0.3953180647969571 
-2.005073859505084 
0.7071947629052980 
0 
0 
0.3417886188876225 
-0.4824989895331362 
0 
-0.005134138712087510 
-3.973822648374665 
0 
0 
0 
0 
0 
0 
0.3476766422212703 
0.9296412482967122 
0.2948502672806874 
0 
0.1257301697876213 
0 
-1.616087598650128 
-0.2063765280818167 
0 
-0.5640047729267181 
-0.2264908193556473 
0 
0.8600668789160250 
0 
-0.3210616862391799 
0 
0 
2.253113151817132 
-0.1398660109961498 
0 
0 
0 
0.06742589357142599 
0 
0 
-2.467920695906231 
1.280876049187361 
-3.867669300997213 
-1.451826828849833 
0 
0 
2.101796918194693 
0 
3.789701392244836 
-0.2394930997655675 
0 
0 
-2.606922436654468 
0 
-0.3537772361146563 
0 
-0.6194525799703705 
0 
0.4931617666253008 
-0.3566045611834340 
0.4448457677754378 
0 
0.6887388182866667 
0 
0 
5.581949779661091 
4.495200067292867 
0 
1.973601729228779 
0.6741696346233760 
-1.063735762252167 
0 
0 
-0.4048410321285306 
0 
-0.03920747277718562 
0.1300548676162893 
1.036172261043962 
0 
0 
0 
0 
0 
1.572486341550193 
0.9040822532536422 
0 
0 
0 
0 
0 
-2.880733146505705 
0.9779723541386051 
0 
0 
0.2993231081620722 
0.5211218329286675 
5.144217670657791 
1.453814549072017 
1.256704511469164 
7.526089408136699 
0 
0.2185040107727602 
-0.4349555969252310 
1.108862527622342 
-1.829614884834232 
0 
3.129355500217788 
-0.5903195760300830 
1.417045371523199 
0.1292958459767638 
-1.962450768315698 
0 
1.844869861325850 
0 
5.359375864967436 
0 
0 
1.549370371557104 
-0.4393639619599273 
-2.017706780818120 
-1.367511437837430 
0 
1.673593381610355 
-3.506741485192420 
0 
0 
-1.741018312532307 
0 
0.4902069081708846 
2.411142228119915 
0 
-2.382923230061550 
1.309191464959643 
1.842241462351330 
1.931440646702421 
0.1322680731943766 
0.3689398805603683 
0.8227764417196628 
0 
-0.3975075308839896 
0 
0 
0.6425365096089339 
0 
0.7750562707059525 
-0.9552630551433210 
-1.219699118503718 
0 
0 
-5.057098203645855 
0 
0 
0 
0 
0 
0.04051444669885106 
0 
0.8332171600079497 
2.369638637670986 
0.6608736320433077 
0 
2.304535515353885 
-3.605196110637732 
0.2947674140112240 
-0.5548337042004667 
3.098953717342624 
1.608509261383952 
0 
0 
0 
0 
-0.1357123089232203 
0 
0 
-1.055290771608154 
1.312552147190777 
-0.1426657121981825 
-0.3224101424301191 
1.417401077277394 
0 
0 
-0.04623282650797130 
2.570019466711162 
-0.7297574276927234 
0.1051501758890617 
0 
0 
5.383059851217540 
0 
0.3051806623487968 
0.9589097197764344 
0.6783053431630381 
0 
0 
0 
0.3132205632469270 
0 
0 
0 
0 
0.2108993249079364 
1.036711497354433 
-2.498103710147623 
-0.2254874142680915 
1.015353568546132 
0.3989312675973391 
-2.253830861580758 
0.6206808125308687 
0 
0.2038795637368832 
0 
1.808866809832108 
0 
0 
1.766506303023407 
0 
0 
-1.890243640600543 
1.690118447592635 
0 
0 
1.271853296496806 
0.1561378341215777 
0 
0 
-2.569699577543128 
0.6535585016677480 
-0.8511996785996916 
0 
1.619903331398068 
-0.3866512743496816 
-1.170896107362601 
1.268608946477357 
-1.454184811704090 
0 
-1.334865336334546 
0.6016229275522472 
0.7456583985565557 
1.945025582405368 
0 
0 
0 
0 
1.232489985288029 
3.747868245713032 
0 
-9.449280255926980 
0 
2.693116661558928 
1.083069490169557 
2.758197231294168 
0 
0.007989586207379898 
0.4254794090380802 
0 
0 
0 
0 
0 
0.1223178768998268 
-2.767082464444904 
0 
-0.2617885877108636 
0 
0 
0 
0 
0.2732203808411699 
0 
0 
0 
-0.4882792105088887 
0 
-2.637069743127645 
10.95531476384289 
2.145293023151827 
-2.613710658118735 
0.9167003842274735 
0.1155549055092135 
0 
-0.09162741818868820 
0 
2.257049871190966 
0 
0.3673548627533476 
-2.185277380584683 
0 
0.5045548122539715 
0 
0.2691461202503698 
0 
-1.849976258233982 
0 
-1.672748473977189 
0 
1.460513864980926 
0 
0.1169830190622712 
-0.2392274229671016 
-4.487884958238052 
0 
-0.09737311631086304 
0 
0 
0 
-1.340665387077663 
0.2759242482110594 
0.4719179533736434 
0 
0 
-0.5025608974341975 
0 
0.04425797661023309 
0 
1.289780073931003 
0 
-0.8445182923312311 
0 
0 
-0.3767479751574303 
0.7873872571160759 
5.042771781600075 
0 
-0.7174850062751341 
1.205331053485016 
0.3343683983619034 
0.1662016861377608 
-0.05610867902757795 
0 
0.4303429013344882 
0 
0 
-0.05050408020354595 
0 
4.237450248263794 
0 
-3.609709235975648 
0.5252898443305646 
-3.483287298056230 
1.078862795770262 
0 
0.5115742531997299 
-1.098123751748556 
-1.499808356447093 
2.022899220241328 
0.2434805474878727 
-1.551183243757009 
0.1950337101650164 
3.376278678160761 
-0.9584703562220325 
0 
-4.537225631455337 
0.3284770342960047 
1.781944508823319 
0.4699922029503965 
3.469244065052573 
3.767691850899274 
-1.457787225034348 
0.6060238004370437 
0.1108275170656894 
0 
1.574198558568102 
0.6407797282904689 
1.923440026331928 
2.341072078530081 
0.4363528562495129 
-0.3192938322774814 
0 
0 
0 
0.9208264522132223 
2.238849900837393 
-1.755918088559612 
0 
0.7685712540523908 
0.2369020082044205 
0 
-0.6681725970655654 
2.681496663934439 
-0.5315567150382858 
-0.4666382328625802 
0.8891002017416056 
9.113362607686340 
0.6779078118904246 
2.580537549988803 
-1.932578427598238 
0 
1.424252201188080 
0 
2.860769749259040 
-1.600858841305835 
0 
0 
0 
-1.798098854547709 
-1.090265520558651 
0.4417654681959236 
0 
1.440523440098740 
-2.836984323112009 
0 
-0.1953026241766355 
3.070043847864310 
1.544068166956776 
8.569442053313590 
2.117053411051469 
0 
-1.599953088224155 
3.140969754600000 
0.8715454435956400 
1.594607243974027 
0 
0 
-0.2516800944301437 
6.003504330763492 
6.616103847888590 
2.303104026726929 
-0.2498808299564349 
-2.560213712961590 
-1.413466051319101 
-1.081220880448347 
0 
0.05849725914230375 
-3.552827185523943 
-0.2745060114404755 
0.4438911596938895 
0.3632513049729534 
1.904062250790062 
2.614101935171150 
0 
0 
0 
1.155518537025365 
-1.280699880177923 
2.626433313283291 
0 
0 
0 
-0.5463798430408646 
0.8857581486153386 
-1.034572350044192 
2.985610220012454 
0.1562173924885152 
0.5600920972598977 
-0.2295997215281764 
0 
-0.4272873701976211 
-0.5470693955474111 
-0.4215601122084367 
0.3667141981582506 
-0.7731140188362703 
-3.797204817745564 
-0.3470094204634097 
5.122721118883210 
1.918279469739349 
-1.184014341877504 
-1.230008668656519 
-0.2649053283770051 
0 
0.2247074118153401 
-1.187666348561819 
-0.7938260652516393 
0.8732327260138315 
0.3382668262431043 
0 
-0.5269230457681147 
0 
0.1550592045026367 
-2.705634672648901 
0.7312354779533097 
0 
0.1304011858435522 
2.477818144328624 
2.331998802837569 
0 
0 
0.5569485155038153 
0.5701010442615194 
0.8077160095531720 
0 
0 
0 
8.692069417049282 
-2.595969028562811 
0 
0 
0.1566130302063471 
-3.942105379263142 
-1.789370460488610 
1.032866153679716 
0.1939323603829884 
-1.262046860418663 
-1.206632241034011 
-0.4195232114808929 
5.830254053912441 
1.421897722823871 
-0.3952794728192103 
1.660740078560990 
-31.55834626773707 
0 
-1.935937068026751 
0 
-0.5941040834591285 
0.4641562425738756 
0 
0 
-0.9044244646641894 
-0.7051464844646724 
0 
0 
0.9258227763966902 
-4.122020001104121 
1.573287802194022 
-2.992065897032044 
-0.4368820203410693 
-1.974598637392960 
-0.3664882695704393 
0 
2.039424631350585 
-0.7489101320043301 
0 
1.097842906159580 
1.724352742632989 
0.6227599153494523 
-0.2165739225237344 
0.1223112859197422 
-0.1557588060108915 
0 
-0.3863325072347706 
-0.1699355714684788 
0 
0 
0.4588707151041009 
0 
0.3017420629795162 
2.092854073375472 
-1.075701752207722 
0 
-1.281122356769781 
-10.73629900054454 
2.899264061940432 
-0.002793378076480391 
-0.2615074669452301 
0 
-1.687492702691555 
-0.9884840833996489 
0 
-0.1210694258200289 
0 
-0.1257336437617697 
-0.03386766553750026 
-0.5687909625785479 
0 
0 
-0.2536674104101019 
0 
0.1348263206491285 
-2.152870064668842 
-0.6811598558839589 
0 
2.039474118046695 
-3.366983992623569 
-0.8512630308465188 
0 
-0.006271065149793587 
0 
0 
0 
4.040034934488202 
0 
0 
0 
1.096197243139210 
1.713330780466585 
-0.3279795663593866 
-1.463732150396010 
2.178757294894373 
0.07696073861984888 
0.1176090163881264 
0 
0 
1.007365168311557 
0 
0.2319165719798207 
0 
0 
2.511834667265660 
0.1085862086813840 
0 
-1.091131024377252 
0 
0 
3.708096182634884 
0 
1.083247125569787 
0 
0.1360068800714542 
0.8227489927572479 
0 
0 
0 
3.408939552616621 
0.3751655723110097 
2.248715472719948 
4.454167259763747 
1.101506721564432 
-1.066071824702769 
2.187308831093503 
-0.5067932702833403 
0 
0 
1.983754328902888 
0 
0 
2.178225004210520 
-0.8953380806238140 
0.2875261589001839 
0 
0 
-0.4720387201931675 
1.188741137985744 
0.3448943817313263 
2.009167588961852 
0 
0.7083695354874373 
0.2425887071271144 
-1.032389474721912 
2.585072671590854 
2.095227989836211 
3.403867973056221 
-0.7135858359738144 
0 
-5.899080465272985 
2.900718394907591 
0.1518249560485320 
-0.2391311984864358 
0 
2.783889349811015 
0.9824148554783455 
0.2374002395973401 
0 
-0.1661740088430990 
-1.035434445830661 
0.7778378472839651 
0.3510794352575197 
1.050261368243586 
1.750921867374925 
0 
2.654509797303897 
0.4938134721254027 
1.480760623746684 
-0.5471093642056851 
1.327528994428437 
-0.1826257913843659 
-1.828596436509431 
0.6677071167298557 
-2.430693050670570 
-2.807943480921204 
0 
0.04334082360618941 
0 
0.7267635325287896 
0.1476346995474638 
1.234626119361002 
0.7171198478931375 
0 
0.3041329387388370 
0.5117010762782256 
0 
-0.2894991312358547 
-1.493602041792546 
-1.723732671606088 
1.430841165465485 
0 
-1.234172694143055 
0 
0 
8.759889699177277 
-1.237777893365777 
0 
0 
0.3043818794346123 
0 
0 
1.786834203268210 
0 
1.246390066310641 
0.5482399823440790 
0 
0 
0 
0.4526504648312557 
0 
0.2739561640213547 
1.456884333568838 
1.747430817275168 
0.4170275525130476 
0.5995148846113121 
0.1257869550235593 
0.3576501485481762 
0.03951878738811854 
1.925468596130132 
0 
0 
-1.520686656001869 
1.830431441279646 
0 
0 
0 
0.2366677373637325 
0 
-0.4590408449806365 
-4.492558118548311 
0 
-0.8467495716992873 
4.348517317253331 
0 
2.000283551846381 
0 
0.4175915096337365 
2.605467159097264 
0.1508902428344899 
0 
-1.894673971327776 
0.05573330629962645 
0 
0 
0.1519002269722656 
-0.8583573850627560 
0.1242000235322501 
0.2794273592123342 
0 
-1.097149359961791 
0 
0 
-0.5841857734534850 
-1.382118864793216 
0 
-1.350380523307480 
0 
0.1168965409678968 
0 
2.551128096882650 
0 
0.2139720351470923 
0.3819169134713540 
-0.8312342550567240 
0 
-1.973598978806091 
0 
0.005382704629122770 
0 
0.9194193159399321 
-0.7367242394465127 
-4.580208060726070 
0 
0 
0 
1.220290633642215 
-0.2435010578770782 
1.571674688095388 
0 
-0.6009615754922010 
0 
-2.776332976835685 
-0.5189981196427178 
0 
-1.154572856210353 
0 
-1.105681248230405 
-0.3688164949552891 
0 
0 
0 
-0.2399127903646356 
-0.1733670253350978 
0 
4.156859366491463 
0 
0.3352965987735816 
0 
1.146151901414416 
-0.2033400167803921 
2.233681642016458 
0 
0 
0.01413767571740765 
-0.3483476857723508 
1.155631856751097 
-0.1275206120871657 
0 
-0.1669539441609040 
-0.3507564586083556 
0 
-0.4472607768685055 
-0.1107982821350686 
0 
0.2340989838171259 
-1.024727211998844 
1.947049573134782 
-0.06141912520244122 
0 
0.9945974901705155 
-0.4404141366129909 
0.3423132129002684 
0 
0 
0 
-0.08679056092859233 
0 
0.9587550590416951 
0 
0.8617146006068002 
-0.3930945043647292 
0 
-1.062812329686574 
1.581631173537569 
3.610268779718177 
0.1388163334442679 
0.1943936916342948 
0.4238448428989530 
0 
0 
0 
3.408841531131706 
-1.337535535107556 
0 
0 
0 
-1.211257623035061 
0.2159676128261816 
0 
0.3249009324694159 
0 
0.2728041741325626 
1.714658409447162 
0 
0 
3.623917874783163 
0.006923338197215023 
1.565539872933425 
0 
-1.327555814857335 
1.728309980887273 
-2.223611160110540 
-0.1280967901283763 
0 
0 
7.234839760559985 
1.085349938009105 
0 
-0.4896767988453411 
0 
0 
-1.872238726371227 
0.3596782142556532 
1.364531196000306 
-0.1463498651087303 
0 
11.72846022037912 
1.671328228516336 
0.6267960686597944 
-0.8467626434585747 
0 
0 
3.737738083231029 
-0.5489281167309867 
-1.973952021432516 
0 
0 
1.571773787590449 
0.4434643828469849 
1.166682999480815 
0.1698840421489560 
-0.2074755355327368 
0.1212911388436486 
0 
-1.193246087262218 
-1.630895705409330 
0.1637113913720391 
0 
-2.053289275166890 
-2.081915348780914 
0 
0 
0 
0 
0 
0 
0.07166837599841946 
0.1370865001720512 
0.3025045300971790 
4.885530996855088 
0 
3.336254869758281 
0.1107195475522767 
0 
3.810308872806167 
0 
0 
1.505237913170689 
0 
0.4766174197600589 
-6.333289209139103 
6.197628800917556 
0.4504551516345758 
0 
0 
0 
-3.019734307879273 
0 
-1.251090403333347 
0 
-0.3539487326551927 
0 
0.2844600800481912 
0.02316383116823245 
0.5618679651634644 
0 
0 
0 
-0.2910737580092858 
-5.281294858310508 
0 
0.4782711356379948 
0.3121126933324175 
2.291832783823099 
-0.03857594047566251 
1.579538219081044 
0 
0 
-3.448395387599135 
0 
0 
1.748675583985183 
0.1377789108858911 
0 
0 
0.02938191706890692 
-0.5754572654781023 
-0.1166769775030747 
0 
0 
0.5690364659110854 
1.538724686882354 
0 
0 
0 
0 
0.07881415719449722 
0 
0 
-0.2368394389281404 
0 
0.4510501244943841 
2.261498818040649 
-3.963676193150385 
0 
0 
-0.04330876704517117 
0 
0.5249854926638713 
1.706923020083286 
0 
0 
3.423477352945899 
-0.01077268500591878 
0 
0 
0 
0 
0 
0.4081187180458710 
0 
-1.067328971329347 
0.2256209226644558 
-0.5623573695525071 
0.3462196514719290 
0.6987568635651153 
-0.4681539925555339 
0.3098788827130627 
1.302633778317561 
0.2153932607235375 
-0.1349375594532994 
0.5819921151189822 
-0.9046096502113244 
0 
1.653547614859111 
1.264413020628110 
0 
-2.666222883057671 
0 
0 
1.154038794669041 
0 
1.737235653946320 
1.911444821994623 
0 
-0.9799753031466123 
0 
-2.198632758298708 
0.7655839462510305 
-0.3234647624314446 
0 
-0.9266153648309036 
0 
0 
0 
0 
-0.3386264597203167 
0.09206182540212526 
-0.3000645132965696 
0 
-0.2385021257117934 
-0.08015076961566980 
-0.5836789717571496 
1.203837421128239 
-0.2088624787735562 
0.8600599149102118 
-0.2850516225944754 
0.3463940474288190 
-1.682330966698666 
0.1728858164155232 
0 
0.2590823709271268 
0 
4.178319680204772 
3.259247004724226 
-0.1067288506291853 
1.335154503189197 
-1.292857265678035 
0 
0 
-0.4660310794084830 
0 
-0.4173042774997207 
0.9177106650404765 
0 
-2.327063262115029 
-0.2036985214459265 
-1.896587066123986 
0 
0 
0.3795456495161471 
0 
0.06860040812508039 
0 
0 
0 
-2.767203917487792 
0 
-0.6173720949815414 
0 
-0.09775579973088455 
0 
-2.321911306214767 
0 
-0.5257461997600399 
-2.084766020376036 
0 
0 
0.8815520671463610 
0 
2.879125464589346 
0 
0.9445900203650813 
1.762516416711720 
1.342170124483260 
1.292538773362282 
0.3407314547593136 
0.1150251725960592 
0 
0 
0 
0 
5.062504310748663 
0 
0 
-0.4640034018200570 
-2.842589976042172 
0 
-3.851007493980406 
0.8472795125165960 
2.230693107033458 
-1.863945853490429 
0 
-0.6588475739656254 
3.310783894837525 
0.1078921003930172 
0 
-2.651068277620501 
5.056147811414537 
0 
2.820938342674842 
-2.206337500387099 
0 
-1.609880992180589 
1.046846681975602 
0 
0 
0 
0.8084266146661002 
0 
1.910934060752981 
-1.576081050725490 
0 
0 
0 
-1.093208138070954 
0 
-3.846767191023399 
-3.248753772311503 
-3.017368224840490 
0 
0 
-1.055391404563592 
-1.447603524757712 
-0.9664015098454878 
-1.450158766913358 
1.654268846755099 
0 
0 
0 
0.2235602075101741 
0.3135452412095433 
2.596373697222123 
0 
-0.1544176246937411 
0 
0 
0 
1.946044581048087 
0.7000435076098750 
0.9887513913908575 
0 
-1.901042143393355 
0.01741293647592768 
0.9039964000699432 
1.209834123702492 
3.747094576060798 
-1.504550094124465 
0 
-2.160967103550376 
0 
0 
0.7229668169406461 
0.6603988400572967 
1.456816166318985 
1.900163311240028 
1.759137281744479 
0 
-0.3344864746773941 
0 
0 
-1.624456387152213 
0 
-0.5698454771385586 
0 
0.7108006801667408 
-0.1955526968334440 
0 
-1.509650988827757 
0.1831211798253923 
-1.024825454667091 
0 
0 
-0.8738524077184953 
-0.5635154936943301 
-1.516996285187595 
-0.6488638811966784 
-0.1620677017733505 
-3.802629457884407 
0 
0 
-7.507094388782040 
-1.459687125129652 
0 
-0.5780321268355554 
0 
0 
0 
0.5436260530634940 
0.9798121862727033 
-1.247429029532440 
-0.3345446542694819 
0 
0 
-2.612165119997556 
0.8917641728599071 
0.6130886864326734 
-0.6368372982038257 
2.703466591104613 
-0.06736609421997436 
0 
0.1977774916185422 
0 
0.7696804328595084 
0 
1.284335326649361 
-0.2138751543822195 
0 
0 
3.223989279571040 
0.4920914324779722 
0 
1.437791054518415 
0 
0.2554452267860878 
0 
2.095988363670399 
0.1081917948174399 
-0.7767211837227895 
0 
7.701332502839179 
1.742117389945085 
0 
-1.470664301710964 
-0.01263010391963243 
-1.112435880158196 
-1.796838093712927 
-0.7104835059344212 
0 
0 
0.01883646523155136 
-0.3960859319017898 
0 
0 
0 
0 
4.984312012418609 
0 
1.429269574862921 
3.550183403037982 
0 
-1.627750217920994 
0 
1.155596070425540 
0 
0 
0 
0 
-0.2034059191797496 
-0.4227002359534587 
0 
0 
0 
0 
0 
-2.862211957504616 
0 
-0.1774882125237857 
0 
0 
0 
0 
0.7577180825276013 
0 
-1.032673266819357 
1.670753877377129 
5.110980845713560 
1.633813016669148 
1.397817691657030 
