solver_type L1R_LR
nr_class 2
label 0 1
nr_feature 49999
bias 0.000000000000000
w
1.240444032509075 
1.029358105554086 
0 
1.202004804697959 
0.5050341561303466 
0 
2.558219147889221 
3.851959085635090 
-0.04704811105842191 
0 
0.8557522110875779 
2.754551972570437 
-0.8115310465363027 
0 
0.2807698700127673 
0.09379111348585695 
0.2737889010940910 
0.3994419056400393 
9.764665712252500 
-0.02466549474550617 
0.2597784431809138 
0.05139466962311845 
0.6211220001033314 
2.177696380301691 
3.462675650102767 
1.237318852522803 
1.172784862796576 
-0.3524246386581058 
0 
2.263657314697101 
0.02000688208663963 
-0.4622264880474959 
-0.6504056467015029 
2.492585825790571 
0.9008434111914743 
0 
0.1844602465691431 
-2.468389518567199 
2.338767904743645 
-0.02587236953144501 
0.4949535886757530 
-2.136296739793801 
-0.3445876327189943 
-0.8824636026068418 
-1.041487323399060 
-1.029277768864586 
-1.395751914152184 
0.2308759136306618 
1.347918211143705 
2.460425984381630 
0 
2.253781457108401 
-1.854743875222985 
-1.709345956676964 
0 
3.136665405763151 
-0.09875267851256960 
0.7711432461146790 
0.2552691769985303 
0.2428443381844323 
-1.359417216644098 
-0.1826336489486822 
-1.056684643933251 
-2.398301822291858 
0.7975843800941543 
0 
-0.3172663607303617 
0 
1.788025994154808 
-2.337024711054485 
8.239491188273005 
0.3023799358103111 
0 
-1.128439915271410 
0 
0 
1.477226890921069 
0 
0 
-3.061011080815502 
-2.160268734135928 
1.639277064096582 
0.7129410730498851 
1.794616947038224 
0 
1.513734736702868 
-0.7049762356952577 
3.612543871674335 
-1.663615170080578 
1.581347522541238 
-3.355211442494711 
3.679965065606126 
0 
-1.315008135804687 
-0.1207633192508602 
0 
-1.369178538984460 
0.1335823660494924 
0.7274682846786835 
0.5347842639991610 
-0.7139299841102521 
-1.585029603302517 
0 
-0.05233207304361047 
0 
0.1648546281292236 
2.270577412681159 
-0.4090486560935525 
-0.09162353887860919 
0.5619904101735833 
-2.126174581471627 
1.049578656940842 
0.3382308561253254 
-0.04283312163126207 
1.175272466523629 
1.928744347654783 
1.171280519894304 
0.2301037801061012 
0.2507760815840832 
5.995615752756348 
-0.8969749768455970 
0 
0.3696984979061113 
-1.696638233604000 
0.4862128479395799 
-7.323563324417004 
0.5061223486510504 
0.2588195087929950 
1.729735549124290 
-0.1479564229026453 
-0.6294086487297978 
1.317423532101136 
1.392036731218099 
1.599774521391760 
0.2593665748654825 
-3.138175537873733 
-0.6187234756146461 
0.8894517829739660 
5.191652198752904 
0.3567508391248733 
-0.5068905189437806 
-0.7114182007413441 
0 
0 
-0.2217497865282028 
6.497177886759293 
0.5851963084428562 
-0.5421733613495202 
0.9039900855448899 
1.685502875086873 
-3.804883142537399 
0.4123366492043500 
2.125835646252926 
0.4765671478586876 
-0.9335539139420820 
-2.224076236590452 
-0.7112226022594762 
0.8318490818363767 
0.5916326600435271 
-1.670112885960523 
-0.04623631244094636 
-0.8882108028172373 
1.503290286959135 
-4.181098199959854 
1.823381303810693 
2.920988640783623 
0 
-1.212275841219379 
-0.9589510076389867 
1.079956821781839 
3.874141837938459 
-2.780022905919156 
-0.2260802516475557 
-0.1253269294677549 
-1.329026856807699 
7.481515077829347 
-0.1822798005592298 
0.5507457302852585 
7.382823596036163 
-2.225626083461342 
0 
-0.9279993896693060 
0.3387310542284969 
-0.4005163301509660 
-2.576781807437934 
-1.636758733288200 
0 
0 
-0.7242986465605462 
4.737414811852030 
-0.006614685431316159 
-0.3290494340566114 
0.05865514089412016 
0.5699010252038079 
-0.07156585278410471 
0.8214027572026020 
0 
0.3578808662989563 
-0.8411963890357430 
1.434042627204726 
0 
-0.2419672336937558 
-2.584022395700515 
0 
0 
0.05462529790145122 
-1.300621600191893 
-0.03666718288947947 
0.6067915772810915 
1.174416925857921 
0.1286807399663253 
0.1709828428854937 
5.138721812073545 
-0.6598018007173941 
6.339458044392570 
2.633063620517467 
0.3598299855323155 
6.500785696487652 
0 
1.266928205457200 
-0.3774708626755736 
6.991070857418616 
-0.8777060439595497 
-0.2935441076548581 
-1.698816945199792 
-0.5954740936575115 
0 
-0.8615601019272713 
1.067436393592450 
1.444039300814622 
0 
0 
-0.1691236057172112 
0 
0.2762752607885952 
0 
9.110190235476338 
-5.598411201828865 
0 
0 
0.01399721944913768 
0.2325827841859843 
0.06657495051026358 
2.131216044730383 
0.8011866693867474 
-1.998584869462755 
2.625005365349523 
0 
0 
-2.312091679005082 
-0.8022981727408406 
-1.280545575452697 
1.811507502871414 
0.6786568416771506 
-0.8536208321946583 
7.540967094780706 
1.051831484355208 
-0.7912174521251280 
0 
2.851300738274292 
1.493957455880651 
-0.6067098105305386 
7.868924500363344 
-0.2210183869771885 
-0.7099201560212061 
0.02953285697801034 
2.616931392587571 
0.2294242046985457 
0 
-0.1587242733885723 
0 
-0.7481875280898607 
0 
0.2311936194384117 
3.623041121863579 
0 
0 
3.294472921822637 
0.2149154711702964 
-1.175756188279523 
0 
-0.8564239265081817 
3.199164918412450 
0 
0.08043558878841627 
0 
0 
2.178118618744116 
0.7286860823351802 
-0.5070174593893000 
0.4170240308134572 
0 
0 
-0.1583738307137681 
-1.349278083593097 
1.079144604328170 
-0.7128908477992929 
0.5980841170295844 
0 
2.179829964632142 
0.5996469668697872 
-7.151717310975160 
0.1478062367756211 
-0.09541635687340200 
0.6679899112517338 
0.4120629179557624 
-0.5797904305039532 
0 
10.11184301644338 
-0.8524410248863997 
0.5147287830892673 
1.165958622480369 
0 
0 
-0.05386584054244947 
-0.03900854362669506 
0 
1.438299036515661 
-0.5573145232606336 
0 
-1.223737278543716 
0.2799156173221705 
-0.3558770494175301 
0 
0 
2.092489272718881 
0.5136114564260454 
-0.5239529297828907 
0.8281564355353472 
-0.3401225903187506 
-1.489004817220105 
0 
-3.216925999730949 
1.110164711843607 
-1.224763846943364 
-1.657916242182542 
0.7116017633467155 
-0.5428713700874421 
-1.392522479770444 
-0.9976284425697090 
0.5253303423973933 
2.892959031307094 
-1.335675327553522 
0.3153221547991668 
-0.1943596834529475 
-0.03598663492108545 
0 
-1.263494053966789 
-0.08488913187198119 
2.066717886098494 
0.7311352289343902 
0.7099201093893538 
0.4080689524260585 
0.6919417820380511 
-1.731320593773912 
-1.063242490710052 
-1.462346139880481 
0.5958915998718062 
-2.519212418930017 
2.282366347054976 
5.137915574784825 
1.723033493123792 
0 
0 
1.175862714544363 
0.02528607694397718 
-0.2217103656071232 
0.3383847373020787 
-1.254620776754715 
0 
-0.5026370953730123 
0 
0 
0.4231015313533988 
0 
0 
0 
0.09449393523336957 
0.7581589099113542 
0 
-0.02576885499969150 
0.9069664922149052 
0 
1.998875951333476 
0 
-0.4229606319799560 
-0.8930591130869118 
-0.04631948441064979 
7.113563536177627 
-0.3879885588774193 
0 
0.9384026131532903 
-0.4625821317954474 
-0.2972683215439160 
1.766976819403383 
0.1657176288033555 
0.9553503518701935 
-0.8355902901748469 
1.692165291192791 
0 
0.8314575200733914 
-1.065420657384153 
-1.988281536898588 
0 
1.356684558748803 
0 
0 
0.2249519865099636 
-0.1533897019757310 
4.391517752228431 
-0.3241529355229530 
0 
3.158410575518405 
0.6185871783799985 
0 
0 
-1.595429525674442 
0.5392596525673692 
-0.1333081402117038 
0 
-2.783248619817207 
0 
0 
0 
0.005222261398347583 
0.6249407330499102 
0 
-0.1094732703078081 
12.17254983886257 
-2.756753432353311 
-0.2348986760695244 
1.813044393794326 
0 
0 
-1.306377244423308 
-2.157628155530563 
-1.495221813371018 
0 
0.2617882544707010 
0 
-1.270738937966433 
-1.919615070213815 
0 
-0.8462490412003378 
0 
0 
-0.7825388684031789 
0 
1.940346116910512 
0 
1.069934980009320 
-0.3334683329513726 
0 
0.3109533808428292 
-0.1292477475062321 
0 
-1.410370589088785 
0 
1.047118864031834 
-0.2047976858624326 
-0.4786788212918849 
1.577396108347652 
0.1092130949072751 
2.646558659108383 
0.9249615476057718 
0 
-0.4777065104448374 
-3.370843771720009 
0.8879327780290330 
-2.224084727114859 
0 
0 
0 
1.204157665925459 
1.581329165498720 
0.3250246710836263 
0.5917313839800189 
-0.4185560299389496 
2.953645648918494 
-0.2583062231266753 
-0.5045985599098435 
0 
0 
0 
-1.140525781370289 
-1.003102174393565 
-0.5504321338785936 
-2.065604316448536 
0 
-1.374662514939978 
0 
-1.830681501744600 
-1.570455584603741 
4.497580648397856 
-4.601342356458778 
0 
0 
0 
0.05496549428726230 
0.5605512646210357 
-3.844266025300163 
2.460858546758272 
0.7041616733258490 
0 
-19.68768924089862 
1.558242346986014 
-0.7258987643558259 
0 
2.199742634055481 
0 
0 
-2.218817324825641 
0.7694015374257155 
2.525656253414317 
-2.371931547138121 
-0.5949034210406583 
-2.490971606428874 
0.7884754596707029 
-0.5846408645500221 
0.8802581774108168 
1.505986283746490 
-0.4954209246310917 
0.8699472253721553 
-0.4193924153039526 
0 
0 
0 
-0.2852327466603049 
-0.3058094264390110 
0.9410650094307731 
-5.028510181798258 
0.1865520696929618 
4.002343251874476 
-0.7515702795738545 
0.1097571093288421 
0 
-1.500336653202218 
1.641527269070800 
-0.8023587480628858 
-1.200828357736907 
-1.926969442925488 
-0.2792950513410371 
-0.06432952656314456 
0.9157907997103552 
0.3072944583560784 
0.06644073657350658 
0.2397468698548741 
-0.8520842992967526 
5.445980165631323 
8.064516250149211 
0 
1.727390665670075 
-1.018738384514381 
0 
0 
0 
0 
2.019833206610698 
7.292069045830775 
0 
-0.3459389112898303 
0 
2.190883538510408 
1.109559463176107 
0.07520226155422934 
0.6393206401620194 
-0.6392070912559336 
1.099813390232307 
0 
6.830870107219002 
0 
0 
1.276949543010309 
2.265074943630792 
0.03628406061297490 
-1.154284822984962 
8.951424298930649 
0 
-1.219204175723270 
6.688018998222005 
0 
1.949462611016674 
0 
-0.3205319008614665 
0 
-0.8074954877908574 
0.4483690145064773 
-0.08483671731951636 
-2.116885454317485 
0.3157286121982597 
7.913834495449388 
-0.6053684634282992 
0.1368996786639404 
0.4156898439467945 
-0.1219823877182658 
0.7005900155885477 
0 
-3.165719759491129 
-0.6964212025236900 
0 
0 
0 
1.234688514144491 
-0.5361664070885770 
0 
0 
0 
0.5408324167361922 
0.1785951223174801 
-0.6541620938572636 
0.1425578903921927 
0 
-1.262209180659947 
4.360869185592865 
-0.4201787863909823 
1.687445535808670 
1.728857499044487 
0 
0.1357171400970136 
-0.3089948582399892 
-0.2664584786537962 
0 
-2.070684326460174 
0.08319378173609149 
0.2567701642529987 
7.060297758733395 
9.572964009902929 
0 
2.882707248469737 
0 
-2.181756710790333 
1.314756546244540 
3.742402270869226 
0 
0 
-0.8767481715126608 
0 
0 
2.597065970251566 
0.1607590098667698 
-3.564766698638918 
2.504331444569316 
0.1334607867484817 
-1.326524292970039 
-1.685063091819056 
-0.4476837546682202 
-3.271354583772715 
0 
3.601331022702603 
-0.3991500418571757 
-0.8938760189295095 
0 
0.03219425725156709 
-1.508967653564639 
0.1336176932688528 
0 
6.490723175819724 
0 
-1.886559224538501 
0 
0 
-0.3162430734260133 
0 
-1.160041465529787 
1.289403250512043 
-0.8364661403341389 
0.9050544934249221 
-0.7028138169446494 
0 
0 
0 
0 
0.6198373454792797 
2.225302868276393 
0 
-3.928535414633535 
0.3019157692767297 
0 
0.6416529342651244 
0.1062780704831086 
-1.319927377122528 
0 
5.684535836627811 
0.7648528831677797 
4.610654751393871 
5.085961269514976 
12.49180420115216 
-0.002958910374884299 
-0.7045263527113033 
-1.482701721590528 
0.4825865260814605 
2.970684235954582 
1.127716606977252 
-0.5599570575422407 
0 
0.7263001464159715 
0 
0 
-2.025167760048273 
0 
0 
-0.3818137264757355 
9.332185321158233 
-0.5431032435525094 
3.174687032276528 
3.631026523438229 
1.216242537328603 
-1.324803071630373 
0 
3.029683538928893 
2.882648818162805 
-2.027748173275885 
0 
0 
-0.8470439544852828 
-2.269866270304422 
-1.918243073143241 
0.3160683600031812 
0.5497304825170355 
-2.088510601351182 
-0.3408447503185986 
0.4183374691663259 
7.369353982606643 
-6.849091355296115 
0.3397637281576686 
-1.014281544476113 
0.7349234304820430 
0.9216255041216863 
1.187812914428617 
0.4818127288134795 
-1.267569133326582 
0 
1.665673521890047 
0 
-1.209452843850369 
-0.3221222433041860 
0 
1.211480196583261 
-1.091915957670432 
4.856686582711149 
-0.8703760580462346 
0.1728761841855258 
6.967520087938096 
0 
0 
0.5860374535536491 
-0.2609776398893964 
0 
0 
0 
-0.5865068984327205 
-1.579923669488238 
0.4831097922826557 
3.487147166074468 
-4.095241025709541 
-2.110349789378539 
-0.6233835872921271 
0.2069932770138957 
0 
8.402951106218548 
0 
0 
1.429487303247377 
0.2694541861018971 
0.7686628305337305 
1.276376130681274 
0 
1.053844493312887 
-1.191958035496160 
-0.3322892832142761 
1.161124290228050 
0.5496851313848511 
-1.174827998398628 
-0.6972818427845360 
0 
-0.08206821131319676 
-0.4517036228310898 
0.4970083559047751 
0.3481164174368184 
0 
0.4741121631878904 
0.05984129333989086 
1.782334264107576 
0 
-0.6858627749498130 
0.5386405916565238 
0 
0 
0 
0 
-3.956002625830986 
0.3717072988188618 
0 
-1.873482431211127 
3.438974759239082 
2.925113989612882 
3.864920707533184 
0 
1.497059116322497 
0 
0.9380998721504890 
-2.269132895462733 
-0.8076815754035446 
0 
0.7093955912768659 
0.9342285224940318 
0 
0 
0.2288521510535899 
-2.946350887043036 
0.8301558745140234 
10.42594963960303 
-1.994316363817706 
8.571034750258528 
-0.4964299767189137 
-0.4247119616451391 
0 
0.2761672789272832 
0.1472998323943304 
2.484767217570208 
2.443396647329724 
0 
0 
0.2172599583401369 
1.116831887579293 
-1.095354537558418 
0 
0 
0 
0.6062534451635319 
-1.062923241510375 
1.843387912600654 
-2.754387403103784 
0.4595639572962533 
-0.4867031828855395 
-1.237112917712253 
0.8565014003923384 
0 
-3.921623070812041 
3.066221983742963 
-2.304482426603141 
-3.735038905363139 
0.5125320565339386 
0 
-0.2589845030101931 
-2.122112061129519 
2.804140055953104 
0.03549474421352022 
1.293867170065485 
1.337542194455088 
0 
1.840244528397698 
-0.9462912397398043 
-5.875603536538550 
0 
0.06771447462745754 
0.03999134828229156 
-0.8698432783768073 
0 
0.1429768522514300 
-0.02111706169102552 
6.403601236413790 
0.1801496670551332 
-0.1530259989474606 
0.5186494322369540 
-0.1032939816628973 
1.918519358289643 
-3.854644642900411 
0 
0.2102043528889716 
0.3067415947644040 
-0.6817445423507779 
0 
0 
-3.604514982599674 
0 
4.971110490075982 
-0.9328524500681448 
-0.4339809095087581 
-2.325964310882116 
0 
0.5519449319299135 
-2.629138687912835 
0.01694592715087462 
-2.633483671061183 
0.8146996804988693 
0.4297715003928891 
1.628766909651179 
-1.397456999478078 
0 
0 
3.455997643988670 
-0.4872951002482938 
0 
-0.3159214260848782 
-0.2069277372754671 
0.6406255206966583 
0.4414496728869253 
2.099569036598718 
-3.229166574814015 
0 
-0.5448002729390005 
-1.080374833588475 
0.6709669339774256 
0.5212737932245057 
1.105610711910918 
-3.019966485056191 
0.9557998147141139 
2.041077309407378 
0 
0 
0.09701179554639829 
-1.705374560891628 
0.2131633044098462 
0.6393803270942389 
-0.05480972275555256 
1.183231916351341 
-1.122775097096054 
-0.08495767474955440 
0.8111617781303841 
0.3803349120979533 
0 
5.395958467082243 
-0.5384178457004196 
0.5157620481944778 
0 
-6.345147895712066 
4.128732833088936 
0 
1.148367015469352 
0.8924474938607120 
-1.488693712357067 
0 
0.2662807094525234 
0.7360575302886385 
4.246101015322193 
-0.8626200805395101 
-0.3606463933593264 
1.928964762598725 
-0.1338970517372389 
0.9804006402092795 
-0.6413065081749510 
0 
0 
-2.357106332993689 
-2.740935567586504 
1.764857960712702 
-0.7213119916458257 
0 
-1.228997879419408 
-0.1077672181998517 
0 
0 
0 
-0.6830513231280887 
-0.4215061229496351 
-1.581327278569953 
1.147023703868132 
-0.06757582481699090 
1.898501757178653 
0.2539161052403722 
-0.8870925683658403 
0 
-6.967688626250900 
-0.7955988549846211 
0 
0 
0 
0 
0 
1.285922707792551 
0 
-0.8942720244577308 
0 
0 
0.3610537320495099 
-1.365991205777887 
0 
0.3647611872705354 
1.700493088657072 
0.8611051713736027 
2.045182174807610 
0.1308364236587863 
-0.8338121341820706 
0.1542357665680508 
0 
-1.796671005907152 
-0.6191905682847464 
-1.353846292765932 
-0.4041229243165957 
-4.023312740695920 
7.772991013688722 
0 
-4.035239618202367 
0 
-1.616180477285577 
0.1098580290190784 
-1.059426517384877 
-0.5098168564193266 
0.8232757186004696 
-0.6206203436308860 
0.4747725610674182 
0 
0 
1.630307876440017 
-0.2634348322618804 
2.659607955199009 
-0.5442231333596563 
-0.4700340946718324 
-1.587498392295380 
-0.08319971965766454 
0 
5.312697105540890 
-1.572025264277648 
0 
0 
0 
0 
1.325193539804536 
-1.885365510660704 
-0.4953331719990918 
0.5970578769966178 
0 
-0.3820146227434478 
-1.347247669728950 
2.410221087336298 
2.556881488549931 
-0.2897407130665711 
0 
0.1419869337908097 
0.8757460527594316 
2.926798439344907 
-0.4493670042475253 
-0.07719014464241646 
6.666946083201985 
-3.123222629858169 
-1.667121201161524 
0 
0.3314779445378012 
2.009054159476165 
-3.060037181185409 
1.508805667446062 
0.1124317110571139 
-0.2043178738700663 
-1.007033595036070 
5.706320143696063 
0 
-0.4919564656574216 
1.259002100179255 
0 
8.350496658393869 
0.2207745953633834 
0 
0.04360037344092124 
2.153867314974021 
-2.522040861740511 
-0.03694746840772881 
3.355765407130326 
0.9916546323953925 
0.1308467878805543 
-0.1095861907341656 
-0.7450989045034283 
0 
2.593145298133796 
0.06058374690396638 
0 
0 
-0.9024101952775989 
-2.771822026106023 
-0.01468417394769584 
0 
1.214429021853703 
-0.1297467932396338 
-0.3358051584998495 
0 
1.997233517333446 
0.7748897005274606 
0 
-0.2002413077047474 
-0.7907137897496839 
-0.9658186987385348 
-1.049137437888048 
2.563967762020542 
0.5505058113688376 
-1.004197645959523 
0 
1.503288296152725 
2.364868746043449 
-0.3712834827416301 
-0.02052303632052732 
0.2744319640124120 
-2.195949857987374 
-0.1399434445766090 
-1.084670180631076 
-0.08003634854776831 
0 
0.08964653800934874 
0 
-0.1088897793575719 
0.1332934382902367 
-0.5142100022017078 
1.133915899476892 
0 
-1.475672335138026 
1.858529574479332 
0 
-0.6045866532097497 
-0.4739537120921642 
-2.246155705726789 
0 
-2.145465835474834 
-0.5970500049936445 
2.068304313769943 
-0.7759389101191034 
-1.422754395751595 
0 
0 
0 
0 
-0.5100956774254116 
10.09119287213329 
0.1894690914965937 
0 
0.7946491301793969 
1.006658763594198 
-4.460758071011291 
-1.234182615517955 
-0.2951233649361945 
0 
0 
0 
-0.5438083551818336 
0.2907368208762415 
-0.1992459403290546 
0.6901812159040598 
-0.5452185321899102 
-2.037550199076602 
0.7860257745452120 
-0.1450881022325181 
9.111971096694507 
0 
-1.643865885723966 
0 
0 
-0.09391216448545373 
-0.2088853285765628 
0 
-0.7031894231110356 
-0.3826841374415970 
0.003033271786744840 
0.2693634310526516 
-2.154288895796857 
0 
-0.5433609635205667 
0.7602291404667795 
-2.328965466785940 
-0.7695604056241906 
-1.794199952758163 
-1.272086967176753 
8.252028752821559 
-1.322896884880820 
0 
0.1450939218719034 
0.6173072784804934 
1.354179211464730 
0 
7.863161875360676 
-2.060761102914223 
0 
0.3126552511815385 
-1.162512216687084 
-1.156316721938203 
0.01862253350123322 
0.8399355689799617 
-1.423414050211767 
-1.644532802911784 
-2.517037197171421 
-2.769921372821053 
-1.260363733088860 
0 
0 
0.1963720233022984 
9.921204006171857 
0.9485437529921137 
1.532944418463599 
-0.6195338462548343 
-0.6053362664779842 
1.033749238554773 
0.6496069990320537 
0 
-3.066102166791055 
0.7394998726908705 
0.5173829162136325 
-1.071433724245543 
2.207007907470333 
0.7932150441787523 
0.8253807229704195 
0.1984647834066618 
0.2215984114801970 
-1.679196362441314 
0 
0.04189896209803840 
1.513591834577340 
0.006190769535213359 
0.8862152789095702 
-0.6747524198627857 
0 
0.8244254866314653 
2.862727400598296 
-0.2439534089739794 
0 
-0.8155964110571998 
0 
-0.3205254239504153 
1.219455593711574 
-0.8332838769055526 
0.5490142883407285 
6.999525384489615 
0 
0.9895808737894793 
0 
0.1266226697343075 
-0.3231849660450701 
6.219619560728546 
-2.844023086125702 
0 
-1.551094166031617 
0 
-0.9978134191475966 
0.1968428653577531 
-0.6099290028589949 
5.728479783180545 
-0.2678829572895252 
1.110585621738111 
-3.181885198146013 
-3.703512198038173 
0 
1.321298933700907 
0.1905211901221798 
3.894999878204486 
0 
0 
-0.8490244983609203 
-4.481792417839078 
-0.5360279936005357 
0 
0.3754713778919604 
0 
0.07139901350412830 
2.314650892070082 
-2.559135595059019 
3.665252045160576 
-0.7941428691345345 
0.6679745669246109 
-0.4026303445406518 
4.381721580989129 
0.08513916424276990 
-2.476434212733532 
-0.3317133757295617 
0 
-0.2256969234032547 
-0.1373438432555318 
0 
-0.06477530824485517 
4.136608195730812 
0.5254652999154775 
-6.273116101204121 
0 
0 
1.313295666649565 
-2.370317712782402 
4.184769101506895 
0 
-0.3412482496678594 
8.409768339787222 
9.135808430982724 
2.374834116327757 
-1.347990859358046 
0.5626671726831723 
5.590867365641821 
0 
0.4795435138555346 
0.6511054693863424 
-0.07988396347832516 
0 
-1.069348516297755 
-1.585132068115853 
0.2287705201527552 
-0.2078918689556747 
-1.923635757099807 
-3.576362247797857 
-1.292471363106686 
-0.1688904005811964 
-0.3365135943758928 
-0.3443790654803425 
0 
0.3621828405444461 
-0.05339972576416679 
0.7254860561541578 
0 
0 
-0.2478509835236183 
0 
0 
1.256894500142903 
0.2521277415490573 
-1.754273309204068 
-0.1802228962970255 
0 
0.6354511619143071 
-2.776290075979507 
4.353278702650655 
-1.492002850126017 
-0.6750464295512626 
0 
9.311617631137716 
0 
1.137268811719912 
0 
-6.663728163027402 
0 
0.6606703032435433 
-0.3638466048641136 
0 
2.607777428123521 
0 
-3.564732074520824 
-0.1185979379348058 
0.4599438749618909 
0 
-3.079309903314309 
0 
0 
1.471941237108596 
0 
0 
2.178620921225648 
-0.3646695734043388 
3.614638917514361 
0.09760822207304622 
-0.4335415623561661 
-1.923398532243350 
-0.5490643369740305 
0 
-0.9817109839055561 
8.197031857031828 
-5.031938046853368 
0.3353310452638583 
-1.030095066542600 
-5.159458447194233 
1.031705150517136 
-0.7559436567947494 
2.064797931499449 
3.437719279022578 
0 
1.872269348914103 
0 
0 
0 
0.4372014367877904 
-0.2521879126930026 
0 
0 
1.732024080467609 
0.02904686056520811 
-0.1550955816493501 
-0.7678376272018390 
-0.7640877841066861 
0.8697300288267433 
-1.236219237074562 
0 
1.782665341387539 
2.943487578827027 
0.2929998099084527 
-0.6040044187379130 
10.52354768692642 
-1.151608523635697 
1.142218761149070 
0.6823484194332525 
-0.9892212347797849 
0.4508920984264057 
0 
0 
0 
4.209620123914977 
1.355771364919298 
-0.4452608990712044 
0 
0 
-0.02220486762167540 
1.121576949149537 
1.277905762649459 
0 
-0.3947405713446686 
3.510466577409670 
-0.9097854068671176 
1.734144162234936 
0 
-0.6063939398890913 
9.203597988673490 
-3.082357591053429 
-2.876739144723343 
-1.435187907106786 
-1.953742686186970 
0.3234050533763818 
0 
0 
0 
-0.5894366426727633 
0 
0 
-1.109977769960697 
6.917248046946411 
-0.8001360263506903 
-0.3512918454863809 
0.5927873652486900 
-1.041923706825075 
-2.116721314439691 
1.344807000728238 
-1.389622862100694 
-0.1969603145614122 
-0.007216371175001939 
-0.9339427039724062 
0 
-0.2098958131120427 
0.5383249328783081 
1.495254607336858 
0.1132982115980002 
-1.210434493807466 
0 
0 
-0.04813827472951973 
0.3763907519264849 
0 
-0.1088968060681459 
-6.750351750246336 
0 
1.334843851605141 
-0.1575405282373119 
0.1400415892209908 
1.738256892003985 
6.037758204520208 
-0.01720980265870745 
0.1156050458437070 
2.446586040997888 
-0.2357648905037073 
-0.8036350946097466 
-1.097302584481617 
-1.015714775904864 
0.1593622899522957 
1.290914917033674 
-0.3011306087307828 
0 
0 
0 
0.7076797290381486 
0 
-0.7769485835037482 
3.017141967678664 
1.617172360499044 
-0.7118052271031106 
0.8200999443033279 
0 
-0.9288370999740919 
3.274262255987686 
0.1668041534555778 
-0.6512505580992872 
-1.909022255296855 
3.490742309375217 
3.468521083602474 
0 
-0.4306267990689686 
-1.521028057058960 
0 
-1.678991516066445 
-1.219247737827825 
-0.1525991645365065 
0.6571999712755580 
0 
5.063662388992076 
1.124049989900237 
1.331180636468280 
1.233380688292897 
2.617685159492674 
-0.2528961215702668 
-1.372320366480964 
0 
1.994894848602627 
-1.812375444224971 
1.796801729000007 
0 
0 
0 
0.07324923025795493 
3.363802027031837 
8.486482713288613 
0 
0.2919267500406411 
1.402439357030326 
4.473198400782143 
0 
0 
-0.6076704327622890 
-0.1006845978060301 
-2.034152745425207 
-0.7938460756352634 
-0.2223157574449670 
-2.148167567793779 
0 
0 
3.133818305378660 
-0.4700106429002735 
-3.397561012268768 
0 
-3.988116972243575 
5.971080425126761 
4.176268996225424 
0 
4.936748726498619 
-0.07753270864986472 
0.9651302241981884 
1.304002213613737 
0 
0.1340708746241259 
-7.388427167589724 
0.8981144427575919 
-0.09655487780315270 
-0.4568870816938884 
-2.288946937372551 
0.3034364854225006 
-2.939537984436438 
0 
-1.058440573181537 
0.08768940296494010 
0 
1.462534622841931 
0.9343713499864280 
0.07772889928368427 
0 
0 
6.043568600041952 
-1.427885993202518 
1.717399249572964 
0 
1.060109395976250 
-0.7817388584689892 
-1.142411480672887 
-0.4464209207885055 
-1.736141100718229 
1.892849198318229 
2.185443363316258 
1.279333192481737 
-0.5981143667636903 
2.287420403506546 
1.038601610378852 
4.471849333052502 
1.295056918497103 
2.481847542196948 
-0.3668509686987617 
2.716152955968395 
0 
1.073581891385315 
-0.5285894946293649 
0.4409283003908983 
1.794793558337963 
0.09699898060978891 
0 
8.707675223669840 
0 
0 
0.2214941802062367 
0 
1.694887413657412 
0 
-0.8621451871764152 
0 
-2.534014645306830 
2.578679901218491 
1.316012173045874 
-0.1717064757077667 
-2.317799988627527 
-4.106173882240128 
2.487838317462772 
-1.293754175100583 
-0.1020957345012899 
-4.130006386764014 
-0.3502460385876439 
-0.2699708857829757 
0 
-9.366388466720952 
1.517760842227688 
0.1488821298775752 
-1.472798513474960 
0.9014945372978116 
-1.166272970829872 
0.08130421763600981 
0 
-0.4429011368618470 
-1.026886682779372 
-0.04610948453320879 
-0.01278336423343498 
0.6978027364107646 
0 
-0.7768696249384969 
-0.7614393268369604 
-0.9422292605985985 
0.8576529207217681 
-0.2669108945074112 
0 
-2.065682987820070 
0.2761215339156915 
0.5556884765210456 
-0.3164165595364557 
0 
0 
-0.5501103901486243 
0.7297042649033754 
3.367413998146699 
-0.6584515037612768 
0 
-2.765483835195582 
-0.2998775516006015 
0 
-2.965972396771536 
-1.045253797974705 
-1.077875692200495 
0 
0.9886113396286396 
0.7368771181126249 
-1.099818999132669 
0.4494205007857889 
-1.786776317121646 
0.4257454677951407 
0 
0.01717647565641248 
0 
6.890297328299220 
0.6378855394301656 
0 
0 
0.2061436625540140 
0.4144200997767018 
-0.5599774224535848 
-0.6885871484326288 
-3.198491229850476 
8.004999490920262 
0 
-0.1501013173466999 
0.1880644678714218 
0 
0 
7.467930973893387 
3.523612532677733 
1.314345873054361 
0.04672330807460545 
-0.5545451505412162 
0 
1.338559456611942 
0 
0 
-1.087794939305075 
-1.437072848756446 
0.4197910745034765 
-0.02653190352785662 
0.4976757744539223 
1.961523488432704 
-2.844690365044697 
0.01166262232971882 
0 
0.4729962086414781 
0 
0.4769393214336681 
0 
-3.949829028973952 
-1.939788215370208 
0 
0.8564459254917138 
-1.707333378162752 
1.501755108605862 
0.05036742635564639 
-0.2705854245054397 
0 
-0.9116032578606816 
-0.9556159462450415 
3.030792221558757 
0 
-1.396690137408273 
-0.1535110490631579 
-3.395118253333458 
0 
0.04604768241862935 
0 
2.165526090157002 
0 
2.594974121068918 
1.113270077218084 
-1.239942721260766 
0 
-3.785140882738219 
0.4671949285135726 
-0.9147420668767696 
0.2519017111968667 
0 
0.8250490030817482 
0 
-0.8486959182392328 
0 
0 
-0.7058954017104120 
2.279528316278409 
0.8307293835409271 
1.287808079091229 
0 
8.874691113031524 
0 
-0.2171254982067908 
-0.09780593028396889 
0.3400292484819014 
3.806480543859862 
0.9461167538532966 
2.540891335924612 
4.005227572898674 
5.543622976417556 
-3.155066655464939 
0 
0 
1.321593554705668 
-1.403999138844798 
-2.112945674046331 
0 
-0.9494009914758540 
0 
0 
1.726933879288584 
-1.745284856673422 
0.9086304250246428 
0.3851055023233093 
0.06380821149121219 
-0.9186887854324493 
0.3340516966691689 
0.1621435348107708 
-0.04256275097378837 
2.166284655417845 
1.519450789832891 
1.581850854209316 
-2.533107977667366 
0 
7.499075588082836 
-0.3849959772191629 
-1.051555892905135 
0 
0.04017384866165558 
0 
0 
-0.01062549264668450 
0 
0.9719726518674345 
3.017973603983621 
0 
-0.09939359055479463 
0 
0 
3.577757352209289 
-1.248915714543068 
-0.6688330630249345 
-0.3436057047225013 
-0.3408951071938052 
-0.8860675502256512 
0.3325512662544778 
7.601057046506961 
1.049256891302818 
-0.3082566719239390 
0.7616308210006597 
0 
6.443893007437922 
2.751316561450972 
0.3105037217346816 
0.2337162823285249 
-0.9381166254111964 
0 
0.3633774727049532 
-0.2264671018388054 
3.117191163850460 
-0.9483681346456996 
4.325547687763996 
0 
1.786600125622106 
-2.358357214251922 
2.171180394019263 
0.7883319673696585 
-0.8537216846930542 
0 
-0.01167887739140039 
0 
0.01923160690283227 
0 
0 
0 
6.104204381230411 
1.599242973966955 
0.6459129152279175 
0.4062671525406958 
5.775227523405391 
-0.3182506710435997 
3.183118757199155 
0 
-0.5256986782473617 
0.8577142876742435 
0.5668664839744868 
0.3676026108157304 
0 
-5.186160276986904 
0 
1.682344391040120 
0 
2.789455094494994 
0.1239764493728090 
2.016963696734943 
-1.083966192475601 
2.570363165944544 
0 
-0.3131469446567012 
0.3692551385733427 
0.2889998096087626 
0 
0 
0.4153736117464296 
8.007895069729898 
2.579153027272712 
0 
-1.586081126736731 
0 
-1.014635053343526 
-0.5894919632750142 
-0.5340989271448371 
-0.4897542967069135 
1.235835016142782 
3.818464435327353 
0.6929401299077800 
0.5180387334461880 
-0.7238354462405694 
-0.2292028627765569 
-1.175622346374795 
1.612596221961529 
0 
-0.4402222074718895 
0 
0.2779335682782330 
-1.408735145748358 
-0.2688148819141157 
0.4462155915140316 
2.199226812344273 
0 
0.6133954111632105 
-2.079225003690416 
0 
0 
0 
2.256605243350992 
1.105572660503090 
-0.3586021270437888 
0.8673886271927206 
-0.6137251993462798 
-0.04892701134609304 
0 
-0.4381585067076402 
3.110548235966227 
0.5539706845891280 
-2.467896013738693 
0 
-0.9209162850788497 
0 
0 
0.1563888558949572 
0.01216197025193772 
0 
2.010676348619108 
4.441447662921304 
-0.01675247859549447 
3.998189966222153 
1.672596378108714 
0 
-0.3206317299416626 
-3.011692299941104 
-2.946895130788106 
-5.261892885216128 
0.9962855566568946 
0.01877768150690273 
0 
5.062289007119226 
-0.9862992391221224 
-3.031651801338602 
0.6857994024592884 
0.5790174619356849 
-0.7489302831077826 
0 
1.447839336231359 
2.945928043221710 
-0.5716722037380008 
-0.01061046843823532 
0.9779392634204331 
1.329766240554508 
-4.406991723032044 
0.2482337319430515 
0.4667367981805299 
-1.037001834570005 
-1.442474856876529 
7.326939541202693 
3.859871910276424 
-1.425214810635842 
0.6860234716980349 
-0.1736400547981639 
4.954383068743265 
0 
-0.6625731712551749 
-2.565973275271552 
0 
8.089341110718154 
-1.702835306388121 
0.3949349186345459 
0.5397932188728130 
-1.850093189452761 
3.460254972492244 
-1.547818416342729 
0.3515062276463005 
-1.643108151318500 
-0.06415648135084329 
0 
-0.1156738120838364 
-0.03700297576143530 
-0.8971170632656632 
0.7561204628495868 
-0.4152164396716176 
0 
0 
0 
0 
-7.166096827607487 
-1.479251408419720 
1.295683644342452 
9.677680532821833 
2.034635970439845 
0.4265181137158066 
0 
0 
0.7403132914702973 
0 
0.3786043853473936 
-0.6149377652189238 
-0.3089506321907888 
-1.507687892102929 
0 
0.2853535295193001 
-0.1204813096294735 
3.255316752922683 
0 
-2.787319858754545 
0 
0 
-2.647117304606391 
-0.1998761754944778 
0 
0 
0 
1.229160499073888 
-4.137377529430907 
0 
0 
0 
-1.734979523578801 
1.736303515491696 
0.02427097548471857 
1.432350147370932 
-1.727299026191966 
-7.100061829031011 
1.519239336346489 
0 
0 
-1.639754639668736 
0 
-0.5626987626849719 
7.534598816451464 
0 
4.003491920985415 
-0.9202735466496775 
7.619684379905665 
2.446370906174517 
0 
0.1719422668885479 
0.4251626357588534 
0.2432140211957682 
0.6607595641967770 
-3.642067103574991 
0 
-1.854790962747526 
0 
-1.184089935686338 
-3.456734871646448 
0.3819756771014627 
0 
0 
-1.585541405948703 
-2.771302900963251 
0.2028691691356345 
-1.405054683074837 
4.673439739219922 
0 
10.06387526150237 
0 
0 
-2.185503136546453 
0.7890779163013663 
1.911829272535318 
0 
0 
0.9335142285829678 
0 
3.809906272980392 
1.601848886411723 
0.3693244935957866 
2.025537319790161 
0 
0 
2.554637558342024 
0.7320914849092418 
1.897781861016021 
0 
0 
0 
0 
-2.967669866419548 
-0.6850964621907789 
0 
-1.961267183795871 
0.5992836833805641 
0 
0.7017009806040719 
0 
1.330779600824046 
0 
5.186570286372143 
-1.287058759605864 
1.028412640022360 
-7.352007070874856 
1.284747168167621 
0 
-0.6771704325632711 
0 
-0.05336900668092826 
0.3765760738588347 
1.041118534860513 
0 
0 
0 
0 
-0.4588819561138634 
-5.014868089276674 
4.302988423269746 
1.452145715136441 
1.412713535560070 
1.300290606171954 
0 
0.7372655880807510 
0.9830326822000323 
0 
0.9158731535232028 
1.903189011051659 
-0.4333212527947507 
0.8290511782720200 
1.023285592988817 
2.368755270877544 
0.6345071690613826 
-0.2764527968247799 
0 
-1.056295464935839 
0 
6.776490543674988 
8.386143914980012 
-0.01172431666632742 
0 
0 
1.005085300376972 
0.3136370317473564 
0 
0 
-0.2314458171050113 
-2.865098650683343 
-0.3422068825214422 
0 
0 
-1.670458304838694 
0.3609360480558749 
0 
0 
-0.9690964909406485 
-1.122549691902421 
0.1457997442948364 
0.3741440204401964 
0 
-1.315177286893259 
1.634811719392755 
2.437752232740404 
0 
0 
-0.6414660059348365 
0 
-0.7091704941967685 
1.289589548158767 
0 
0 
0 
-0.1417246441028157 
0 
0 
2.676206227257599 
4.395411428771489 
-1.074647757945282 
0.04622769771397006 
0 
0.7928533931140801 
0.3767267484284425 
1.546777822893787 
-1.256524356583166 
-0.4631172762132442 
1.022308515226370 
0 
0.9350993995182622 
0 
-3.022915411209088 
0.5546877603110876 
0 
-0.4120109783938457 
0.7385738476852203 
0 
0 
0.9676526648411573 
0 
-1.072596875487155 
0.03178646019104653 
1.898383227411032 
-0.1121817840014920 
0 
0 
2.706975333969563 
1.219465004573876 
0 
-0.4773695480323777 
0 
0.5888789960368689 
0 
4.690281069302080 
-0.1166708434739603 
1.601485076380974 
-0.9977927068753394 
-0.4863822895847507 
-0.9308252858455726 
0.7696276796459733 
0.7436837999403049 
0.5323949278760456 
0 
0 
0 
1.248438583073729 
3.732922662182738 
1.403484031956028 
-3.492795049857613 
-0.3244820999413231 
0 
0.2432895734708191 
7.868430303849923 
0 
0 
-0.9038409400146694 
0 
-3.522844685640800 
-0.7672391848241462 
-1.115992497213551 
0.3372435230463937 
-0.3128282528249560 
-0.05637352156727815 
-0.2965974960204516 
-0.6379410125305602 
0 
-0.8576149677961584 
0.2081777595550305 
-1.377976185320168 
0.7550388632677318 
0 
-0.4295570738053109 
0.05251282201613729 
0.9101814099015724 
0 
6.076242915154102 
0.6640105978885962 
-0.7158788751452114 
7.874940378402481 
-0.02832831142892056 
-0.4254254138636460 
0 
0.4757636657903567 
0 
0 
0.1854996653836807 
0.2605618955858814 
-1.952210522562227 
-6.108614332332397 
0 
0 
1.023906673842883 
0.3785493426164599 
0 
-4.017300144671443 
0 
-1.711972257559530 
0 
1.313109599912559 
-0.08606009292213701 
0 
0 
0 
0.07293751917372449 
0.3223454799238210 
0.6400746231712859 
2.088810877882119 
1.063595148753242 
2.530012576903976 
-1.463458681519439 
0 
-0.7651671185345275 
-1.024469810521660 
-0.6043690259344952 
0 
4.094902538275882 
0 
-1.243080310537044 
-1.156437867907573 
0.8018280378699143 
0 
0 
0 
0.7780354197854660 
-0.08175866288441888 
0 
0 
1.652128646089199 
-0.1390390221777201 
0 
0.9951748875726163 
0.2086834312638596 
0 
-4.379854162880675 
0 
-2.641958774094401 
-0.4541930564538925 
0 
1.970125247184916 
0.6877804552273870 
0 
0.2350781396068705 
0.4860614986032115 
0 
1.536593886440298 
0 
0.2630396114789992 
0 
-2.811653117618726 
-0.3693111642616296 
0 
1.969382127257120 
0.3154741739221484 
0.8558279083438181 
0 
0.7958644537809261 
-2.721216725179591 
-2.433739196599146 
-1.685156694496586 
0 
0.07879693185530273 
0 
-0.8468713967946990 
-2.470683218985983 
0.4066188882576041 
0 
-5.932333485529253 
-0.4928053302359508 
0.07731699265130121 
1.420135364887690 
0 
0.8061659308183715 
0.8842198180945751 
0.5552695734060580 
0.7247916029434689 
1.168335036529474 
0 
-1.429385700537215 
-0.3555847028906563 
0.4601405672902348 
-1.048684793718545 
0 
0 
-0.5771123505439020 
-1.481796089636172 
3.823559097082101 
3.377706491336995 
2.593110502551131 
2.170814471344598 
-1.395812668646821 
2.681467546923877 
0.6086712307548614 
0.1376947610719596 
0 
-0.8002495342872876 
0 
-1.213706061095048 
0 
-0.06264899720724956 
-0.04273322947143121 
0 
2.368761408849025 
6.776463464690069 
0 
0 
0.5826548285539270 
-0.4034757622346331 
3.724678037861574 
0.1921391323406393 
-0.2352650383418908 
-0.005799411928896534 
0.6083890930681790 
-0.9918150601729845 
0 
-0.6696862951248103 
0.9664535010527662 
4.262654311001898 
2.955866777311023 
0.6891560994424882 
1.169974674922281 
-0.06984321633589730 
-2.472795331717888 
-0.2031090632633146 
1.087358002529903 
0 
0 
-7.359777587893868 
2.705344224559918 
3.421728721437488 
0 
2.887881814060386 
-0.01473761539772883 
-0.8391277962684424 
-0.3064348900615265 
-0.4631987881656382 
0 
0.6341401612942783 
0.6550956986703822 
-0.7182598081095913 
0 
0 
0 
-2.801419530290898 
0.6610556570570222 
0 
-1.053181570393271 
8.149836929325370 
-2.951750126427567 
0 
1.677197428495496 
0 
0 
-1.036575969367773 
1.980087327968617 
0 
-0.06905234974746580 
0 
0 
1.594140343941651 
0 
-0.4176689522748899 
0.9106000251511314 
0.8106540243920132 
0.3819259278295579 
0 
0 
0 
1.001589484913764 
0.3921938735674342 
0 
0 
0.1557586948726265 
-0.04697532419448929 
1.905533163490409 
0.7642516364243697 
0 
0 
0 
0 
0 
1.124342876878988 
0.7115951840808166 
0 
5.780264428706565 
0 
-2.223468435379762 
0 
0 
0 
-0.6821695551381216 
0 
0 
-2.440195835236644 
0 
0 
0 
0 
-0.6960348172096313 
4.725013696449547 
-5.104617542835926 
1.175175810151327 
-1.712859535199184 
4.871190728687442 
0 
6.530752053040265 
-1.170579042433741 
0.2634373093814719 
-0.5894234953530877 
-0.8603083081277849 
-1.173562208042223 
-0.3600958218178457 
0 
0 
-0.08432228333151937 
0 
-1.461617467363194 
0 
-0.5240034520454521 
0.7497930899092791 
-0.3974520648371641 
2.591410900211328 
0.2373338719335493 
9.887823578300386 
-0.3776332272560611 
-1.407273764947195 
-1.280566744451826 
-0.5121809136173736 
0.5399593215604170 
2.209394366746609 
0 
-0.9424425728061320 
0 
-0.01898018210984542 
0 
-2.916377124549553 
0 
0 
-0.1428766481796137 
-0.2972320801318327 
2.151643882700174 
0.1532928070420305 
0 
-0.1894277787487140 
0 
0.5872491202636465 
2.040457417611008 
0.4600094590387109 
1.138366943649260 
-4.119934473189566 
0.6828032599111158 
0.9280640280600020 
1.084838540591471 
0.4845949774550559 
0 
-1.388733520409233 
0 
-0.8836557882102721 
0 
0 
0 
0 
0.2931596217741769 
2.334237467790119 
0 
0 
5.656486957156171 
-1.570299077517751 
0 
2.602804469597047 
0 
-1.744981605776269 
-2.544513997922864 
0.2242422927976810 
0.06026144971373010 
0.1058419232929320 
-1.913614861597428 
2.357359031394169 
0.3471017068227773 
-0.4791350444277599 
-0.6017178906533297 
-0.1533428965932100 
0 
0.3279682689925357 
0 
-1.925289498326374 
-0.04069618253120033 
2.127986564929404 
1.734551980752438 
2.025996296846616 
0.1375218455962660 
-0.4833608343077443 
-0.7433962299047291 
1.164928870936337 
-0.02640636609163966 
-2.091928858634208 
-0.4270625468186086 
0 
0.6189215952844040 
-6.507934530559347 
0 
-3.141143670144982 
-3.178708608910799 
-0.07658703995761287 
-4.128471185612519 
-0.8220439579979828 
0 
0 
0 
0.2698267194445238 
0 
0 
0 
0 
0.3725041800851373 
0 
0 
0 
0.1444773553038814 
0 
0 
0 
0 
0 
-0.02620354188956636 
-0.1247830359131437 
3.973153348876206 
0 
0.05856317241081032 
-3.313063164785022 
0.3226921590956000 
1.966090919014857 
-0.8212998600521457 
-0.06156519767445992 
1.384362664247006 
0.7738631118681050 
0 
0 
0.1290583838522234 
0 
0 
9.594708731848938 
0 
0 
0.6318029015478704 
0 
-0.1543293692492969 
-4.023797388066065 
-0.02834662892015630 
0.5885176278948433 
-0.1892430998357009 
0 
0.2831548621954738 
0.8835921929693088 
0.4477623278585128 
1.874723496520123 
-0.2411529277294008 
-3.095290138761511 
8.908309903631968 
0.5485314046982138 
-0.6467669601143320 
0 
1.140195390137447 
0.2021425951358124 
-0.5116444146082288 
0 
0.9645556142530802 
-1.014976231617210 
-1.453794899018009 
0 
0 
0.4054614515310835 
-0.6213458437868055 
0.9144713705303918 
0 
0 
0 
0 
0.8517378751036362 
0 
0 
-3.579631046241648 
0 
-1.652600157650746 
5.599567178061229 
-0.1450667436392337 
1.445257535177621 
0.1257849362224766 
1.454849546028858 
-0.4392196125675788 
-0.04094471737511740 
-1.849381141168347 
-1.069483879892979 
-0.09553275839538650 
1.358629328206452 
-0.9048960894702401 
0.4606929916168618 
-2.909460287932471 
1.414918105849301 
0.3325824986516056 
0.7576547543369481 
0 
0 
0.3171217810015597 
1.622366346589252 
0 
0.1739857897545958 
0.3142704955812224 
0.8538028715848414 
0 
2.062129527683244 
1.067656528351685 
1.942847108844327 
1.833699084943712 
0.6137200906825174 
0.5326698839220059 
0 
-1.063992773153781 
0 
0.2542556858620222 
-7.778693717980858 
0 
-1.402145986528102 
-1.004377100620612 
0 
0 
-4.097726548928147 
2.320917225576739 
0 
0 
0.7417807093482256 
-0.6718066113942587 
0.5394730525557060 
0 
0.8616144123909970 
-1.132246195390514 
3.572595300753887 
-1.435172175943406 
2.126171246985591 
0 
0.4916871468272814 
-1.835244662907893 
1.303254525164091 
0 
0.5402942575326570 
-1.114779747074108 
6.057936770241972 
5.498415441869216 
1.296878899822782 
0 
3.888510200452308 
2.631549574224722 
2.073376386933497 
-5.448934349932039 
3.748720486554971 
1.055105390332691 
6.158582318867313 
-2.147466722120041 
-0.6619436965041825 
0 
1.903758110306029 
0 
0 
-0.4244980645484456 
1.404302083292784 
0 
0.2378605711897572 
0 
-6.535208572086130 
-0.5724470607507031 
-0.1606026855321843 
2.557888954608847 
0 
0.2972625232453093 
0 
0.3699565262970134 
0 
-1.853482118970956 
0 
0 
2.923185385735323 
0 
0.3995318907908104 
0 
-0.9249509734224077 
0.3486353763653951 
0 
-0.4782641771336920 
0 
0 
0 
0 
0.1415719044142539 
1.795504920993648 
-0.07040928875627372 
0 
-1.883506999495102 
0.5863047860935773 
0 
0 
0 
0 
-0.6959850985915461 
-0.2563516628805587 
0 
0 
0 
1.286788056819650 
-1.805391367940945 
0.8251919032686812 
0 
-0.4904787730624110 
0.8971293383702663 
2.257590976140545 
0.2981496296850121 
2.414668942014208 
-0.1476466927142976 
0.2274383888018569 
0 
0.2916289734269121 
3.755751887808995 
0 
-0.2446111623766245 
2.049306386093418 
0 
-0.3920305863183243 
0 
0 
-0.5416953427024145 
0 
1.842021200305988 
-1.332913036402871 
-0.8782618920302513 
-1.776678457681682 
0.01201673907710044 
0 
-0.4652380090532196 
0 
0 
0.07782937846131910 
1.505141129913213 
0.8670971700886463 
0 
0.9563486430157730 
2.224442056411536 
-0.3982222773423668 
0.7865252349686513 
0 
-0.8662811505062608 
-1.133126740610859 
5.803300658818779 
1.013026130046097 
0.8303091600477616 
0 
0 
0 
-0.6488286708729026 
0 
0 
2.530710998138788 
-2.897908683105056 
0 
0.7791010905679701 
0 
0 
-1.610659640968564 
0 
-0.1576333389925427 
-4.550012573458014 
1.891875095394503 
-0.7019450316066449 
0 
0.2174520080012323 
3.022324447476289 
-3.421562901775228 
-1.692881549406901 
-0.8415686539666268 
2.382753307461450 
-1.383819997501690 
0 
0 
-1.347092396708042 
0.8968115869077959 
0 
0.1840993499354017 
0 
1.943743030637685 
0.6002324775781162 
0 
0 
1.504862222669828 
-7.515455530881377 
0.9946067109192899 
-3.508692690703260 
3.374197885234604 
-1.420168410564616 
0 
0 
0 
0.05491723340063173 
0 
-2.705980077792593 
-3.959890693795918 
0 
0.7964394573162540 
-1.155590638166137 
-0.7744913654913773 
3.596782133038180 
0 
0.3168170129301598 
-0.6931138478140814 
0.9456079827894883 
0.7012605082267298 
7.350989995047033 
0 
0 
-0.1048012421112404 
0 
0.1098269129427034 
0 
0.08417283994559081 
-2.058414571721213 
0.08911191125682376 
2.104878114747452 
0 
0 
-0.4996920928268644 
-0.2009636006694405 
0 
0.01905029832895228 
-2.015510207424086 
-0.3489778247366602 
0.1358173222469661 
1.601914872180848 
0.06869669508809872 
0.7329137600638476 
0 
2.533464367242909 
0 
0 
0.1039842461812660 
0.7553181880166779 
0 
0.6176817562593215 
0 
0.5083956895920068 
-0.01652893714779097 
-0.6729946129693223 
0.1578870331755844 
-3.366761736599431 
0.5848445750255719 
-0.01940525576584698 
0 
-0.9155196888342634 
0 
0 
1.888602533958059 
1.116228600103127 
-0.7528881229638973 
-2.908309079494302 
0.2876027123461138 
0 
6.809221329898574 
1.613134959253719 
0.1256224441335906 
0 
0.06460452377886271 
-0.2391180179940139 
0 
-0.5147160105724988 
0 
-0.5443948673633730 
0 
-1.770110397087232 
0 
0 
-1.122687441020007 
-2.674709124029679 
0 
-1.090516621074282 
3.551254660871498 
-0.2984819213402998 
2.010114173600911 
0.003067135326483412 
0 
0 
0 
-0.2001644236890146 
3.169855547085170 
0 
-3.349467405954168 
1.448170876196281 
-0.03197874603029977 
0 
0 
0.3367259307954657 
-0.2472878101901615 
0 
7.721308268701362 
0 
4.254673982336121 
0 
-0.5992869550719355 
10.32843202943884 
0.3590932399267794 
0.1389991260531813 
-0.6654532352777527 
0 
0 
0.7751673735226330 
-0.1898288971477241 
2.336809464124122 
0 
-7.138232756307913 
-0.7648737637812401 
-0.3516830843889574 
3.616359972486452 
-0.6812740813269853 
0.2486510291722200 
-0.2209306404423004 
6.642848049241016 
0 
-0.7839238379329627 
-0.1705237207666810 
0.2922102682366475 
-0.9164491542581991 
3.155051339919703 
-1.289960673204067 
0 
-1.136329981806918 
-0.1303823361165325 
-2.301853937325586 
1.089222650182772 
0 
0 
2.346986387669177 
0.2662142762844844 
0 
0.3829841181323180 
0 
1.170968076389862 
-0.1669038113306743 
0 
0.3992319852206638 
3.571150024865954 
0.2755404694815581 
0 
0 
0.3510058799359994 
1.729900493793553 
0.01953253570602614 
0 
0.2339552677231946 
0.5410462189352372 
1.637096847989400 
0.2055034805666193 
-1.874039510008384 
3.304209100273787 
0 
0.8773176598081468 
-0.7343163506303014 
0 
-0.9863224644001635 
0.8260480596602290 
-0.4306175674773735 
0.6630441061660476 
0 
0.5596465345201951 
0.1822699206396926 
4.047377851306249 
0.2866045698555548 
-2.601459645408934 
0 
2.374474119598628 
-0.2544406315025216 
-3.206273633362888 
0 
0.001754043596102761 
0 
0 
0.8197691391171277 
-0.02367678583690974 
0 
0 
-1.482905844708649 
0 
4.035265764568692 
0.9189967124461198 
0.3976196181425360 
-0.3273822050981545 
0 
0 
-1.169296393061077 
0.8097739664231102 
0 
0.5100719620038081 
-0.7737285059036170 
-0.3116554525200054 
-0.4915172700834478 
0 
0 
0 
-2.004680221287597 
-1.418283014121985 
0 
0 
-0.3194807808537601 
0.6826446874419598 
-0.8362804219211215 
0 
0 
0 
0.1666292615932040 
1.010861509642914 
0.8682211277983392 
0.3881155053590170 
0.9770679022204796 
0.6268200331385687 
1.372714597459972 
-0.4453063006846324 
0 
0 
0 
-1.716178944324251 
2.841645544133260 
-5.841983575409158 
-0.04543818614372118 
-1.494157130224248 
1.089421727633205 
1.611964427295010 
-0.2831394939333913 
0 
0 
0.1858757401012481 
0.1483675838866450 
-0.7977801802487350 
2.557273649714526 
-1.438460616636441 
-0.7637872007162655 
0 
-2.083279952121582 
0 
-0.7815879641091821 
0 
-1.481074990557674 
0 
0.2706994861102118 
0.3201817241601458 
0.5683111352476352 
7.625195055462222 
0 
-0.3280609940083111 
-0.4615601854164242 
-0.1984091152266846 
-0.2754938217742077 
0.1328947527455481 
6.405696912471022 
-1.125279470702665 
-3.603872403336994 
1.179366807272806 
0.2365319622870888 
-1.281611439011717 
-1.785251344792733 
0.3431214876094409 
0 
0 
-0.8070286404324638 
0.1979417437563467 
1.239421749032006 
0 
0.9309000014378280 
0.6051613786432324 
0.3471616500093864 
-1.040913818654840 
2.347019928126223 
0 
-0.7359940152453087 
0 
-3.293767034511277 
0 
-0.8983349034238854 
0 
2.733538861255423 
1.651944298062860 
1.004897293063690 
0.9934545864768034 
-0.02128760561749630 
-0.2036183668018314 
0 
0 
4.863999718412982 
-0.5695581957864102 
-4.318308764051817 
-0.6265046202187705 
0 
0.2233047450873107 
-1.092177883777874 
1.098545307092708 
-3.726474814386009 
1.653418820880684 
-2.248378910165904 
0.07352636145190128 
2.652546738725139 
0 
-0.9663455092801695 
-1.625457457065077 
-3.214517611016615 
0.2683523374847998 
0 
4.848004456061319 
-0.9328232244029621 
0 
0.5801699205636638 
0 
-2.095908048951628 
-0.1819251882026194 
2.789351055544778 
-1.545539875564030 
0 
-1.679171235350278 
2.543269698603538 
0 
0 
-1.280081037174235 
-1.905850436279564 
0 
0 
0.2800086352800472 
1.274631043969931 
-1.312194692926195 
3.649784414700354 
-1.154796476093382 
1.367090916208901 
3.059083793511352 
-0.05999927964533201 
1.668293971920087 
1.178757015842795 
0 
0 
-0.5695524709186843 
0 
-0.8329678837975241 
0.2870387740367451 
-0.1191015450710282 
0.1597003174236495 
3.858593901981858 
-0.1016560862557226 
0 
0 
0 
-0.05104252977010683 
-2.588318236941666 
-1.820487003284022 
0 
0.9246851565245615 
0 
0.9825300293768978 
0 
0 
-1.504633807743704 
-2.925432863262996 
-0.6144213281948740 
0 
0.7299584844191331 
0.7275291210292774 
3.221007864316500 
0 
-0.4092937619549676 
-0.5392539443334512 
-0.8113222476596119 
0 
0.06301233332332046 
0.4695918919922767 
-3.061103548993907 
0.6432977414373104 
0 
0 
-0.4312915237361134 
0 
0 
0.5934207178818602 
0 
0.2335445805280390 
-0.6945367422253841 
0 
-2.120085367327841 
1.626883813626201 
0.1019583749302706 
0 
0 
-0.8533313131260800 
8.940718082831896 
0 
0.9471640022121004 
-2.936146995208050 
0 
0.5512765534784181 
5.704610401743043 
0 
-1.154139049736086 
-3.764323342118817 
0.2794642217720645 
9.161054007301510 
-0.6092429489503857 
0 
0 
0 
-3.551668380953613 
0 
0.3456154339127009 
0 
-0.1431757594067541 
-0.8147727231496780 
0 
3.267289835174055 
0 
1.813032267752745 
0 
-3.182556000138419 
0 
-1.115512376280468 
-1.376771326905932 
0.6228414328296927 
-0.7237232433700346 
-0.09910893499618934 
0.3441468527599896 
0 
-0.5779199353652960 
-0.1913038141999752 
0 
-0.5291245362352552 
0 
1.286576003397179 
-1.606340981980002 
2.083914367211043 
0.2706222897059727 
0 
0.7078583820847659 
0 
3.255268610625592 
-1.403721117400815 
-0.8951044699667657 
0 
0.6791474727063160 
1.128628763622003 
-0.2030720267849995 
-0.4881812895791882 
0 
0.2561937730293707 
-1.372297363294154 
0 
0 
0.5604370335970311 
1.046206938276286 
-0.6075062847132935 
-0.3056279236115344 
6.670548697830540 
0.2200528481695019 
1.438313864787908 
0 
-1.071773584061941 
-0.3804486580242780 
0 
-0.2739119460710343 
0 
-1.157845623592689 
0.5619999360511719 
-0.6687975093724566 
0 
1.842689414519723 
0 
0 
-0.1893743242098834 
1.711156619939783 
2.402575879246127 
-3.727823827459769 
-0.6352999009661460 
0.2920522707200619 
2.454591504433140 
0 
0 
0 
-2.693918979146063 
0.6997683850382521 
-0.3602878867083096 
1.227717965248550 
-0.4248386541830975 
0 
0.7365842169773521 
0.2486243325768716 
4.897629885990294 
3.538656982429473 
0 
2.165380911827577 
-0.8354596605784395 
2.440556888099350 
0 
0 
0 
0.2104878446033054 
0 
0 
-1.429608300951094 
0 
-0.7401444471543528 
2.300433912664222 
0 
4.142090705323241 
-1.046774389668844 
1.442237670412963 
-2.990052523472949 
-0.2792622376682190 
-2.789953662599904 
1.416393241871153 
0 
-0.9677958991609626 
0 
0 
0 
0.5616877646876873 
-2.016077392006415 
0 
0 
-0.3428930702662680 
0.1111617863790341 
0.2235222071032326 
0 
0.7712634816024619 
0.3739299024936429 
-1.757699546699632 
-0.9715283172843103 
7.998432948398319 
3.550310150208605 
1.649830410672416 
1.565322922886374 
0 
-0.6145474501490825 
-0.3014160089434606 
0.2172830375157888 
1.877418008302459 
0.04147111266200620 
0 
0.3120742874171255 
0.4979693616219914 
-0.06175996175305737 
0 
0 
-0.4721692885690012 
-1.743866106216406 
0 
1.623118869371068 
-2.500071519749892 
0 
0.5784721755778022 
-0.1352033106362371 
-0.9240619357583737 
0 
0.02009862473095003 
0 
1.195219264673475 
-0.1270831352091097 
0 
0.09489181312643907 
0 
1.802683705252504 
0 
-1.038916775693381 
0 
0 
0.8262089927317205 
0.9116180722990871 
0 
0.3487476736770008 
-1.341070659853026 
-0.2235895891868048 
5.272597971607997 
1.231648627786356 
-0.1321334910841178 
0 
-2.828378445157727 
0 
-1.449808970606569 
0.4558767349609692 
0.3407413934003615 
-2.832740442962894 
-0.7107516333511689 
0.3719798470066824 
-2.010371726776256 
0 
0.08739042747192344 
2.154268536050035 
-3.544476031898529 
0.8067366063254626 
0 
1.310742009638203 
-0.7002208181598139 
-1.642587669499432 
0 
3.814966201386107 
-0.8589652268405656 
0 
0 
-0.5783268462282437 
1.173237518106262 
-0.04892835265829126 
-0.5587493448375157 
0 
0 
-0.4666649368628216 
-3.018432097981676 
1.275291704232364 
0.5607477009437325 
-0.2292804616499844 
-0.5889694636190279 
0 
-0.4676333387584725 
0 
0 
7.372736824208927 
0 
0.2420162377343439 
0.3851348038720224 
0.3164946904612782 
0 
-1.185443346416406 
1.618330246217980 
-1.682493356414888 
0.4490904443484243 
1.163038902374213 
3.363453859143657 
0 
1.670057585699552 
-1.103019523414775 
0 
0.3386154907216825 
0 
-1.000978118035650 
0 
-2.800777014504825 
-2.534333982824855 
0 
-0.6560350933603571 
0.2172689315326953 
0.2333011228900387 
0 
0.4776552274230932 
2.082845864855414 
-2.941008764544337 
-0.1243230534578890 
-0.1514715404854478 
3.484640068395059 
-0.4783533743148178 
0 
2.137754072587513 
-4.463381523404157 
-0.1813651498123527 
-4.296029926022324 
0 
-0.009032760620453884 
-2.633077253410983 
-3.026350254834218 
1.230823817802119 
4.230521614947956 
-2.109598995502314 
-2.057365376431789 
0 
0 
1.501032311893377 
2.029644255379382 
0.1178540259007777 
2.066696762639317 
0.6131750006024311 
0 
0 
0 
-2.148339592185334 
1.909883757401072 
0.4114491019747577 
0 
-0.7893617487155171 
0.3950640315654128 
-2.724187893874041 
1.364085442459295 
0.3142046333698723 
0.03659714194166952 
-0.3215559682574216 
2.350236428976275 
4.995615135256436 
0 
7.840505772691551 
0 
-0.7388433916097096 
-0.2159371404528366 
0.6746230100636241 
0 
0 
-1.347869629698524 
-2.667768428090780 
-1.070220367465546 
0.4216606876996736 
0.4312222354975526 
0 
-2.350727185945262 
1.503748952291462 
-2.121746980311898 
0 
0 
-0.1310563450149863 
-0.06878302018535465 
0 
0.6839996673797364 
-0.2494468712783975 
0 
1.057073640763314 
0 
0.7175753585761742 
0.04116697803346259 
-2.095952192677776 
8.990319973946823 
0 
0 
0 
-0.7747590940418609 
-2.234130508470300 
0 
1.053876218471588 
0 
0 
2.512620516309392 
0.4392871297002358 
-0.04622170285047877 
0.4098875280910878 
0 
0 
-0.4475963651360808 
0 
0 
0 
-0.4987565161053449 
0.1224589033743897 
0 
0 
0.5333518327297986 
-0.7866928960832807 
-1.681062225350058 
0.9701419742077950 
0.1699728390452450 
0.5061555833623197 
-4.642987519703560 
0.03156105451895019 
-1.910634509290716 
0 
0.3014173984275680 
0 
-1.771502562309236 
0 
0.4759301140136973 
-2.771600437133626 
0 
0 
0 
-0.5604609358536925 
3.041380695034693 
-0.2463588806925168 
1.111329114576243 
-0.1211741979510290 
8.128100762994679 
0 
1.713293834827734 
0 
1.070516532676294 
-1.039927974329759 
0 
0 
0 
-0.9102974985140448 
-1.080327156904564 
0 
0 
-1.138701367756412 
-0.6583546523952952 
-0.5032457289157497 
0 
0.8986105187018542 
0 
-1.596779550458190 
0 
0 
8.532280410523489 
-0.5542749991093674 
0.09928713237898501 
0 
0 
0.4128916899417129 
0 
0 
-0.7116649500661938 
1.659024480841678 
0 
0 
0 
0 
0 
-1.224883812214197 
2.121907690800387 
-0.06924574737986788 
0.9449967666546759 
1.161178997486026 
0 
0.1706303992890826 
0 
-0.1429069101051025 
0 
-0.02809496496301633 
0 
-4.612749638604804 
0.9016921573725788 
0.5683528822661559 
-2.046667106949829 
-1.447390376731109 
0 
0.8598269626627985 
0 
0 
-0.2582178250864338 
0 
0.4068868252391253 
0.4849686554944375 
0 
0.3613566372157346 
0 
0 
0.3234744694042787 
0 
0.08347613942738492 
0.2113804139451580 
1.555616528749085 
-1.491088078331713 
0 
-1.366860686735729 
0.1375664986522821 
0.1835853758479131 
0.05432093512362779 
0 
5.122189269170651 
0 
0 
-0.3560548073340673 
0 
0 
2.365223386330487 
0.1691148016703041 
2.206080004869171 
0 
0 
0 
0 
2.630194162320446 
1.537624823483526 
-1.045609961397214 
0 
0.4283033573285653 
0.7100659707255228 
0 
-0.9266721380387724 
0 
1.210261615390544 
-1.721112392948331 
1.037637472618215 
0.3473429697072483 
1.122816750060520 
-0.9233695862678073 
6.655304749297529 
-0.3505697261480704 
-1.200349529631711 
-0.4043735167648598 
1.549238934972752 
-1.682357838614721 
0 
0 
1.267086205187045 
-0.07023523372473040 
1.287767632637370 
0.1336231689082272 
0.09640037451811850 
0.9204751629150018 
0 
-0.08372856769850890 
0 
-0.7087322974925566 
0 
5.020682888872598 
0 
0 
-0.01694160968894498 
2.182837809167709 
0 
2.232077154459645 
0 
2.500097636120743 
1.230589011633638 
0 
0.7922630520934364 
-0.2406644815085444 
2.444469710281472 
0 
0 
0 
0 
0.7376938202401490 
1.708805122002826 
-1.897697591631475 
-1.680784131559298 
1.581047796280437 
-2.117038201947234 
5.935561987762688 
0.9023684523805592 
0 
0 
3.989792990537267 
1.120454083123085 
-0.1450572542924893 
-0.6940729461632923 
0 
0 
0 
0 
0.7265676809076232 
-0.1546325057636388 
1.903874480490684 
-0.8383789525456526 
0 
1.046957526996621 
2.705971800675055 
3.337712577281645 
1.309599755403057 
0.2394222087217669 
0 
-0.6154804880116400 
0.3709945501670265 
0 
0 
0 
1.307025610350465 
-2.492027159219514 
0.7042046485647185 
-0.6859911490319528 
-0.9697022968304043 
-3.270487678158563 
-4.964350085675978 
3.476937158757998 
0 
-0.05236146022680049 
0.1858508979969589 
0.7761749295906060 
-0.6886096831103272 
8.341981805118230 
-0.2803473886523169 
2.462863351086296 
0.04617557485518523 
1.031731568027987 
0.4155517833359065 
1.784964385674243 
2.005488507257041 
0 
-0.1324727385223310 
-0.1179408889093810 
-0.3470854727623560 
0 
0 
-0.9786223851668733 
0 
2.382982311242324 
-0.6431418136886662 
0 
-0.6113859563673725 
0.3535778649362851 
0.03862722338157879 
-0.2618534019289365 
0.5706230500639207 
1.861658027165781 
-1.204069026667885 
-0.3475651590109162 
-3.133370750569537 
0 
0.1563655051851932 
1.956753012020450 
7.585817948694801 
-6.400728618155139 
-0.2618115431313197 
-1.580232245834731 
-1.260355216727622 
-0.3238086961553137 
-2.059999838851637 
0 
-0.2322559453720209 
0 
0.2682279857275205 
0 
0.2433982031790922 
0.5077004555837139 
0 
0.2773416668081016 
-2.076730687208289 
0 
-0.8862270627100650 
-3.374451438639198 
0 
0 
0.4978200482889518 
0 
-0.1434962755152528 
-1.187530274510394 
0 
-2.483829150795990 
0 
-0.9936979446014083 
0 
4.686828304970816 
1.806613590865383 
0.7533559004583172 
-0.06188839539336631 
2.042796957807157 
0 
-1.351108583769125 
0.3761805387701083 
0.4229652583698788 
-1.537916916624046 
0 
-6.802594386011077 
0 
1.072626145672589 
0 
0 
0.4846449151150531 
0 
0 
0.4001172279868642 
0.1220349413172518 
6.134242848770811 
-0.05707598709433501 
-1.621996527275336 
0.02647246030063266 
0.8446970141016810 
1.842718234441403 
-2.177186913150922 
-0.4792064005735370 
-0.8149814942054596 
1.398142946559439 
-0.8538193549225314 
2.603902246590436 
-0.02281577183204248 
0.7501332019730125 
0.9500280843206408 
-4.642410558615556 
-1.921300794375318 
1.795824136666293 
0.9300580375835151 
0 
-0.5104211052584813 
-0.9373114134640687 
0 
1.727013111140453 
0.2711595877320674 
1.113876397922023 
-1.879011851696310 
0 
-0.2580955628417182 
0 
-0.8915329025389024 
-1.012496359274316 
-0.4574114012903368 
0 
0 
0.1099901122398495 
0 
0 
0 
-0.09706901019317127 
0 
0 
0 
0.04234866784980107 
-0.6677026229809646 
0.9442668698001961 
2.481053543497431 
0.8344573492714500 
1.394089984231377 
0 
0.4128036272992865 
1.168661249822781 
0 
0 
-0.1831905325429806 
0 
3.170864327847982 
-0.6113309734162568 
0 
-3.147422872391879 
0.9016624372754818 
0.3911310369273314 
7.677038043437829 
-4.058816091092972 
0.08373116035692772 
0.9885056323007173 
3.922398532888920 
0 
-2.267620781278933 
0.07204317515367453 
1.234550418918224 
-0.5824105712213493 
-0.1197717248133145 
2.169678633118953 
1.765099237201467 
0 
2.065879319470145 
0.8783617356651863 
0.9315190808895697 
4.231823119024553 
-0.4074924355593053 
-0.05055187472717468 
-0.5799477399522164 
0 
-1.812999092604243 
0.8448808425222121 
0 
2.874256168322631 
-2.589000026448493 
0.9034983517647079 
0 
3.376949527957593 
0.05104088950864379 
-0.6661668630365781 
0 
0 
1.169074453128251 
0 
1.192054545297159 
2.856557775217332 
0 
1.825760119253350 
0 
0.1713769619141514 
-2.379729412668278 
-0.2483087764112049 
0 
-1.694756290552370 
2.493531242678607 
0 
0.7413585713845242 
0 
2.046153876470613 
0 
4.670479006058675 
0 
0 
0 
-2.017715827171984 
0 
0.5612636106724771 
1.069427648270444 
-0.5278515279995869 
1.522977405880926 
0 
-0.1843633345171636 
1.594823036339315 
-0.6914892521880527 
0 
-0.8539376690284665 
0 
-3.262178301084495 
-0.9129969080948869 
0.6404406159310754 
2.457739540719079 
0.3544106599753119 
0 
-0.5035605459689787 
0 
-0.4126735263982913 
1.455546359864672 
0 
1.880158947377845 
-0.3877189334119574 
-1.629078311423595 
0.2250548644947190 
0.3818662298710537 
0 
-0.4271451833998287 
2.714172499330063 
0 
0 
0 
-0.5534902360912929 
1.889387168095896 
1.849742845636677 
0.8143628200152435 
0 
-0.2917661691891249 
-0.8556085601779644 
6.469935329458759 
0 
-0.1549618704839921 
1.931111510705409 
0 
0 
1.830305856717073 
1.902970346715124 
0 
1.908123545133100 
-0.5324615204046685 
0.2041942778500543 
3.329939666699819 
0 
0 
0 
4.644209892151007 
0.8502405181065240 
0.2388533152743481 
0 
0.4449005163361490 
-0.3579934192616548 
0.3417185103508247 
-1.347451591961620 
-1.069936548869814 
0 
-0.07241411011942311 
0 
0 
-0.7521595068537190 
0.7191098571870584 
-0.2109445418882069 
0 
-2.332728399211560 
0.3069074866552958 
0 
-0.6827403445552962 
0.7631117291671767 
1.315551067667343 
0 
0 
0.5349613969896620 
0 
-6.112170086226531 
-0.2041268925015796 
-2.018084052916362 
0 
1.273558540805385 
0 
0 
0 
0 
-0.4448533484758265 
1.958986503480332 
1.808588223733231 
0.9086720052908178 
0.4743825918048036 
-0.4548775968901764 
1.950668923565885 
0 
0 
0 
-2.531412876179301 
-0.5492955330491400 
0 
0 
0 
0.5122373496499580 
-0.4175063982887544 
0 
-0.6069003117443995 
0 
-1.623896008450535 
-4.836925033259908 
0 
-0.7517658415111339 
0 
0.4660997526486061 
0 
0 
0.7748128848445353 
1.906008698947527 
1.466964211478463 
-1.067851937467724 
3.787981153662200 
0 
1.582303435608951 
0.4676961195136768 
0.5046684350795083 
1.059082626617683 
0.001002914671161648 
0.1867112690127653 
0 
0 
1.112315721040916 
0 
0 
0 
-1.953765292516808 
0 
0.7154966696881614 
3.506602755547108 
0.4520881063768428 
0.7961605204225681 
0.8844754328375950 
-2.913713781390558 
-0.1271942911781110 
-3.244235701037002 
0.6380964398731978 
-0.01311136012448633 
0.1484593438941745 
0.9697906445839846 
1.335039454511373 
0 
0.5521488299341115 
6.759004007898716 
0 
0 
0.4633670049602180 
0 
5.256697981167191 
0.2387249603079743 
0 
-0.1608515867256212 
0 
5.278455691524957 
0.1813089864174913 
-0.7672570956980806 
0 
7.398513793849078 
0 
0 
-3.228389274886879 
0 
-0.9437031640115074 
0 
-0.05190099241258929 
-2.085100399423434 
4.681090813230408 
2.546698527797300 
0 
1.175549596477001 
0 
0 
0.1992055837573699 
2.420944108499784 
0.6875690140713773 
0 
1.035592749475297 
0 
0.4201542179131295 
0 
0.3940744516694061 
0 
0 
1.086338436611381 
0.7857809822120302 
0 
1.134929016867206 
0 
1.860316208043011 
4.245767828829055 
0.1089298657956246 
0 
0 
0.06849544620800280 
0 
0.6664402790608704 
0 
0 
1.182941050201328 
-0.3616350672083639 
0 
0 
0 
3.884400474812103 
-0.2195159455343060 
0 
0.2385081241450096 
-1.382412141184150 
0 
0 
6.594672663897708 
0 
-0.002272000561277743 
-0.5084360463592912 
-0.5064959415533650 
-5.594186208684619 
-0.03905327568624398 
0 
-0.9707580395304435 
-0.5145644876665271 
4.771366856538210 
0 
-0.4690836479934789 
0 
0 
0.2631087793323880 
5.008814503036306 
0 
0 
-0.1661885256507134 
-2.085012268746897 
3.311937880004161 
0.5334585346925071 
0 
-0.6605590218505906 
0 
0 
4.282730642845391 
0 
0 
-1.223316301310330 
-0.5847990097137246 
0 
-0.9097459209438828 
0.2848183859393633 
1.783744228680677 
-0.4157893553583139 
0 
0.1732806605290338 
0.02367496463076764 
0.5687344914047860 
-0.8974057324490307 
0 
-0.8913683278456603 
-2.796226705488135 
0 
0.1100758509471587 
-1.736491169703276 
1.166973172344837 
-0.4975510204864095 
-3.594341828015015 
1.920109422872014 
0 
-3.336663407269490 
-1.025286844028855 
-0.4620356819584331 
0.4159566732071511 
0.9706122799245133 
1.761690593549959 
0 
0 
0 
1.896405843402004 
0 
-0.3652477181343656 
0 
-0.8479898864170720 
0 
1.191967958805921 
0 
-0.1661920227948746 
0 
-2.879560997918700 
3.280232080454472 
4.745171247676174 
-1.969648452232051 
3.942680719123732 
0.4543183795631116 
1.505170523722093 
3.196708149808269 
0 
2.028079038920990 
-0.7440935026436832 
2.672762873298493 
0 
-0.8254297422370243 
0.3511723123330074 
0 
0 
-1.585063958437943 
0 
0 
-2.837052781214660 
-1.170680360462758 
0 
0.2860074928910377 
-0.6417866293148092 
0 
-2.181892957639222 
1.209943814090158 
0.9893351965198458 
0 
0 
1.591140514816135 
0.5064516775740164 
0.8195704164135698 
0.3928304335027785 
0 
-1.874892012473437 
-0.2359695978188157 
-0.7547909411541146 
0.2392136813940048 
5.200917982485954 
-2.283834376186253 
0.2095581547047956 
0 
0 
1.627733496504166 
1.417263699847023 
0 
0.4842876142694417 
-3.363261228637284 
1.340456935430905 
1.812809428766296 
0 
-0.9144514137294474 
-0.3619588354065237 
-1.301590155034336 
0.5279966134496417 
-2.079881310691667 
1.368852922802948 
-2.081740616490335 
0.1883951777715261 
1.062168338623402 
0.2346490937858372 
0 
0 
5.144109137977827 
0.9240052067282270 
-1.777406678001643 
-5.154391406839741e-05 
0.4961648287149227 
0.6316435995527012 
0 
-2.873585242391713 
-2.831086239001872 
0 
1.284473899385317 
1.927299370025657 
0.2521652777952382 
0.1821794385035374 
2.017442672986751 
0.4333879278194455 
0.4968798887919617 
0 
-0.9999230700467338 
0 
1.708325655510281 
0 
0 
0.1902391824543144 
3.733207065979929 
1.328891368248829 
5.815487899225197 
0 
0 
0.01904296795072480 
1.250855629877929 
0.1292226592362590 
-0.04843126277346060 
-2.257960329460887 
-0.7870026201486552 
1.818491326380194 
-0.6444837294063590 
0 
0 
-1.288670264471123 
0 
-0.3465135202138356 
0.3164437690891915 
1.995783752548813 
-0.3352092820764144 
0 
0 
-1.295081187580793 
1.350323853119075 
-0.3173416602774646 
-1.564014314964827 
-0.7437171194917990 
0 
-0.3820623962472813 
0.2421952801299481 
0 
0 
-0.5198494217278018 
0 
0.006657034280758534 
-0.9098614899591004 
0.4290936915859704 
-0.09172226603495650 
0.1879170383321142 
1.171080312152727 
0 
1.457958767769189 
0 
0 
0.4710953680069288 
0.3431481910476148 
0 
0 
-0.08706065898623533 
0.8815607548926170 
3.139356247434137 
2.278382846351621 
-4.301597269641220 
1.094456678401614 
-0.4586390680530402 
0.9407477592211353 
0 
0 
-0.4783988455214896 
0 
-0.7148756072306401 
-0.7475595596015602 
0 
-1.229600799671091 
0 
0 
0.07266795706841966 
5.948470636888477 
-1.199051587777386 
0 
0.2693185869056263 
0 
4.511973302976178 
0.3684983883417157 
0 
0 
-2.686513864804613 
-1.487390584449494 
0.9735880674980335 
1.001783323152014 
0 
0 
-2.409927293879004 
0 
-1.646673174123843 
0 
0 
0.4186874381025605 
-0.2774946183730109 
0 
0.8045393512497566 
0.8837145918401507 
0 
0 
2.479723342900026 
0 
0 
-0.2387098337748333 
0 
0 
0 
0 
0 
0.7436067776285229 
-0.5759592678054286 
-2.845012307725897 
0 
0 
0 
0 
0 
-0.1284458115581078 
-3.495114882985408 
3.517541923447809 
5.865207549618075 
0.3461139392554351 
0 
-0.2199739201502118 
0 
-0.4673388031934344 
0 
0 
0 
3.341737310124921 
0 
0 
-1.297004792877409 
-0.2090802907592520 
-0.04127217165431557 
0 
0 
0 
0 
-0.8864153395721327 
0 
-0.5837369366343065 
0 
-1.546216543800344 
1.009682917856899 
0 
0.001176082315001104 
1.359594516133871 
2.066314569185489 
0 
-2.353938766249867 
-0.3177120967480802 
-2.545114980655925 
0 
0 
2.696677786214196 
1.604259662426957 
0.9103844634138820 
0 
-4.189309069074939 
-2.245595363598785 
0 
0 
-0.04984811266223277 
0 
0 
0.3620731523827280 
0 
0.1646545060879742 
0 
0 
0.9419482393293208 
-0.5556533265866890 
0 
0 
0 
0.3797922988967349 
1.608236149437085 
-0.1796910995737678 
0.009798912645587299 
0.5822676974302035 
1.672043010086961 
0 
1.590685061045642 
0 
0.6805106625190250 
-0.7945567016268147 
0.4784162343535374 
-1.673057426331924 
1.573575668490012 
-0.07048042813045918 
0 
0.9380010707447078 
-1.137291704491096 
0 
1.193505711733388 
-0.8928242960240667 
0.9408134115719247 
0 
0 
0 
0 
1.415121657152714 
0.2932719580299621 
0 
0 
0 
0 
0.2021338267232542 
3.752134637736204 
0 
0 
0.1641377755601876 
0.2630472876131840 
-0.7198154829776668 
-1.089373584223207 
0.8984623614167664 
1.104831694267531 
-0.01101221939346860 
5.947465410836514 
-0.5841349266785866 
0 
0 
-2.540351103470755 
0 
-1.233501920854660 
-1.824348154412010 
-1.432265237394794 
0.02238832146060924 
-0.2120933549380772 
0 
0 
0 
0 
0 
0.1874613522988035 
0 
-1.342591356296410 
-0.3578418064334611 
0 
0 
0 
2.813079876104784 
4.746663099748421 
0 
0 
-1.445164168405441 
5.927503692634372 
0 
0 
2.673933803669092 
0 
-0.2793625069136326 
1.325687955365578 
2.900937357133238 
0.04087987086375577 
-0.006586366301212232 
0.2924308583888839 
0 
2.130850923657070 
0 
0 
-1.011831811538919 
0 
-0.1264692846727905 
0 
0.1451640832039081 
0 
-0.7146091103176251 
0 
0 
0.2370344689859018 
0.2687198682915781 
0.1745113354855081 
0 
1.539600103773436 
0 
1.484122235822742 
-0.5621106563567244 
0 
0 
0 
0.1582598094526710 
2.124414932281146 
1.681566943136028 
-1.937721465347354 
0 
1.219230822260960 
0 
-0.9813226313551519 
-0.6357884980358942 
0 
1.354077501218425 
-3.439208728815647 
0.1203248868870335 
-0.06355096982989272 
0.6506738022701015 
0 
0 
0 
0 
0 
1.382518866712964 
0 
0 
0 
0.3793143954380408 
-0.2107322125040316 
-0.09496441046937143 
-2.091916237023734 
0 
0 
0 
3.315179410921715 
0 
-0.2826982359035849 
0 
0 
-0.2917967871581670 
0.5272615649749113 
0 
0.5649907306354867 
-0.09755000599932653 
-0.002737762694829053 
-0.1155236985694377 
-1.034845874611766 
-6.523972996063188 
0 
0.05126335841280671 
0 
0 
0 
0 
0.1048707826484609 
1.046853944545657 
0 
1.978842208999257 
0 
-2.095176191232195 
0.5118646176825081 
-0.2197175566015471 
4.184394529469259 
1.241299217621567 
0.4066100076475072 
1.178247724956739 
0 
0 
0 
1.004885924491810 
0 
0.4080348469970429 
0.03857636662996822 
0 
0.2238664459783886 
-0.2156539843159513 
1.218352714543820 
0 
2.190347655096599 
1.424105760335771 
0.2902170811292931 
0 
-0.9479073397375106 
2.544866011017849 
1.542897236819542 
0 
7.195523276390708 
1.214920198913714 
1.083545743345376 
0 
0.5121828782365475 
-0.8446573917900433 
0 
1.995558715658750 
0 
7.966051452914210 
0.6435053834095977 
0 
0 
-2.350457176796483 
-0.8888436451522416 
2.452223431325128 
0.5939782153278084 
-0.5498621486814095 
-0.1133613780264726 
0.3064302543213360 
0.1606133557206705 
0 
-0.9797230393270723 
-0.01432890305906182 
0 
0.02228445498525092 
0 
-1.256221616121962 
0.5085361638800401 
0 
0 
-0.9881341830978057 
-0.6638471888362777 
0 
0.8294944650752774 
-0.1064083260492343 
-0.8920546306423203 
-0.2098048958926340 
3.019100296414053 
0.5053143043512175 
1.676495863496363 
-0.7680435150064792 
-0.2033987608956460 
0 
-3.162300022973346 
4.328582310684388 
0 
0 
0.08024026345412394 
2.643557149037096 
2.751081458522759 
0.07583756017272960 
0.2806839006773979 
0.4504414173089631 
1.250043593686174 
0.1000282484429103 
0 
0 
0 
0 
-0.9991217324562933 
0 
0.3607547100612275 
4.000720550512540 
1.985384214739612 
1.643256451507423 
-0.03473760904270684 
3.322627434524195 
1.380568685515769 
0 
0 
0 
0.4522933959439290 
0.06168143925786440 
0 
0 
0 
-1.538311821031319 
0 
-0.8098449317504510 
-1.659463335766124 
0 
-0.3719129268766791 
0 
-0.1331846396839787 
0 
0 
0.6247110391393474 
0 
0 
0.1072321088206110 
1.453733274341024 
0 
8.539985587413028 
2.236487731140435 
0 
2.831829389022007 
-0.09073623335254155 
0.1541311002490929 
2.413833965398839 
3.326042548528173 
0.09763379974538733 
-3.193299176735322 
-4.089533312530190 
2.032119264363694 
0.9706947409984830 
0 
-0.1547861654603056 
0.06627258156908805 
0 
1.620647256145003 
-0.9079800840947813 
0.09298459002816090 
-0.1345785550140148 
-0.1151964028528808 
0 
0 
0 
0 
0 
0 
-2.486347541746780 
1.756892286319551 
0 
-2.163687138388666 
0 
0 
-0.02591559091312590 
0.7545541216170243 
1.106825309279892 
0.7673707815135019 
1.105658609888443 
0 
0 
0.04451395107964887 
0 
0.1548418970516617 
0.3234078447941141 
0 
0 
-0.4371019225888899 
-0.1128726213483697 
0.8042706814601955 
0.1153655091891341 
0.2695526457190238 
0 
0 
-1.471859277561362 
-0.3082068469198587 
-2.310306636631004 
-0.3006911719418898 
0 
0 
-0.7579129950210198 
0 
-0.3543995187323890 
3.440063698583249 
0 
1.333613189756905 
0.4373239337717866 
0 
0.1165050471506086 
0 
-0.1785864447076848 
0 
0.7101561699337490 
0.9544047266105800 
-1.628400794418671 
0 
3.039214755862332 
0.3735143263637108 
0.6618475342352691 
-3.217911512924369 
0 
-1.559995999356062 
0 
-0.1647778321378524 
1.033709171253143 
0 
0 
0.3276510625178029 
0 
3.641071611163710 
-0.4162858996445886 
0 
-0.1574886735248560 
-2.606526428389111 
0 
1.804365437504358 
0 
0.08373422698938032 
0 
0 
-0.4717888525245775 
-1.080782589667180 
-0.3536167974521477 
0 
0 
0 
1.351682709524794 
-0.1070623706836522 
0 
-0.4859035480459515 
0 
0.03129230458230690 
-0.5054841198589084 
0.8823519279280463 
0 
0.3888043422944170 
-2.390427138005736 
-0.5332025001762104 
-1.732611115091101 
1.496129715536970 
0 
-0.08400178563356403 
0.9824884875395768 
-0.05187808660450438 
-1.544461854051785 
-0.2045144495229205 
0 
-0.4914082131181118 
0 
-1.151018986831886 
0 
-0.2919125976632279 
0.1404924694175950 
5.152931608161052 
-0.7015776922045840 
0 
0 
0 
0 
0 
0.7560314127951957 
0 
0 
0 
1.395186219095433 
2.618615334472607 
0 
0 
2.578701940456588 
10.00000000000000 
-13.19323208604418 
1.533013668823186 
4.426921789367871 
1.941229629449629 
0 
0.1089067470891280 
0 
0 
-0.5916818997433528 
-2.242637443381269 
0 
0 
0 
0.3471512024480488 
1.610599837735690 
0 
2.044557146200165 
0 
-1.459278428434967 
0 
0.3646142163491069 
0 
-0.1181023945454628 
0 
1.360707410382544 
0 
-0.2467984244697640 
0 
0.6446878523678128 
0.6096912355763762 
0.1670072824270476 
0.6442009707655992 
3.199236262903560 
-0.9458276424059547 
2.131696283546596 
-0.3420639713468947 
0.9584179419797350 
0 
-0.4558209639751524 
0 
1.126104960669483 
0 
0 
0 
0.1792763123166462 
-2.183411404804269 
0.1357979038527196 
-2.708972275345007 
-4.993366909823626 
0.06067224218218928 
1.013554415769481 
2.333514173580085 
0 
0 
0 
0.4425542617733597 
0.1033676422455302 
0 
0 
0.08613636743407138 
1.197011663078289 
0 
0 
-1.578435490942433 
0.9616723991027982 
-1.379992411862534 
-4.703914743590924 
2.115118306354410 
0.01659293104129603 
0 
0 
0.5242811324876008 
-0.6660780113605810 
0 
0 
0 
0.1505595098910373 
0 
-1.485591353921198 
-1.164052361116494 
-2.034582521140287 
1.132294370390688 
-1.430506085760118 
1.107902351763519 
0 
0 
3.992157410120313 
1.249025484278215 
1.912749667119875 
-1.431990535476406 
-0.3246345177319121 
0.1256989796583067 
0.6863720927394097 
4.329431691112829 
0 
3.906031156394560 
-1.028235135972465 
0 
0 
-0.8694876942443532 
0.5230947365467198 
1.385311171060106 
2.408307362649603 
2.970511019640171 
0 
0.4251484177636946 
-1.338398477168191 
1.172796420109744 
-0.003146063814415828 
3.535851539477129 
0.1627559908899702 
0.6757751461340755 
0.4840361620191953 
0 
0 
0 
0 
-0.8408191131016024 
2.708890975563671 
2.633003309815677 
0 
-1.148336400964299 
-0.9838291630448761 
0.2957290485059587 
0.06450967071487745 
3.201379522011802 
0 
0.7567818307747225 
1.069847514500615 
-2.863539348924830 
0.5662918891886477 
0.7424647009213170 
4.090284444799717 
1.345179416999093 
0 
0.5821132562544594 
0 
0 
0 
0.02926034984131828 
0.9213733664531825 
0 
-0.9455467824596709 
-1.030684305523647 
0 
0 
3.789394735186546 
0 
0.1734521491149437 
2.771335108545150 
-1.022147368788231 
-0.06060872885407984 
-1.029337055277833 
-0.5753365521310758 
1.059157414913749 
-0.4605624730755870 
-0.7350729057054393 
-2.324111598643379 
-2.304867738622340 
-0.2849534476319222 
1.737646752249976 
0 
-1.800844939867285 
0 
0 
-0.001309090403838160 
1.457992682162620 
-0.8322344956473786 
0.3544942749224971 
0 
0.6848521628355570 
0.2373763121131397 
-2.338544213949213 
0 
0 
0.1580939138388283 
0.04410488994274298 
0 
0 
0.6804563915298735 
0.009536858986410553 
-0.7702405671324678 
0 
-0.5230834067708780 
-0.8072571045579402 
0 
-1.865345775085156 
1.357414185430190 
2.861854865568201 
-1.085437399029238 
-0.1322184417120345 
0.5718538650453369 
0 
-1.616025256815028 
-2.438494139041938 
0 
0.8629657747127991 
0 
0 
-0.1123258911594895 
3.357178640507817 
0.2044152938789708 
-0.1929344663432941 
0 
-3.182230041746123 
0.4025430641957731 
-0.2862174418003491 
-0.2165796615917917 
0.3475524508015558 
-1.274125958495071 
0 
0 
-3.125890813627187 
1.059638591025688 
0.1855251841467344 
0 
-2.873310340459714 
0 
0.3274890160603101 
0 
0.4939198583955037 
0.5736732321094990 
0 
0.3500656423954479 
-0.05411213921347186 
0.3680300834048683 
-0.2823290901261676 
2.542257627715007 
2.943896626038439 
0.8199386005069069 
-2.722162800305163 
2.164258914888023 
6.054762221145477 
-0.2428278230169816 
0 
0 
1.862304544093835 
0 
-0.7105547337687610 
-0.3586902403057953 
0 
-0.6183550265996406 
2.026559831875435 
0.9099608577988136 
0 
0 
2.292445122005661 
-0.1849013821961020 
0.2846449020801897 
0.3702400140739897 
1.110128064305296 
0 
-1.912017106822719 
-0.05790332298144907 
0 
3.668495347694705 
0 
2.037707535422466 
0 
0.6737916135217064 
6.728110737354961 
0 
0 
-0.9027789160905615 
-2.574571700794760 
2.362597797142878 
2.126306022481726 
1.069226019596853 
-0.06048090801621373 
0.5013626069025365 
-0.2562754455010532 
0 
0 
0 
0 
0 
1.988183327093509 
0.8069033431704220 
-2.818699208497345 
0 
2.328995441737139 
9.386072231651320 
-0.1934981331810924 
-1.786582773899257 
-0.04099591618773812 
1.116872578015631 
0.7748344825727513 
2.089406961473385 
-2.454966926591753 
-0.2849887778345677 
0.4467545059037750 
0 
1.189133417102572 
0.7802636871075614 
0 
-2.930632046225601 
-2.430866425319913 
-2.186815534548042 
4.772069541849685 
-2.504947724213566 
0 
1.124762244485232 
0.8989017598908642 
0.8835767657565512 
-0.1099058752201312 
0.5245725049116992 
0 
0 
1.137305707165968 
-0.3089701607925322 
0.7673809520547259 
0 
0 
0.8461294392077922 
0.5539993639990116 
-1.897673572063286 
-0.3843960904260511 
-2.202589205155321 
0 
2.316866192302920 
0 
0 
0 
1.323593157645224 
-1.022301044917467 
0 
-0.7263579515921941 
1.229966802995250 
3.157685352704307 
-0.4039802151683233 
0 
0 
1.490977788781032 
-4.634651812515333 
0 
-2.086200855224381 
0.1439917136741883 
0.4842356208122675 
0.2169686317767345 
0 
-5.250625660877786 
-3.760265581947007 
-0.8397757107652799 
-1.553631678056143 
-0.9868521266577577 
0 
-1.990553460993136 
-1.198218536358601 
0 
-1.417905516908577 
0 
0.6113038487250797 
-0.1602744160322017 
1.745711375162040 
0 
0 
-0.3151049503251838 
0 
0.7554679389934745 
-1.390229142834614 
-0.3339849444491977 
-0.1047597735633479 
0.4524128970890670 
1.364814556389826 
0.3962645759751625 
0 
0 
0 
0 
0 
-0.2028994009942138 
0 
0 
-0.9407136864947121 
-1.400965606660270 
-1.382419129537400 
-1.014223787857876 
-2.860995091544346 
-0.4293286038520084 
-3.130251488976893 
0 
-0.6358708612338217 
0.8222166505731063 
0.3271996044788136 
0.2399858674603541 
-0.8841883732653690 
-1.311418635500633 
1.346965759445491 
-0.7589305557418828 
1.065282852181590 
0.7157908596804782 
1.082479574088034 
5.550580120650935 
2.392363800292698 
0 
-0.9341337331150545 
-4.340674607698014 
0 
0.05835913517092412 
0 
0.3882915315843858 
0 
0 
-0.09838016840315067 
1.877015487968355 
1.792328919887426 
0 
2.461529415976190 
-1.286954097030544 
-4.418023906839784 
0.7546261000695643 
0.1653478426081048 
4.725303714390245 
-0.04979563853762947 
0 
-1.065307655747417 
-1.093154743422471 
0.9468629394498103 
0 
-0.3428905262181818 
0 
0 
0 
0.7338966433273431 
6.547066612688960 
5.631525592575394 
-1.564791308358044 
0 
1.757702411295318 
-0.6131775769446068 
0 
0.4276301639515362 
0 
0 
0 
0 
0 
0.03690442681151906 
2.002272783481045 
0 
0.9613495750764065 
-0.9249903349340464 
2.776830128762854 
-3.478134306564421 
1.678045574814120 
-0.1969260775096995 
0 
0 
0 
0.8346101975589677 
0 
0.7991097488971954 
0 
-1.138957964840257 
-1.573461951617967 
0 
0.5438610046539919 
-2.362923093741941 
6.292196246139544 
0 
8.076761410621641 
0 
2.853044637231602 
2.981151418477646 
0 
-0.5871240999261544 
0 
0.6410229990332049 
0 
0 
0 
0.8587787286687371 
-1.580719261090718 
-3.630952710721088 
1.183418507869738 
0 
0 
0 
-1.631208876042346 
1.078526817579109 
-0.09747963232742149 
7.104771281652258 
0 
2.748143554763830 
0.5378316487725318 
3.109425990106308 
0.1551297401020778 
1.415964806334057 
-1.063128048801409 
-1.004727436669873 
0.07535381874872071 
0 
-0.5257650030016077 
0 
-0.7825434570868504 
-0.5851938302759627 
-2.360149763060427 
0 
0 
-0.8084911724123827 
-2.625491694499145 
1.493129728179960 
1.587883566684859 
0 
-1.758468349482683 
0 
0.7343866737491910 
-0.9915363891876423 
-0.7922958394169190 
0 
1.707330468057790 
0 
0.03134619419185798 
2.788240820399649 
0 
1.817364161869917 
1.909480468194140 
0 
0 
0.5030537894030356 
0.4177722123438514 
-0.8391469143982097 
0.3112700876468812 
-1.465001310051312 
0 
0 
0 
-0.1311795050283548 
-0.1227366140806921 
0 
0.9254015896838028 
0 
-0.7703702128595359 
0.8265388803499014 
-1.766311098266056 
0 
0 
-0.6691885932814025 
1.697828530184251 
4.396392073054628 
1.306522536460302 
0 
2.840913208099997 
1.833294754326170 
-0.9129595151103459 
1.918176941859910 
3.172038140283879 
0 
0 
0.6612953667240797 
0 
0 
9.213381549230588 
-1.330755236194486 
-0.8711310827987714 
0 
0 
-2.299340269765705 
1.097310013622621 
3.325713594338843 
0 
0 
28.69022163660431 
1.742010273900432 
1.331875060265490 
0 
0 
-0.7652567438582589 
-0.5453643276090558 
3.643119020676761 
0 
-0.2773111786390166 
-0.1373014892373878 
0 
0 
-0.07407751205437796 
-0.3488445515556278 
0 
-0.1670042924715535 
0.4603259198779039 
-0.2023211365929615 
0.3684203770814984 
0 
0.7146617871549257 
1.488986261932350 
0.1351768741578093 
-1.437475052625095 
0 
0.3112489873245297 
0.1227304513807373 
0 
0 
2.292636032639664 
3.548624341258939 
0.7109185304461452 
0.5814492757915635 
-3.684676015890487 
0 
0 
0 
0 
0.5343891365326950 
1.219958404973720 
0.2568304632900414 
0 
0 
-0.1086940149083191 
0 
0.3428950566866282 
2.979035849744435 
2.401760007328839 
0 
0 
0.3008428638631535 
-0.6775668054364624 
0.5755590117630134 
0 
-0.9033953852551082 
0.2772186814722847 
0 
0.2545329113654508 
-1.513470269663028 
0 
0 
0.1607976711076746 
-1.462336885035600 
0 
-3.852450751956722 
0 
-0.5129323497957957 
0 
0.5517280380228045 
0 
0.3720785809591405 
-2.744888962176377 
0 
0.1585559499877561 
0.2531234538597554 
0 
0.4974936485739969 
-0.2732358961163593 
-1.300438231160503 
-2.730243361733082 
-1.573726893223608 
-0.8224690665546445 
0.3637732978910190 
0 
0 
3.771437793232416 
0 
0 
1.065162870928326 
-0.1860571023228539 
2.494392823171205 
-1.171687618138684 
0 
0 
0 
0 
0 
1.565480671222685 
0.3537764611433542 
0.8940034487901372 
0 
5.604601111703109 
-0.02522483170379042 
0 
-0.002347351510050388 
6.115239313152443 
0 
-3.108337161278110 
1.790462203668835 
0 
-0.2060546219923790 
0 
0 
-0.7878417182718574 
-0.4557141581488585 
0 
1.541348962352851 
0 
0.3610058958532741 
0 
-3.150059901522567 
0 
2.511971902176081 
0 
2.285485181316180 
-0.2182148309610682 
0.3595317559374854 
0 
4.633490904634543 
9.775140541495889 
0 
0 
0.6843363483426501 
0.6319436087820509 
0 
0.2118889429147407 
-0.6862624539534566 
7.003391693183451 
-0.5502772946647272 
-1.899465248166575 
-0.5459750880494229 
-2.976090295519335 
-0.8805764413858288 
0 
0 
0 
-0.7298940015434975 
0 
0.9170513851000195 
0.7631454343581201 
-1.413514652395485 
0.7222962314571340 
2.668383983115507 
-1.351493366578137 
0 
0 
0 
0.06484727637081067 
0 
0.05804053566779825 
0.2413878687319621 
0 
0.7919215277467841 
-1.899686378561143 
-1.931451896164486 
0 
0 
0.3953056450314985 
0 
-2.976930975972468 
-4.242085548564063 
0 
1.054672709805234 
0.5163455360829176 
-0.9427902011698186 
3.432849893092025 
0.5992314958833548 
2.113527521468106 
0 
-1.064041274304294 
0 
0 
-0.7053779703179671 
1.515924673601133 
0 
0 
0 
-0.2034443066580472 
0 
0 
-5.993215566197188 
-2.493506702598115 
-1.371506065153080 
0 
5.976074969514435 
-2.801643670810178 
0 
0 
-1.359261269907685 
-0.4663785418185547 
-3.576729097038763 
-2.460595865678917 
-0.6579796690276325 
-1.307588280022749 
-0.3716614207058269 
4.820369646659161 
0 
-1.997981493512589 
-0.8583987401607507 
0 
0.4504630780226836 
-0.09325795671180868 
1.044716151114769 
0 
0 
0 
0 
0 
0 
-5.002634343308831 
0 
0 
-1.302304253514973 
0.5238510579139415 
0 
-0.04905248474378909 
0 
0 
-0.3545298760059065 
0.9484208414604440 
1.507188097333141 
0.3371416275034868 
-0.1130393859421293 
0.05449078416879372 
0.7817429855676501 
4.964249874188127 
-0.07620044526885228 
0 
0 
0.3785827777145228 
0 
-0.2434944185132005 
0.3771873272932713 
0.6048714088617445 
0 
-0.1461206275784526 
1.032362797403106 
-4.251780238505460 
0 
1.499912477129645 
0 
-0.1668928922297075 
0 
0 
1.152887969262556 
0 
-1.806281558288782 
1.995934426037510 
0 
-1.070080510495610 
0 
-6.440341175099549 
-0.03864877210736128 
-0.8035603866470367 
0 
1.049005231008919 
0 
1.141908423617917 
1.353132327672799 
0.4037982721857358 
0 
-7.287129717366500 
1.358192316845081 
0 
-1.157254949405528 
-0.4662798900694030 
0.003876308931435757 
0.1712832065432206 
-0.7776655569218878 
0.5525808683138620 
1.036478362011704 
-0.1688127334512026 
-0.3850989617706050 
0 
1.658889823967961 
0 
0 
0 
0 
0 
-1.277339833953572 
0.06074918261986184 
1.258833010911813 
4.081438347932447 
0.4372334179911628 
0 
4.271463621067925 
0 
-1.868702991217546 
-2.103153791559938 
0.07145690778307534 
-3.262058776258741 
-1.157068188868021 
1.547374588365386 
0 
0 
0 
0 
1.337402699292035 
1.605110114397592 
2.444633640758265 
0 
0.1275020695961493 
-2.399449019022629 
1.620525319866758 
-1.424761320538857 
0 
0 
-2.356648424621420 
-1.077355195373928 
-0.01635160048502060 
0 
0 
0 
0 
-3.144184369907157 
2.409687491778950 
0 
0.4408745581929500 
1.839285894215295 
2.157066194577912 
0 
0 
0 
0 
0.9256875437247865 
-0.6944253555890119 
0.9840744172207627 
0.6508032729050126 
0 
0 
1.014707708629963 
1.797920414331496 
-0.7546273047970609 
0.07158711916357996 
0 
0.4494826529406252 
0 
0.8855137642135302 
0 
-2.173365231547396 
-0.4966775069219471 
0 
0.6046148353740298 
0 
0 
0 
0 
0.04738248536199643 
0 
-1.078791542415861 
-0.7490623824309538 
0 
0 
0 
-4.583929081438680 
1.012348195408146 
0 
0 
3.180849135145813 
-2.390429668999872 
-3.112162520928646 
-0.1736662292319922 
0.1112264323240944 
0 
0 
-1.188525070642591 
1.008100704249886 
0.7015951605871036 
0.5307023595899200 
0.4311990827948097 
-0.03964664474189944 
-3.795975224800779 
-4.039925119390073 
0 
0.03943433411879027 
0 
0.9949931871637587 
-0.6421896208591498 
-2.687606752771637 
0 
-3.608643822374660 
0.1717529563026367 
1.541515557657891 
0.2472435668826618 
0 
0 
-0.4207274716316304 
0.08385506860654157 
-0.3311545835882974 
-1.507674653489018 
0.2523474866693384 
-0.6991551951234453 
5.567382820732509 
0 
0 
0 
0 
0.1432554988069317 
-2.698112446294841 
0 
-1.048023859685570 
-0.9377268906439630 
-0.02398138752158463 
1.834829178233717 
0 
0 
2.041960342687831 
0 
0.08164034560800526 
0.05887322568764850 
0 
1.072583069041714 
0.3321374385653418 
0.4122040240256367 
0 
-0.1885033076421229 
-5.566945636766244 
0 
0 
2.701218153503785 
0 
0 
0 
0 
0.4330538346398151 
0.4306152735466968 
-1.444925119462803 
-0.01620505381533965 
0 
0.2031309607342670 
10.00064790116549 
-0.9245716471539763 
0.5149069089664489 
0 
-10.09697639746527 
-0.9888686796757571 
2.067242338944069 
0 
1.734441371173558 
-1.606162174093957 
0.9842991131131629 
0 
0.3549115548288275 
0.4841028032533429 
7.672898996391893 
0.4266051675359300 
-2.965187516201653 
0.4392863431026507 
0 
0 
1.062830138745567 
-1.525921671187746 
0 
0 
0 
0.3486294117493788 
0.4703539431293694 
0.3609733198170165 
0.3847211107407360 
0 
0.1336668515084024 
1.003890011086245 
0 
1.417520839494181 
1.855245117473053 
0.7706564154701429 
0.1437178055050996 
0 
0.6571790528720319 
0 
0 
3.569328529218076 
1.679973614075628 
0 
0.6405676752210738 
0.2329548821137877 
0 
0 
-1.502882363719878 
0 
0.2935820646681540 
0 
0 
0.4677872057087140 
0.6997400426688702 
0 
0 
-1.653977578215799 
-0.4544354409748721 
0.2212230744936198 
-1.749487635744934 
0 
0.5929280728376516 
0 
0 
0.6550410829716735 
-5.194876408454941 
2.728367124407018 
2.093258293647722 
0 
0 
0 
0 
0.7045073286503474 
5.630314564766374 
-0.5176089582019068 
-0.5178375880136273 
0 
2.415547052389229 
0 
0 
0 
0 
0 
0.01554649258105767 
0 
3.157916135445912 
-0.5097250672109102 
0 
0 
0 
0.4078892985300960 
0 
-3.404786803585754 
0 
0 
0 
0 
0 
1.447478271675200 
0 
0.9385419795568246 
1.697393971324604 
0 
0.4303439123613453 
-1.187768313438774 
0 
0 
-1.030858951027598 
3.736499366272205 
0.7932123183882342 
0 
0 
0.2364313031517122 
0 
0 
0.005352759806510732 
9.053342935419039 
0.8767808667064020 
-3.865039855140440 
-0.02964192840288135 
-0.2874465032682251 
0 
0 
0 
-0.9170560075479377 
2.855175936871251 
0 
0.3235943207918439 
0.1100635591357314 
-0.3367212891213395 
0 
0 
0.2732851413163335 
0 
1.070136849148300 
0 
-1.333408612897446 
-1.112574309365640 
4.044866199652716 
0 
0.9910434285656726 
-1.468713232933353 
0 
0.008488765765895800 
0 
0 
5.692283342931808 
0 
0 
0 
0 
0 
0.8784079408834632 
0 
0 
-2.668809868826643 
4.244765485559982 
0 
0.7359109761826284 
0 
0 
-1.460835102641367 
0 
0 
2.865461038091661 
2.960243301851255 
0.04383021036067966 
0 
0.8034485078733237 
0 
0.2715820138831060 
0 
0.1644654518829188 
0 
1.356839053638197 
0 
0 
8.336708187791293 
0 
0 
-0.6455151275998678 
0.1962319481440899 
0.3437366832888800 
0 
0 
0 
0.3833885071224722 
0 
0 
0 
1.062931370051198 
0 
0 
6.718328729744211 
0.1616919320876740 
0 
2.990074136247049 
-1.195733055721683 
4.154022028505684 
0 
0 
-2.752633326440293 
0 
0 
6.008724220340151 
-0.7336894845670945 
0 
0 
-0.1646015691783731 
1.553006359017264 
0.7000208962873089 
2.128544278299474 
0.08848695150386288 
-0.1378947511853751 
0.3358222250485746 
1.081788681507242 
0 
0.1555919294790162 
0 
0.6869230869484985 
0 
5.250944612418884 
0 
0.7197411068772835 
2.084490979336209 
0 
0 
-0.2117413669550362 
0 
0 
0 
-0.4409295904764036 
-0.3737394029021458 
-0.03909859408879163 
0.1814193159358178 
0 
2.360648740457814 
0 
0 
-1.873686296267233 
0 
4.425607551005396 
0 
5.874668787539454 
-1.399736876320951 
0 
0 
3.394262935200135 
0.2080230922283740 
1.161435881830207 
3.374253596663966 
-0.3215667655832446 
-1.158374739839817 
-0.07960320894250650 
-0.6878863628948317 
-2.510961329694237 
0.2560777306705795 
-1.462409329616510 
0 
0.09253152306550044 
0 
2.982594126715063 
-0.1912314742565609 
-1.017505050585463 
-1.654430125992656 
0 
0.7540616802701168 
0 
2.119794179994183 
1.638109774083323 
0 
-1.079844998920357 
0 
-3.286934229207895 
0 
0 
0 
0.7761040963882417 
2.916075803598416 
3.335367032237103 
0 
0 
5.254473555965627 
0 
0 
0.4652671748317063 
2.298134176290753 
-1.060127863660368 
0.4132567942842204 
1.115828310426566 
0.9247194070258459 
-0.5393948743925138 
1.945067537329990 
-1.137174842193015 
-0.005809097058162849 
0 
0 
2.340637555335860 
0 
0 
0 
0 
0 
0 
0.9389358197951784 
0 
1.365879469838542 
-0.7308116165430691 
-0.3445894762701882 
0 
1.367901937463780 
0 
-1.440257780842471 
0 
0 
-1.864265419107495 
-0.2206704777879317 
0 
0.5426916687395480 
0 
0.1737972690817657 
0 
0 
2.829077036733672 
2.362836207334980 
0.2258887816290778 
-1.560610606240666 
2.701930058005765 
1.703006906186992 
-0.8789614349213386 
0 
1.182896723091372 
0.01194749399685824 
0.9248225743090690 
3.673793157285017 
0 
0.8441977680822422 
1.401554650726624 
0 
2.994572718013179 
7.415203817154980 
0.1507239771065550 
0 
0 
0.2814624250836327 
-1.149915837391555 
2.518975187459513 
0 
1.432376623606110 
1.417510436466534 
-0.1786052731952532 
0 
-1.211712182154917 
0 
0 
0 
0.1518981637555453 
-0.3335082911570337 
-0.7883119400444072 
0 
0 
0 
0 
0 
0 
0 
6.034294459628963 
0.8587954607345030 
0.4653601660303028 
0.1691527881122392 
2.606585191412966 
0 
0.1007150658131051 
10.80452665292880 
-2.601673044098885 
2.560273359341588 
1.983470014168240 
-0.1415788257708413 
0.4423496185439732 
1.801070513510088 
0.2854235171883813 
-0.3835726893119850 
-0.03116624007666674 
2.191120040742770 
-0.3728146573000584 
1.330255894307588 
1.215916968879289 
-0.9795401068159832 
0.2771484524727013 
-2.784328724938123 
0.7176378399149630 
8.554623280706007 
0 
-0.07490204933332681 
0 
-0.08995790692972844 
1.864078280031095 
0.7175276140536400 
-0.3238326458240273 
3.930222948726786 
-0.7889829112921770 
0 
-1.468071707807080 
0 
0 
-1.288437036414619 
-2.094694449142658 
-1.088256007320631 
-2.093294757426705 
0 
-2.049789335899612 
3.209200309822506 
0 
-1.370368536276025 
0 
-1.082653662330080 
0 
0.6625091507770712 
-0.5339736726122020 
0.7833406246166446 
1.978063234477418 
0 
0 
0 
0 
2.233165965391517 
0 
0 
5.726372957534045 
-0.4166845827046294 
9.089780271687978 
0 
0 
0 
1.173403981948417 
-1.481101164449795 
-0.3409876817706873 
-0.9160134507910667 
0 
-0.1322227756972714 
0.5707515939698995 
0 
0 
0 
0 
0 
0 
0 
0.4251487642978347 
-0.1483138313362798 
-2.913044564486201 
0.9321255116263154 
2.674617093769834 
0 
0.8669009727048292 
0 
-0.6066826795842721 
0.3637275177009810 
0.02325081444403565 
0.1853517326295086 
0.04182509940949164 
0.6145637572743107 
-1.682196810393710 
-0.7995171274353999 
0.04045914611749743 
0.04710288424849735 
0.7108126405405295 
0 
2.148894624456843 
0 
0 
0 
-0.8129481808610706 
0.09734346493041812 
1.595130855337762 
-0.002145977468072435 
-2.117815757093445 
-0.08627389860199425 
1.639638147523886 
0 
0 
0 
0.2494958596739916 
0 
0 
0 
-0.2257775148037421 
0 
0 
0 
0 
5.412706060013891 
2.417714253622446 
0.3122156354161865 
0 
2.150542756541858 
1.059541441092222 
-0.1587909210130361 
0 
5.448476142903755 
-3.597135544325575 
0 
-1.149118078548674 
0 
0 
-1.662134805047973 
0 
2.637580069800206 
2.217871790406590 
-0.2502661425998364 
0 
0 
-0.1327381884739833 
-0.5538551600683270 
2.586655774013782 
0.2503643168744869 
0.1076732262892535 
0 
0 
-1.109535168484710 
1.159297387437672 
-1.364465490950316 
1.477384948253064 
-2.608469978796604 
1.308383428983647 
0 
0 
0.1276779033755013 
-3.841011167606045 
0.1718442741461133 
1.836402055484122 
0 
1.598146253790913 
-0.1741620977583948 
-0.3771879823734808 
-0.8662536295835459 
0 
-3.089328932370860 
0 
-2.082108455127239 
-3.480251964590845 
2.174646089231549 
-0.7448698691540709 
-4.053508367816278 
-2.722015965216126 
0 
0 
-3.624055905285426 
-1.418904212829929 
3.541322995638759 
0 
0 
2.090455919706639 
0 
0 
0 
-2.893331356571238 
0 
-2.508104620874896 
-1.171993965671261 
0 
1.769880578707058 
0 
0 
0.2824670741171101 
1.528220597783142 
1.835189629821079 
1.668765710593149 
-0.5670101972356434 
-2.092888009536107 
0.1854716561128343 
0 
0 
0.7821330797224979 
-0.6526361731704734 
1.179516839895740 
-1.488694269203078 
4.606164365803054 
0 
1.138186565856165 
8.717409148095223 
1.652305784360291 
0 
0 
9.352818346527794 
0.04975541013261053 
0 
0 
3.628082189793227 
1.585187252202457 
0 
0 
-2.303760304611792 
0 
-1.315094043236813 
0.7008591139335826 
1.402810499534053 
1.088477842567786 
-1.932481954040913 
0.8899437572302293 
4.722372955651855 
0 
0 
0 
0 
-0.1492374507263972 
0 
-0.3195946462983698 
-0.8546482581756822 
0 
0 
0 
1.995058431790950 
0.5862496307543643 
0 
0 
-0.1768540230079800 
0 
0 
-0.3908278465593243 
-0.004903262490641325 
-1.736317403696501 
-1.134658300535518 
-0.5913873170523081 
-0.8834973626539940 
0.06060009444366924 
2.434873853430354 
0 
0 
0.7331357583560274 
0 
0 
5.351126524919891 
0 
0 
0 
0 
0 
0 
0.5574057403153936 
8.050106807523910 
0.9370743467052008 
0 
0 
0 
0 
0 
0 
0.01616723666514008 
-0.7782578220292005 
-3.497112118043888 
0.8002012246799741 
0 
2.522674397263660 
0 
0 
-1.985624770881693 
0 
0 
0 
0 
0 
0 
0 
3.366185922363945 
0 
2.893027563940990 
-1.397808906916926 
0 
-0.6350514205358917 
-0.5178561279558093 
0 
0 
-0.4110960048792095 
0 
-1.689946608513416 
-0.7609105430342173 
0.5668503894148949 
-0.2979160925972829 
0 
6.609501000622741 
0 
5.301312205553543 
0 
-0.1914200096822124 
0 
-0.3704235292732583 
1.098641603278362 
0 
0 
2.490925647071332 
1.246531895555287 
0 
0 
0 
-0.2467915827680859 
-1.504229880091091 
0.1823727895831357 
0 
-2.643160867396841 
0 
0.1446321373924787 
0 
0 
0 
0 
0 
-2.269538381025615 
1.167177280274113 
0.7724224989325787 
-0.4218741183505094 
0.6431885446910124 
0 
0 
0 
0 
-1.769505737200946 
0 
0 
0 
0 
-0.1530502519555587 
0 
-0.1309308638801453 
0.7839189508056252 
0.3909141346732373 
1.350602349365640 
0 
1.464372212413740 
0 
-0.1363641429323513 
0 
0.2740906268389550 
-1.596072882978415 
0 
0 
-0.5297973265616946 
0 
-0.7347194390601992 
0 
-1.187599581360362 
0 
0 
1.057791113945003 
-0.6103483560000164 
-0.1697146444852393 
0 
6.664150217876592 
0 
-0.4170462026310913 
0 
0.4539289406064752 
0 
-3.220178713223385 
0.4769724317838330 
0 
0 
-0.6428992657097446 
0 
0 
0 
0 
0 
1.922941004668299 
2.077082764342426 
0 
-1.052818806476994 
0 
0 
1.111036561527701 
0 
0.1653173016042040 
0 
5.099463977480726 
0 
0.1249416571570232 
-0.5129362545378091 
0.5736348077399991 
-1.239814473136250 
0 
0 
0.5662915834641054 
0.7218934509517659 
0 
-3.816479122227584 
-1.304691124321572 
-2.151974272470713 
1.225656743963262 
-0.04584749945784361 
0 
0.3425469229200253 
0 
0 
-0.4332717988249742 
1.312145844126232 
0 
0.8361634256153325 
-0.1054300623693062 
0 
0 
0.7273910809641115 
0 
3.263081194226398 
3.950366852284009 
0 
-3.906349858920119 
0 
0 
0 
2.173565765467707 
0 
0 
0.5000934085754632 
0.4684642727293231 
0.9368521388165615 
0 
-1.413144407931963 
0 
0 
0 
-0.01189832781007827 
0 
0 
0 
0 
1.406292158857245 
0 
0 
1.742480814284134 
-0.07395076832719227 
0 
1.708226431126947 
2.303870604342255 
0.4412320002158508 
14.75372516382981 
0 
0 
0 
0 
0 
-0.8888702088851264 
0 
0 
1.347763977936725 
-1.390314460801022 
-0.9992988574586776 
1.321259131956635 
0 
0 
-0.3878275006677132 
0 
0.3212854760326868 
0 
0 
-0.1186726731256089 
10.00000000000000 
-0.06575687974119682 
0.6154698864499949 
0 
0 
-3.978269030646679 
0 
0 
0.6575304627766949 
1.314925115477492 
0.4252289247280345 
0 
0.9441185959643994 
-1.108240546625412 
-0.3914740792195928 
0 
-2.242059406306690 
-0.8933466715656853 
0 
0.1039938694631346 
0 
0 
-2.406512128670683 
1.233200741319724 
1.246233729313670 
0 
0.1540239304394024 
0 
0 
1.918502702689199 
0 
0 
-0.4547505415137654 
-0.08328640782943972 
0.2614942020121803 
0 
0.3154641586485971 
-1.669431152957738 
0 
-0.8758147869406092 
-0.1180415146809461 
2.329857331359755 
0 
2.547157274104074 
-1.206246204298151 
1.045604159615954 
0.5093869351807156 
-0.7822228943814364 
5.324832702509829 
0 
0 
0 
0 
-0.05419474616322750 
0.8585243192253657 
-0.2834035763936773 
0.7281938117941016 
4.381009246318637 
3.058568772437988 
0 
0 
0 
-0.06819852663010234 
0 
-1.048027032647760 
0.05751912401539897 
-0.9248713608797820 
-0.6577171396358409 
0 
0 
-2.851331329815439 
-1.276664752431235 
0 
-1.899367401909056 
0 
-3.115462680328554 
1.357560358728444 
0 
0 
0.1261192427576811 
-2.685991745666900 
0 
0 
0 
-0.04063154608885133 
