solver_type L1R_LR
nr_class 4
label 0 1 2 3
nr_feature 34999
bias 0.000000000000000
w
0 0 0 0 
0 0 0 -0.7583301082033367 
1.585154780887418 0 -0.3977929370574002 -2.436732046792619 
0 0 0 0 
0 0 0 -1.661732661508582 
0.5306821726497322 -0.5903646446658350 -0.7688964158402315 0 
0 0 0 -1.507050974908158 
-5.640609859838976 -3.569478133200599 -5.752827856697731 1.938851713199468 
0 0 0 -7.347221392994983 
-5.764256582171352 -7.016849786180659 -3.980407016069531 1.861735654801203 
0 0 -4.605255898275813 1.631834817030807 
0.1695403682497930 0 0 0 
0 0 0 0 
0 -0.03102452462660568 -0.5428515704638164 0.8549425364935950 
0 0 0 -0.08921562383190262 
0 -2.778109968108076 -1.285035758850385 -2.457882033553831 
0 0 -1.982881899160398 0 
0 0 0 -0.5983210863420774 
0 0 2.183125926913880 -2.740659363542433 
-0.5279830960368952 -0.7235073851266440 -1.497205133982563 0.005598163087899843 
-1.738925859859670 -0.02345796722479968 -0.08012859477435641 0.1843236140352478 
0 0 1.748574423131047 -1.582252618776266 
-11.62133560427985 -8.320837221219318 0 0 
4.925120524454350 0 -0.08168459484263908 -0.8538561612647099 
0 0 0 0 
8.090785528335875 -3.835594443209980 -1.400233697057221 -9.519806148619919 
1.869844255907414 0 0 -1.696000005601146 
0 0 0 -0.6881103457478721 
0 0 0 0 
3.030744493602948 -8.339948347296778 -5.688057396450017 -0.09031624506025701 
5.561272280564808 0 0 0 
0 0 -3.111016567118609 0 
0 0 -2.463107976801823 9.461402401279056 
0 0 0 0 
0 -2.716890422174838 0 -0.2691961085359086 
0 0 0 0 
0 0 0 0 
0 0 0 0 
-2.519814833492497 -3.132466562205904 4.489082755939172 -2.593480699716043 
0 0 0 -1.362708665108370 
0 0 0 -9.319124326595594 
-2.678117038183255 0 0 -1.518310833225015 
11.58388367753335 0 0 0 
0 -0.8114344672685590 0 0 
0 0 0.6537244352602144 0 
-4.314088570234212 -0.1562257306750012 -0.5398635764235757 1.566383607262412 
0 0 -0.6688445367845803 0.2846004972589533 
0 0 -1.087971949944030 1.949230260653086 
-2.433563099970409 -3.163674767047732 -0.05164497579219901 3.364341785578518 
0 0 -3.068173694120749 -0.7683800636664243 
0 0 -1.398456739718348 2.640875938521090 
0 0 -0.3255748324393082 2.193712698080983 
0 -0.4447513523503792 0 -2.294202879499764 
0 0 0 0 
0 0 0 0 
4.829959161808661 0 0 0 
0 0 0 0.4869852304195512 
0 0 -0.3600765437494331 3.591601574090378 
0 0 0 0 
10.80677432753168 0 -1.485202540674439 -2.611518194258812 
1.264407530434013 -1.386283724671857 -6.096348700677952 2.647270103148195 
0 0 0 0 
0 -1.855324530722588 0 -0.9808318136435858 
0 -0.002048549028003470 0 -0.2195638907453879 
0 0 -1.466892453630224 1.070293284492314 
0.3935845514021767 0 -1.122713052380707 0.2059637444922378 
-0.4442773812545905 0 -0.2744875617523328 5.399333219462336 
-1.072189297577061 0 0 2.102165137747733 
0 0 0 0.7175158315460824 
0 0 -0.4978072029351686 0 
0 0 0 2.084621357740826 
0 -1.235342688002439 2.357295148343971 0.6683451967748230 
0 0 -0.1000232140719741 -0.7984347760090766 
0 0 0 -0.1150028911224358 
0 0 0 0 
0 0 -1.349703038225854 0 
0 0 0 0 
0 0 0 0 
-0.6089206738695506 0 0 0 
0 0 0.1303361949005384 0 
0 0 0 0 
0 0 0.08949948613279717 -0.6400010407950626 
0 0 0.2287727064718756 -3.081787329116501 
-1.319729084635893 0 -0.5848017750256393 0 
0.8017977770612623 0 -1.854599125368597 0.6725718449191361 
0 0 0 0 
4.509658100855545 -2.094074275338690 -19.14141375764889 -1.814378418761406 
0 0 -1.514055671052072 0 
0 -8.700182214392306 -0.8983223665685028 0.2672692475278954 
-3.059656215842288 -0.5278293443620877 1.703128416508115 -0.4746138938537475 
1.550697914866420 0 0.1153891946617253 0.1746375857654277 
-1.734168591119863 -3.244860071754248 0.1727345273389178 -3.899820406121431 
0 0 0 0 
-2.134096885447739 5.716540354952384 -0.9662125486175130 -10.58821006387105 
0 0 0 -3.949716332715630 
0.3674518738088366 0 -2.235921329561116 1.821833972054567 
0 0 0.09501713033961678 -1.602105282652652 
0 -5.816553493847356 -0.6494673435565548 1.347333568176079 
0 0 0 0.07603393438313358 
0 0 0 0.4664439015638682 
0 0 0 0.8961762021825737 
0 -0.3404680050284782 -0.1184970845830349 -0.4410048666066293 
0 -0.3160278535491191 -0.5810191109025653 0.6492617127354514 
0 0 0.1186786069588907 0 
0 -0.2057936598581919 -0.02015283183058081 0.01260232304496334 
0 0 0 0 
0 -0.6311297683223959 0 0 
0 0 0 0 
0 0.4406194398243195 -0.03410910297338792 1.010739756691608 
0 0 0 0 
-0.4052969684779018 -7.928212762765168 0 0.6246041170408161 
0 -0.3903357793982383 -3.594110800246745 0 
0 -5.531829869002600 0 0.03252963018912829 
0 0 0 0 
0 0 0.5092892802496166 -0.1099241479874315 
0 0 0 0 
0 0 0 0 
0 0 0 -0.9439696444164968 
1.046725595896328 0 1.393545192357526 0 
-1.187646605338472 0 -0.2507305494171886 0.7983043000871317 
2.223112568497884 0 -0.7747775723078044 -0.3929303752446534 
0 0 0 -3.553422930411468 
0 -0.7347212829305009 -0.5530244529099864 -0.6222138947666196 
0 0 1.345646329716845 -0.4687197151426020 
6.028913312945075 -3.112188796432189 0 0 
0 0 -1.830319206392141 0 
0 0 0 0.6619337486690890 
-1.397981355310754 0 0.3159234227527634 -1.385009545871397 
0 0 0 4.140971342278142 
-0.7016837639007585 -0.2419199321266984 -0.5559622344450701 0 
-0.3348118932141847 -5.052274106507777 -2.368591483394566 3.240815815220608 
13.25740007714422 -0.6027329341359650 -1.055611546437154 -7.733414422470766 
0 0 0 2.150311024786810 
-0.1799709721949003 0 0 1.270140724494347 
0 -6.222118509948106 -1.855404359747038 0.6713864297816727 
0 0 -0.1403230641210949 4.188812986925191 
0 0 0 0 
0 0 0 0 
0 0 0 2.441443562875416 
-0.5763703443943177 0 -3.172578039991013 0 
1.764025060329322 0 0 -1.838537188984065 
0 0 0 -0.8602765372526612 
0 0 1.434029431561593 0.05103404575848236 
0 0 0 -1.361953221275320 
0 0 1.790174156749007 -7.329143349210426 
-3.068568746835541 -1.692663459092365 0 0.2813203534550732 
0 0 0 -1.469001699045422 
0.2235963481666687 0 0 -2.160742516876375 
0 0 0 2.181786995821765 
0 0 0 0 
-0.02613335941240801 -1.822029732704039 0 0.3106105149414770 
-5.501342091740151 -3.446145224714579 -2.024507302157585 1.300063998189487 
0 0 0 0.9476546939199267 
0 0 0 0.8477171449512704 
-2.985818279182907 -3.528926976292196 0 -0.6926434238768004 
-6.692055840783849 1.104873748360188 -0.6663593078614248 1.828806728815633 
0 0 0 0 
0 4.229226954155244 0 -4.496303053969998 
0 0 0 -1.117335577348994 
0.9925344676953757 0 0 0 
6.686612743055552 0 0 0 
0 0 0 0 
-6.341094707467041 -0.8087359001577139 -1.251940077444410 1.196275637922998 
-2.480247442257931 -3.641918553665685 -4.670630776970204 1.897815626887697 
0 -1.351128976825150 -1.817591355226039 1.676845924335558 
0 0.09907629233382177 -1.177099241017623 0.9225682414364299 
0 0 0 0 
0 -0.8122934635263892 -0.03536191633221986 0.1277906434312489 
1.346129595486209 -5.374170699690045 -1.861914735572989 1.265791283928978 
2.430898453098235 0 0 0 
2.190524793677121 0 0 0 
0 0 0 0 
0 0 0 -0.2891894519762053 
0.1488536509403482 0 0 0.7015626585928018 
0 0 0 0 
0 0 -0.8264975689586428 0.1252961358656283 
0 -0.8387501900812757 0 0.3851465520576407 
0 0 0 0 
-3.323908047143153 -0.7996890049349585 -0.4593916361079892 0.7053409531661310 
0 0 0 1.203983708814245 
0 0 0 0 
0 0 0 -0.2972422539832955 
0 0 -1.172134842451925 0 
-1.756461039861723 -5.761668077332978 0.09209104708172144 0 
0 -0.1189831060920201 0.2157201699781939 9.110974575988930 
-1.732626990783085 -0.3389032513256109 -1.087730994786357 0.2589858063388982 
0 0 0 0 
0 0 0 0 
0 0 -2.399200112896400 0 
0 0.5366788485781535 -0.08250955776732888 0.8544165268888693 
0 0 0 0 
0 0 0 -3.533575134778998 
0 0 0 -9.779123016294696 
0.6600519512874189 0 -5.859003317363294 -0.08444078892445325 
0 0 0.1462873632874296 -0.8767864007062021 
0 0 0 -4.017821518453800 
0 0 0 0 
0 0 0 0 
0 0 0 0.8435481978943198 
0 0 -5.661910481413770 4.277861344986333 
0 1.154117772358360 0 -0.1116119598916310 
0 0 0 -0.5750046134394982 
0 -1.803725889370118 -0.1127027789584027 -0.2520020095983072 
0 0 0 0 
0 0 -0.3224581104147370 0.5416114142649435 
0 0 0 -6.934514619499935 
0 0 0.5613468901693950 -0.7157070635480889 
0 -0.06916191870488353 0 -5.879159585102968 
0 0 0 0 
-1.293047245187705 -3.895043397799935 0.05862250933795576 0 
0 -9.187597008410519 0 -7.570582995334667 
1.116415181216371 0 0 -2.333462290537689 
0 -0.2077531524251930 -0.4304066462395749 0 
0 -0.4539815002134532 -0.1217302046430639 -0.1087661533704104 
0.7156487638785367 -1.872608581036252 0.8683498225584871 -0.7586316968658047 
0 0 0.3697305272333633 0 
0.5942739308601037 0 0.4195537823179348 -1.004337240910364 
-4.023414505557605 -6.328251781349032 -1.527220601166247 -0.5612234166161869 
0 0 -0.3684522728818868 1.411485478248169 
-1.197813390717299 -1.354652778852213 -2.433422496532473 0.5781147003023754 
-1.093035524300361 -0.8940083670092397 0.4302128675413280 0.8110201423897921 
-3.891921173491707 -1.072806594736851 -3.599730350539331 0.7759588297468800 
-4.228867007910707 0 -0.2753199275083119 1.549849571189930 
0 -6.096408402055947 -4.749358163298604 0.8462455037932968 
0 0 -1.850029819310316 -1.263180827303927 
0 0 0 1.040399794003660 
0 0 0 -1.093993536350291 
0 0 -1.986741433372734 1.555943746097390 
0 0 0 0 
3.058585301365157 -0.1844550311747008 0 0 
0 -0.4355148557329442 -0.3288398385372698 0.04981195658899142 
0 0 0 0 
0 0 0 0 
0 0 -0.8064450053781536 -1.697509046595035 
0 0 0 0 
0 0 0 1.321952687050122 
0 0 0 3.651142212991273 
0 -1.949756293784790 0 -0.7670795566633197 
2.477134968294144 0 0 -0.6475390506788037 
0 0 0 1.502987656844303 
0 0 0 0 
0 0 0 0 
-2.599781582254664 -4.661804792960542 -0.1523934944823622 1.260497927099428 
0 -1.459027874495333 -3.775036926673502 1.825199290697877 
0 -0.4175879763888339 0 0.1686686066818705 
2.333178255129837 -0.2566411139581529 0 0 
0 0 0 0 
0 0 0 0.9397500408321614 
0 0 6.718153243438767 -2.527338898016637 
2.589698962529862 -1.215471509969183 -2.260608826702206 -0.7796238428301958 
0 0 0 -0.5179921041333446 
-0.2517085594482668 0 0 0 
0 0 -0.008055975205061518 0.9268168788383457 
0 0 0 -1.843988553527893 
0 0 0.4607902442898740 0 
-1.429696375637978 -0.2605340363799530 0 0.005248570194251900 
-1.972121452131115 0 -2.293775532842435 0 
0 0 0.5908538776545886 -0.5321326130089710 
0.1411158205251484 -0.5023591929106268 -2.659307777782830 0.8381223977235706 
0.8415287173054864 0 -0.3078255844250962 -1.436544913481831 
-1.473571569437822 -1.205272375339059 -1.932986604825348 0.8005300717156477 
0 0 0 0 
-0.5082101770260888 -4.317960834562524 2.418630106148639 0.5502267321101871 
-3.697673784438952 0.9337062279541325 -2.423937766350368 0.07735218471848548 
0 -6.774685820443032 -1.093494218300064 0.3037376230739763 
0 0 -0.09762331151388404 2.282925901419843 
0 0 -2.989006066553940 0 
0 0 -1.646232707925955 3.729197626985215 
0 -0.9938646680629472 -0.7564308299383526 0.008791506693060613 
0 0 -0.4482494502691509 0 
0 0 0 -5.422206257929071 
0 0 0 0 
18.00653037254924 0 0 -3.054341663866878 
0 0 -2.452722862803709 0.5001950598187836 
0 0 -0.7031462431449126 1.544879030415891 
0 1.229385347246653 0 0 
0 0 0 0 
0 0 0 -0.5249240819027900 
-2.335771489409508 5.939474101103421 -2.066559102469428 -0.3208840327046565 
0 0 0 0 
0 0 0.5636209705824275 1.581345922525509 
0 2.033116798162541 0 1.677478235939931 
0 0 0 -1.543047201145488 
-6.869446018468873 0 0 0 
0 -0.2832000272280814 -0.2587983297445723 0 
2.997799786673982 0 0 -0.1757949103445755 
0 0 0 0 
0 0 0 0 
0 0 0 0 
0 0 0 -1.898710115244309 
-4.169045022409547 0 0 -7.355036311251604 
0 0 -10.65493439305808 0 
0 0 0 0 
0 0 0 0 
0 0 0 0.2231819200420754 
0 0 0 -3.463125712690886 
0 0 0 0 
0 0 0 -1.825428142770693 
0 0 0 -3.565571646585245 
0 -2.160151939471749 0.3252699009034810 -1.611827984552515 
0 0 -0.2773867199479868 0 
0 0 0 0 
0 0 0 0 
0 0 0 0 
0 0 0 0 
0 0 0 0 
0 0 -1.579454538612425 0 
0 0 0 0 
0 0 0.1015968227012843 0.4607782410193850 
-2.827400131928350 0 0 -0.3810903089136344 
0 1.112696165505265 -4.405073764662723 0 
-0.1510583586750363 0 -5.667798550608560 0 
3.520431861979287 0 -0.6158274558668558 4.270325880907945 
0 0 0 0 
0 0 0 0.3033287333382959 
-1.516312614898074 -1.848540387746884 0 0 
7.825375594484040 -6.799722836726578 -0.5046405447137531 -4.465652142557776 
5.580561394950411 -0.7690599692551502 0 -0.1583783072531857 
0 0 0 0 
0 0 0.8340728258093912 0 
0 -1.147865909836303 -0.09223989314091452 -0.2040117904206612 
0 0 0 0 
0 0 -2.420755854811034 0 
0 -0.01822155206198913 0 0.6799759539299459 
0 -9.363939665801828 0 -0.5180558537799487 
-0.04971216376268861 -1.454819337489281 -3.454254132817725 9.885876886406512 
-0.2193733963328885 0 -6.963780300630591 -0.7409344817539989 
0 -0.8107780265094677 0 -0.1186037058335653 
0 0 0 -1.271472899249139 
0 0 0 0 
0 0 0 0 
0 0 -0.05231852447546971 1.457401164043766 
-0.05178124976352327 0 -4.474856442116567 2.325957257792285 
0 0 0.6177432953092797 0.3923548273953938 
-1.359787813779723 0 -0.1636028887787382 1.491142167856818 
0 0 -0.1682193419398384 0.7480582898329893 
0 0 0 0.1631455850605223 
3.310267231439941 0 0 0 
0 -3.227913472767462 0 -2.532895952247730 
0 -2.378973586938293 -0.6042357522691503 1.239891469541469 
-0.6754000400273062 -0.008675875435503133 0.6776950081185168 -0.09800316105587266 
0 0 0 0 
0 0 0 3.169669074744750 
0 0 0 0.1078674968620013 
-0.8202175369056942 -0.5608478892132129 0 3.092819296468541e-05 
0 0 -0.4115278124112605 -0.1460844382337971 
0 0 1.746225356699087 -0.5729157610794160 
-0.9453434465613477 -0.7700987689158326 6.955155252858979 -1.156328365347343 
0.9601443221857843 0 0 -0.3125574131809878 
0 0 0 0 
0 0 0 -1.499189459340733 
-1.321443572489368 -0.2070651237521961 -0.2613140056967066 -6.021392061664600 
0 -3.323019227883178 -0.7240270663565130 0 
0 0 0 0 
-3.038222932281797 3.540134374735760 -5.441433994327992 -2.378119327649446 
0 0 0 0 
-0.4262295455562330 -2.266920823322374 -3.306586924370325 0.4780784199542881 
0 0 -0.4969873247370881 0.5124949238328798 
0 0 -3.107837762348333 0.3920180570300195 
0 0 0 0 
2.496403046542436 0 0 0 
0 -6.677903049018298 1.559033740318802 -0.08851679745565660 
0 -2.033778691641151 0 0 
0 0 0 -1.063114237259154 
0 0 -0.5284059847646173 0 
0.1953856258915909 0 0 -7.471880619364283 
0.5954576167106929 0 0 0 
0 -1.815882913902410 0 -2.180361595950168 
0 0.03581962973555775 -2.141003256019404 -10.76141166341973 
0 0 0 0 
0 0 -2.679770761790272 1.568235346600088 
0 0 0 0 
-0.1113895088419662 0 0 -7.217488949284645 
0 0 0 0 
0 0 0 0 
0 0 -1.800009367121606 0.09168415039222910 
0 0 2.148810465313217 0.3590581372933479 
0 0 0 0 
0 0 0 0 
2.014171055957407 -0.3597786734504516 -1.211167379948587 -1.177318524936691 
0 0 0 2.525067011389757 
0 0 0.1164623059507545 -0.9785880962933359 
10.08965563461068 -2.133023990404403 -0.8253001977425292 -0.4787102489086651 
0 0 1.966268152983756 -0.6911940846314963 
2.374780407448506 -1.421162368181079 0.3456810438635253 -1.460688944966799 
0 0 -0.8271732250978268 0 
-2.134632889755437 -2.462732525255256 0 -0.6940608947200834 
0 0 0 0 
0 0 0 0 
-1.375350222049558 0 -0.2058244891642378 -0.8031758682867798 
-7.290777970591013 2.888368899271263 -6.886711683256177 -1.552567164244442 
0 0 0 -0.7104184178999420 
0 0 0 -6.201344756371173 
0 0 0 0 
0 0 0 -0.4189265778697754 
0 0 0 0 
0 0 0 -0.3775519424754447 
0 -5.838506777519612 -2.923178604888379 3.950657200366608 
0 0 0 0.7603242929938442 
0 0 0 0 
0 0 0 0 
9.090919469905405 0 -0.3543448802068885 -3.458829912017388 
0 0 -6.514842300167619 0 
-1.458527375250083 0 2.637538761881992 0 
1.758573434866019 0 0 0 
0 0 0 -0.6193902042162738 
1.593156854321769 0 -9.445439784841406 -0.6489508423979949 
0 0 0 -7.088079664776871 
0 0 0 2.313530760197259 
0 0 0 0 
-4.271080233003130 5.269777562344484 0 -0.7146404487724332 
0 0 0 -1.427500916732623 
-0.3984510782216610 -0.5447638763363770 -2.425079437101569 0.5550002939402436 
0 0 0 0 
-4.668769533655267 0 0 0 
0 0 0 0 
0 0 0 0 
0 0 -0.2895750615286818 0.4334739082317711 
-6.831099625102810 0 -3.830763352609364 4.750900298841090 
0 0 0 0.5121332063723263 
0 0 0.6250480097755908 -0.7762841298995495 
0.3864575369558998 -3.170756979107173 -0.6032941129468532 0 
0 0 0 -1.628207122726720 
0 0 -1.090422443601971 1.005326274770687 
-4.381710603470687 -5.409694718438509 -2.016155251918212 0.9401535394357735 
0 0 -4.499520018546318 0 
0 0 0 0.1503245560126469 
0 0 0 -1.878500005723934 
0 0 0 0 
-1.041805129891338 0 -2.004822816405601 1.517933521764462 
0 0 -1.244429966031823 1.809823521539549 
0 0 0 -5.790958558012427 
0 0 -3.340378257313611 0.1857409756959725 
-3.371133110586507 -3.508763824324630 -4.291797173227704 1.320718753220210 
4.501007893752576 0 0 0 
0 0 0 -0.2845867950915171 
0 0 -1.837854783696140 0.8812989006028517 
0 0 0 0 
0 0 0 -0.05484618983868612 
0 -0.7559551755821138 0 0 
0 -1.100394166469528 -0.7235226246326512 1.826209780070937 
0 0 0 0 
-5.610590557278068 -0.3552309708737361 -1.319305504902921 0.2483252728930931 
-5.033350825121955 0 0 -0.7170816735403627 
0 -0.3523993800657942 0 0.5918909607543308 
2.202618574625426 0 0 -4.984500321259650 
-2.002095660801717 -2.313878687932246 -0.3680747624690319 0.3167829792437130 
0.6726565977245735 0 -0.3292827621656209 -1.312061790560752 
0 0 0 0 
0 0 -0.2557938882758694 2.354456614357415 
0 0 0 0 
0 -8.336786114225774 0 -0.4778439118727056 
0.2895679242393341 0 1.057487726741166 0.2954248739091078 
0 0 0 0 
0 0 -0.4115260346689326 0.6741525431715553 
0.9037255974361028 0 -0.3528003750793620 -1.301298958143830 
0 0 0 0 
0 0 0 0 
0 -1.047761636515224 -0.8666123154601082 -0.2403489006604505 
0 0 0 1.738407242707342 
0 0 -1.562546405985194 2.407758161377715 
0 0 1.603330167305898 -2.911463918132730 
0 0 0 -1.163771429219378 
0 0 0 0 
4.378408233326765 0 0 0 
0 0 0 0 
0 0 0 0 
0 -5.979138914916513 -0.06734431744238321 1.060465004954890 
0 0 4.162333670914551 -0.7827092603553918 
0 -4.537988882750572 -1.093877829275386 -0.3402270268365326 
-8.493941811457290 0 0.07420349013794288 0.6061079528008831 
-5.023817965455831 2.938999662872338 0 0 
0 0 0 -8.847009615176297 
-3.694235015518174 0 0 2.098633901852031 
0 0 0 0.3158359457329594 
1.471736501296824 0 0 -0.2755497881382243 
-5.171660273202013 -3.693462655999957 0.2685079445711752 1.101118536411415 
-0.9607095813131248 1.072104662200641 0 0.7627787289197691 
0 0 0 -2.863770118984934 
-4.998555189146586 0 -2.797890128982838 -0.1028786827622287 
-1.033848951622463 0.2277492355302527 0 0 
0 0 0 0 
0 0 0 -1.497817369035730 
0 0 0 -4.520920618920072 
0 0 0 0 
0 -1.104674477581257 -2.473352243076261 -0.4685230136281702 
0 -0.8093222186492036 0.05565088316738279 0 
5.414746068166219 0 0 0 
-1.048390469945510 0 -1.543829976528627 0 
0 0 0 -1.093256681271814 
0 0 0 0 
-10.21792694879595 8.880607626036696 0 -1.648577394356565 
0 -0.09167061679960890 0 -0.1061338062899397 
0 0 -0.7162517687824052 1.376179743307689 
0 0 0 0 
2.379499887240405 -1.994334443386700 0 -0.2240829065254828 
-6.170126775908395 -2.161217967520604 0 -0.9909130388176628 
0 0 0 0 
0 -0.3122792166993149 -0.1341526481317256 0 
2.376490504361009 0 -1.274608085140138 1.092385499870951 
0 0 0 -1.679999435477146 
0 -2.722646889735225 0 -2.003428957947155 
-0.4185127275652348 -0.09440566245752269 0 0.2772400448401268 
0 0 0 -0.1869543346091137 
0 0 -2.774448897321374 0.5240811760639437 
0 0 0.9461437474753271 -0.8036046738895161 
2.468581525300833 0 -0.3651932365397914 -1.844177503890350 
-8.880767054384334 -2.925015052511167 0 0.8591027200641856 
-0.3202135798876207 0 -4.774013571895824 0 
0 0 1.660017398880299 0 
0 -0.9828646316578614 0 0 
0 0 0 2.255780489669000 
0 0 0 0 
0 0 0.1433391848426271 0 
0 0 0 3.015912506566602 
0 0 0 -0.4274827231514671 
0 0 -1.216407186334432 0 
0 0 0.5627882695017924 -4.223878726729629 
0 0 0 -0.5613597273215636 
0 -2.240891160225904 -2.178085069869188 0.7051584282599981 
0 0 0 -0.5150533401227102 
-3.051815838039764 -0.02709512189454489 -0.7088625731191989 -12.88093022876372 
0 0 0 0 
0 0 0 0 
0 0 0 0 
0 -0.2693968316605450 1.642822331257204 -0.1583754114622717 
0 0 0 0 
0 0 0 0 
0 -1.371624802663078 0 -1.471342317036401 
0 0 0 0 
1.928138771055713 0 -0.7538916325640865 2.634901073382172 
0 0 0 0.5637379973025489 
0 0 -4.265369821923397 2.385383306909436 
0 0 -1.761498951544496 0 
0 0 0 0 
0 0 0 0 
-0.9778546036126653 0 -0.7608075012368200 1.292221935344191 
-2.672337170459152 -0.6196410915187668 0 0.5926895195136923 
0 -0.8782100363891041 0 0.3902962143503768 
0 -1.765204482245058 0 1.699019570843957 
0 -2.635115438620397 0 0 
0 0 0 0 
0 0 0 -0.1543657264728713 
0 0 0 0 
0 0 0 0.9472005968987562 
0 -1.545743867264652 0 0 
0 0 0 0 
0 0 0 -0.7688853066871633 
0 0 0 0 
0 0 -0.8055053629984813 0 
1.931308357798475 0 0 0 
0 0 0 0 
0 0 0.8798579783060617 0 
0 0 0 0 
0 0 0 0 
-0.03665026480468181 0 -0.6662403125670084 6.316307587316011 
0.2446642396995269 0 -0.09038108795487652 -0.9764716558196536 
0 0 -2.030646843438329 4.433554551744225 
0 0 0 0 
0 0 -0.001207137204172065 0.4296787644465983 
0 0 0 2.502269681083233 
0 -1.035790937956927 2.342882205248238 -1.704372098790102 
0 0 0 0 
-0.1312627585750332 0 -2.133935168634662 4.921287157981109 
0.9526208240381305 0 0 1.024517852701074 
0 0 0 0 
0 0 -1.739930924040236 -7.075168484189192 
0 0 0 0 
-1.857453955194295 -1.399136960468290 -0.3791916614378361 0 
0 0 -1.559654242633640 3.234160387107052 
-3.453853412478995 0 -0.3789424566417847 3.942787962910223 
0 0 0 -3.585148476554671 
0 0 0 0 
0 0 0.6039403994486315 0 
2.478824010991257 0 2.528625813874058 -1.161609091545580 
0 0 0 -2.168283941795161 
0 0 0 0 
-0.5031308969625261 0 0 -0.8962612066856863 
0 0 0 0 
0 0 -0.04674913206661602 0 
0 0 -0.5140713560621756 -8.476721674625360 
0 0 1.597870527228996 -0.1093356376614788 
0 -1.950485270096136 0 0.8288204085310593 
0 -1.005575123108596 0 -8.819103991903221 
0 0 -0.3911802532038565 -0.5393831229906086 
0 0 -0.3367715988223194 -0.9654039930715324 
0 0 0 -1.471515320246882 
-0.9716655645335752 -7.066676766020738 -0.5855435078933315 0 
0 0 0 0 
0 0 0 0 
0 0 0 0 
0 0 -3.000069250541993 0.2998360657798247 
0 0 0 0 
0 -0.1932542203943814 -1.882201818871224 -1.249917534350996 
-0.7058427387997259 0 -1.136454464738459 0.6888979583900221 
0 0 -2.535930376978215 2.703645621194722 
-1.946127566571433 -2.254054992231903 0.4115740528920318 1.300847448416772 
0 0 -2.581034774519567 5.056625016086368 
0 0 -3.554457334115921 0 
0 0 2.084575529406800 -3.673535135890195 
0 0 0.3079242183003093 -1.848911650727916 
0 -0.9752981038551933 0 0 
-0.3773762915268076 0 0.2948620830277230 -0.05248002231970600 
0 0 0 0 
-1.868960015936716 0 -0.7903132284362657 -1.372779992295195 
0 0 0 0.9663387805588937 
0 0 0.1466200685164896 0 
-1.404199554702802 0 0 2.076956029020975 
0 -1.801345554338379 0.8183090099651975 -0.3830984884658854 
2.756885993822295 0 -0.6576077535429192 1.826464486950300 
-2.597941074888673 -5.617439824233697 -1.563030984002933 -0.1261397385482101 
1.579912978679302 0.3454878131078682 0 -0.4337460968473839 
0 0 0 0 
0 -5.053952552021003 1.911685420826609 1.310782634354807 
0 0 0.7123743287969646 0 
0 0 0 0 
0 0 0.2205301264262022 -2.182837616394382 
-0.3807854448255039 -1.395761314428157 0 0 
2.243279420278334 0 0 0.7540077485698634 
0 -1.162415085011104 -0.2794189130853984 0.01037858923406454 
0 0 0 -2.657347627665531 
0 -0.08430217319552559 0.3489439939693588 -0.3976155084176234 
0 0 0 0 
0 0 0 0.6590199887448813 
2.794854630461725 0 -1.400066250281641 0 
0 0 0 1.503075870129195 
0 0 0 0.9443526063360013 
0 0 4.869418923250097 -3.744971849755879 
-0.03952849074523683 0 -1.121582287458468 0 
0 0 0 0 
-2.019444656534133 -0.5449868695604312 0.4357441684107913 -0.2524516398956134 
0 -0.06698235891199943 0 1.883457886929192 
0 0 0 0 
0 0 0 0 
0 0 0 0 
0 -0.07969246587328967 0.4625889526709401 -0.3102721962599806 
0 0 0 0 
0 0 -3.253672397041719 0 
1.062529243533234 0 -0.1121524743490150 0 
0 0 0 0 
0 0 0 -0.007108402507034928 
0.9676535140990405 0 0 -0.04922357132445365 
-0.1492328642692168 -0.6929751254311497 0.2751470168313647 0.08734866123623705 
0 -3.433302192392838 0 0 
0 0 0 0 
0 -0.2620418187504151 0 -0.6976996548733944 
-2.611658035172285 1.293584559973775 -2.662765325483600 0.5433097890468994 
0 0 0.9794386342576242 1.877064204192572 
0 0 0 -0.8292591703653449 
0 0 0 0 
-1.688117481421703 0 -4.105409048247795 0 
0 1.901069356671667 -0.1624261723871843 -1.171138668165754 
0 0 0 0 
0 0 0.9983128281502871 0 
0 0 0 -1.794729844899709 
2.468400550772474 0 0 -0.5964501822425264 
0.007198327006947558 0 0 0 
0 0 0 0 
-0.7259735745990685 0 0 -0.4318811560879358 
0 0 0 0 
0 0 0 0 
0 0 0 0 
2.976573381236165 0 0 0 
8.135781842212172 -11.94664867448954 -1.275619466647703 -7.487678948025609 
21.18527915209936 -2.322304507344365 -3.064936572815913 -16.47504088481892 
12.04299031607628 -8.992948409241226 -15.09047085485063 -2.804682264065853 
13.27922061056365 -16.50175561560984 -4.410240107475881 -6.227416560554240 
0 -0.1811222355310833 0 0.1229427825322043 
-0.2803239455608414 -0.2444364499097108 -0.06830718960198318 0.1364668450439425 
0 0 -1.074562242391602 4.772528263085967 
0 -0.9842923617102934 0 -1.532310984498180 
-1.806216648539221 -4.385991099409768 6.915136575026849 -3.065726970216302 
0 0 5.361181879801700 -0.2658730546838689 
-1.582773917540495 -3.075673436146647 3.907667662516765 -0.2338095430577866 
0 0 0 -2.151659008942762 
-1.436966159987034 -4.564362259871460 0 0.3686719599251398 
0 1.379144756324035 0.2560134716050401 -0.8210152765359429 
0 0.07135200173648770 -1.072763557319949 -1.512388271905696 
-2.569046825580100 -5.072820744253791 -0.3708577264923781 2.850681821905001 
0 0 1.838196732617994 0 
2.099605009508103 -0.2410336677348117 -1.940023671630170 -0.9008406538753451 
0 0 0 0 
0 0 0 0 
0 0 0.8019050804803226 -1.715817470915606 
0 0 0 0 
0 0 0 0 
0 0 0 -2.136812301037737 
0 0 0 -1.797331855846118 
0 0 0 0 
-2.708651047415685 -7.279035628440644 -0.9633907374486919 1.110218738908992 
0 0 0 0 
0 0 2.701371296385309 1.829420742748097 
0 0 0 0 
-2.817058044982376 -3.394393473122680 -0.6207953215498707 1.563753004302102 
0 0 0 -0.7131007120404147 
0 0 0 1.825380289060157 
0 -3.658512544301523 -5.167005379086371 3.668491465824523 
0 0 -1.677746615187566 0.2145598982011203 
0 -0.6178073556928503 0.9124722788441162 0 
-4.085087978813387 -1.243270193934418 -1.370008125975019 0 
0 -0.9339346169722398 -0.6794405984868067 4.532719696145416 
0.2493986987077034 0 -2.355537957060060 0 
0 0 0.3871908351220091 0.08398808141823855 
-0.3839605105891977 0 0.1080978619084992 0.1167814722863165 
0 0 0 -1.528462557210230 
-5.897634001733635 -0.006154089319524658 -2.803197889097985 0.3269916177145960 
0 0 0 0 
0 0 0 0 
-0.7812464596473576 -1.145405138997758 -0.5625126018106739 0 
-0.8902051467652923 -2.069270693765386 -0.4768540042405111 2.212748383209804 
0 0 0 0 
-0.1387422585903549 0 1.883704286167765 0 
0 0 1.124213464400837 0 
0 0 0 0 
-0.1075865484536186 0 -1.254429941213630 -0.3523617978676948 
0 0.2531326119328261 -3.116767752625550 0 
0 0 0 -2.694654048292279 
0 -2.355791949722638 0.4652555160519802 -0.8640831259748190 
0 0 0 0 
0 0 0 1.573701944354011 
0 0 0 0 
0 0 0 0 
0 0 0 0 
-4.658090112761363 2.945511698725976 -1.076447349685886 0.3410403840191251 
0.8246427819868593 0 0 0 
0 0 1.182823167143311 -2.208730815249185 
0 -1.906269186817822 0 -1.746651838525418 
0 0 0 -0.2892373573166607 
4.936377982679137 -0.04876525957071070 0 -0.1667108723205762 
0.8703100089574649 -0.3001467454897286 -0.1826192495609542 -0.3977038354329568 
0 -0.9267997397794315 -0.03944181773462174 0 
0 0 -3.250702322090981 0.7965013898967469 
0 0 0 -1.361300805009020 
0.4807356017620290 0 0 0 
0.1964753981247585 0 -1.230113503949234 1.256373649792375 
0 0 -0.1408019918870764 3.491889214583794 
0 -0.2293391993989909 -1.573544021639820 1.227883158244902 
0 0 -0.2074269845478744 -0.1106793545602997 
0 0 0 0 
0 0 0 1.358720737242003 
0 -0.6241022176638205 -1.420514832194541 -1.378382945218199 
0 0 -0.4649070732466391 0 
0 0 0 -1.194735575900673 
0 0 0 0 
3.639864938592812 -0.5445326995195630 0 -3.605464896094410 
0 0 0 0 
0 0 0 0.2707124449826862 
0 0 0 0 
0 0 0.7897518265631067 0 
0 -1.320401893479404 -2.172868501673547 0.1574894218471982 
0.8552141398623161 0 0 -2.556667339328296 
0 0 0 0 
0.2455782425604706 -2.325577464032430 -2.227190638372618 0 
0 0 -0.6423783022898453 0 
1.455164420164326 0 -0.2531188939014771 -2.065487630428596 
0 0 0 0 
0 0 0 1.284207434166562 
1.239774253334727 -0.5920015982826654 0 0 
0 0 0.8149304091582060 0 
0 0 0 0.02558716890796575 
0 0 0 0 
4.556233915522618 0 0 -2.341515231952752 
0 0 1.263365452427136 -0.2698927504609365 
0 0 -1.431793071004397 0 
0 0 -0.7119766845116002 0 
0 0 0 0 
0 0 0 0 
0 0 0 0 
0 0 0 0 
0.5542047869504638 0 0.7562035031744571 -0.3648411279174439 
6.719954169643348 0 0 -1.645686648364397 
0 0 -0.5144076847559435 -1.009377478644770 
0 -0.4069532762437643 -1.949537893102985 0.1315280449448636 
0 0 0 0 
0 0 0 -0.6748099080706966 
-2.664763327223948 -0.3191953726937489 0 -1.797414417573196 
4.382399639092440 -0.2487991470354271 0 0 
0 0 0 0 
0 -2.987190947393831 0 -1.395590288701639 
0 0 -0.1890379424488600 -0.5087449493803156 
0 0 -0.8750388332966845 0 
0 0 0.9035933206529085 -4.744267761211779 
0 -0.1076276046057105 -7.710765631830849 0 
0 0 0 0.1233353043650730 
1.373902202641892 0 0 -1.096120356269700 
0 0 0 0 
0 -0.1110393347996621 1.763449784385679 0.05322633314259427 
0 -0.9517361037950810 0 0.04831422363929194 
0 0 0 2.472609196945296 
0 -0.1149702482938161 0 -5.573509980880105 
0 0 0 0 
0 0 0 0 
-0.5106450086750391 -2.423741791204005 3.473934199631763 -1.319727012199820 
0 0 0 -2.240366252182639 
0 -1.282026089683845 -1.186521925951050 0.3086163722672213 
-0.7706648494970628 0 0.2454504198455779 0 
-0.8221984696561722 -2.325507219956041 0 0 
0 -0.1530162486769081 -3.030458851001160 0.6357615847471515 
0 0 0 0 
0 0 0 0 
0 0 0 0 
3.893774617439537 -2.078099079638700 0 -1.372983216548525 
0 0 0 0 
-2.371118319420480 -0.8737201633875137 0 -0.5241402666390338 
0.6114264737300191 -0.07422284752959767 0 -0.3583009475325507 
0 0.06468408500494549 0 -1.153428018317954 
0 0 0 0 
2.670409967214050 0 0 -2.006972105525129 
0 0 0.5897112429423448 -2.608454051911335 
-0.5921167537385866 -2.422859440301899 -0.6813488635047344 0.08533120752752243 
0 0 0 0 
0 0 0 0 
-1.073184370769194 -0.3094513850596987 0 1.077281286012296 
0 0 0 0 
0 0 -0.2020990123409463 -0.3339290228970820 
0 0 2.667351163033976 -0.5369338203571276 
-2.447185667555329 7.892831213108024 0 0 
0 -1.190838549466666 -6.939344704306524 0 
-1.771095716482066 -3.149239975362166 -0.7595568671001368 0.6366793320811301 
-3.693370301347014 -0.4518462806626524 0.05144167783734693 0.7115855118692107 
0 0 0 0 
0 0 -1.438425476787966 0 
0 -0.1406386603223963 -11.71874474363039 0.3769014817806357 
0 0 0 0 
0 0 0.5791080229546148 -0.06209023053539697 
-0.1703914157778739 -0.7127123961243317 0 -0.4776181409464965 
0 -0.9784988434554676 -0.5947475910119597 0 
0 0 -1.978728945975754 0.1405164455008579 
0 0 -2.686891695540923 0 
0 0 0.7081329510910275 -0.2559701231757924 
0 -0.4327451172385600 -1.030785817724797 -0.8790782606092786 
0 -6.556147025687229 0 0.6609202488202104 
0 0 0 0 
0 0 0 0 
-2.576893627766022 0 0 0 
-0.7969071310669011 0 0 1.343049099550224 
4.265554603852871 0 0 0 
0 0 0 0 
0 0 0 0 
-3.519845550619176 -1.319943456539189 -0.6700173077609561 0 
0 0 0 -2.866477739920749 
0 2.387148927599617 -0.2374691750937088 -1.912250692108188 
0 0 0 0 
0 0 0.1185738093441597 -2.333710323037013 
0 0 0.6832655133064409 0 
0 0 0 0 
0 0 0 0 
0 0 -0.3249802619136890 0.5849853175715864 
-0.1460027469938876 -1.078532130250461 -0.4802960863046916 0 
0 0 -0.4461414323228162 1.667415868796238 
0 0.07300496865824577 0 0.2087255414867051 
0 0 0 -1.218459414962271 
-0.0007104170803484688 0 1.722203971106966 -0.5211199762367871 
0 0 -1.174334692599751 0 
0 0 -0.8421326279167692 3.619473967090297 
0 0 -4.885744669256180 3.201304603949535 
0 0 -1.200594560700539 0.03990174062684702 
0 0 0 0 
0 0 1.337009823974537 -0.8785212218465065 
0 0 -0.9850958966064850 0.6193751471514128 
2.568949002916776 0 0 0 
-3.427084922839405 -4.345731846225903 -2.792253558178632 2.218233428297750 
0 0 0 0 
0 0 0 0 
0 0 0.6154581189347700 0.8592617913989111 
0 0 -1.672288686671120 6.006634014427782 
0 0 0 0.3319538274221312 
0 0 0 -0.3566226076876335 
0 0 0 0 
0 0 0 3.910876040907899 
0 0 0 2.269173255929188 
0 0 0 -0.06564992087317717 
0 0 0 0 
1.215129312147380 0 0 0 
0.8135237448999704 0 -0.9357062122681022 1.061393592966553 
0 0 0 -3.961620883773895 
0 -0.8931337307073751 -0.9168271818172202 0.1954400600336061 
0 0 0 0 
0 0 0 -0.5369611858052470 
0 0 0.7668597570517802 -0.5077184269280166 
0.2348431151270167 0 0 -0.8464358756590034 
0.4123283612059949 0 -3.987657181311347 0 
0 0 -2.044126549199671 0 
1.948032647815327 0 -6.509860048928941 0.9248953843196308 
3.198707872871794 0 0 0 
0 0 -2.691283746310288 0 
0 0 -3.202832863888961 -1.535944917137144 
0 1.598432594886948 -0.1221894470394080 0 
0 0 1.439068877013459 -0.5376541526431287 
0 -1.958016795768072 0.03190370687874929 0 
0 -2.860810974178150 0.1888173676505802 -2.450979451282407 
0 0 0 -0.3366413442534673 
0 0 0 0 
0 0 0 0 
1.664782597384472 -2.882119516780752 0 -2.311628667887698 
0 0 0 0 
1.251362669578761 0 -7.509942059501405 0 
0 -1.551187951983581 0 -4.443834330910606 
0 0 0 0 
0 0 -1.284495093405892 0 
0 0 0 0 
0 0 0 2.133169207646758 
0.2297366100372609 -1.241346117667691 0.1622205747516657 -0.7641516379503758 
0 0 0 1.289491043111765 
0 0 0 0 
0 0 5.855153990590003 -0.6794380370574787 
0 0 0 -0.5840616243690994 
0 0 0 0 
0.6054175102041073 0 0 0 
0 0 0 0 
0 0 0 0 
0 0 0 0 
0 0 0 0.6023958147100703 
0 0 0 -0.7393027098372773 
0 0 -0.08668977641007014 -0.4949091010173012 
0 0 0 1.435886351924586 
0 0 -0.009087939722120686 -6.061177726995476 
0 0 0 0 
0 0 0.5695509963943333 -1.187869777851776 
0 -0.5809153844399106 0 -0.3165085203468577 
-2.424573916897203 4.769750340680631 -0.3825396226842726 -7.684577329724274 
0 0 0 0 
0.7381552272906948 0 0.03071954250237001 -2.122312261942851 
-2.122433461069165 0 1.738028591669495 -1.788689139623955 
0 0 0 -0.3253491417403001 
-2.912814355586902 -2.325168330376699 -0.3465626922177030 0.4594408733782140 
0.2281110564926528 -2.746067872278109 -1.619996141863286 2.015389611481448 
-2.909147098589786 -4.204736912176029 -0.9700964932860963 0.6364713133662465 
-2.699943859671033 -0.3839355393635052 -2.217118009560262 0.6174965220220213 
0 0 0 0 
0 0 0 -0.02449213659347993 
0 0 -2.668683159839431 -1.346837493324316 
0 0 0 0 
0 0 0 0 
0 0 -0.2783249413802056 0.1365518145386463 
0 -0.3876592960458272 0 3.162537520610943 
0.1713439527336460 0 1.311590566125317 -0.9885138974556659 
1.815558861161606 0 0 -1.996911280394997 
-0.05856177564188680 0 -1.658569669710829 0.9361957063206690 
0 -3.200758834486494 -1.188522587342150 0.3117371273790953 
0 -4.237745736825665 0 0 
0 0 -1.715575501207914 1.600909973758839 
0 0 -1.189701922688987 0.5153593147407459 
-2.102495105231973 0 0 0.2793738744897265 
0 0.6193536647095379 0.1828697511737558 0 
0 0 0 -2.118813056395843 
0 0 0 0 
0 0 0 0 
0 0 -0.07660930851326620 0.3642341589530935 
0 0 -0.2988324873788087 0 
0 0 -0.6419135772325371 2.202893408455156 
0 0 0 0 
0 0 -0.9500503161011298 0 
0 0 0 2.607459785987273 
0 0 0 0 
0 0 0 0 
0 0 3.039319147898464 -5.655871995383047 
-0.4290276882785760 0 0 -0.7999809339385096 
0 0 0 -0.7726829109656900 
0 -10.44859878498296 0 1.053320858645382 
-2.761221761040658 0 -2.291908971546280 0.6895837603462442 
-1.423444709767536 -1.101119621129160 -0.4258489009078628 0.5596564400467412 
0 0 0.1868478773000104 -0.08937116477486651 
0.4457749535012519 0 -0.8696639870054539 -1.583833825475620 
0 0 -0.4838360131308974 0.03695628529831155 
0 -2.995845879005526 0 0 
0 0 0 0 
0 0 0.2403158752722745 0 
0 0 4.804587006694816 -3.800205556011177 
0 0 1.334388894969150 -1.728358806786276 
0 0 0 -3.247068624289400 
0 0 0 0 
0 -0.9129492787809946 -2.348587930749802 -0.3628588593071761 
0 0 0 -0.1445175434453974 
0.8986517883807162 0 0 -1.277223325669580 
0 -0.8756255418629351 0.7846253486130700 -0.3870196462695579 
-0.1839794783659499 0 0.1327064184607374 0 
0 0 0 0 
0 0 0 0.7367131497962445 
0 -2.680124680878621 0 0 
0 0 0.6936199409942353 0.6893470893966325 
0 0 0.8954324768150977 1.684875393539898 
0 0 0 0 
0 0 0 0.3925906452746885 
-1.210105074960121 0 -0.4867919614047773 -2.052498481594655 
0 0 -0.8386069447456188 2.224822357068391 
0 0 0 0 
-1.347290639349906 -1.215897436130845 2.556632866304677 -0.08828760471621139 
0 -2.294188006074233 -0.06635783743330115 0.6531193549353574 
0 -0.7836752515253699 0 -0.7195472990673993 
0 0 0 -0.2472060873294805 
-2.304802530493677 -1.860925382190790 -7.525105336197721 3.375925943367734 
0 -0.6122553526628439 0.2670383302678037 0.09141449678421387 
0.5702491153012590 0 0.6453745809954617 -1.882778313839905 
0 0 0 0 
0 0 0 0 
0 0 0 0 
0 0 -0.3707339859528148 2.670286044396531 
0 0 -0.5715494749614034 0.2904635001722491 
0 0 -0.6696949655927875 0.2512200815710780 
0 0 1.064662680132834 1.532367934623859 
0.06336783625828894 -0.2707643420843323 2.797354402768713 0 
0 0 -0.9241185907020173 0 
2.987978063815449 0 0 0 
0 0 0 0 
0 0 0 -0.3646247962031239 
0 0 0 2.155810246451740 
1.053744658095826 0 0 0.08466292608859538 
0 0 0 0 
0 0 0 0 
-4.388579699654884 -1.133590137613252 0 1.197379224498950 
0 0 0 0 
0 -0.3167257923648650 -1.810538380536124 2.402661213057845 
-0.4597689167076109 0 0.2322064274128433 0.04025349728860572 
0 0 0 0.006867038081040333 
-1.487641046978181 -1.112163272218017 -0.4589962094676149 0.5713339585363084 
0 0 0 0 
0 0 0 0 
1.109213518747402 -1.127369778050964 0 -0.1439015243233067 
0 0 0 0 
0 0 0 -3.037993578471736 
0 0 0 0 
0 0 -2.356369183328463 1.707845182343583 
0 -1.796592749665556 -4.424351392247035 1.078112154357872 
0 0 -0.9156421014687194 0.1897936666439092 
0 0 6.195978505827368 -0.1807606344759328 
0 0 0 0 
0 0 -2.082960901649872 -0.0009393423451772298 
0 0 0 -0.3706340689112064 
0 0 0 0.6847551711213256 
0 0 0.6375155430929060 -0.2363146315911391 
0 0 0 0 
0 0 3.448180575509388 -1.220051121850146 
0 0 -0.4652636604680500 0 
0 0 0 -0.5495018789855994 
-3.677421344137452 -0.3666122061363328 -4.345354783905446 2.938432726931793 
0 0 1.896945351173470 -1.115036210688837 
0 0 0 0 
0 0 0 0 
0 0.6186482364082744 0 0 
-2.989885975811758 3.292476182437524 -10.49636660320413 -2.256373998135777 
0 0 -1.092548081982049 0 
-0.4123813968828480 1.228301566106550 -1.302386840472885 0.6495997225980789 
0 2.296010428469027 0 -0.6756876316779600 
-0.9927326190545614 0 0.1317489899362218 -0.4795348918073425 
0 0 0 0 
0 0 0 -0.07256700993372722 
-0.02672224714985805 0 0 0.1776961613381298 
0 0 -0.07575296355381533 0 
-0.7216578358740512 0 0.5182675641544750 0 
0 0 0 0 
0 0 0 -0.6559193626562891 
-0.03508753858237089 -0.5326677784283378 0 0 
0 0 0 2.291492489624528 
0 0 1.622456529436054 -2.091785024714184 
0 0 1.441526379101587 0.1753208903891344 
0 0 0.7210185352990028 0.6227249102134931 
0 0 0 0 
0 0 0 -0.7108945674421860 
0 0 0 0 
0 0 0 -0.1364341985847567 
0 0.8950026465543957 0 0 
0 0 0 0 
0 0 2.602604502691521 0 
1.279962322966259 0 0 -0.02592390672775546 
0 0 0 0 
0 -1.105088500695410 -0.4308144826526567 0 
0 0 0 0 
0 0 0.04257202296635398 -1.128921405410169 
0.09383410298953217 0 -0.6621898303298965 2.615615153983893 
0.9376026473335359 0 0.8753936756234082 0 
0 0 0 0 
0 0 -0.2415066704588623 -0.7964006864399487 
-1.246464141715670 0 0.3552147070608860 -0.2565585649706314 
0 0 0 -0.5693812233227001 
0 0 0 -1.067296813756815 
0 0 0 0 
0 0 0.1909322156272043 0 
0 0 0 1.607755885091708 
0 0.07883150942132428 -0.6449094487915261 0 
0 0 0 -1.055760885283135 
0 0 0 -6.839102520618281 
0 0 0 0 
3.971542527049971 -0.6203977550135201 -1.056688048165400 -0.2300261212809260 
0 0 0 1.409515729206664 
0 0 -3.048949536766366 0.5265897535980300 
0 0 0 0 
0 -0.8842882508486665 -2.180045478969731 3.121236032957733 
0 0 -7.364661764132019 5.454969101721869 
0 0 0 1.015569434648566 
0 0 0 -1.432684402292281 
-0.2883049911579298 -2.354386336547312 -0.05253862830055450 0.9225106410206337 
0 0 -3.164506085743220 0.1140758198412986 
0 0 3.036884506101203 -1.734856365276781 
0 0 0 -0.1448751952516457 
0 0 0 0 
0 -0.006144411437453035 0.8428860983971538 0 
0 2.166534062172635 3.463573714515991 0.5386339650138546 
0 -0.1585110006943928 1.952524548383298 -1.687126659107458 
0 0 1.118118930626657 0 
0 0 0.08432752417715528 0.1988401706537018 
0 0 0.5391933815473804 -0.3555061502739103 
10.79616734912071 0 -2.623094429438615 -3.992202553509338 
-6.583369689689167 0 0.2092642702031815 3.192995342290408 
1.146738885080660 0 2.384036073186742 -1.726315661887827 
0 0 0 -4.635234157548339 
0 0 1.264618879926900 -0.9128433210038920 
0 0 0 0 
-0.9361126580185022 0 0.9865818547659373 0 
-0.1385084306892432 0 2.387397103915325 -0.6099091334878904 
0 0 0 0 
0 0 -0.3093123909230277 0 
0 0 1.950385453497504 0 
0 0 0 -5.976685803706007 
0 0 -0.2140087918080926 1.109871421031264 
0 0 0 0 
0 0 4.002955853655026 0 
0 0 0 0 
0 0 0 0 
0 0 -0.2577957106627818 0.9821913695324587 
0 0 -1.134970128439641 1.811143395542250 
0 -0.1479327601087459 0 1.467461720173920 
0 -0.1632857423651983 0 -0.4377361251364251 
0 -0.3050708746852144 0 0 
0 0 -2.567750158426471 -1.948777188971191 
0 0 0 0.3960376784016665 
0 0 0 0 
0 0 -0.9912313560369864 0 
0 0 0 0 
3.413038266863518 -1.161351016822265 -1.777522426456220 -1.548719895113285 
0 0 1.162381245899780 0 
0 0.2024665844394737 -2.428902036032555 0 
0 0 0 0 
0 -10.00543208282146 -0.5768759122010063 4.702668467438616 
0 0 -1.014602077918676 -0.07797305869596372 
-3.626623424300807 1.991355852540860 1.892361500845924 -0.009214757264615820 
0 0.1839132406012404 0 -0.6866132559788292 
0 0 -5.778346049070426 -4.719164292271365 
-3.853402555690756 3.708674691868905 0 -6.041256405844588 
0 0 0 1.370157948314876 
0 -1.198420982396889 1.435378438053927 -2.408871114409048 
0 -6.135577220682268 -4.163286194348940 1.339724980904405 
0 0 0 0 
0 -4.930743873985703 1.247410331461538 -1.806721610936777 
0 0 0 0 
0 0 -0.02581559468054566 0 
0 0 0.4171894518397369 0 
0 0 0 2.576266460783334 
2.485544315273856 0 0 -2.282494675613780 
0 0 0 0 
-0.2565981605347608 0 -1.076517330701186 -0.8456323450189439 
0 0 0 0 
0 0 0 0 
-0.09059914241360581 -0.9064675606246224 0 -0.03196045618266918 
0 0 0 0 
0 0 -3.511724446678492 -1.161556730643521 
0 -0.2102592216403094 1.087849839600202 0.2577896524748856 
0 0 -0.01608836569148542 0.6049941804669609 
0 3.104153811575762 0 -1.647362858558116 
0 -1.534140347446180 -0.7248145553268233 1.200757394098410 
-0.7982538936712605 -0.2205204813921723 -0.01593900092798173 1.593694889279346 
0 0 0 -2.585963314019724 
0 0 0 0 
1.445614648371625 -4.392597443833012 -1.064141256130591 -0.3162072240816418 
-4.415385667919908 -7.286973380195937 -4.545522124901125 0 
-0.2012962022116014 -0.2221410010407391 0 -0.3317843684281131 
0 0 0 -3.290253726133626 
0 0 0 -0.4214152514798191 
0 -1.453964323193552 0 0.9356396701723654 
0 0 -0.3991226873804468 -0.3893907043110770 
0 0 0 -5.580036767085234 
0 0 0 1.165229703586053 
0 -1.722429394595012 0 -1.381179154091684 
0 -0.1083890673946920 0 0 
0 -1.998506539747996 -0.2422577444520971 -1.397978634269009 
0 0 0 0 
0 0 0 0 
0 0 -1.455017501915113 0 
0 0 0 0 
0 0 5.439395134915978 0 
0 0 1.100950219124418 -0.3789458357471039 
-1.701315780608582 0 0 0 
0 0 0 -2.449369568212096 
0 0 5.297777681151254 -6.181204136864541 
-0.6087083098811309 -1.450812396508956 0.2629059602415527 0 
0 0 0 0 
0 -7.799928617679104 -6.780856159958014 0 
0 0 0 0 
0 0 -7.608500254428203 1.122878273651715 
0 0 -0.6328320057923948 1.377462673164041 
0 0 -1.010834653916077 2.520171471542918 
0 0 0 0.2104323257861351 
0 0 0 0 
0 0 -1.573163095810555 1.461816111909014 
0 0 0 2.129365442152462 
0 0 -0.3777984141384603 1.232775158513213 
-10.90731542025032 0 0 -0.6589912768144548 
0 -0.1764610982482729 0 0.8231605715888333 
0 0 0 -0.5738242097170666 
0 -0.2290043554259502 0 -0.1340200955073197 
0 0 0 0 
0 0 0.3438721618416238 -0.3067882424335309 
0 0 -0.9449128907536175 0.1258743696329595 
0 0 0.8907726876055754 -1.910434670247409 
-0.6589858330399019 0 2.970453050069234 0.1095113894028984 
0 0 0 0.9624407734089934 
0 0 0 0 
2.628503035241018 -0.8065432147987931 0 0 
0 -5.160954521175110 0 -1.016210985447913 
-1.806274012611256 -2.917572451605065 -0.4260398188757599 1.470935565777336 
0 0 0 0 
0 0 0 0.1349394462977342 
0 0 0 0 
0 0 -0.7902915604099782 2.345171195856066 
0 0 0 0 
0 0 0 -1.475375375804031 
0 0 -3.015238686570910 3.233918185663193 
0 0 -1.622028046373238 3.286658334307125 
0 0 -0.3470478512282421 0 
0 0 -1.645313150477626 0 
0 0 0 -0.2735487545728930 
0 -3.679011372788410 0.9487794237679892 -1.594522608676335 
0 0 0 0 
-0.7524534956226664 0 -1.811558698748030 2.518416123615604 
0 0 -0.2940278510150303 0 
0 0 0 -5.711912591818457 
0 0 0 0 
5.857786017832041 0 -0.2062595873399761 0 
0 0 0 0 
0 0 0 0 
0.1877191638878436 0 0 -2.173594778309425 
0 0 -2.307353855225342 2.653720907992183 
0 0 -1.886739404685660 1.666083371827752 
0 0 2.923137745251894 -1.284319144050602 
0 0 0.8592995145732423 -1.782516676262713 
0 0 0 0.1890177965808915 
0 0 0 0 
0 0 0 -0.04414496922239941 
0 0 -2.124924476518397 1.266576496336088 
0 0 1.601298370393869 0 
0 0 0 0 
0 0 0 -1.590357323878986 
0 0 0 0 
0 0 -0.6666144111252016 0 
0 0 0 -0.4747158236547332 
0 1.960313986681590 0 0 
0 0 0 0 
0 0 0 -0.5888230946413158 
0 0 0 0.3194149500441130 
0 0 -2.318771594776649 0.6250195533790537 
0 0 0 -1.015226159133413 
0 -9.999402347318759 0 -0.3845106697619928 
0 0 0 0 
-1.303271381454932 -2.619807041920072 -2.102739916739755 0.8301733703342911 
0 0 0.1296422622617141 -0.4463586783004799 
0 -1.953271000353916 0 0 
0 -0.4916756109117664 0 0 
0 -0.06630674843784883 -0.2725966732196236 1.271430158636326 
0 0 0.1906713277218496 -1.427980746356573 
5.678374991299602 0 0 -1.794579155280240 
0 0 0.7296059936918530 0 
0 0 0 -1.617817356774788 
0 0 0 0 
0 0 0 0 
-0.7224719578563856 0 -1.567902176305426 -1.641000318441541 
0 0 0 0.5609306976345467 
0 0 -0.1411966132150613 0 
0 0 0.7132818992454542 0.8842182160306510 
0 0 0 0 
0 0 0 0 
2.723040292785434 -0.3981354678233426 -0.3991854271649979 0 
0 0 0 0 
2.590994460286646 0 -1.670971607883161 -1.331002874098020 
0 0 -1.384389172128837 -0.6450120601290044 
0 0 0 0 
0 -1.184939217921424 0 0 
0 0 0 0 
0 0 -1.666990695286931 0 
0 0 0 0 
7.026838908153241 0 0 -4.502559345312287 
-0.6783669543969919 0 -2.749079035205297 1.764024952382728 
0 0 0 0 
0 0 0 0 
0 0 0 0 
0.5749786881776544 0 -0.8903887690492465 -0.9544788577490726 
-0.7843114473415871 -3.103049510768044 -3.442358180437001 3.402583108385326 
-0.4945448984422938 -1.588755126053856 0.6044017157541313 2.698063140930832 
-2.192829319493193 -2.634473552825558 0.06415682282956980 -0.07563091201842376 
-0.8840074197192127 -1.177793280830403 -1.397574943413115 0.8198209471444013 
0 0 0.1905493452004997 1.720579592609956 
0 0 0 0 
0 0 0 0 
1.730930261965796 1.256247033051302 0.2782691259703934 0 
0 0 0 0 
-3.253574816596230 0 -2.868583206960316 1.186940656348490 
-0.3235031877754570 0 -0.01704149618583528 0 
0 0 0 2.685301635210469 
-2.069123025520368 0 2.776370373948469 -0.6847413719546467 
0 0 0 0 
0 0 0 0.6859795162607316 
0 0 0 0.02233396772452016 
-0.2401793979905777 -0.9949571637638369 -1.528108684034352 3.488088135948621 
0 0 -0.2548977538396838 0 
0 0 0 -0.8339643667786205 
0.9633130625062564 -4.829921401631879 -10.28731315913161 0 
0 0 1.472446859810914 0 
0 0 0 0 
-0.2020360918158293 0 -1.497902250799661 0.5945233433451671 
-3.570521114319211 -1.845036412516359 -1.368511335535305 2.623877936206160 
-0.5417009141677299 0 0 0 
0 -0.7865646649460998 0 0.7277822903960913 
0 0 0 0 
0 0 0 0 
0 0 0 0 
-1.463670166149531 -2.192870993005867 1.650224271455729 0.7679775368084353 
0 0 0 0 
-0.4134755721450880 0 3.515100167277126 -0.06046351518938126 
0 0 0 0.02155155317542357 
0 0 -3.862189412102215 2.993884236482964 
0 0 0 -1.161789915039318 
-1.560723564810261 0 -0.5396402641354016 -0.4327585631784413 
0 0 0 -5.203926844065790 
9.883448287303755 0 0 -1.398577925567121 
0 0 0 1.133050380192625 
0 0 1.861075826479320 -1.403318927836639 
7.508434867828507 0 0 0 
0 0 -1.506516810587699 0.2771624302854878 
0 0 0 -0.9071919458787276 
-1.174699658408938 0 0 -0.9907527841159336 
0 -0.2751505832408345 0.9028259821060420 -0.7113292870226783 
0 0 4.368140347981051 0 
0 0 0 1.896596123640731 
0 0 -0.2855576848857541 0 
0 0 0 -3.092865052551103 
0 0 -2.606335520082625 4.893962799139539 
0 0 0.2208724137165931 0 
0 0 0 0 
-3.189025983637104 -0.07307982245364253 1.550362566147356 -1.137113838628374 
0 0 0 0 
0 0 0 2.278287648315660 
-5.483103129932212 0 -0.6249616311669199 -0.5046963904158375 
0 0 -3.339805341996850 1.017407824244635 
0 0 0 -1.345369524021650 
-0.9440833493702542 -0.8193977891701004 0.2047673665471646 0 
0 0 -0.3668906572003698 0 
0 0 0.6518911699580197 -0.6042918637045873 
0 -0.1969746099779847 -0.7635192076680255 0.03643629539946330 
0 0 0 1.448639850888044 
0 0 -9.622072030767349 -1.511798848106423 
-1.602920730261110 -1.514764526174692 -0.3307323688004597 0.9949319303366437 
-1.220199773194367 0 0 0.1422051596906182 
0 0 -0.5662807416337564 0.1662315035540017 
0 0 0 0.2644021008707657 
0 0 0 0 
0 0 0.4100083592676118 0 
-0.8179693601006035 -1.331633223785012 -0.2681242365488202 1.015819080127157 
0 -0.1441517031925494 -0.2782675786132283 0 
0 0 0 -0.1794632868288318 
0 0 0 -2.250882914297097 
0 0 0 0 
0 0 0 0 
0 0 0 0 
0 0 0 -8.721061327111775 
0 -1.039660502116453 0 0 
0 0 8.991417943684105 -13.33262239790260 
-1.529084283314436 -0.5474473143977951 0 -0.2242906083443486 
0 3.509798600570909 -5.635387020088441 0 
0 0 0 -2.163323411385330 
0 0 0 0.1679383437774365 
0 0 0 0 
0 0 -0.1200223103898524 0 
0 1.101255600317703 0 0.1581311602575042 
-0.9803429896229230 -7.976008497717862 -0.6046560239559071 1.114506943877467 
0 0 0 -0.8422112197367821 
0 2.416850328384209 -2.866080129074732 -0.1786319402211284 
0 0 0 0 
-1.360076193396931 0 0.1020341561923992 -0.5580347455315171 
-0.7825894844790876 -2.253514649481129 -2.173052673819837 0.1750298352670862 
8.383194692359005 -0.6593978978892608 0 -1.086203989246324 
0 0 0 0 
-0.1118229034232084 -0.8880701910724516 0 0.5376999619995421 
-0.6859656477151450 0 1.142606825581388 0 
-0.2210504291957793 0 0 -0.2069570504516707 
0 -1.001317603441601 0 0 
3.463575932174569 0 0 -1.102981918108205 
0 0 0 0 
0 0 0 0 
0 0 0 0 
0.7919661215506069 -1.017869957157445 0 -1.709259724128568 
5.649672255584028 -1.842407498987619 -0.2631396971007354 -1.258113765219367 
0 0 0 0.6443006809183518 
0 0 0 0.1024526398910355 
0 0 0 1.051129531363712 
0 0 0 2.464751588162996 
0 0 0 0 
0 0 0 0 
-5.175766578005419 0.3757433707367059 -7.562761636623873 0 
0 0 0 1.573032447855656 
0 -5.547926499508184 0.1525008203276486 1.764592124420884 
-2.941652959802994 -0.9769811000237613 0 0.07347571928331079 
0 0 0 -1.586339247976392 
0 0 0 0 
-9.580809048824458 0 0 -2.851933874668941 
0 0 -8.081004256121870 0 
-0.5529337700812343 -0.6303835713609285 -2.667430392772989 1.641916039985218 
0 -2.320529307451356 0 1.673829281380221 
0 -1.478131650117984 -1.203867369367683 -0.3213599139240966 
0 0 0 1.700512723220033 
-0.5640672133011835 3.108216576630511 0 -0.01734372135800802 
0 -1.755091174733711 -2.313434480408093 0.1266709686202004 
0 0 0 -0.8355851288758478 
0 0 0 0 
0 0 -0.6822729082779493 -0.1159974388589710 
0 -1.638221990496179 0 0.6876826794827472 
0 -10.00000000000000 0.07237514276187042 0.6523480385043215 
0 0 -1.699687546708428 1.999691707473091 
-1.816705176858447 0 -6.337866217754019 9.141372001053155 
-1.695299663718582 -0.4291421716265851 0 0 
0 0 0 0 
0 0 -1.956830235809286 0.9070216332090998 
0 0 0 0 
0 0 -0.7037781504112741 -0.8647975718395702 
2.910741937637503 -0.04241978467336649 0 0 
2.783340413903563 -0.2749326761506230 -1.182300094200955 -0.2044970709864777 
0 0 -2.124305511307425 0.3894817678310644 
0 0 0 0 
0 0 0 0 
0 0 0 0.4513032154173717 
0 0 1.550017405937760 0 
0 0 0 0 
0 0 0 0 
0 -0.9058449766879504 0 0.5675594556741893 
0 0 0 0 
0 0 0.9037924447825791 0.2352992133565299 
0 0 0 -1.169486505983572 
0 0 4.231451672894576 -3.894672332541366 
0 -3.461853565130157 -0.7998936372409884 -0.2741602750039626 
0 0 0 0 
4.913834535637475 -5.796003543591765 0 0 
0 0 0 0 
0 0 0 0 
0 0 0 0 
2.237935281452024 -1.228808236120877 -6.200207140243156 -1.681990937753772 
0.4645667243149078 0 -7.440085261563736 -0.3929865529409502 
0 0.4025385527951697 0 -2.433026207465280 
0 0 0 0 
0 0 0 0 
0 0 0 1.544525405093168 
0 -0.6643079795985560 -0.08442878970500178 1.284537517668216 
0 0 0 1.169470906988531 
0.9957667431977646 0 -0.3543857362926702 0 
0 0 0 0 
3.134043636268386 0 0 0 
0 0 0 0 
0 0 0 0 
0 0 0 0 
0 0 0 0 
0 0 0 0 
0 0 0 0 
0 -0.7407281370499615 1.204022389796476 -1.916811262207242 
-0.2243009011934367 0 -0.4217917912625789 -2.069929674294911 
0 0 0 0 
0 -0.1327426270104191 -2.367421751493946 1.188066429070251 
0 0 0 0 
-2.945648779509391 0 -0.4472908258472705 1.500492476851721 
0 0 0 0 
6.580609581547980 -1.139312775487250 -3.454084117490951 -1.715859287519276 
0 -0.9764648195905398 -3.530746725277138 0.04054072311684062 
0 0 0 -5.815431252239145 
0 0 10.78320565034615 -2.171032021480073 
0 0 0 -3.350543611640494 
0 0 0 0 
0 0 -5.739501840109995 -0.2943369466102540 
0 0 0 0 
0 0.9502158037324264 -10.50640538630065 -0.2266697459526686 
0 0 0 0 
0 0 0 -0.09252589766218522 
0 0 -1.496657623673803 -0.2232421181534967 
0 0 0 0 
0 0 0 0 
0 0 -2.764420195985607 0 
0 0 -0.06248196623467545 -1.439141963701915 
-1.943459956758759 -8.061946956667063 -0.9133272802247329 1.598615866466447 
0 0 0 0 
0 0 0.2426742363490643 0 
0 0 0 2.294488199503473 
0 0 2.929370075164968 -0.8900083161734657 
0 0 -0.3279175161593214 0.2326009228113079 
0 0 0 0 
0 0 0 0 
0 0 0 0 
-0.5381779388574498 0 0.5128963088375338 0 
0.7809320900042909 0 -2.021986345319076 0 
-3.700753027181638 4.780790510623026 -1.650392824558355 -2.230820088700010 
0 0 0 0 
0 0 0 0 
0 0 1.303527410038676 -1.152258777991138 
0 0 0 3.450360606033593 
0 0 0 0 
0 0 0 -1.915138307628252 
0 0 0 0 
0 0 0 -2.012948902346691 
0 0 0 0 
0 0 0 0 
0 0 0 0 
0 0 0 0 
0 -0.8369379486323895 -1.538154227982505 0 
0 0 0 0 
0 0 -3.391716980305949 2.384396545192668 
-3.867783365333175 0 0 -0.4043405164384353 
0 0 0 0 
0 0 0 0 
0 0 0 -5.712219295213209 
0 0 0 0 
-0.5260349874730387 0 -0.2949876602030624 1.468588439796191 
0 0 -0.7518543312441793 1.323429199871061 
0 0 0 -0.7596900491807093 
0 0 -0.08714279889425480 -0.9398916787142170 
0 0 0 -0.6315090226107312 
0 0 0 0 
0 0 0 0 
0 0 0 0 
0 0 0 0 
0 0 -3.349003847640315 0.1418529448175586 
0 0 -2.611056494634465 -0.5711753872216203 
0 0 0 0.1585989466450143 
0 0 0 -0.1285706792803143 
0 0 -0.3209310624480262 -2.884978064751925 
0 0 -2.039247590503663 -2.380741110673369 
0 0 0 0 
0 0 0 -0.2041818548392083 
0 0.1941509779028854 0 0.4421742287493171 
0 -1.476031238248055 0.2200477524301320 2.420653844128561 
0 0 0.2367637563857775 -1.213335939888726 
0 0 0 0 
0 0 -0.6299667112362148 2.212917485167245 
0 0 0 -1.674232880008679 
0 0 0 0 
5.592920435571510 -4.526501286421354 -2.958811570420825 -3.213710709202126 
0 0 0 0 
0 0 -0.2722584849796910 0 
0 0 0 0 
0 0 0 0 
0 0 0 2.016913758581460 
0 0 0 0 
0 0 0 0 
0 0 0 0.7882414730513660 
-0.08407223593906021 0 -1.283327322888877 0.6575484864807958 
4.518118132510685 -5.528360184101093 -0.1315829970766544 0 
0 0 0 2.478353283974933 
0 0 0 0 
0 0 0 -1.491322721154563 
0 -1.211298068972208 0 -0.2973279227421678 
0 -1.373856738800268 5.800600906129017 0.06575088032757170 
1.107610593005731 0 -0.3407263778212394 0 
0 0 0 2.303619321800297 
0 0 0.2287892082677594 0 
0 0 0 -3.494792755488639 
0 0 0 0 
0 0 0 0 
0 0 0 0 
0 0 0 -2.031640594991546 
0 0 0 -0.9644096080700175 
0 0 0 0 
0 0 4.439344379572352 -3.308352455412930 
0 0.1866393930173340 -8.190440586838763 -0.2822898332490769 
0 0 0 0 
0 0 0 0 
0 0 0 -0.5190842839500390 
0 0 0 0 
0 0 0.4477787423163588 -1.011691201614279 
0 0 0 0 
0 0 0 0 
0 0 1.282484631923481 0 
0 0 0 0 
0 0 0 0 
-0.06123261100543148 -2.365991739865343 -1.041470095458855 1.124738618100863 
0 -0.7012687447533090 0.04506265344096905 0 
1.914586050622330 -0.7098726159951450 -0.3953729584422220 -1.108101663784111 
0 0 0 -1.556826699524567 
0 0 0 0 
0 0 0.1575374405122149 -0.6370871572782066 
0.7582517257929029 -1.338372041945462 0 0 
0 0 0 0 
3.943409315056281 -2.981578961892432 -1.152890312559260 -0.7268185672928015 
8.494096684027895 -0.6272457891488237 0 -2.482119677728988 
0 0 0 -1.891067260691022 
0 0 0.2452513954911699 -0.6712835855672590 
0 0 0 -1.049153652051202 
0 0 0 0 
0 0 1.192774956357441 -2.180218423563839 
0.7813348140645523 0 -1.813553747212144 0 
0 0 0 0 
0 0 0 0.6926889910078571 
0 0 0 0 
4.484658816879350 -7.454947963700433 -0.07410288697823819 -2.140650410845521 
0 0 0 0 
0 0 -2.197752954667671 0.02166863137737712 
0 0 0.2572753736038831 -0.1238010777573914 
6.064817968473337 0 0 0 
-7.132965682428458 0 0.7864809131579180 -1.249637087006253 
0.7063393117832687 0 0 2.362179328614554 
0 0 0 0 
0 0 0 0 
1.628496825064068 0 0 0.8491060248279603 
0 0 0 0 
0 0 0 0 
0 0 0 0 
0 0 0 0 
0 0 0 -3.889445471612148 
0 0 0 0 
0 0 -0.1735210861944179 0.5429398773142307 
0 0 0 4.021914252963123 
0 0 0 -0.4405908376569946 
0 0 2.933390795211953 -3.000129002519604 
0 0 -1.234964538077553 -0.4207654995523185 
0 0 0 0 
0 0 -3.893020837717837 2.290388100376794 
0 0 0 -0.5323664898959669 
0 0 0 -0.6932283458107241 
0 0 0 0 
0 -2.036070776130642 0 1.819324936674690 
0 0 0 0 
0 0 0 0 
0 0 0 0 
0 0 0.4667601292830493 0 
-0.4243113841907207 -1.454232957569852 0.04441223896883263 -1.003651361414546 
0 0 0 0 
0 0 0 0 
0 0 0 0 
0 0 0 0 
0 0 3.488179921393058 -3.869817880887710 
0 0 0 0 
0 0 0 0.8656086821115669 
0 0 0 0 
0 0 0 0 
-0.4676389831994325 -0.7329043995860892 -0.2600987822549938 0 
0 0 0 0 
0 0 0 1.268410905245938 
8.260316844810700 -8.311399638172906 -3.540906946766855 -2.048974395517764 
0 0 0 0 
0 0 0 0 
0 0 0 0.7210101334365691 
-2.202518446234745 6.529068221649736 0 -1.615625431877374 
0 0 0 0 
0 0 0 0 
0 0 0 0 
0 0 0 0 
0 0 0.02852408240257956 -1.526904874359322 
0 0 0 0 
0 0 0 -4.915232979817663 
0 0 0 0 
0 0 0 -0.1763181740132551 
0.5187411995849174 0 0 -0.7886236812956371 
0 0 0 -1.782269072622433 
0 0 0 0 
0 0 2.074583080732496 -2.202493495597958 
-1.267745280088581 -0.9933468694668179 0 -0.4391832695139097 
0 0 -0.3690752194537565 0.3396436727450324 
0 0 0 -7.404774422716120 
0 0 0 0 
0 0 0 0 
0 0 2.955202461633836 0 
0 0 -2.230384806465995 0 
4.038730382400678 -2.069978041901650 -1.509904051094381 -0.4925252325759290 
-0.5490772329187880 0 0.8878892666818599 -0.2710926164112987 
0 0 0 0 
0 -6.171208654994167 -1.544192797443047 0 
0 0 0 0 
0 0 0 0 
3.584755363160245 -10.00302798265590 -0.8290385503097011 -1.288859494161081 
0 0 0 0 
0 0 0 1.240810189514895 
0 0 0 0 
15.32827552986761 -11.15095137898381 -10.00000000000000 -2.930643186958137 
4.581942132174050 -5.059516272136039 -10.67335353368234 -7.239558659249726 
6.509779894663171 -6.578322877819800 -11.70931342837571 -0.9370880034851299 
0.8925597394395803 -1.224672334472720 -5.451189651687832 0 
3.785963076642164 -2.199499052078357 1.428315456084981 0 
0 0 0 0 
0 0 0 0.2724406171181915 
1.548269426281322 0 0 0.07002007057094373 
0 0 0 0 
-0.4663170228679135 -0.3659782533397205 -7.333058612010589 2.104055288347094 
0.7917681116414832 0 0.7319964839901612 0.8402134375343238 
0 0 0 0 
0 0 2.396924403293091 0 
0 0 0 0 
0 0 0 0 
0 0 0 -3.556974652675369 
0 0 0 0 
0 0 0 0 
0 0 0 0 
0.1773961189749405 0 -1.652748497862559 0.6487345601356274 
0 0 0 -0.2936730803395093 
0 0 0 0 
0.3091986996564834 0 1.263020642512795 0.4892841914803238 
0 0 0 0 
0 0 0 0 
0 -0.6427438426539196 -0.3177306360369624 0 
0 0 0 -1.085704317699001 
-0.4151215113122124 -1.993793935691919 0 0.8493474206097367 
0 0 -3.022667129632244 0 
0 -5.655555652931803 0 0 
0 0 -4.096124809226652 0.8794525677522432 
0 -1.744869223470050 -0.3388180587007796 0.1857408790086361 
3.775190275502714 -4.427813950492537 -5.459907164859065 0.4505631488393909 
0 0 1.504179488690733 0 
0 0 3.998208215926729 -2.795328421007325 
-0.7302023570470060 -2.867895433586628 -1.509615395135384 2.365477278046659 
0 0 0 0.06588598153184855 
0 0 0 0.3457717595964954 
0 0 0 0 
0 0 0 0 
0 0 0 -0.1790599508812812 
0 0 0 -1.883840062339074 
0 0 0 0 
0 0 0 0.7749310207360273 
2.975559675364139 0 0 -0.1839132962844130 
-0.9724329546159671 0 0 0.8009002735778104 
0 0 0 0 
0 0 0 0 
0 0 0 0 
0 0 -1.090259647144085 0.03688071554882688 
0 0 0 -1.915982675944691 
0 0 0 3.448326159333368 
0 0 1.694087614440092 -1.084495362192091 
0 0 0 -1.097771347907563 
0 0 0 0 
1.686358695864593 0 0 0 
0 0 0 0.8269293416305620 
0 0 0 0 
0 0 2.373651291272271 0 
0 0 0 4.080515559760768 
0 -0.5413131647388552 -0.6137770347930487 4.110012785486743 
0 0 0 0 
0 0 0 -1.362313873040246 
0 0 0.3579454511175002 0.4041648918650243 
0 0 0.7966319707107041 -2.357479583760081 
0.7741810952647208 0 0.09860015948937062 -1.997116122439963 
0 0 0 -0.9457865111000320 
0 0 0 -0.1454182564849974 
0 0 0 0 
2.939632724241180 -6.362770467194403 0 0 
0 0 0 0 
0 0 0 2.285474627617944 
0 0 0 0 
0 0 0 0 
3.301383951970626 -7.986688932869662 -0.6169822201268120 -1.779348445428353 
0 -0.9786506746417085 -1.381873307372066 0.4030468004813516 
0 0 0 0.9021556316677193 
0 0 0 1.114029764248946 
0 0 0 -1.802120643102484 
0 0 0 0 
0 0 0 0 
0 0 0 0 
0 0 0.6148555961168094 0 
0 0 0 0 
0 0 0 0 
-0.2522936035779917 -1.060123223715004 -4.034270601624719 10.16018383254031 
0 0 0 0 
2.948367513255715 0 2.952140920306114 -0.2535312991973263 
0 0 0 0 
0 0 0 0 
0 0 -0.06140012774152304 0.3538567504867316 
0 0 0 -0.9683963113677623 
0 0 -0.3036729580036849 0 
0 0 0 0 
0 0 1.758444080974429 -2.360826253078115 
0 0 -1.083819810085025 0 
0 0 0 -2.935892369111619 
0 0 0 0.5353840867626698 
0 0 0 -0.1628515067053039 
0 0 0 0.9463729587281842 
0 0 0 -0.8520536153963093 
0 0 0 3.846999204465210 
0 0 0 0 
0 0 0 0 
-0.07143995267224454 0 -0.3091313049382191 -0.1992006269971609 
0 0 -1.195657891055615 1.541342628066533 
0 0 0 -1.530043409827997 
0 0 0 0 
0 0 0 -2.209845930884105 
0 0 0 -2.225719726868123 
0 0 -3.854019890217591 1.997597360363242 
0 0 0 0 
0 1.698016280317977 0 0 
0 0 0 0 
0 0 0 0 
0 0 0 0 
0 0 0 0 
4.976303402407034 -7.429277729701797 -0.7010225882473295 0.5053785573535131 
0 0 0 -1.233014992147451 
-1.946481618137542 0 0 0 
0 0 0 0 
0 0 0 -0.1230716611098899 
0 0 0 -5.524437227501416 
0 -0.8229456682366806 0 0 
0 0 0 -0.5992152621747238 
-1.543755990623663 0 0 0.8539176953644583 
-0.01742270188350126 0 -1.940723315044157 5.366737870189871 
0 0 0 0 
-0.3559968163116912 -7.620394164695938 0.6272151091809299 -1.403442982116584 
0 0 0 0.08919225058195712 
0 0 0 1.706675903656519 
0 0 -2.737219247596476 0 
0 0 0 0 
0 0 1.044419839273870 0 
0 0 0 0.3132507559115891 
0 0 0 0 
0 0 0 0 
0 0 -2.770037387802887 0.2141260364235122 
0 0 -0.5040322039753006 0 
0 0 0 0 
0 0 -0.5593923370465077 -9.169181319084677 
0 0 0 0 
0 0 0 0 
0 0 -2.061946644802691 2.683203500314836 
0 0 0.01010853118795213 -4.054700783853738 
0 0 0 -0.2540146541525684 
6.880974866628490 -4.433402602131383 -2.583863484757712 -5.135573221322811 
0 0 0 0 
0 0 0 0 
0 0 0 1.691713138879044 
0 0 0 0.2852815079585445 
0 0 0 0 
-0.08764386384817535 -0.1457227824444913 0 -1.081553552594145 
0 0 0 0 
1.222122052187154 -1.029511686867892 -0.04383494531137477 -0.4855513343135183 
0 0 0 0.1289411542069792 
0 0 0 0 
0.08384692589328901 0 -2.786294743458883 0.01961286978341692 
0 0 0 0 
0 0 0 0 
0 0 0 0 
0 0 0 0 
0 0 2.743194512824575 -9.850983137533160 
0 0 0 5.288347287284635 
0 0 0 0 
0 0 0 0 
0 0 0 0 
0 0 0 0 
0.07417790009455683 0 0 -3.829852856477598 
0 0 0 -0.5813908638955252 
0 -2.056897235708228 0 0.05162262341418034 
0 0 -1.819544546753767 2.281612021617398 
0 0 0 -0.1858964374086677 
0 0.03460429170307022 0 -0.9872636835475324 
0 0 0 0 
0 0 0 -0.5416954933138733 
-3.681338433305914 -1.670435216893788 -0.6649908945768519 0.9002259355204508 
-1.433277260482710 0 0.5673204953126346 -1.874713342773924 
0 0 0 0 
5.151802653281066 -2.404828538889362 -5.816361615949241 -0.7267854872980715 
0 0 -1.605479596463152 0.7503752661816028 
0 0 0 0 
0 0 0.5898958573418307 0 
0 0 0 -0.06956151829977153 
-2.892336801194873 0 -1.539869645563967 -1.094409470548653 
0 0 0 0 
0 0 0 -2.862661898888966 
0 0 0 0 
0 0 0 0 
-0.1378257056453696 -1.097378263557477 -0.7336341292511500 1.211236697997010 
0 0 0 0 
0 0 0 -5.306664669356531 
0 0 -0.4218376113647828 0.3044106171748919 
0 0 0 0.1052192513838208 
0 0 -1.071246565651858 0.3939849114524330 
0 0 0 2.213510495131966 
0 0 0 2.761594757373511 
0 0 0 1.219487248770284 
0 0 0 0 
0 0 5.812362118237463 0 
0 0 -0.4983713868445336 2.151741094204005 
0 0 0 0 
-3.471128551329940 -1.591978144308998 -3.202149892143772 2.067948649585823 
0 0 0 0 
0 0 0 -1.046990886534263 
-0.3870704044020356 0 0 -0.1206646333332213 
0 0 0 0 
0 0 0 -0.7495470734296186 
0 0 0 -0.009354587400407954 
0 0 0 -6.269486970867771 
-1.307919122640225 0 0 -2.538859516669880 
1.475977678768387 0 0 0 
0 0 0 -0.4147838942882495 
4.256958999378388 0 -0.2958235867713828 -1.396519401470217 
3.391309633571288 -0.1578746853609783 0 -1.229016180132283 
0 0 0 0 
0 0 0 0 
0 0 0 0 
0 0 0 0.1749436376429778 
0 0 0 0 
0 0 -1.294274737299543 0.2619245909985827 
0 0 0 0 
0 0 0 0 
0 0 0 0 
0 0 0 0 
0 0 0 0 
0 0 -1.571352165432864 0 
0 0 0 0 
0 0 0 0 
0 0 0 -0.2711898027957858 
0 0 0 0 
0 0 0 0 
0 0 0 0.9733094194455983 
0 0 0 0 
14.94130963568034 -3.284600428818300 -2.174236720818393 -3.305460859743469 
0 0 0 0 
0 0 0 0 
0 -1.768035430024307 -2.527445755558357 2.140890568549851 
0 0 0 0 
0 0 0 0 
0 0 -1.420667178619942 0 
-0.7636393970655785 -0.5142362487625933 0 0.4351247981989462 
0 0 0 -2.812392102642653 
0.6949065005585432 -0.1727334600346904 0 0.2315959772589655 
0 0 0 0 
0 0 -1.134713998181460 1.716948238179187 
0 0 0 2.932750323573771 
0 0 0 0 
0 0 0 0 
0 0 0 0 
0 0 0 0 
0.8184362819772598 -0.2686808288769271 0 -1.252225425705060 
6.112062065441148 -2.933882191954541 -3.064998644553397 0 
0 0 0 0 
0 -0.6105001280834981 0.7164658638213055 0 
0 0.2622127859989689 0 -8.718255864036967 
0 0 0 0 
0 -1.050303737562220 -0.2897086281549497 -1.827226305871945 
0 0 0 0 
0 0 0 0 
0 0 0 -5.694166341766179 
-0.4488128187822595 0 0 -2.005734766572084 
0 0 0 -0.9633895462552582 
-0.8357632725652770 -1.362892842132567 1.118141027211836 -2.695708000126606 
0 0 0 0 
0 0.4293665949287159 -5.627731519612835 0 
0 0 0 0 
-0.6310153661633338 0 0 0.6077587583006407 
0 0 0 0 
0 0 0 3.778418221152421 
0 0 0 1.091738767628561 
0 0 0 0.6503225210433026 
0 0 0 0 
0 0 0 -0.4544347254060380 
0 0 0 1.934762966333853 
0 1.324526784383496 -0.5815871763479091 0 
-1.578516688832988 3.279299102834332 0 -5.187157992494115 
-0.9416055991969340 0 0 0 
0 0 0 1.196211195806529 
0 0 1.231713950407068 -2.206737639331907 
0 0 0 0 
0 0 0 0 
0 0 0 0 
0 0 -4.172628717182368 0 
0 0 0 -0.8208943640207012 
0 0 0 0 
0 0 0 -0.8491430799862066 
7.536430001740137 -1.540773286065291 -1.244255559392376 -2.034084106568853 
0 0 0 0 
-2.971024644989866 0 0 0.1675131510657290 
-7.826223502780429 -0.4827973991172987 0 0 
0 0 0 -0.5289178825164927 
0 0 0 0 
0 0 0 3.521864657384132 
-4.334421986420436 -1.157423188686224 0 0 
0 0 0 -0.7913272958663272 
0 0 0 0 
0 0 0 -0.8031240432312003 
0 0 0.2292679782005741 -0.09000251471981081 
0 0 0 0 
-1.401123098237484 0 0 -0.6585432528561228 
0 0 0 0 
0 0 0 0 
-0.5756077527027564 0 0 0.02995043330909801 
0 0 -1.783129801387962 0 
0 0 0 0 
0 0 0 0.7284233198412318 
0 0 0 -0.9216614583830659 
0 0 0 0 
0 0 -0.3888054895394428 0 
0 0 0 0 
0 0 0 -3.351668927379263 
0 0 0 0 
0 0 0 0 
-5.896677517592194 -0.03057288265090096 -2.857682970655130 1.831308975958361 
0 0 0 -1.192135785416881 
0 0 0 -1.029471596501068 
0 0 0 0 
0 0 0.8386781742353446 -1.898733302786234 
0 0 0 -0.1388602733955322 
0 0 -0.04874706535711125 0 
0 0 0 0.1498439334322397 
0 0 0 -0.9169799397127788 
0 0 0 1.076202164758171 
0 0 0 0.4870730550077938 
0 0 0 0.04903430042113724 
0 0 0 0 
0 0 0 -1.539683158117699 
0 -0.6346102510569408 0 -1.121887350631048 
0 0 0 0 
0 0 0 0 
0 0 0 0 
4.200920232911867 -3.178885735668916 -0.8241082359462161 -2.654703454169955 
0 0 0 0 
0 0 0 -0.4469258114070627 
0 0 -1.070522804552148 1.220968643379227 
0 0 0 0 
0 0 0 0 
0 0 0 0.3692138106091004 
0 0 0 0 
0 0 0 0 
-2.297819483042548 -4.403802821815357 -0.9281959458165252 -0.2922014908665365 
0 0 0 -4.634527829504870 
-3.023276498087166 0 0 0.4543139934887138 
0 0 0 0 
0 0 0 0 
0 0 0 0 
0 0 0 -0.6921770302958864 
0 0 0 -4.498525699100269 
0 0 0 0 
0 0 0 0 
0 0 0 -0.7801560717871066 
0 0 0 0 
0 0 0 0 
0.4272094298884652 0 0 0 
0 0 0 0 
0 0 0.3308377621932069 -0.6784366457448986 
0 0 0 -1.781409360552064 
0 0 -0.09954423346993799 1.021641191469557 
-1.104795432162427 0 4.422738810532414 -0.9103129160617646 
0 0 0 0 
0 0 0 0.7166809052929091 
0 0 0 0 
0 0 0 0 
0 0 0 0 
0 0 0 0.07450737892269421 
0 0 0 0.8919137023909558 
0 0 0 0 
4.074852287104742 -1.322780941744407 -1.904616488237158 -4.805698997823010 
0 -1.307712539624264 -3.787669930698193 1.056356490831786 
0.08762557755556255 0 0 0 
0 0 0 0 
0 0 0 0 
0 0 0 1.274447027466628 
0 0 0 0 
0 0 -0.9178180850089801 -1.405566181746781 
1.277089797613103 -1.199228584580331 -0.07662108371495524 -0.01292316189189164 
3.875746900833969 -3.714308986745168 -5.108309087073646 0 
0 0 0 0 
0 0 0 1.020245933683466 
0 0 0 0.3186263944328577 
0 0 0 -0.6489223916775183 
0 0 -0.1783868207085593 0.4979349384957064 
-0.01104540777344787 0 -0.5000692690951414 1.098781259405487 
0 0 0 0 
0 0 0 0 
0 0 0 0 
0 0 0 0 
0.4711526418745711 -2.868646839431624 0 0 
0 0 0 0 
0 -0.5988108124724940 -0.8389021381800706 0 
0 0 0 0 
0 0 0 0 
-0.1591354841588143 0 0.9648398313968911 0 
0 0 0 0.04417087422373622 
0 0 0 0.4730230131142165 
0.06790096193001771 0 0 0 
0 0 0 -1.141222178656982 
0 0 0 0 
0 0 -5.183291922227362 5.502188907255460 
0 0 0 0 
0 0 0 0 
0 0 0 0 
0 0 0 0 
0 0 0 0 
0 2.160716426735257 -0.8431189403637378 0 
0 0 0 0 
0 0 0 0 
0.2243140261915888 -3.286284445146797 0 1.385090429796807 
0 0 0 0 
0 0 -1.271747002692463 1.651303579995583 
0 0 -0.1432220149815804 0 
0 0 0 0 
-7.543101207250768 0 -0.6829757428449987 0 
0 0 0 0 
0 0 0 0 
0 0 0 0 
0 0 0 0 
0 0 0 1.593340083946215 
0 0 0 -0.8312929966049438 
0 0 0 0 
0 0 0 0 
0 0 2.234772008446377 -2.220538333989614 
0 0 -1.104684060270487 0 
0 0 0 0 
0 0 0 0 
0 -4.038568073305529 -0.7193276421265778 0.6968803119867498 
0 0 0 -1.489003812975129 
0 0 0 -0.9579524600111337 
0 0 0 0 
0 0 0 0 
0 0 0 0 
-1.414920780836147 -3.989538499432182 -1.919835598523852 1.376718990316438 
0 0 0 5.865796236987915 
0 0 0 -2.059375000785164 
0 0 0 0 
0 0 3.566486661054435 -1.732009934979364 
0 0 0 0 
0 0 0 0 
-3.288370979926641 0 -1.383786024921097 0 
-1.020397048125944 1.347999620213175 -0.5612896801519343 -2.031250407990565 
0 0 0 0 
0 0 0 0 
0 0 0 0 
0 0 -0.09104929397280326 -0.1573601903951987 
0 0 0 0 
0 0 0 0 
0 0 0 -0.8314641307396089 
0 0 0 -1.114065436409900 
0 0 0 0 
0 0 0 -3.589992920253304 
0 0 0 0 
-4.605648281650956 -2.868615986411093 -1.832825165298214 1.109082447078904 
0 0 0 0 
0 0 0 0 
0 0 0 0 
0 0 0 0 
0.4788342869181110 -1.002460581715689 -0.6191140846221059 -9.274102629641138 
0 0 0 0.2852485558238341 
0 0 0 -0.08180102352968177 
-0.8077755982518480 0 0.7769142163029836 -2.354423319201632 
0 0 4.811410300839330 -3.113172853510474 
0 0 0 -4.173224537810271 
0 -1.531813168033917 1.136410412579817 -0.2625512710889223 
0 0 0 0 
0 0 0 -0.5460466219676230 
0 0 0 0 
6.085898211586017 -6.138259258652785 -1.266869082340033 0 
0 0 -2.912111010118014 2.957609394871996 
0.7949106428987442 -4.244141884077324 -0.01825373424310209 -0.05343069660028560 
0 -2.076213639778787 -1.786966377981094 2.467664648343777 
0 0 0 2.035372076305271 
0 0 -1.509307390827667 0 
0 0 -1.805546191653725 1.926331510109781 
0 0 0 1.108643103607051 
0 0 0 0 
0 0 0 0 
0 0 0 0 
0 0 0 0.5953289486642795 
0 0 0 0 
0 0 0.8453487635130128 0 
0 0 0.1449900597067635 -3.082595964892098 
0 0 0.4576436371876713 -1.553742059620918 
0 -0.007635964848070387 0 0 
-3.898302534976363 0 1.061746101953304 0 
0 0 0 3.086676179505901 
0 -0.3170200134357279 0.6632095384802015 0 
0 0 0 0 
0 0 2.116677688256668 0.8806184392047778 
0 0.4522264955887569 -2.814425508788298 -0.9663186915455841 
-0.5924242371859877 0 0 0 
0 0 0.08588437122145365 -3.126577356422862 
0 0 0 0 
0 0 0 0 
0 0 0 -3.036753595365079 
0 0 0 0.6222793422315901 
0 0 0 0 
1.154691706650821 0 0 0 
3.966962527609180 0 0 -0.1826105603447844 
-5.996298190477268 0 0 1.432900975756947 
0 0 0 0 
0 0 0 0 
0 0 0 0 
0 0 0 0 
0 0 -3.101130023396920 -0.1718828648063833 
0 0 0 0 
0 0 0 0 
0 -1.243526730729390 -0.8315770622322864 0 
0 0 0 -0.3646994145204950 
0 0 0 0 
0 0 0 0 
0 0 4.743100615051620 -3.637858081288293 
0 0 0 -1.323631307782962 
0 0 0.2391589889358969 0 
0 0 0 0 
0 0 0 0 
0 0 0 0 
0 0 0 0 
0 0 0 0 
0 0 0 0 
-2.613113980724286 2.638800309922396 -2.079956977239570 -8.084296035809116 
0 0 0 0 
0 0 0 0 
0 0 0 0 
0 0 0 0 
-5.027256854944012 -6.467520673627018 -1.841482934457613 1.969137117075053 
0 0 -0.3638244338561785 0 
0 0 0 0 
0 0 0 -0.6619878764780194 
0 0 0 0 
0 0 0 0 
0 0 0 -1.101287539864633 
0 0 0 0 
0 0 0 0 
-0.6407977864141190 -2.932170531609934 -1.659222945298414 0.6274291741746825 
0 0 0 -1.945691606173906 
0 0 0 1.413366630622891 
0 0 0 0 
0 0 0 -4.743829876987713 
0 0 0 0 
0 0 0 0.2417733519366236 
0 0 0 0 
0 0 0 0 
0 0 0 -5.062808861336218 
0 -0.4530535538082336 0 1.307418752901558 
0 0 0 0 
0 0 0 0 
0.1738421110636177 0 -0.8491550180890733 -0.8006843369504979 
0 0 0 -0.8282316366879756 
-1.185594321937274 0.8386496246654369 1.207931144406174 0 
0 1.216799563315154 0 0 
0 0 0 0 
-2.102175932930889 -0.1551811165290046 1.108418649153268 -0.1841345997353681 
0 0 0 0.4578954010462344 
0 0 0 -1.022102186872484 
0 0 0 4.404173604755266 
0 0 0.9681489278209552 -3.050202309589880 
0 0 0 0 
0 0 0 0 
0 0 0 0 
0 0 0 0 
0 0 0 -0.2881063099958479 
0 0 0 1.213037094004492 
0 0 0 0 
0 0 0 0 
0 0 0 0 
0 0 0 0 
0 0 0.7721214735068977 -3.276715362710054 
0 0 0 -4.253526408640616 
0 0 0 0 
0 0 0 -0.1849472347495401 
0 0 0 0 
0 0 0 0 
0 0 0 0 
0 0 0 0 
0 0 0 0 
0 0 0 0 
0 0 0 -1.545093762233045 
0 0 0 -0.4143957087273866 
0 0 0 0 
0 0 0 0 
0 0 0 0.3061800331797909 
-3.920327141042037 4.205318339394593 -1.802118055362080 -1.478865615794376 
0 0.3196676930447555 -3.138054908692073 0 
-0.1848143222775571 0 -0.9545684965659544 0.8110080928820043 
0 0 0 -1.812535718687403 
0 0 -1.710990861258377 0 
0 0 -0.4680890633958928 0.4404880646686694 
-1.767616691525967 0 0 2.487623478467455 
0 0 0 0 
3.823695849607739 0 -2.178939590751545 -1.016359144434296 
0 0 0 0 
-2.550244515782345 -2.830944995447577 -1.324332084563307 0.4113713649894443 
0 0 0 0 
0 0 0 0 
1.054921790040264 0 -0.09047445187688219 0.9786682315021851 
0 0 0 -0.9038209885552072 
0 0 0 0 
0 0 0 0 
1.865217199232801 0 0 -1.155310369280778 
0 0 0 -1.450563579420900 
0 0 0 0 
0 0 0 0 
0 0 -3.879766542029864 -0.1748317506139808 
0 0 0 -0.6691312138347669 
0 0 0 -0.1888969644005910 
0 -0.8947036324146048 0 -0.1710800391573729 
4.435461834941045 -0.6355646859447959 0 -1.609223079649089 
0 0 0 -1.173354948749487 
0 0 -0.3052849777322706 -0.8556572363370207 
0 0 0 -0.9630714715345688 
0 0 1.329131758462316 -0.3308453634748161 
0 0 2.659771142293460 -2.266478639315372 
0 0 0 -0.7175000942057168 
0 0 0 -0.6922975443356080 
2.111002718516745 0 0 -0.5746318466233510 
0 0 0 0 
1.575532916436039 -1.328506013383114 -1.187913880517488 2.527323066465759 
0 -2.988651308986400 -1.086547101510246 -0.5746531137211582 
0 -2.501223071480455 -1.739520934345460 -1.955792212446648 
1.637150222522660 -4.853519642102949 0 -0.8923449559016765 
0 0 0 0 
0 0 -1.144784285360660 4.845143498278799 
0 0 0 0 
0 0 0 -3.906612264523988 
0 0 0 0 
0.4034605015994321 -0.4375241794412581 -2.123992472140329 -2.372974195054741 
7.475443828363622 0 -1.775056921454714 -0.2710128030063977 
0 0 0 0 
0 0 -2.459873011413519 1.402021794539715 
0 0 -0.9629026484872574 0 
0 0 0 0 
0 0 0.8587012800920084 -1.105999936419044 
0 0 0 0 
0 0 0 0 
0 0 0 -1.954734856202656 
0 0 -1.013167549230059 -0.08709455155579253 
0 0 0 0 
0 0 0 0 
0 0 0 1.669105168821786 
0 0 0 0 
0 0 0 0 
0 0 0 -4.913797173920523 
0 0 0 0 
-0.4865806031295941 0 0 -1.312301743530619 
0 0 2.178647356196816 -1.857791858904940 
0 0 0 0.6122012735830127 
0 0 0 0 
0 0 0 0 
4.557221989257883 -0.7385648124363696 0 0 
0 -0.2426017690793076 0 -0.4428212260680998 
0 -0.8434106644300700 0 -1.759604922510351 
0 0 0 0 
0 0 0 0 
0 0 -2.019798380441027 0 
0 0 1.726714206186260 -1.218492711157433 
0 0 -2.101574497703732 0 
0 0 2.002324438164447 -0.9709612085193475 
0 0 0 -1.077286958267244 
0 0 0 0 
0 0 0.04941717657338415 0.1577194266083117 
-1.166294152100615 0 -0.09820767151332430 1.905787761896456 
0 0 0.3115339973024305 0.6548727322752853 
-5.554540381513447 -4.099759679963423 -1.623525523534612 -0.3192699459524524 
-1.186118852937892 -5.381621678974256 -3.057247921283865 -0.2536055002120345 
0 0 0 1.007246121687267 
0 0 0 0 
1.220800859908808 0 0 0 
0 0 0 0 
0 0 0 0 
0 0 -1.640890016152113 1.688148917643369 
0 0 4.340431248390017 -1.252061531936154 
0 0 0 0 
0 0 0 0 
0 0 0 0 
0 -1.048538497919765 -1.362891570720309 0 
0 -0.3685442667292871 -2.280188865983154 1.925058946047645 
0 0 0 0 
1.911573567520776 0 0 -0.2438574818696088 
0 0 0 0 
4.492707573649487 0 0 -3.681797217693004 
0 0 0 0 
0 0 0 0 
0 0 0 0 
0 0 0 0 
0 0 0 0 
0 0 0 0 
0 0 0 0 
0 0 0 2.238022067452379 
0 0 0 0 
0 0 0 0 
0 0 0 0 
0 0 0 0 
0 0 0 -1.424392029448063 
0 0 0 0.9451568269602887 
0 0 0 0 
0 0 0 0 
0 0 0 1.853302448975796 
-1.754252776723637 -5.037815867522427 -1.158499915294774 1.136203596381276 
0 0 2.498246440320063 0.2753222622146608 
0 0 0 0 
0 0 0.1347248568856239 -0.2295137385755484 
-5.683085872228827 -0.6901782174189606 0 -0.8768216083252164 
0 0 0 0 
0 0 0 0 
0 -5.184044684800827 0 -0.2700353577555501 
0 0 0 0 
0 0 0 0 
0 0 -2.414339192036369 0.003590121589933659 
0 0 0 0 
0 0 0 -1.231771031122473 
0 0 0 2.514895446576229 
0 0 0 0 
0 0 0 0 
3.662140058554865 0 0 -0.5771797406976799 
0.9224813215579392 -3.081265627155230 -2.292618008800694 0 
0.4929787630538454 -0.9562962344507013 0 0 
0 0 5.850466737294417 0 
0 -2.468966829221535 -3.530769172254602 -0.9140480750640888 
0 0 0 -2.129706653803902 
0 0 0 -0.1957118382219421 
0.7084414339798373 0 0 -0.6254990419023622 
0.009906233805066833 0 0 -0.3469226157057750 
0 0 0 -3.015457470797778 
6.481811658133138 -1.787417059134949 -0.1763853752524228 -0.9268733848149964 
0 0 0 0 
0 0 0 -0.5351584000469949 
0 -0.8417449737421890 -2.786302776900849 2.498459445644707 
0 0 -1.010527500628339 0 
0 0 0 0 
0 0 0 -0.6298327904758726 
0 0 0 -0.9605497897983528 
0 0 0 0 
0 0 0 -5.834056175591361 
0 0 1.816060176587411 -0.3238286202047725 
0 0 0 0 
0 0 0 0 
0 0 0 -1.697899252773226 
0 1.507825266278406 0 -0.8214897711374589 
0 0 0 -3.602919871616117 
-0.6344157132217442 0 -4.714593897423632 3.700367213124254 
1.333854638323756 0 0 0 
0 0 0 0 
0 0 0 0 
0 -0.05638597554754987 0 -0.9917936267737874 
0 0 0 0 
0 0 -0.3295066484250602 2.986284502201946 
0 0 0 0.1391761345696340 
0 0 0 -0.4655440622392652 
0 0 0.01318441967046258 -0.3367334455787210 
0 0 0 0 
0 0 0 0 
2.976876272480169 0 0 -0.3773296823082022 
0 0 0 0 
-4.539077649362866 0 -1.176510515426265 2.394671597894152 
0 0 0 -1.607901821831170 
0 0 0 0 
0 0 0 -0.1649098185083742 
0.1724507334610256 0 0 -0.06159257810530727 
0 0 -0.04731002999611778 1.860881140364826 
0 0 0 0 
0 0 0.6823097350771538 -2.706876972133408 
0 0 0 0 
0 0 0 0 
0 0 0 0 
0 0 0 0 
7.790485560842457 -0.2985773705227928 0 0 
0 -0.8506927490654078 0 -0.5329250838164135 
2.740820097398374 0 -0.4983360106577815 -0.5047376252856670 
0 0 0 0 
0 0 0 0 
0 0 0 0 
0 0 0 1.515635146666427 
0 0 0 -0.008320933978223049 
-0.2896836370860164 -0.8212954566782694 -1.439318456025379 1.193941565879208 
0 0 0 0 
0 -0.2761386256875499 -0.5928791769216150 0 
0 0 1.495895532305632 0 
1.932042463348361 -6.200665037052628 -3.163565337216120 -0.6554047496541018 
-3.477718132997967 -2.169575530151552 -2.610508052281229 1.969167645234019 
-1.494938273946196 -2.772725982970362 -3.287454834102062 0.6816669430040948 
0 0 -1.406024320944079 0 
0 0 0 0.5165848993274418 
0 0 0 2.452704220005372 
0 0 0 1.346894108185664 
0 0 0 0 
0 0 0 0 
0 0 0 -3.273596676763792 
0 0 0 0 
0 0 0 0 
0 -1.976779342846326 0 -0.9460399821501235 
0 0 0 0 
0 0 0 0.3059090706191197 
0 0 0 -0.5811082881685730 
0 0 0 0 
0 0 0 0 
-0.7868211283169045 0 -0.7771854357797434 0.1243141528338511 
0 0 0 0 
0 0 0 -0.4324560401074380 
0 0 0 0 
-1.505383629455232 0 0.4227339987699684 0 
-3.049982882677223 -0.07394007437122652 -0.4064426487767983 0.01674281552247617 
0 0 -3.064459440523954 2.133513903494586 
0 -0.2066723866284002 -1.272162158277029 0 
0 0 0 -0.8288814522572827 
-0.9727372359754705 -1.037074915864664 -1.167535782841829 1.557342718579249 
0 0 0 -0.6426553033651907 
0 0 -0.5799728467417122 0 
-3.766863962488301 -0.6929295867278639 -1.443449651001781 1.922770547831717 
0 0 -1.368472786549606 -1.080121856984711 
0 0 0 0 
0 0 0 0 
0 0 0 0 
0 0 0 0 
-3.802216219447698 -4.294809600263625 0.2208631694447829 0.5244693133628575 
0 0 -0.06990212281416319 1.946534039772041 
0 0 0 -1.502302341512739 
0 0 0.6732375462986615 0 
-1.118942900111318 0 0 2.797983257025952 
0 0 0 0 
3.105158351609590 0 0 0 
0 0 0 -2.221500869407305 
0 0 0 -2.192348446742365 
0 0 0 0 
-0.6687605210058300 0 0 0 
0 0 0 0 
0 0 0.9005635633678418 -1.591318748999582 
0 0 0 0 
0 0 0 0 
0 0 3.847481047364986 -0.9867148434975099 
0.1715845515090505 0 -0.7261018200668814 0 
0 -4.049978740592968 0 0 
0 0 0 0 
0 0 0 2.310774678802958 
0 0 0 0 
0 0 0 -3.920948028521632 
0 0 0 0 
0.6476801569611578 0 0 0 
0 0 0 0 
0 0 -0.8050985394825008 0.5452860994972749 
0 0 0 0 
0 0 5.041809655095115 -1.031084030804148 
0 0 0 0 
0 0 0 0 
2.194612784745874 0 0 0 
0 0 0 0 
0 0 0 0 
0 0 0 0 
0 0 0 -0.7544672236197446 
0 0 0 -0.8739010167223333 
0 0 0 0 
0 -0.1590165436679638 -0.3040635406654149 -0.9047433648925297 
0 0 0 0 
0 0 0 0 
0 0 0 -0.6194805286012703 
4.439583998681504 -1.345715978729371 0 0.8063320449286800 
0 0 2.091192620670497 0 
0 0 0 0 
0 0 0 0 
-2.016806390514626 0 -2.943255453570274 0 
0 0 0 0 
0 0 3.699582571169549 -0.01387040693317211 
0 0 0 0 
0 0 0 0 
0 5.695592463963495 0 -0.6751781315597250 
0 0 0 -1.148866487399235 
0 0 0 0 
0 0 0 0 
0 0 -1.118940552549260 0 
-0.9533270451556337 0 0 0 
-0.7241448763450371 0 0 -0.9945110986603487 
0 0 0 -1.416826422095137 
-0.6205650724692335 0 -1.667763722329318 0 
0 0 0 1.157671591917389 
0.6171449578579558 0 0.05807420939871733 -1.287047450403398 
0 0 0 3.231641142541492 
0 0 0 0 
0 0 0 0 
0 0 0 0.1063267347755973 
0 0 0 0 
0 0 0 0 
0 -0.8633743276158306 0 -0.8961358905668900 
0.6467301668082106 0 0.1504141362314130 0 
0 0 0 0 
-1.408399204670185 0 -0.6892936772348606 0 
0 0 0 0 
0 -1.135133968164157 -0.1401373122825529 0.5840086008179396 
0 -1.842342263285948 0 0 
0 0 2.633363143996962 0.4594046822092135 
0 0 1.220009924611544 0.7735708200095175 
-0.06516969117312621 0 -1.932215315653849 1.568945190526918 
0 0 0 0 
0 0 0 0 
0 -0.2213770599750315 0 0 
0 0 0 -3.498509482132802 
0 0 0 0 
0 0 0 -0.06880112955493300 
0.1962494274158380 0 0 0 
0.03082884269096246 0 0 0 
0 0 0 0 
0 0 0 0 
8.010642472530593 -5.803904980252153 -0.3599409373177727 -2.076804418954662 
0 0 0 0 
1.423741326199675 -0.8881605851515338 -0.3255239166929440 -4.027059903285869 
0 0 0 0 
-9.735111506339281 -4.380263478379868 -2.714926275934348 1.089352049491868 
0 0 0 0 
0 0 0 0 
0 0 0 1.544047544104292 
0 0 0 0 
0 0 0 -6.811273652653482 
0 0 0 0 
0 0 0 0 
0 -2.549240659370978 0 0 
0 0 0 0 
0 0 0 0 
0 0 0 3.467017683563296 
0 0 0 0 
-5.644790910864810 5.654986004283520 0 -0.6029030975249812 
0 0 0 0 
2.591017364276124 -2.102586391477039 0 -3.301690054239912 
0 0 0 0 
0 0 0 0 
0 0 0 0 
0 0 0 -4.229644070553746 
0 0 0 0 
0 0 0 -1.221871931021379 
0 -0.8562766024098639 0.3781009321729894 0 
0 0 0 0 
0 0 0 0 
-2.278956291306670 -3.043944237938208 0 -0.6497592429329109 
0 0 0 0 
0 0 0 0 
0 0 0 0 
0 0 0 1.384458410428128 
0 0 0 0 
0 0 0 1.377462774107561 
0 0 0 -0.9264837598172557 
0 0 0 0 
0.1874672956055597 -2.525468466617452 0 -1.095772891411888 
0 0 0 0 
0 0 0 0 
0 0 0 0 
0 0 -5.153258755509983 -1.871183632355246 
0 -1.729881891521462 0 0 
0 0 0 0 
3.647932412685564 0 0 -7.448128686478299 
0 0 0 0 
-0.7180715635244814 -0.3579960837252634 -1.119622261832772 0.04782980701550155 
0 0 0 0 
0 0 0.9329070599028930 -0.6057388638643713 
0 0 0 0 
0 0 0 0 
-0.04561478847429600 0 -2.410629753563489 2.435911664759764 
0 0 -0.4730606402161125 2.088933577023038 
0 0 0 -0.7346004053120961 
0 0 0 -2.587787325510338 
0 0 0 1.665566381296380 
1.332040339903927 -6.960760217215182 -0.7386902398789768 0 
0 0 0 0 
-1.601236794328017 -0.3477722433506129 0.1408564864126841 1.457745359172803 
0 0 0 0 
1.336483378906166 0 -2.050858302799310 -2.991631554514608 
0 0 0 0 
0 0 0 0 
0 0 0 0 
0 0 0 0 
0 0 -6.444828406058569 0 
0 0 0 0 
0 0 0 3.325297296649117 
0 0 0 -5.372867378016531 
0 0 0 0.1092579471661952 
0 0 0 2.167904776449139 
0 0 0 1.792820044302077 
0 -6.317684222970665 0.4203140713443798 0 
0 0 0 1.571490694009386 
0 0 0 0 
0 0 0 2.974200868220501 
0 0 0 4.496553729475522 
0 0 0 0 
0 0 0.6158776276117132 0.4858638235395193 
1.099126060792343 -1.797139572631349 0 0 
0 0 0 0 
0 0 0 0 
0 0 0 -4.711086507765518 
0 -1.380932273408603 -5.364394952208656 2.448839390921208 
0 0 0 0 
0 0 0 0 
0 0 0 0 
-3.635743868546634 2.149590241552537 -1.026259677808616 0 
0 0 -11.69717592586266 0.4890927691354601 
0 0 0 0 
0 0 0 0 
0 0 0 0 
0 0 -1.139436464870417 0 
0 0 -4.626903180818727 -2.959355722023082 
0 0 0 -4.357559127505764 
0 0 0 -0.2297062307474953 
0 0 0 0 
0 0 0 -0.09872327842892004 
0 -3.393752605503487 -3.123232084706433 2.081165041731328 
0 0 0 0.8581910304381093 
0 0 0 0 
0 0 0 0 
0 0 0 0 
0 0 0 -5.429705243388409 
0 0 0 -2.189989174228017 
0 0 0 1.209861228045703 
0 0 0 0 
0 0 0 0 
0 0 0 0 
0 0 0 0.2490489492949555 
0.9988002209745894 -1.497390462677432 -1.710647290393874 -0.1457721213766530 
0 -0.1204370566977607 -0.4302316801245374 0 
0 0 0 0 
0 0 0 0 
0 0 -0.6505423384515888 -0.03436329917421599 
2.169603078015172 0 -1.930789240208950 -2.797722832225575 
0 0 0 0 
0 0 0 0 
0 0 0 0 
0 0 0 0 
0 -0.9217430846619351 -1.443944940729872 0.6383209016783280 
-0.8771581960940033 0 0 3.290600515919947 
0 0 0 0 
0 0 0 0 
0 1.946373528655380 0.2479657097900317 -0.1404007673669760 
0 0 0 0 
0 1.282089705895227 -0.7035296612515408 -2.423407837741437 
0 0 0 -5.369845664083808 
0 0 0 -8.493878644429055 
0 0 0 0 
0 0 0 0 
0 0 0 -0.007217643499241727 
0 0 0 0 
0 0 0 0 
0 0 0 -4.017296825595827 
0 0 0 -2.197917060978472 
0 0 0 0 
0 0 0.6117925437308891 0 
0 0 0 -2.034276170139531 
0 0 0 0 
0 0 -0.6000832331156659 0.5253466575951227 
0 0 0 0 
0 0 0 0.8152153920338983 
0 0 0 -2.929481168669157 
0 0 0 0 
0 4.382183089483393 0 0 
0 0 0 0 
0 0 0 0 
0 0 0 -0.6595973709613300 
0 0 0 -1.647462797656710 
0 0 0.1236279075015917 -0.2639785133234786 
0 0 3.991626892301043 -3.181874355661571 
0 0 0.1226226163883294 0 
0 0 -9.382477970542295 0 
0 0 0 0 
0 0 0 0 
0 0 0 0 
0 0 0 0 
0 0 0 0.1202581320738929 
0 0 -5.678600045731704 1.036620423527004 
0 0 -2.506355053470241 1.926332136207646 
0 0 3.568261133654584 0 
0 0 0 0 
0 0 0 4.449451219820336 
0 0 0 0 
0 0 0 0 
0 0 0 0 
-1.046741369644181 0 -3.546632766811204 3.072433397082341 
0 0 0 0.4961185916164371 
0 0 0 0 
0 0 0 0 
0 0 0 0 
0 0 0 0 
0 0 -3.175555254636922 2.294936990653294 
0 0 0 0 
0 0 0 0.7210619944528855 
0 0 0 0 
0 0 0 0 
0 0 0 0 
0 0 0 0 
0 0 0 0 
0 0 -1.023836007205616 0 
0 -0.3361185881079649 1.056838553283080 -1.455042921277244 
0 0 0 -0.3542675340675803 
0 0 0 0 
0 0 0 0 
0 0 0 0 
0 0 -1.205034983044641 0 
0 -0.1051164282015876 -3.490764839600469 -0.3596771754565038 
0 -0.1163004799124999 0 -0.2414789798220648 
0 0 0 0 
0 0 0 0 
0 0 0 0 
0 0 -1.720213004757553 1.172827667044692 
0 0 0 -0.8883520300545084 
0 0 0 0 
0 0 0 0 
0 0 0 -1.148667297819437 
0 0 0 0 
0.4467309141124526 -2.872573082218592 0 -0.4142285819606672 
0 0 0 0 
0 0 0 0 
0 0 0 0.8454789021962787 
0 0 0 0 
0 10.00000000000000 0 -0.6986304274158274 
-1.692951149247479 6.445409746581160 0 -1.382056160084123 
0 0 0 -0.1819647317947458 
0 0 0 0.05624407920352607 
0 0 0.05784892446752521 1.501132355641866 
0 0 0 0 
0 0 0 -1.583773691372253 
-0.6845676026452984 -0.2154391818212522 0 1.802915567797480 
-0.6272656246417494 0 0 0 
0 -0.8264764470688097 -1.534505194438979 -0.4705758291430651 
0 -0.6851985195226482 0 0.5192579776148556 
0 0 0 0 
0 0 0 0.9611080932996547 
0 0 0 0 
0 0 0 0 
0 0 -7.310204867892832 0.9873436183917812 
0 0 -4.874417455027336 3.339055283238483 
0 0 0 0.6255877545173377 
0 0 0 0 
0 0 0 0 
0 0 0 0 
0 -1.580770627080206 0 -1.986943515453506 
0 0 0 0 
0 -1.990850413645531 -1.318002351630359 -2.502706611858371 
0.3310519416379341 -0.7349492479714941 -0.8169346216514627 1.093874857922129 
0 0 0 0 
0 0 -0.9024659997193307 -2.050743781024961 
0 0 0 -1.424411906010630 
0 0 0 0 
0 0 0 0 
0 0 0 0 
0 0 0 0 
0 0 0 0 
-0.01027454793519139 0 0 0 
0 0 0 0 
0 0 0 0.8829525931922314 
0 0 0 2.474468771277257 
0 1.541713584711049 0.4658544210456258 0 
0 0 0 0 
0 0 0 0 
0 0 0 0 
0 0 0 0 
0 0 -2.491756348233713 0.6728558036531380 
0 0 0 -1.620412157961451 
0 0 4.938804629216741 -4.431723223526004 
0 0 0 -0.1890010391184367 
0 0 0 0 
0 0 0 3.462703877593412 
0 0 0 0 
0 0 0 0 
0 0 0 0 
3.627665736044477 -2.480945652431504 -0.5959803206529323 -0.4540778861290627 
3.169060652230900 -2.512175871478248 0 -1.444681636672482 
0 0 0.1127277720557185 -0.8087718493916274 
0 0 0 0 
0 0 0 2.326772937627612 
0 0 -0.1509915077272352 0 
0 0 0 0 
0 0 0 0 
0 0 0 0 
0 0 0 0 
0 0 0 -0.07528591818425756 
0 0 0 0 
0 0 0 0.2306054565353730 
0 0 0 -3.566469654325965 
-0.6058544745223611 0 0 1.958945019210185 
0 0 0 0 
0 0 0 0 
0 0 3.624993241221454 -1.792163906313075 
0 0 0 0 
0 0 0 0 
0 0 0 0 
-0.9717054433236122 0 0 0 
0 0 0 0 
0 0 -0.7216816805191568 0.1217087064620473 
0 0 0 -0.3342213301761381 
0 0 0 0 
0 0 0 0 
0 0 -0.3050341549912811 0 
0 0 0 0 
0 0 0 -0.6796900045550405 
0 0 0 0 
0 0 0 -2.184783576088845 
0 0 0 0 
0 0 0 0 
0 0 0.9237010901391476 -3.327539345278240 
3.368184816097740 -4.649903914306960 0 0 
0 0 0 0 
0 0 0 -0.3113287728969834 
0 0 -1.313196909251785 0.1797387329241665 
0 0 0 0.2428584158388468 
0 0 0 0 
0 0 0 -0.6344106682712033 
0 0 -1.731036463840891 0 
0 0 0 0 
0 0 0 0 
0 0 0 0 
0 0 0 -0.2012333417796119 
0 0 0 0 
0 0 0 0 
0 0 0 -0.09854741263802058 
0 0 0 -4.711249659733333 
0 0 0 0 
0 0 0 -4.914042827718442 
2.304692234533643 0 0 0 
0 0 0 0 
-4.577423576923511 0 0 0 
0 0 0 0 
0 0 0 0 
0 0 0.5300197422509677 -1.128720251142955 
0 0 0 0 
0 0 -4.512723200596840 -1.488231864843493 
0 0 0 0 
0 0 0 0 
0 0 0 0 
0 0 -0.2995544685953285 1.555538175074287 
0 0 0 -0.5345951568305862 
0 0 0 -0.7121445448603703 
0 0 0 0 
0 0 0 0 
0 0 -6.381855110700632 0 
0 0 -2.663698283459200 4.270496845031835 
0 0 0 0 
0 0 0 0 
0 0 0 0 
6.184157425347658 -0.1103820659774223 0 0 
0 0 -0.1908263638288212 1.688913781331370 
0 0 0 0 
-0.8319915752174230 -3.707994136792897 -2.004629703857483 3.403978203813757 
0 0 0 0.3471251386742754 
0 0 0 0 
0 0 -0.9402441254985960 0.4625938629320622 
0 0 0 0 
0 0 0 0 
0 -8.945379931302446 -1.348914192566630 3.047165623913000 
0 0 0 0 
0 1.431765149497673 0.4066479944373118 -1.482349868072504 
0 0 1.025862473074213 -0.1426079303479134 
0 0 0 -1.255158492620554 
0 0 0 -1.714895634087467 
0 0 0 0 
0 0 0 0 
0 0 3.269990226923536 -1.854110600256252 
-8.418841604534347 0 -0.1579403237145118 0.6280893970652627 
0 0 0 0 
0 -0.3173147723074539 -0.1040470620589565 0.0003795847294363978 
-8.348517107727131 0 -2.777455156467623 4.797048736133165 
0.05442553246959515 0 -2.221909240519254 1.716023351149307 
0 0 0.3621225636856676 0 
0 0 -3.306422433930729 0 
2.948981827517132 0 0 0 
0 0 0 0 
0 0 0 -5.097152781634656 
-5.212984020454136 0 -9.257043111472719 1.103042574693091 
0 0 0.8114816871923475 3.836464750279037 
0 0 -2.888026167969577 0.9251652602162954 
0 0 0 0 
0 0 0 0.1104859460727776 
0 -5.574784461677256 0 1.698774992084730 
0 0 0 1.308508415888462 
0 0 0.6227722989453670 -4.072598098324450 
1.480124507587064 -0.1802842857308468 0 0 
-2.777594061734588 0 -0.4024666160358079 0 
0 0 0 0 
0 0 0 0 
0 0 0 0 
0 0 -0.3503388266999767 0 
0 0 0 1.375189251275517 
0 0 0 0 
0 0 0 6.814399048617166 
0 0 0 0 
0 0 0 -10.00000000000000 
0 0 0 0 
0 0 0 0 
0 0 -0.1680284426067943 -1.505621998954853 
0 5.095970588236228 0 0 
0 0 0 -1.285089326846188 
0 0 0 0 
0 0 0 0 
0 0 0 0 
0 -1.050920127496388 -1.620284167911662 0.6721040451130467 
0 0 3.281719275379599 -0.7629525597688087 
0 0 0 0 
0 0 0 0 
0 0 0 -2.089233818558241 
0 0 0 0 
0 0 0 0 
0 0 -1.778638418426641 -0.1774880277216882 
0 0 0 0.2307391430835928 
0 0 0.5135223969765181 -0.6247722698810575 
0 0 0 0 
0 0 0 -1.482489646369100 
0 0 0 0 
0 0 0 -1.247258039885863 
0 0 0 0 
0 0 0 -0.5933085366980474 
-1.013017486464567 -0.08566276997567690 -7.284209071243479 0.05210622841672541 
0 0 0 0 
0 0 0 -2.066003491309734 
0 0 0 0 
0 0 0.4101710426686949 0 
0 0 0 0 
0 0 -0.7248798636511240 0.5513234656446949 
0 0 0 0.2636786632094971 
0 0 0 0 
0 0 0 0 
-1.004429495701109 0.1247948577705388 -0.1398038126540097 2.086808188234691 
0 0 0 0 
0 0 0 0 
0 0 4.210730110578623 -5.649640114557800 
0 0 0 0 
0 0 0 0 
0.7204646194374522 0 0 -2.650025797957323 
0 0 -0.1668549825789116 0.5033049162590963 
0 0 0 0 
0 0 0 0 
0 0 0 0 
0 0 -0.2095205301016818 0 
0 0 2.120076908426541 -1.506508337380204 
0 0 0 -0.6354367230565909 
0 0 0 0 
0 0 0 0 
0 0 0 0 
0 0 0 0.3055979983888930 
0 0 0 0 
0 0 0 -9.024935925214933 
0 -1.035497178589365 -0.7171591846162301 0.8193091947394047 
0 0 -2.620191677142500 -0.009772682961178940 
0 0 0 0.7503956829479861 
0 0 0.2339438228687635 0 
0 0 1.430936552038342 -0.6144171007077985 
0 0 0 0 
-2.955075241105326 -1.481007749552868 0.04507999876636417 0.5501980870578613 
0 0 0 0 
0 0 0 0 
0 0 0 0 
0 0 0 -0.1659530103680665 
0 0 0 -0.8886619628316836 
-0.3289732046395679 0 -2.080297871020520 0.2408237622690076 
0 0 -0.2741388341449551 0 
0 0 -0.6805029868534059 1.643040400247994 
0 0 0 0 
0 0 0 0 
0 0 0 0 
0 0 0 0 
0 0 0 -1.253314817588119 
0 0 0 0 
0 0 4.948772162760373 2.321422043200982 
0 0 0 0.6563946804356362 
0 0 0 0 
0 -2.361317467621719 0 1.936180659269112 
0 0 0 0 
0 0 0 0 
0 -4.167050678867399 -2.119881006096823 0.4900851067595317 
0 0 0 2.609363746498332 
0 0 0 0 
0 0 0 -5.985392250484985 
0 0 3.787991113179380 0 
0 0 1.886351065223145 -2.366172122686997 
0.1440170891564377 0 0 -1.627977215569937 
3.025749762032472 0 -0.1450126013024864 0 
0 0 0 0 
0 0 0 0 
0 0 0 1.605152578078629 
0 0 0 0 
0 0 0 -2.954984131305018 
0 0 0 0 
0 0 0 -1.019767478202862 
0 0 0 0 
0 0 5.761163043951235 -4.509327232203646 
0 0 0 0 
0 0 0 0.2858865141614599 
0 0 1.061333553234454 0 
-1.825396286125856 0 -2.157216468184539 2.136994737338851 
0 0 0.4592865981704752 0 
0 0 -1.273099523581350 1.100266192622285 
0 0 -0.001479026591811233 0.1199677491473695 
0 0 0 0 
0 -0.8145260521840006 0 -2.956681484125010 
0 0 0 0 
-1.610381008781955 -0.4212767337896866 -0.8289264051076369 1.219183512808711 
0 0 0 -0.2426862627268431 
0 0 2.093363378550881 0 
0 0 0 0 
0 0 0 0 
0 0 -1.189056729871591 1.598378258098955 
0 0 0 0 
0 0 0 0 
0 0 0 0 
0 0 0 0.3284523313298429 
0 0 0 0 
0 0 0 0 
0 0 -2.212485763066650 0 
0 0 0 -3.264094972392682 
0 0 0 -6.356661243428195 
0 0 0.2201168252225745 -0.2113413520085493 
0 0 0 0 
0 0 0 -5.063086135568167 
0 0 0 0.6440155664725662 
1.292013754242122 0.9663982494549251 0 0 
0 0 0 1.149601461763340 
0 0 1.875121444409633 -0.6403995738948565 
0 0 0 0 
0 0 0 0 
0.4692368319906614 0 0 -1.566139408507093 
0 0 0 0 
0 0 0 0 
0 0 0 -2.687316992868474 
0 0 0 0.1055760819541945 
0 0 -2.519929537533261 0.9308949567161349 
-2.876368789161218 -2.711335542382641 -2.144280220700329 0 
0 0 0 0 
0 0 0 0 
0 0 0 -5.132402948170457 
0 0 -1.033452968458169 1.062308429363448 
0 0 0 2.159656614275482 
0 0 0 1.780868704617857 
1.671650848697672 -3.396188956017594 0 0.9062651654724265 
1.631032768268092 -1.988345362375567 -0.7163745926825166 -8.977282930968776 
0 0 0 0.1152998226577413 
0 0 0 0 
0 0 0 -0.8605781233490697 
0 0 0 0 
0 -2.296516559374813 -0.9596704344774045 0 
0 0 0 0 
0 0 -1.576127446736103 -1.540773258743150 
0 0 0 0 
0 0 0 -0.4465625123689688 
0 0 -0.1226430380837627 -0.5638533651119509 
0 0 0 0.9246498796605060 
0 0 0 0 
0 0 0 0 
0.7867679116750134 0 0 0 
0 0 0 0 
0 0 0 0 
0 0 0 -2.310758684954140 
3.557816942264885 0 0 0 
0 0 0 0 
0 0 0 0 
0 0 0 -4.299565259128586 
0 0 0 0 
0 0 0 0 
0 0 -1.946505101709028 0.9301380960279026 
0 -0.4249625314764940 0 0 
0 0 0 0 
0 0 0 0 
0 0 0 0 
0 0 0 0 
0 0 0 0 
0 0 0 0 
0 -0.5014126571073894 -1.291434451284308 0 
0 0 0 0 
0 0 0 0 
0 0 0 0 
0 0 0 -5.571749043678857 
1.866382077840525 0 0 -1.419172177135944 
6.224552067470348 -6.092613639584032 0 -1.628495192552114 
0 0 0 0 
0 0 0 0 
-0.09081832528424470 -0.9951942712879166 0 -0.7276056961156709 
0 0 -1.620666483250774 0.5533358827417450 
0 0 0 0 
0 0 0 0 
4.576264941750210 0 0 -3.594792069916057 
0 0 -0.6161819390426768 0 
0 0 0 0 
0 0 0 0 
0 -1.610588998037253 -1.408372697117720 -1.565518713309077 
0 0 0 0 
0 0 0 0 
0 0 0 0 
0 0 0 0 
0 0 0 -0.2244887508862429 
0 0 0.1725627031633192 -0.9780190117355487 
0 0 0 3.726455319768069 
0 0 0 0 
-1.668470117057747 0.9577743789178259 -0.1186373919469718 1.242071575855830 
0 0 0 -5.369213626919647 
0 0 0 0 
0 -3.981827144244875 0.7694273222900931 0.03175553055606598 
0 0 0 0 
3.484191119187783 0 0 0 
0 0 0 0 
-0.1811521397227948 -0.8154814707737263 0 1.361078586988323 
0 -1.703024519952654 0 0 
0 0 0 0 
0 -10.00000000000000 -0.6054057029215947 0 
0 0 0 0 
0 0 0 0 
0 0 0 0 
0 0 -0.7508283618006588 -0.007468082565289747 
0 0 0 0 
0 0 0 0 
0 0 0 -1.972725470941435 
0 0 0 0 
0 0 -0.5454778999816619 0.7448711274133404 
0 0 0 0 
0 0 0 0.07328991619290260 
0 0 0 0 
0 0 0 -3.162566680882184 
4.535052227721885 -3.203613648436202 -1.319976570325775 -8.021078305361380 
0 0 0 -0.2182188424741480 
0 0 0 -1.163013373381959 
0 0 0 1.160624719011937 
0 0 0 0 
0 0 0 -0.3151716598133634 
-0.9479028802667386 -11.36201375284519 -2.289184815821484 1.002235933379779 
0 0 0 0 
0 0 0 -4.682417394278081 
0 0 0 0 
0 0 0 -0.3601281461869081 
0 -0.6910668836498538 0.2008818156191036 -1.373386622263769 
0 0 0 0 
0 0 0 0 
0 0 0 0 
0 0 0 0 
0 0 0 0 
0 0 0 0 
0 0 0 0 
0 0 0 0 
0 0 0 0 
0 0.2565345150145300 -0.2907996952213210 0 
0 0 0 0 
5.432374567340139 -3.641768846907476 -0.007203344773502929 -3.387189356553896 
0 0 0 0 
0 0 0 0 
0 0 0 0.5954323004979052 
0 0 0 0 
0 0 0 0 
0 0 2.307731537809814 -3.226488961685725 
-5.210179718712766 0 0 0 
0 0 0 0 
0 0 -0.4282188493037886 0.5252032876242941 
-0.1880919575756526 0 -1.585927075946359 0.2893735142113307 
0 0 0 0 
0 0 -0.6270157305007515 0.8873473827261680 
0 0 0 0 
-1.397764255175442 -0.5799174556080231 -2.770907426672708 0.2139986617076814 
0 0 0.4921445462342010 -1.019144352531335 
0 0 0 0.2672276754982400 
0 0 -2.118859891592340 0.7678869263810212 
0 0 0 0 
0 0 0 0 
0 0 0 -5.410016372981676 
0 0 0 0 
0 0 0 0 
0 0 -0.9827128781779495 0.2911638160532168 
0 0 0 0 
0 0 0 0 
0 0 0 -2.319716858738246 
0 0 0 0 
0 0 0 0 
0 0 0 0 
0 0 0 0 
0.1650552596912182 -1.663300916179079 0 1.972215969297561 
0 0 0 0.5005650088600410 
0.7193133660255666 0 0 2.647616409540250 
0 -0.4354910516449534 0 0.3474930295389903 
0 0 0 0 
0 0 0 0 
0 0 0 0 
0 0 0 0 
0 0 0 0 
0 0 0 0 
4.923139999265099 0 0 0 
0 0 -5.843294987918931 0 
0 0 0 0 
0 0 0 0 
1.434831402665826 -4.900980946705642 -4.165809256906264 -0.6577058249609453 
3.180907731928657 0 0 0 
0.8063677242469653 -12.47286740112691 0 -1.297761249833038 
-0.2218977589407642 0 -2.213245855598986 2.100432401087409 
0 0 0 0 
0 0 0 2.062873433343191 
0 0 0 0 
0 0 0 0 
0 0 0 0 
0 0 0 -1.303834257531158 
0 0 0 0.8384415057382064 
0 0 1.592021016853303 0.1827072144462958 
0 0 0 0 
0 0 0 0 
0 0 0 0 
0 0 0 0 
0 0 0 0 
0 -1.264765389136083 0 0 
0 0 0 0 
0 0 0 0 
0 0 -2.341708450245414 -0.1730903339244371 
0 0 0 0 
0 0 0 0 
0 0 0 0.8498550795888749 
