solver_type L1R_LR
nr_class 2
label 0 1
nr_feature 49999
bias 0.000000000000000
w
0 
-0.3419649303652677 
0 
0 
0 
1.023998484924845 
5.111758680315380 
-0.1981298614441351 
0 
0.4898056847644434 
0 
1.623725268361421 
7.571437311144107 
-2.218383848011119 
3.748896838056714 
-0.5814931265406509 
0.2981696149969709 
-0.5200535435927838 
1.037364563932915 
0 
0 
0.3394344577494043 
1.274751440792822 
0 
-0.7778994989237318 
5.806474326248087 
4.463325384378092 
-1.074066114753007 
0 
-0.07606388306297973 
0 
-0.09098212676536827 
0 
3.204626806808185 
-2.747208640242894 
-1.863173567402647 
-0.2268590591846759 
0.4350845741436983 
0.6944381466356471 
4.268037843142226 
0.4951594107246128 
5.715367303971643 
2.210193500769836 
-0.8605424188673039 
0 
1.608089482991322 
-1.085305759151791 
0 
1.763463716582594 
1.079529482120900 
-1.555732186475387 
0 
0.9847173460177124 
0 
0 
0.5395928870638487 
0.03308838476941078 
0.6092146354877381 
0 
1.398032579502592 
0.4985746838821223 
-0.4236536488823459 
-1.540640068033263 
0 
1.986842281324631 
1.246674879679742 
-0.1005886881260384 
0 
2.551118143799644 
0.01281882144564753 
1.212596807233091 
-2.302524949291767 
-0.2528008784461941 
-1.082623523853840 
0 
1.346765225128052 
0.1571424298159176 
0 
0.4587404255182951 
-0.004167618554400177 
1.500951887196742 
2.339731271668078 
-0.9858141237921987 
-6.499111305446339 
0 
1.287248125423009 
0 
1.684733344553165 
-0.6666215474127850 
-0.2871568881400963 
-0.1090444602138877 
-0.2464607105665997 
0 
1.959886191550722 
0 
0 
2.631856415466850 
-0.04702907663342915 
-0.5220282912947605 
-0.01171468959207189 
-0.001414856468056502 
0 
-1.072888438450746 
0.9990357118053605 
0 
-0.3873338984382495 
0.4586979493019440 
-0.7155340946391733 
-2.256735822909783 
0 
0.8754999377919570 
1.233168789675468 
0 
0.5251136523290487 
-1.940997416072409 
10.82782341170934 
0.3224076760989038 
-0.5510749999248534 
1.090913309552649 
2.424259417323610 
-7.102975595062458 
-0.4034767574132209 
0 
1.725468583770782 
7.228599903948679 
-2.726219105529717 
0 
4.505301912542234 
4.403387873356909 
1.904214006587789 
0.4586510546290090 
1.407629487137629 
2.320963630072931 
1.539924547410930 
0 
0 
2.849269921134594 
0.1742720275025693 
0 
-0.4829451563322520 
0.6438617044902417 
-3.199415093287541 
-0.8418801849922986 
0.007285725380327943 
0 
1.464557329798142 
0.3905174604978465 
2.195395594495508 
1.037849712578499 
8.255471368247385 
0.6830565952303457 
2.452158803982112 
0 
4.538886373374038 
-0.07723233515123900 
0.3948385536848533 
1.272874575246654 
0.6283004976422538 
0.9883722348400120 
0 
0 
0.4778503930578502 
-1.021096046479119 
-0.1328186790847264 
0 
-1.213142083209461 
0 
0.9196095282046397 
1.440496985571054 
0.2884427122396412 
0 
0.03699678144093341 
0 
0 
0 
0 
0 
0 
9.721691874580273 
-1.612540661034253 
1.949146691857882 
0 
0 
-1.475826737011989 
-0.8038629820307933 
0.04418911580518747 
0.1222985976077268 
0 
-0.3066594016623458 
0.8293030669587544 
17.61152045407507 
1.434634222551058 
-1.470980960542632 
0.6848861533234276 
0 
0.8794468747372457 
0 
1.772317197952402 
0.4524718769733788 
0.2770000445581578 
0 
0.1984578778478393 
0 
2.695059643468741 
1.533065466207979 
0 
0 
-1.186300354959536 
-0.1096562781941640 
0 
1.753696284845593 
1.305867582343429 
-2.172204840113689 
5.619308415508119 
6.152898016571891 
-0.3958425213689039 
0 
0.3395339545276762 
0 
0 
0 
0 
-2.485034210806671 
0.8965627860353896 
-0.4839876241433210 
0 
-1.048243089565560 
0.9886472157573207 
-0.7734450158723145 
0 
-0.2092058793514802 
0.4606011883616801 
0 
0 
0.5317120603087764 
0 
-0.4730838186805115 
0 
0 
-2.266447923874534 
0 
0 
0.6857646049087218 
0 
-0.3778769204922796 
9.850572956756062 
-0.1334122742946098 
0 
0 
0.003754829618129951 
1.370366053350857 
-0.4635330282407302 
0.3214300996009187 
-0.06080612505206007 
0 
-0.3095959613106111 
1.530678872472657 
0 
0.9068834380112566 
-0.2016657057103664 
-3.468984158287327 
3.839202911346849 
0 
-0.2239755902644866 
0 
0 
-0.2136422282212294 
0 
0 
0.8934464241766301 
-3.200970599992681 
0 
-0.4233950207704284 
0 
-1.876001947317128 
-0.8499095292342330 
0 
0 
1.810785600087452 
0.05423850505293848 
-0.9734165150728077 
0 
-0.08569409274522437 
0.7505959557045756 
0.5774588925333393 
0 
3.292888765910886 
0 
0 
3.118877798586802 
0 
0.8711954707226867 
-0.6749172995628977 
0 
0 
1.487201607636326 
2.043106967467941 
0.06165097741744957 
-2.951429553829023 
1.616877394930404 
2.773453471736602 
1.013811168237325 
0.2997952539534532 
0 
2.549261669795788 
0 
3.747311643326830 
0 
0.8798851934780668 
0.2979187836666051 
0 
2.299615805242424 
0 
0.3066049712177543 
0 
0 
9.835318925213270 
1.107171899668018 
0 
0 
0 
2.842369489921427 
0 
0 
-5.166064733888599 
-0.1221671782977560 
6.002378086727049 
0.6336941711815344 
-0.5252773811349916 
-0.9735311199509755 
1.790056551158037 
0 
7.800040113102573 
5.315184520879004 
0.4428119712290239 
0 
-2.987402992585929 
0.09337079549313154 
0 
-1.296844647567089 
0.8718083574763248 
-0.2356809204070612 
1.313423916136975 
1.249166064605280 
1.679029666618135 
0 
-0.1802037697552222 
0 
11.39914394603065 
8.429039694140693 
-1.993925181426664 
0 
0.02006037816656525 
-0.2442163134754549 
0 
0.4432324464364051 
0.9013757660423993 
4.860244904324754 
-1.168859537255147 
1.397874315350983 
-2.780972623870649 
1.972447140104865 
0 
0.5631168803423792 
0 
8.647523882795328 
0 
9.176860768827904 
0 
0.7812572455187503 
0.8999493526284306 
0 
0 
1.421191905913464 
-0.2068578633530324 
0.6441616986894627 
0.8561035091867284 
-3.591874809394742 
3.526122945224708 
0.4211386333524311 
0 
-1.571795954828897 
0 
-0.08603809730134698 
0 
0.04728428007045851 
2.583658801724423 
-0.8790394886816100 
-0.1209539726033735 
1.813281747220319 
-2.534600810472896 
4.939879840848716 
0 
0 
-0.2925180152476230 
0 
0 
-0.9154475856937537 
1.185199413969159 
1.013704672418182 
0.07437648795473440 
1.863321055630793 
0 
1.566696580192183 
8.167522721034828 
0 
1.082815393911428 
0 
-0.2980708460448702 
0 
-0.1138668179300745 
0.2292378638941783 
-0.6834363304640945 
2.319559160816354 
-0.7503750099342056 
6.096673772845461 
0.07340409349220794 
-0.03521764822878215 
0 
0 
2.791707980364203 
-1.153364228022357 
1.880833946932490 
0 
0 
0 
0 
0.8676175445109771 
0 
0 
0 
0 
0 
2.215096324678934 
0 
0 
0 
0 
6.007621374904410 
6.958051862658374 
-1.866887360460190 
0 
1.652508705455745 
1.352765005301029 
5.589788180319109 
0.1839906278401569 
3.445453254238186 
-3.744240201483663 
-1.692683537550033 
0 
0 
0.2794365263501543 
0 
0 
0 
0 
3.958016932039878 
-0.07448271036474685 
6.798062336885288 
0.4446495877546463 
-0.9074313483427401 
-0.2143144554048684 
7.050404868472284 
1.164012387577758 
5.340422722449389 
0 
-0.5978129207398529 
-3.159570155711062 
4.484296181502597 
-2.143435615285651 
0 
0 
-1.775572576600516 
0 
-0.5171924043689242 
0 
-2.376750283484438 
0 
1.032782868209359 
-1.363797872746576 
-0.1376352910068948 
0 
0 
0 
-1.914842095375396 
0 
0.1679253244061776 
0.2646522023323633 
2.511182285958890 
-0.2949227910059847 
4.753545848301599 
0 
8.862303605985169 
11.01630730977032 
0 
0 
-1.045472289775781 
1.067874083575916 
0 
-1.178935815366333 
0.7328877852898463 
2.173002192904909 
0 
0 
0 
-1.073616743074308 
0.4362311481333868 
0.1591560861115435 
-1.224222314281281 
-0.06997796662832168 
0 
-0.1698279822804062 
2.043215317390376 
0 
-0.1302153760604791 
0 
0 
-3.213713772641882 
0 
0 
0 
0 
-0.8329576299100184 
0 
11.78680808166814 
-0.2436046169440631 
1.958815804288190 
3.497251176179903 
0 
0 
0.6910115142073232 
-2.508594424451888 
-0.4876285185248561 
0 
0 
-0.1904423457944695 
0 
0.6672128758318510 
-1.124665655118508 
0 
1.260902369226631 
0.4816524869607607 
-6.485628885992703 
3.054749365878669 
0 
-0.5975023739624097 
0 
0 
-0.3501654259404234 
0.1268609592678204 
-0.1562728570747878 
-1.195281927452606 
0 
0 
3.289755124974052 
0.1633338797128081 
-0.4134148152144640 
0.3168782272714460 
0 
-0.1592247149202163 
0 
0 
0.05661903286498980 
0.6251272371629070 
2.947497570904209 
0 
-1.033173624944413 
1.598529536087998 
0 
4.812450522103332 
0 
-1.304481127506240 
0.3749753037379510 
0 
0 
0 
0 
0.4624265833003045 
-1.117404638274756 
-0.6502844945750407 
-0.1452479217600745 
2.059942458147412 
-2.183869153461200 
-1.058794011544426 
0.5326186258435900 
3.333569200113546 
1.702257872595820 
0 
-1.784723089645665 
0 
0.5667566776429773 
-0.01206244345482588 
0 
0 
0.6315748443065836 
1.605134418478696 
0.1855464764335326 
0.5045676569944855 
0 
0 
-0.1500851898183836 
1.981161226738260 
-0.3992817501748210 
0.003012094840429525 
1.524492994142249 
0 
0.6656159698517714 
0 
0.9419932519552436 
0.2827211080902937 
0 
-0.8311436008339927 
0 
8.665838829647278 
1.875136189027223 
-3.454004299259419 
0.4854329240616528 
0 
0 
3.667014889358638 
4.260933441082398 
3.663331573252295 
5.217043946437022 
2.259498633933757 
1.035202444888310 
0 
1.182116215052862 
1.478435560106573 
0 
1.867484037976421 
0 
-0.8768718245286629 
-0.6105149921987492 
0 
0.06041756097052425 
0 
0 
0.07568684986920683 
1.192998640618508 
2.580007012572667 
0 
0 
0 
-1.978126586558501 
0.7342430592575315 
0.5569399298125658 
0 
0 
0.7722131025003165 
0 
0 
0 
-0.03379751006453002 
-0.8758867030635016 
0 
0 
-0.01452983264456120 
0 
-0.4814172393098553 
0 
-0.1019883306439944 
0 
0 
1.991603270488995 
0 
3.669632069742963 
9.255094305979743 
0.1501453542612986 
-2.341718550950120 
-0.2017404013966460 
0.4593241688198911 
-0.9822201289968474 
-3.169096532681317 
-0.4625939447896844 
0.6379054964911706 
0 
3.040656003647822 
0 
0 
0 
-0.2134299222376382 
0 
-2.358221283118716 
-3.016364996004282 
1.637954767737735 
0 
-1.436827152607134 
2.340970599225642 
0.4345834928670291 
0 
0 
0.9381976391445134 
0 
1.143335883892253 
-0.6090301665531345 
0.2744622159417958 
-1.282476272908320 
0 
0 
0 
0 
0 
-3.322269217252951 
4.166004357115236 
0 
0.7825496480940509 
0.7184770629082605 
2.242761124753710 
0.04593807648848075 
0.9063902755159163 
0 
-2.491672366673162 
0 
1.188315448177298 
0 
0 
0 
-0.03945792403521087 
0 
2.328291878547510 
0.9128670498385678 
0 
0 
0.3592648236015017 
0 
-4.653146148633821 
1.841214509022460 
0 
0 
1.598774150340370 
0.6447552713749038 
0 
0 
-4.377648019100191 
0.3020193204858114 
1.209089773293755 
0 
0 
0 
0.05145134394380246 
0.7054827690078740 
-4.342372157473346 
-0.7414196561637660 
-5.262697909154957 
0.5291017851359674 
-1.512957411071835 
0 
-0.4158583589155497 
0 
0 
-0.3313743087180403 
0 
0 
-1.537940305891184 
-0.8946533301615693 
0 
-1.795759883251055 
3.300193093819205 
-2.806776519448050 
0 
-2.685231912398569 
6.587356899625143 
0 
-0.1383687354224839 
0 
-0.7411769194492035 
-0.3895480196576711 
1.162302360472772 
0.9664744511166143 
0 
1.023413708064032 
1.266600035684031 
2.572741477855987 
0 
0 
0.7051204910168849 
-0.3784527548633914 
0 
-0.2394919537469566 
0 
-0.3263124255541502 
0.4189186771106970 
0.2083595687570794 
-0.4596151597778280 
0 
0 
0.4252230616749737 
-0.9564078056703940 
-0.4521631799318294 
-1.273434101396063 
-0.6330175731018848 
0 
8.363467189229402 
0 
0 
0 
0 
-3.092795679902424 
1.901971736912322 
0 
0.6454720192030255 
0.5056522568776551 
0.5093760750505795 
-0.9226668495829564 
-1.446423880765002 
0 
-0.3314131519612568 
0 
-0.1307032174989465 
0.5817161655942946 
0 
0.1101125698751129 
0 
2.249613967534798 
0 
2.761463221183865 
0 
-0.1210623261536519 
0.5773966805933604 
1.134348531078718 
0 
-1.908113352958371 
0 
-0.2181540206257487 
0 
0 
-0.07729264571380956 
0.7756741831642070 
0 
2.690812732164381 
-0.7517203786974918 
0 
5.366503631802173 
0 
-7.828429361134984 
-1.696813659656616 
4.996491751667104 
1.154965589734577 
-0.03559257116195919 
-0.2807012218774320 
0 
0.2932312152947339 
-0.3292284469841266 
0 
-0.6617267073796160 
3.419630820605109 
1.044274251433399 
0.3427143747425546 
0.6280741990187731 
0 
0 
0.5665281361873509 
-1.394554804491843 
-0.06959575982822042 
0 
0 
0 
-0.03407067925337257 
0 
0 
2.235254309064996 
2.140041777723333 
0 
1.821265581537312 
0 
0 
-0.2016307115131106 
9.632343234006118 
-1.372296573503257 
0 
-1.018575692382790 
0 
0 
-2.094506007877419 
0 
0.9106469958169174 
0 
1.262325335774148 
3.256127079496164 
-3.393921098724262 
0 
0.7141256501255606 
0 
0.2337465606830439 
0.5873267571971217 
-1.366862980508079 
2.238543719134389 
6.084217894780094 
-2.251330268000715 
7.023831444191380 
0.3948932388377464 
1.119837946166006 
-0.2283624345052315 
-0.6042463591877159 
0 
-0.1717638452255184 
3.400895064654206 
-1.238531622981221 
2.479640211755995 
0.4709136995369259 
-1.140118899853765 
-1.825002575701927 
0 
-3.805372933330305 
2.362839626454107 
0 
-0.7791782552555500 
1.962831087510495 
0 
-0.9361353053384729 
-1.084755248995197 
0 
0.2030387652213360 
2.314009221070672 
0 
-0.09609272228006327 
-0.4772726541069078 
1.341546173770422 
0.7396071320519683 
1.238066045636253 
0.5744585665098016 
3.448766819677223 
-0.7111325768243646 
0 
0 
-5.599256795627365 
0.2172213246081265 
0.05369801706403982 
3.452072242367411 
0 
-1.586452706423419 
-0.2071874017150322 
0.1606732130797013 
0.7934860726748950 
-3.319961161445331 
0 
0.07533384275140365 
1.605548508251915 
0 
1.338314583078084 
0 
0 
-1.095797658127541 
0.8601581200182413 
-0.1861413721144820 
2.760618445975905 
0 
-1.033664026211056 
0 
8.728250132934258 
0.6841228136597653 
-0.7894031535450213 
-0.7427612548318508 
0 
0 
0.9832102437178161 
-1.209913570784351 
0 
-4.122780073156401 
0 
0 
1.301800395071742 
0 
-0.1458716251384793 
-2.145011604792593 
0 
0.8182149746876083 
0 
0 
3.028072184196222 
3.008791599630471 
0.1121696340613660 
6.862238088804700 
-0.2390900269019579 
8.582889473505000 
0 
0.2668682774039690 
2.729694968355560 
2.078769195085281 
0 
-1.309092456192749 
0 
-0.2511689181637377 
-1.447097111878247 
0.9593444107779464 
0.8342426830417922 
0 
0 
0 
-2.002391512152165 
3.153894147795044 
0.2855402710035902 
-3.972730057652180 
0.7841780388143152 
0 
-0.3464626690523822 
-0.4623770005046684 
0 
0 
0 
0 
1.652354107915443 
0.9302548050875872 
0 
1.870226164057790 
-3.722631743651812 
0 
0 
-1.079021555593398 
-1.431178508931091 
0.4678078195892421 
0 
-1.155524138651972 
-1.324078558634381 
-0.6142096744444983 
-3.734005238038821 
0 
0 
0 
0 
0 
0 
-0.1998917933463984 
-1.183039167016358 
1.126204613253043 
0 
0.5406612077587727 
2.116573610534558 
-0.4662483430807742 
0.3096293482822390 
0 
-0.8355312603338163 
-1.278349670539932 
4.129050076457522 
0 
-5.025044882055790 
-1.076102446377634 
0 
0 
0 
0.3064747693357692 
0 
0.5962749820651156 
1.417722266781044 
0 
0.1553570489862991 
0 
0 
0 
2.521986686375056 
-2.840019835367502 
-1.911810039081559 
-0.1267722448630237 
0 
-1.011777110005083 
1.415028400684281 
-0.5508636683536826 
5.303478078460002 
0 
2.124217978048399 
1.007958313330865 
-0.8781380315872382 
6.636323916474717 
0 
-1.483973017626055 
0.6766180746745187 
0 
0 
2.191366036039072 
5.863555431693164 
-0.4387646467218822 
-0.3089664462755405 
10.34807760962328 
-0.9174234820614362 
-2.622297949534888 
-1.842222481540974 
3.432429418393345 
0.2377641255432398 
0 
0 
-5.326394854244495 
0 
1.179186820656814 
-0.9074607913116512 
0.3331785784584286 
0.7578557397029503 
0.9786263282729573 
0 
0 
0 
0 
-0.4392622287383940 
-1.405368560760843 
0 
0 
6.314834559987141 
-1.752292044542225 
0 
0 
3.340976100424073 
0 
0.5949354924387239 
0.8314222519942286 
0 
4.861342724232509 
0.2618839592330031 
1.264892188891276 
0.3869660477740361 
2.696488107905561 
0 
0 
0.9956036001426467 
-0.3325847465438949 
0.1814609448520337 
-3.664812677863033 
1.057975306250199 
1.216776733408031 
0.1876419597740928 
0 
0 
1.130030639857082 
0 
0 
0 
0 
0 
-3.409049675264371 
9.898897970698819 
0 
0 
0.1341378200205757 
0.004086709527126052 
0 
-5.115690439229191 
-3.261484341348240 
0 
0 
2.112020272951403 
1.311180399066624 
0 
-0.9887600516539865 
-2.542994849082772 
0.3613740781135570 
0 
0.8753242292085721 
0.002833065955809344 
0.1444260273194594 
0.5335479703690275 
-0.3732889098246753 
-0.4404123014143667 
-1.486760300536174 
0 
-1.544993518291804 
6.695691385589646 
0.7503668765532286 
0 
5.319899550663016 
0 
-3.734318835154789 
1.433481283199339 
1.057013269507271 
0.005419924014250240 
0.08399700425161248 
0 
-0.4758651818161969 
0.1376854526975446 
0.04013833261417120 
0.8943740711441881 
0.7174268830946839 
1.056674214243085 
0.06631662672157157 
-0.9576200710616137 
0 
9.861739938920568 
0 
0 
0 
-0.9467396910796180 
0 
0.5008810359607562 
0 
-0.5204738887742981 
0.1250703727334000 
-0.1780130908210171 
-0.009588858751028884 
0 
0 
5.233889377959516 
0.3546735181286932 
0 
0 
1.885467317231055 
-0.04227523418912582 
0 
-0.09268989552443785 
-0.6626245141419983 
-1.586792593641812 
1.003553208184139 
0 
-1.767587253505904 
-2.476072655692535 
-6.316555107492999 
0 
-1.812692210718775 
-0.9294632736442874 
-0.1543707931432791 
-0.7400647814321926 
0 
0 
0 
1.578174315739691 
0 
-3.120676068073027 
1.941647765040721 
0 
0 
1.734682803313117 
0 
1.365427368318067 
1.241657900000666 
0.6989952995834003 
0 
6.533230650397826 
1.497523482718176 
0.3566832260774303 
2.209554955785954 
0 
0 
0.4315602563529715 
0.2753516315709521 
0 
3.200814629738930 
4.278978566097668 
-0.1978675845722226 
1.256723732768746 
0 
0.3197486377317331 
6.425705371364510 
2.314596318915857 
0 
-0.3493745442640011 
0 
0 
9.748272583998425 
-2.238104100347057 
0.04161014488056020 
0 
-7.035916104727815 
0 
-1.459052508581378 
0 
0 
1.648892098002889 
-0.1820999686935237 
0.8877628604634449 
4.345986012544207 
0 
-1.320285559497476 
0 
-1.035057792365476 
-1.101587280508302 
-0.7818875982728584 
0.7516321880548519 
0 
1.675386430148218 
0.08513676473801768 
0 
0 
2.237099551846369 
0 
-1.484502572490372 
-0.6218122536548328 
0 
-0.7424712086263905 
0.06086468785346148 
0 
0.1034184135751677 
0 
-0.2265064305793152 
-3.215298441087152 
0 
0 
-0.3785339334312680 
-1.751292179888190 
0 
6.562519472904405 
0 
-0.4556222881997286 
0 
1.308607338587857 
0 
0.4890444675066558 
-3.761158613556381 
0 
0 
-1.878150717067834 
-2.487041317981662 
0.2803407693485285 
-1.820304751096406 
-1.565732185931866 
0 
-1.262209993729349 
0 
1.269806109086153 
-4.941823551262606 
1.292202621381491 
2.592189328159368 
0.5859002295026138 
1.784546507597031 
3.604632509036980 
-1.327959627504271 
-0.4352839390282701 
0.6586494503365166 
1.287225804982186 
0 
0 
1.080412268142895 
0 
0 
0.6029395598932403 
1.769510584402370 
0 
-0.1704671812556436 
0 
0 
0 
0 
-0.8663289282756996 
0 
0.7070714059494211 
1.555942845019010 
0 
0 
0.8488528501379113 
2.149085341017302 
0 
0.1989534955371821 
0 
0.2722236395020251 
1.494118779149662 
0 
-1.092801407266588 
2.385908857552910 
0 
0.2545569418396051 
0 
0 
0 
0.2268138248045308 
1.437636787679126 
-0.03194798325612774 
0 
0 
0.1529593004153446 
2.206744122071422 
1.103985163810184 
0.9549989272098305 
-0.4375406907937125 
0 
2.029837324457842 
0 
1.482282208474348 
0.5765366329377233 
-0.4168132950358027 
0.8705886560232841 
-3.659815270927025 
-1.985130134995739 
0 
-2.212817659934086 
-0.4390524115469143 
3.293502445121856 
0 
-0.09907951904057381 
-0.4265590799669177 
-4.342941199213646 
0.1784240844476181 
-1.209492205890791 
-0.8742288122851880 
0.03228749711696553 
0 
0 
0.04811772042865864 
0.3760478608884823 
-1.567815738446043 
0.8268544090440573 
3.362759647048990 
1.336638246045118 
0.4051777207254760 
-0.8083788416389482 
-0.1521651742520893 
9.564024978460000 
0 
0 
0 
0 
0 
-1.319893300893325 
2.777250869546211 
0 
-0.2028419668738375 
6.413618898602348 
1.085093603126677 
6.729367050864441 
-0.6857019483714097 
-0.3110098858079091 
0 
0.1181249948535134 
0 
0 
0 
0 
0 
0.5965905862592751 
0 
0 
-0.4271342756557779 
0.05255019542382480 
0 
0.6522265020843825 
0.8696251541277693 
-1.605444838571673 
-6.269920406022659 
3.262696250266691 
0 
0 
3.571152754837997 
-1.653318731308267 
1.804128486542357 
1.012599043680413 
0 
0 
1.890931637411796 
1.242639986055702 
0 
0 
0 
0 
1.041573540270313 
0.3974123674444898 
2.098647571395929 
0.3729845211569050 
-0.05556156460615224 
0 
0.1417724696783430 
0 
0.1752679499625924 
0.9039965460031925 
1.038060528183928 
0 
-0.3107883090729222 
0 
-0.03218999168010039 
0 
2.004082844440201 
0 
-4.920187879784953 
0.4558305305469438 
0 
0.5147739185393907 
2.765672949162926 
0 
-0.1307760940980348 
0.2609696697422018 
-0.2030513279587027 
0 
0 
9.630573031844222 
3.334518940385475 
0 
0.1733339398137716 
0.3586246788209009 
0.3059492499304964 
1.861426532362569 
0 
0 
0 
0 
0 
0 
-0.3479040464774558 
0.07082480234408280 
-0.5090115569304090 
0.9229197403593418 
2.878032177613959 
0 
-0.1880917628217750 
0 
-0.1628164468960350 
0 
-1.234771715612835 
0 
-1.158230838924292 
0 
0.7515196392907415 
0 
0 
-1.807543291058976 
-1.197413842764814 
0 
0 
-4.612790153343131 
-3.078066316261533 
0 
0 
7.927417652937576 
0 
-1.071292504362537 
1.809505664099439 
6.641615239755653 
-0.07707875138155540 
1.204467265797301 
-1.218507480374900 
5.506523983863649 
-0.1116025190465557 
0.3572223097429431 
-0.4001032159961824 
0 
0 
-2.013564890355375 
3.097959112172752 
-4.170348794365863 
-0.6213055109673797 
0.5785714528764048 
0 
0 
7.091379276954873 
-0.9905450307151233 
2.257872410436683 
-0.01110191271291661 
0 
0 
0 
0 
0 
0 
-0.2388580280722941 
-1.007592933027542 
6.723312865994257 
0 
1.836698787673134 
0.4948278138398510 
-0.4894398536617190 
1.067727111378607 
2.374141610387048 
1.136725349229748 
0.8899686431601868 
0 
0 
-0.3667606476426203 
0.8963960521220049 
0 
0 
-2.641356658668493 
-0.4970708688164978 
0 
0 
0.7816097528395132 
0 
0 
3.347864728788481 
-0.1498717352878284 
0 
0.4371372933475657 
-1.385117965406943 
0.9214209482378729 
-0.7354343167360914 
1.264344413726043 
0 
-1.483931209302143 
7.267772324191116 
-1.769409617663443 
-1.362236490409557 
-4.878593899596856 
0 
-4.309546976167058 
0.4933971506541191 
1.037723846799198 
0.1723899484255244 
-1.165012312400323 
0 
-1.612380857301150 
0.9084538543408616 
-2.391202149281229 
0.4753990952134833 
-1.684979477014470 
3.861689767028773 
5.561908071803169 
0 
4.141011671316800 
11.27438447249181 
-1.037030934124185 
0.4635485580442942 
0.6064703578668215 
0.8819161124704606 
0.5588114703414481 
0 
-0.1600550997356537 
0 
0.8730938686249682 
0.5164510174843293 
-0.1789329859334187 
1.256454589595673 
0.1588028023291853 
0 
-3.019697343025074 
2.258790933255022 
0 
1.879943605771191 
1.123512135011081 
3.699809818834026 
0 
0 
-2.293375332248739 
0 
0.1984152165052002 
4.253161958130504 
0.8548509773202930 
2.372916331139134 
0 
-1.182392880022121 
0 
-0.6310957910422794 
0.4610679627706352 
0 
0 
-1.144978900195140 
2.111273415950071 
0 
0 
0 
0 
0 
-1.016589427490945 
0 
-0.5546129037922496 
2.068524798271605 
-0.01921231280799873 
0.5144444620345661 
0 
0 
-1.057452081866443 
0.8570258904828735 
0.7924057697066282 
1.656327491964720 
0 
1.346127008126611 
2.465325202348012 
10.94043199872736 
-0.2658953718879556 
0 
0 
2.029680186432240 
-0.8471514661562811 
0 
0 
0.3848100966680979 
0 
0 
1.820471271021058 
0 
-0.2797493895838922 
7.039394735049042 
-1.281049440217403 
-6.839388270387950 
0.5558032077944800 
-0.3103396926117555 
-2.218033051131808 
0.1973279445145052 
10.39515002882020 
0 
0 
-0.009755754904019294 
0 
0.5388529815483408 
0 
2.230595973474844 
0 
0.01572024711389514 
0.3078391804480408 
-1.018789420762395 
-4.045453194091047 
0 
0.3465553144586347 
3.675310247646908 
0 
0 
0.4671635187547860 
0 
0 
0 
0.04364107687220652 
0 
-0.8896594964181258 
0 
-2.041969266008131 
1.200843477878004 
0 
0 
0.2569744801818739 
1.828923270222937 
0 
0 
1.306138881285201 
0 
0 
0.09453795163499701 
-1.205043104464988 
3.616510603183250 
0 
-0.6542546650458181 
-1.771935760135876 
0 
0 
5.019703684272107 
0 
0.7055451320516832 
0.08325893906809756 
1.652794141071535 
0 
0 
0.09883192213659815 
0.1979891693795488 
0 
0.2823654470973256 
0 
0 
0 
0.4571432197218114 
-0.9661558611239015 
-0.3446925788299544 
0.3576489374509170 
-0.7396313045633743 
-1.162804157704371 
0 
7.944741254205512 
0 
-0.7396956876428936 
-0.2164330672961644 
4.762165942869824 
-4.653407604300559 
0.07994287640862363 
2.817894260818420 
1.878561439545052 
1.245149866705278 
0 
0 
2.591018092244168 
1.555920768866697 
-1.204294834062226 
9.484646090453065 
0 
-0.1863039468585765 
1.604112201385255 
0 
0 
0 
0 
-0.9241207364105200 
0 
0 
-1.029722890150880 
0.9382635304039608 
0 
-0.9196487995173734 
1.203608170935139 
1.507000076664235 
-1.061748482966542 
0 
2.926968435431727 
2.999897831324243 
-0.3937775298098969 
0 
0 
0 
0 
0.7624740153951289 
6.188610814274978 
0 
-0.6454181324603508 
-1.122837624851268 
-0.4419047484901048 
3.481200978073000 
0 
0 
0 
0 
0 
0.002733124699648037 
-2.962849667741061 
0.07123570768019921 
-1.171067932938098 
0 
1.417252530051231 
0 
0 
-2.148567130832778 
1.247851205417828 
0 
4.359274544862648 
0 
0 
-0.9673264905693093 
6.784530682686151 
0 
0.5333845197203666 
-0.8418113956651883 
1.249982444258481 
0.4572599654182746 
0 
3.293804642868914 
0 
0 
0 
0 
0 
0 
0.6267148127672667 
0 
0 
0.6672173656929810 
0 
0 
0.3841313262846705 
-0.7858683540113030 
0 
-0.03588350423966669 
0 
-4.283234754372174 
0.5559665799280158 
-0.8780675771755965 
0 
0 
0 
-0.2753411262891818 
0.1786761585440609 
0 
-0.5189908598855305 
0 
0 
-1.317775117898095 
0 
-1.037113107596726 
-4.055325434109608 
0 
0 
-1.326396435510602 
0 
1.250373018446792 
-0.02068285796801272 
-4.136483071431768 
0 
0 
-0.04998974285398861 
0 
0 
-1.012644997991518 
0.1049167180835555 
0 
2.033780742533950 
0 
-0.6341903636888777 
3.305229491840497 
-1.903356486638970 
0 
0 
0.8933698610202672 
0 
0.1893287036912333 
1.587027991098347 
0.5333853832186348 
0.1755147987756438 
0 
1.848220808039772 
0 
-0.9023943595211092 
1.210216038440361 
-0.8780303127324396 
-0.06913749369222266 
0 
-1.904111026198367 
0 
1.270566863478699 
0.05694922550334487 
0 
0.7797970165429982 
0 
0.7138407521406286 
0 
0 
0.4095109363349979 
-0.3308640710989538 
1.252101311586760 
0.2143582118619093 
0 
0 
-0.2502381447018057 
-0.3601601186601077 
0.2477343517975857 
7.474615929391806 
-5.932613151266196 
0 
0.3081591507434567 
0.4937084044267774 
1.119141967135039 
6.177905820585578 
1.873790795178504 
-1.061191994658852 
0 
0 
0 
-0.2312366916549206 
-0.3957058603129209 
0 
1.389927847855432 
-1.295990122296048 
-0.5829719352681814 
2.692939619718122 
0 
0 
1.268448767275095 
0.7709245287328299 
0 
0 
0 
0 
0 
0.7601897315175881 
3.877601840652514 
0 
-0.3006333076315320 
-0.6894016310119752 
0 
-0.1102490657855866 
1.080113929559936 
8.387344227539028 
0 
-2.502401359842192 
2.122583047580664 
-0.09385929359983652 
-0.9412077957047777 
0.3920660678819802 
0 
6.754762483779544 
-1.248214466873828 
-4.641698079419342 
0 
0 
0.1512741270468181 
0 
0 
1.055127477718574 
-0.1838001841337487 
-0.5471146985543105 
2.166361281616580 
-1.196597850622134 
0.2742065503999956 
0 
0.1620083728518156 
-1.251181419723632 
0 
0 
6.560803970398641 
-1.901496932694747 
0.4865606743613992 
0.7518212751228747 
2.703252346267184 
0.4356847840410960 
0 
0 
0 
0 
0 
0 
-0.02435638863694511 
0 
0 
-1.967803049439798 
-1.122018076293687 
-0.4558687201978222 
7.845719388198162 
0 
0 
0 
0 
-0.06907003864290700 
0 
0 
-1.065374215359809 
-2.050635352657338 
0.2639697078284878 
0 
-0.1097624434935506 
0.004523376510223498 
0 
0 
7.138693403862971 
0 
-1.899983109071552 
-0.08424902091118402 
-0.3639975702384471 
-3.688318092500127 
1.349343144944038 
-4.892794003113761 
6.779271998124491 
-0.6725001868895030 
3.330430712590388 
0 
0 
0 
0 
0 
2.441378864079444 
0 
0 
-2.627036211971717 
0.5983920208155977 
-1.290312046364118 
0 
1.494447840471932 
-2.211560428105681 
3.673851323240671 
6.576514485098658 
-0.6950766706082793 
0.2512211874356798 
0 
0 
0.5845109286800991 
0.5761675005414008 
2.173862342885453 
0 
0 
0.5785911081623468 
0.7911481263718648 
-4.850413728215597 
0 
0 
0.8684981323055383 
0 
-0.7754904918815976 
-0.1463093835579535 
-0.7391124014187522 
-0.4550986706094441 
0 
-0.7026288452858493 
-2.828064484209088 
0 
0 
1.713104609177281 
0 
-1.510477948051664 
0 
0 
0 
0 
1.647091552361796 
1.764351464045778 
0 
0 
-0.4402918071915321 
0.8900972667180098 
0 
2.549412951482404 
0 
0 
0 
-1.402180208300968 
-0.1382045434091835 
0.1651761403654665 
0.4248716252919846 
0 
0 
-0.4773806048187816 
7.603205454668746 
1.865942005648841 
0.08442637305432238 
0.8365443535593254 
-0.8009995927116943 
0 
1.196924822786839 
0 
1.160866267673927 
-0.7500553607019672 
0 
-0.6219538431677630 
0 
0 
0 
0 
1.801115144707818 
3.454521194087675 
-0.6371029479841653 
0 
5.194538321499119 
2.613392213857834 
-2.130421387057243 
0 
0.1864980027323795 
0 
0.7366395593352023 
0 
-3.258045161867325 
0.1735076933952930 
0.004592200595125190 
0.8554257354806711 
4.806534779483609 
0 
0 
0 
0.9355058615400569 
0 
0.7533637745946793 
0.7709929097240893 
0.8575088135436327 
0 
0 
-1.973794035831007 
0 
-2.012131321883439 
0.8422168598646809 
0 
0 
0.02891783393989433 
0 
0 
0 
0.1346202419325800 
0 
-0.5083880659926785 
0.1063753536853027 
-1.004289075572461 
0 
0 
0 
0 
0 
0 
-1.240442889967845 
-3.140410976593079 
-0.1335528498438102 
0 
2.795660882558476 
3.735474711330699 
0 
-0.7265237134851027 
0 
0 
2.160407418806030 
1.828266257043686 
-0.2775647579822138 
3.760979407613489 
4.658800182096352 
0.1796315554412137 
0 
0 
-1.058527718371456 
-1.345735095107817 
0 
1.131793287513845 
0 
0 
0 
0 
1.767212030722974 
3.247699704971283 
0 
0 
0 
-0.01274215435732540 
0 
0 
0 
0 
2.348723203729101 
0 
0 
0 
-0.6595934750095702 
0 
-0.2604517032673105 
-0.2607424079264062 
-1.982010711465146 
0 
-1.227845959454987 
0 
0 
0.1487107978254171 
0 
0.9483308195446841 
0.8656595016877614 
1.758008211860243 
0.2623191552705763 
1.889148445132897 
0 
0 
0.1701734928514893 
0.6357125626325633 
-1.425408090391245 
0 
0 
-0.1445468949731016 
-0.3015315269787067 
0 
0.3641867175267113 
3.682984817925319 
0.3115070641458580 
0.9900343662264928 
0.4786845529015849 
0.3783545528429330 
0 
0 
-0.4195420514052724 
0.1550813064422192 
2.640706283629795 
-0.4774428337889600 
-0.2655979998970961 
0 
0 
-0.04169964656613701 
3.446408501663410 
2.705564832713498 
0 
0 
0.4458661300558335 
0.07299024481399063 
0 
0 
7.759122993193405 
-0.5529636997037986 
-0.7548077025823228 
0 
0.7418075259096591 
0 
-0.7311487025825141 
6.850231983963938 
-0.4154332126256926 
0.4324559518340657 
-0.07451218812429722 
0 
0 
0.07720195582764372 
0 
0.3021757438412954 
0 
-0.5771693136256891 
1.894327229639748 
2.838091015941515 
-1.301249078704377 
1.387709767960326 
0 
0.1755818125166104 
-0.7524287843567272 
0 
1.310170734570498 
0.6894176524252379 
3.201929558724797 
0.5618259434260118 
2.922240310651140 
0 
-0.6500815213687137 
0 
2.184759186362647 
0.5126896043995750 
1.167645218514881 
0 
0 
2.436497677217855 
-0.9668538537661879 
-2.717183330912707 
-0.4138900814321135 
0.04529259655820894 
0 
-1.839431938115234 
0 
0.2459925660748816 
1.896409236835464 
0 
0.3398839793993198 
0 
0 
0 
0 
0 
0 
0 
-4.021193922768285 
0.6883221642195999 
-0.1405468638627890 
-2.419429925372253 
0 
0 
-2.330812978615670 
0.8469510215754354 
0 
-0.6928059798234740 
0 
1.668092940492663 
1.204774932854939 
0 
2.636323629795396 
-0.3524995383176420 
1.168862231162503 
0 
-0.1308223792701339 
0 
0 
1.747329571889779 
0 
1.321480362562018 
10.41777737938804 
-0.01800301426011930 
-8.355488477521897 
-0.1617556969951941 
-0.6600517705524389 
0.6460547777926785 
0.07754482744915858 
3.219768720835761 
-0.5164596402150587 
0 
-0.4523204051165001 
-1.011336558745789 
0 
0.6774069426619433 
0 
0.7558952374426271 
0.3225651956247576 
-0.7187468069021582 
0 
0 
-0.7359715451706821 
0 
1.508508282550042 
0 
0 
0 
0 
0.7418373129078072 
0 
0 
3.975803451886816 
1.866088799438248 
0 
-0.7093128052580806 
-3.411269219633909 
0.5033449304061186 
0 
-1.132827104184923 
0 
2.632907707924803 
0 
-1.644863027373383 
-0.4374735022589523 
2.202274480301592 
0.2398845782490436 
-1.205102956316030 
0 
0 
0 
0 
9.545415057313551 
1.779697277289300 
0.4445957198611676 
-1.807869573178494 
0 
1.475135447919158 
0.8000501629264210 
-1.614411982441884 
-1.748701388006854 
-3.776664393128648 
1.879075065108514 
0.5285066362179090 
3.361391571361350 
0 
0 
0 
1.212536484217728 
0 
2.685525143431951 
-0.4594825302396095 
1.176872277071115 
0 
-0.2989840763545520 
3.509282262285096 
0.3316756097076028 
0 
0 
1.932038973274225 
0 
0 
6.719077152989077 
2.093426102782980 
0 
0 
0 
0.4921294128101850 
0 
-0.01449517456791927 
-0.8540161159862597 
0 
0.4229341542814446 
-0.09847147467960721 
0 
0.2506235363551944 
1.108171654763961 
0 
0.5762542092262708 
3.859477989493175 
10.39807157523979 
0 
0 
0.8585090007025090 
0 
0.3068823667878880 
0 
0 
0 
0 
8.715377021378640 
-0.2725559733713788 
-0.2511405871956600 
0 
0 
1.916434610943629 
-0.8455409691528195 
0 
0 
0.07183959637592674 
-1.686403722854244 
0 
-0.6253340567700220 
-2.335088228895963 
3.055601289519732 
0 
0 
0.1110498957391856 
3.883831898301019 
0 
0 
-0.4179338760157855 
0.7936759117343806 
0 
0 
-0.6735825836918483 
12.42294773588288 
3.112089415193349 
-0.6617769415793485 
-1.947357054162025 
0.5598901922901727 
0 
0 
-4.075055969348118 
0 
0 
-0.02182577507516645 
0 
-1.745643283731304 
0 
0 
1.914082585909646 
-2.130660696617285 
4.487079767479632 
1.002739352776761 
0 
0 
0 
0 
0 
0 
-0.2188669815993960 
-2.985747851453356 
-2.345489795918698 
0 
-1.313358948525102 
0 
0 
0 
1.054341663546116 
0 
0 
0 
3.880161114247529 
0 
-0.3237105298779113 
0.2174201742961787 
0 
8.641990839743658 
-1.432559303711177 
0.1389464795520515 
0 
-0.2094426522912832 
0 
-0.9809588546014180 
0 
0.9470027392711575 
0.5035649159327581 
-0.6313088311678215 
0 
5.682806283772051 
0 
0 
0.3028575405019586 
0 
-0.4567056991904557 
1.736249945076631 
0 
-0.4463907174973971 
0 
0 
-1.139206906993624 
0.5957397966618697 
0 
-1.351679373003348 
0 
0 
0 
0.3406755326880354 
0.1174416158774033 
0.4247939888704915 
0.6588939284120339 
1.305933192875291 
0 
0.03437122035593032 
0 
0 
0 
0 
0 
0 
0 
0 
0 
1.229806666680173 
0 
0 
-0.5761278179281819 
0.3232130813315401 
0 
0 
0.3810836929421391 
0 
0 
-0.7990505648166364 
0 
0 
0.9584481049245355 
0.3433644161887797 
0.5941531851073090 
-3.534662351968488 
1.004645928851655 
0 
0.5762479997253535 
0 
-0.7322643036191262 
-0.4273899494036107 
0 
-2.791807909468091 
0.5742043009555073 
0.5228448311471653 
0 
1.178017391862615 
0 
0 
0 
-0.8855682674389689 
3.094750503273299 
0 
0 
0.2795528964169143 
0 
-0.4090063549021338 
0 
0 
2.777549631496890 
-0.9283648775102022 
0 
0.4258361670150199 
0 
-5.135471142101836 
0 
1.527067376660934 
0.9691038562961759 
0 
0.7841879007227284 
0 
-0.9093713156255223 
1.885460633271908 
0.4818551716025798 
0.3747742022727655 
0 
0 
0.4355798605485302 
0.3778131752397462 
1.279545816458546 
-0.6640867426786319 
0 
3.955733377804332 
0 
0 
-0.4643019428249019 
-0.4565638777266937 
0 
0.3371331082655303 
0.8736117354242682 
0 
0 
0 
-2.016313925128937 
-2.906496724215628 
0 
1.544269618424013 
0.8087208374731869 
0.3791054860247747 
-1.077875481431651 
0 
0 
-0.5589509223406322 
1.098663145032352 
0.8332747106650568 
0.3871804264798986 
0 
-1.957613303930706 
0 
0 
1.463742128573054 
-0.7328725409404132 
4.107288709208640 
-0.1270572276537524 
0 
0 
0 
-0.01742750949804806 
0 
0 
0.6278118941667630 
0 
0 
0 
1.888476474913627 
0 
-0.2092205291096700 
0 
0.6629347987440337 
0 
0.9179212885065655 
0 
0.1864233833718826 
0 
0 
0 
0 
0 
0 
0.3144127762891054 
0.4211441109408221 
0 
0.7613612935739933 
-2.001715802007300 
0 
0.9040608641446961 
-2.043291094918127 
2.293919747482590 
0 
0 
1.776687294768105 
0 
-0.7154720653916616 
10.03956453025126 
-1.095784624521558 
-1.994614525835011 
-0.5938251701763967 
0 
0 
1.971264112901056 
2.911582499300743 
0.6003762918509070 
0 
5.425432732370795 
0 
0 
6.405927922525347 
0.1415640347819815 
0 
0 
0 
-1.889996683841832 
1.899522493881520 
-0.1676771305588038 
0 
-0.4748225203176596 
0.6075830833295608 
-1.431070562220440 
0 
0 
0 
0 
-2.489772861583115 
-0.4827062790024393 
0 
0.4266023666568782 
-0.4554402810375992 
8.677655995653947 
2.127514137098035 
0.3855558778860266 
0.3389965387001905 
0 
0 
0 
0 
0.1658922525887092 
0.3211550343076559 
1.232847795011700 
0 
1.035298757169814 
0 
0.4293733569822653 
-3.945321988549495 
1.501106073129142 
0.3462745018406679 
-1.533611446471839 
0.7586886657288482 
0.5962145671553268 
0 
0 
0 
0 
1.699315875656927 
0 
0.3786199251010435 
0 
-1.221443179826988 
1.845794794066496 
0 
0.6739150621098234 
0 
0 
0.5978248082097312 
0.4055075137989576 
0 
-0.7597114499123123 
-0.7513429125305159 
1.908742679272047 
0 
0 
0.4452114496672435 
1.082081770097557 
0.6837283418863169 
0 
-2.056980932411190 
-0.01938444795642938 
1.355169938796931 
0 
-1.223986593491884 
0.2990924945724220 
0 
0 
-0.5859188411113870 
2.476689532233656 
0 
0.8183255871849051 
-1.547430229235591 
-0.6714290857266392 
0.1714492293255043 
0.3402246384569765 
0 
0 
0 
-0.1319656777427637 
0 
0.1466137707180264 
-0.3383864772505235 
1.030043510596935 
0 
0 
0 
-0.5065625599856609 
-0.2737766895841280 
0 
0.1603468461289378 
0 
2.245600576710644 
0 
0 
-1.445603641732340 
0 
0.04421988238017854 
0 
1.907009983583162 
0 
0 
0.8177241763512548 
0 
0 
0.2341816965584240 
-0.9435401867270381 
0 
0 
-1.554160495119827 
0.08694487969488252 
0.5809653576530907 
0.6816357070891119 
-0.09026964907345758 
-1.869429249826453 
0 
0 
0 
-0.5886586919217223 
0.3188963644745866 
0.8704719184711494 
2.162419395866826 
0.2349899503546821 
0 
0.1726567079747136 
0.6305347739193833 
-0.7607084475062629 
0 
4.754945287475505 
0 
0 
0.6071981926774808 
0 
0 
-0.4340290972501573 
0 
1.645849771891216 
-1.977524181798169 
0 
-1.343552694377918 
0 
-1.953739415227101 
0 
5.270039052952013 
-1.344598197644738 
0 
-2.098521965676017 
0 
0.8685784601785969 
-0.06885861182113731 
-2.023227972917715 
-0.2527264722559431 
0.04450489032138388 
-1.239030370061139 
0 
0 
-0.7948789722426312 
0.7810115794552623 
0.1612373490898930 
0 
-2.957339451524616 
0 
-0.4587008550003620 
0 
1.990860563933533 
-0.7586194663979198 
1.544617986590124 
0.1061412887294375 
6.084981726161876 
1.250668425724697 
0 
0 
0.3710602032403483 
0 
0.1082237763053791 
2.016948699041434 
0 
0 
0 
-0.9985003132126686 
3.276699644258179 
0 
0 
1.146950599764334 
0 
0.8317386785745625 
0 
0 
-0.1594496696381260 
0 
3.107187395254605 
-2.052538552848603 
2.419267579048542 
0 
0 
0.07354107508014396 
0.4898339220619046 
0.6810482875732426 
-0.4232272698929044 
1.433903259002932 
0.4975183965817350 
-0.07004371581733015 
0 
-1.289409249938466 
0 
0.5701226994984571 
0 
0 
-0.1028344717642776 
0.7434211839729655 
-0.2057686296484884 
5.974198176639816 
0 
-0.5206679970534000 
0 
-0.7986271133261661 
0.1177397544930033 
8.386730962191663 
0 
-0.8854717815104041 
-1.162924416097052 
0.2903323229757657 
0.1013153918110328 
0.3964628311244400 
-0.5177794878224663 
0 
0 
0.1128989294360245 
0.8813828659283465 
0 
-0.4068149593585365 
2.372362352731535 
-1.569148480351274 
-1.195398588842630 
0.1338475907351092 
0.3262251833382485 
0.07090312782450936 
0.4886150614682988 
0 
0.5159396650302273 
-2.465119342117935 
0 
0.5404183579235960 
0 
0 
0 
-4.720074209244243 
0 
0.7997239937687164 
0 
0 
0 
-1.170904516505732 
8.203426895862618 
0.4327294225375890 
-0.03077047447727305 
0.4818202874811593 
0 
0 
0 
-1.228816684218687 
0 
-0.2614449568678337 
0 
0 
2.014738840402237 
0 
1.811396755796863 
0 
0 
0 
0.1796724242904467 
-0.8770867171235134 
-2.807271156151230 
-5.344288359956641 
-0.3667709812199503 
0 
0.4288674717426984 
0 
0.2306695257566309 
0.5986188056681172 
0 
0 
0 
-2.619597261223907 
0 
0 
-1.977146995019023 
-1.762729929496937 
0 
4.409129857954291 
5.601693513685457 
0 
0 
3.366255724751217 
0.7600057020400977 
0 
0 
0.6178500126537332 
-0.7687172065681819 
0.1178414848976856 
-0.07729618333461552 
2.341832462436335 
-2.218493648324162 
0.5489864241864189 
-1.205955820618232 
0 
0 
0 
-1.611540084616427 
-0.2047207732639785 
3.502691356780465 
0.08703700256486635 
0 
0.8480321044035767 
-1.190645420159161 
0 
0 
0 
-2.753576364762265 
0 
0 
2.915732284372758 
0 
4.267607905697664 
0 
0 
0 
0 
0.1660357374590087 
0 
0 
0 
-0.3262677701481724 
0.5768749765506068 
-5.161093096987161 
0 
0 
1.501011682593930 
0 
-1.575635113505222 
0 
-2.095825294687839 
0 
4.127068166584550 
-0.8707157489714372 
-0.8358021104312541 
0 
0 
-1.335900706044054 
-1.562163323227967 
6.318161648865600 
0 
-0.6441629357011533 
-0.4651473571797054 
0 
0 
0 
-0.4425150712566972 
10.88396727687520 
0 
0 
0 
0 
-0.5035253394194725 
0 
-0.7681590658086650 
-0.7463694681071160 
0 
1.863595886134549 
-1.440630079122205 
2.275019435942897 
0 
0 
0 
0.5741329141144192 
-1.686354383177468 
-2.966683313197992 
0.1669984935948781 
0 
0.5356400187150812 
0 
0 
1.517063161690207 
0.6722564468485305 
-0.4917717540240759 
0.2342939280613806 
0 
-0.2672390387368962 
-0.7440249136742350 
0.4218865080153249 
0 
0 
0 
0 
2.176729070090241 
0.7448455664223975 
0.7199500056606916 
1.079030427076514 
0.06420196579849305 
-1.544399157681615 
0 
0.3046144655016613 
0.8694839772708907 
2.044755024918043 
0 
-1.074738121268482 
0 
1.462998426718573 
-4.139272989876135 
0 
0.6821686873479105 
0 
0.9434571627072584 
-1.155635492010792 
-0.5946191558199000 
-0.4555651976298452 
-0.4774474817514998 
0 
0.03186382586463232 
0.2597335268781064 
8.080698825246428 
0 
0.1593481777606184 
-0.1506893843622317 
0 
2.162653324285242 
0 
2.067259518958204 
0 
0 
0.3279661679126253 
1.008783942546877 
0 
0 
0.006571596746125546 
-1.403156190112100 
0 
0.1207058427547307 
1.260688895399075 
0 
-1.358844026456793 
0 
0 
0.8096254641003127 
0.6261457215472414 
-1.617813032639884 
3.178267415299461 
0 
0 
6.191942862806242 
1.157523410236128 
0 
0.2479394127163342 
-4.607644971474609 
0 
1.480993516628566 
0 
-0.1646777096999322 
0 
2.071054971888926 
0 
0 
0 
0 
0.1350151585976544 
0.5097263221721864 
8.097527951843634 
0 
-2.806316477277086 
0 
0 
0 
0.9453971284415793 
1.904500218745475 
9.257784418779437 
0 
-1.469077200818296 
0 
-1.662131256419101 
0.1503474018914755 
0 
0 
3.930888467714760 
0 
-0.2331996913279044 
0 
0.5410449401250839 
0.4595625570908063 
-1.273628828652795 
0 
-1.086291402025008 
0 
0 
-0.3872362840079435 
1.905397287931568 
0.6342491409204579 
0 
4.976034851298274 
-3.602741316662495 
-0.1118544337361147 
-0.05937605387851175 
0 
0 
-0.08582812316765706 
-1.469385331073876 
1.122592345381386 
12.21369900683363 
-1.344759843206286 
-0.8510782883395855 
-0.03799320969851017 
0 
0 
-0.6182036526534898 
0 
0 
0.9209723472750486 
-3.581802420899197 
0 
3.875330155147926 
0 
-0.5567861253104701 
0 
0 
6.163955214696704 
-3.941883936863472 
3.121568533546836 
0.001270050715926008 
-2.152889170577272 
0 
12.12973081469361 
-0.9539171505492940 
-4.287424601434410 
-0.2987007262776665 
-0.1326409159375271 
-0.4737538596005960 
0 
-3.124886287706909 
0 
1.532445745753137 
0 
0 
0 
0 
-1.144105517063097 
1.477641286948638 
1.766696959242648 
-3.926118361000118 
0 
0 
-0.01829164471566036 
0 
0 
0 
-9.516753240871038 
-0.07119754435748005 
0.9688165878927407 
0 
2.141960161777365 
0 
0 
-0.6980816976903751 
0 
0 
-0.7895421315143101 
0 
-4.679469986006171 
0 
-0.7897728735233867 
-0.9992476887051986 
2.842689636664518 
-3.100496516737942 
-1.416920245875164 
0 
2.113441359693853 
0 
0.2763672998483093 
0.3604258361305752 
0.02362740180990596 
0.7951094458845810 
0 
0 
1.591910764062550 
0 
0 
0.5487153886484077 
0 
-1.359079505212839 
0.1018045697281040 
0.3746182708742561 
1.281341602290238 
0 
0 
0.5354810544874643 
0 
0 
0 
0 
0.3173365935619840 
-0.7831153594883182 
0 
-4.422911794379258 
7.594495630989775 
1.184981074542922 
0.03013369837957154 
0.7758174872862120 
2.368287265600386 
0.9399516937199138 
0 
0 
0 
0.6664620529356882 
2.766120619119503 
0 
0.1647140379443142 
0 
0.5890508412077826 
0 
3.961455026387657 
1.578083252031442 
0.2868725707002113 
0 
0 
0 
0 
-1.384025852385823 
-0.1853103754360818 
1.178558329498097 
0 
-0.9705768873290435 
1.081728113831121 
0 
0 
0.2416049829336802 
0 
0 
0 
0 
0.6259214761268932 
-0.7334485504244203 
0 
5.500309447921703 
0.2366537689602114 
-0.6892503031965869 
0.4443469539437802 
0 
0 
0.3080523571298209 
-0.01106923391483694 
0 
2.217021758890280 
0.8569666363972832 
0.7275166456614934 
0.2189988504802444 
0 
0.2869926268338361 
7.725892092922557 
1.160881855223385 
0 
0 
-0.4742943407460176 
4.962706126672402 
0 
-0.03601239416236468 
0 
0 
0 
0 
0 
-0.02861071139511118 
0 
2.054116341266932 
1.932626041733995 
0 
3.422425202242062 
3.105857584287500 
0 
-0.4062659811698099 
0 
0 
1.032288722367270 
0 
-2.062654486637068 
0 
0.9978812369991164 
0 
-0.2441115732495931 
0 
0 
0 
0 
0 
0 
0 
1.989689789099823 
0 
2.694303355369419 
0 
-1.310938533853676 
-0.9655207818555723 
0 
0 
0 
-1.323860777861643 
1.417089506743416 
0 
0 
0.3814648308304789 
-1.644529756388445 
-2.777278253244555 
0 
0 
0 
3.962907591486681 
0 
0 
0 
3.167130259353280 
0.8554995880747845 
0.6451112058027962 
0.8036578408501716 
0.6557086220558564 
0 
0 
0 
0.9457779422409756 
-6.985099222876993 
0 
0 
-2.529589351202799 
0 
0 
0.002466692088317026 
-1.346557237352524 
0 
0 
-5.499773196868481 
-0.03816238960860420 
1.437072419875116 
0 
0 
0 
0.6802084871702816 
-0.6103734413090474 
0 
0 
0 
0 
0 
0.7106341640973333 
-0.2396938843629174 
4.214730569266202 
0 
0 
1.641089216055303 
0.1897633814851844 
-0.2510617110164446 
-0.5990136039453071 
-0.4267749049545071 
0.004825624558644173 
0.07156608716705075 
-0.04744477147070739 
0 
2.107707353292456 
1.124105050706172 
0 
0 
2.061455879099304 
-0.1781624443367851 
0.09504549780059977 
-1.453475255575774 
0 
0.1090489696884583 
5.081575494084632 
3.439162880034141 
-0.09967805551890832 
-0.6266310478257560 
0 
0 
0.9185133501485967 
0 
0.4323648770171273 
4.239175701752966 
0 
0 
0 
0 
0 
0 
0 
-1.901865402507507 
0.3237746834415951 
-2.313024742679724 
-0.7739944664247584 
4.547073034204407 
0.1478756197199099 
0 
0 
1.216946915976682 
-0.6068820409496627 
1.245089559045910 
0.2693231796362940 
0 
0 
-0.8963332340826846 
0 
0 
0 
0 
-0.2639102143427159 
0 
0 
0 
0.4739558455209014 
0 
0 
2.235498244846157 
1.296149321704116 
0 
-0.4657745482646846 
0 
0 
6.073393870836675 
0 
0 
-0.1535743497599420 
-0.03131907862630535 
0 
-1.166450158188873 
-0.6199024373804327 
-1.816613176728757 
0 
0 
-1.384718634042880 
-0.2052911046016682 
0 
-0.5924908445964029 
4.806028930240847 
0.9729489468377981 
0 
0 
0 
-0.08841341898741160 
1.335827634774362 
0.05958021864983671 
0 
0.6572496857253811 
3.531564782100323 
-0.07697438623202607 
0.8761169449323616 
-0.04414565323904574 
0 
0 
0.5948015755651659 
-1.412502500315269 
0 
-3.550676733348354 
0 
0 
1.248497689402462 
0 
1.030616364397222 
0.7183450443864625 
0 
0 
0 
5.669651665156549 
0 
3.252462448971793 
0 
0 
0 
-0.3449688943038024 
0 
-1.510397497545723 
2.702879214941299 
1.701550279418823 
0 
0.4067798567887154 
1.347192902336664 
0 
2.879099376877116 
0.1027596780781191 
0.6626188963871216 
0 
0 
0 
7.855284667164534 
0.5107764434798727 
3.002594444729529 
-0.01711939498991063 
0 
0 
0 
-0.2340100612891257 
0 
0 
0 
0 
0 
2.172852884394427 
0 
0 
-0.3895459537586922 
0 
0 
0 
0.1158692861908043 
0 
-0.7483563424106627 
0 
0 
0.7274216805563656 
0.04335787732122540 
0 
0 
0 
0.4977865843805504 
0 
-0.1675491047845201 
1.496636526732208 
0 
0 
0 
0.1876583254530742 
-0.5775660363955311 
0 
-0.1531277876320584 
7.320053164934419 
0 
0 
0.8717277399191466 
-0.5480308717554949 
0 
-1.889799964627646 
-0.2904555535930282 
0 
-0.9906785834291527 
-0.9514012693642956 
-0.9721468136044775 
0 
0 
0 
0 
3.330224052769280 
0 
0 
0 
0 
-0.03116851172034188 
0 
6.212620915124151 
0 
0.04296753530579901 
0.3150288131420060 
-3.308037000939067 
0 
0.6380121491042374 
-1.001798062476759 
0 
0 
0 
-1.874701505806617 
0 
-2.513762194513993 
-0.1675945585759902 
0 
0.1985026665399729 
0 
-1.112357389051133 
0 
-0.08552135563918924 
0 
1.564466329122707 
0 
0.2219328926817248 
0.8073062589211086 
0.8922745732807603 
0 
0.4648747774013482 
0.6350948332642742 
0.8246757008171095 
0 
7.778580668928051 
0 
0.2357920590367054 
0 
5.734261305562475 
0.09026121740863444 
1.607620808810396 
1.014648656610696 
0 
-2.264399090157850 
0 
0.5688428096118698 
-1.144565934592497 
0 
0 
-0.3557129066325953 
0 
0 
-1.939636589119874 
0 
4.611700000519903 
2.931494295649957 
0 
0 
0.1303890984128937 
0 
-5.145977524971586 
0.6145452081443517 
0 
1.240062895627615 
0.1690288315095491 
-1.482910451339012 
0 
0 
0 
0 
-2.744159030356620 
0 
0 
0 
-0.5224891145712430 
3.890054427003989 
-1.136599714743063 
0 
1.986325523155430 
0 
-0.6566566120296748 
0 
0.05909758585116931 
0 
-0.04287221978624300 
-0.5901442202027123 
0 
6.510900467077454 
0 
0 
0 
-0.4285570271726366 
0 
-0.5780377773731669 
0 
1.514606817100913 
0 
0.2945572696445568 
0 
0 
0 
0 
0 
0.8191462614206616 
2.803611636919879 
0 
0 
0 
7.689252707012341 
5.711116531405512 
0 
-1.322269456747746 
-0.1150376776965431 
0.02758121720251891 
0 
0.4689291524022992 
-0.1672724366065143 
0 
-0.3130452728460502 
-0.4601222338985189 
0.9539792727713065 
0 
0 
0 
-0.1125953699442062 
0.5851568312099875 
0.4080980131420227 
0 
0 
0.4078530704890346 
1.062315374159831 
-1.145094415037147 
0 
0 
0 
-2.036375429675019 
-0.2949259762612571 
0 
0 
0.6918407221244647 
-0.6238791731024550 
3.757068935275960 
-0.5763555842385374 
0 
1.598816047190278 
2.227704768684188 
0 
0.2277148434472559 
0 
10.81952104447789 
-0.6879374858761961 
0.9091642028445658 
1.214446353960918 
0 
0 
2.397710058485072 
-0.6139198202070264 
0 
0 
-1.195111813531015 
-0.2529103967856583 
0 
6.439411335250043 
0.5599566197907966 
0 
1.064244671438060 
-0.1332125944897953 
0 
0 
-0.4777815340729131 
0.3586098993005177 
0.4664467646613243 
0 
0 
1.050696845236328 
2.174823876238810 
-1.022471031600093 
0 
-0.6584588659440326 
0 
0 
0 
1.873706980542826 
1.309619870521443 
0 
-4.026533242794170 
0 
-3.561647640603729 
-2.529209652637750 
0.5960166228372500 
1.013354468533387 
1.040164546384913 
0.4750942602147955 
-0.8075356388576153 
2.572605657142383 
2.186597972175417 
0.5096193539307514 
0 
0 
-0.3050153688959915 
0 
8.331378909492782 
1.524352505849113 
0 
0 
0.2177340155503582 
0 
0 
0 
2.891171971105823 
-0.6051049120090295 
0 
0 
0.03288057410984253 
-1.462998353173055 
0 
0.6689026600722884 
1.877385514111025 
0 
0.2987177114744828 
-3.837195670338023 
0.1336233872169738 
1.649030489457166 
0 
-2.265658876672496 
0 
-3.451758133241936 
0 
0 
1.134681306231964 
0 
0 
0.7646404341698786 
7.672024838044028 
2.178800826035590 
0.7886863305098227 
1.742259714304438 
0 
0 
0 
0 
0 
0 
0 
0 
5.469536579976773 
0 
0.8650434914312410 
0 
0 
-0.4567909549601407 
0 
-0.1697623701686459 
4.742062197257575 
0 
0 
0 
0 
1.485630926961919 
3.706943045725919 
1.714813034696997 
0.9196033710070699 
0 
0.5083423512585789 
0 
0 
0 
0.03848175878987903 
0 
0 
0.4627774890696509 
-0.2255353144637155 
2.174786241937310 
0 
0 
-1.585216036223440 
0.3897564112110396 
0 
0 
0.2011793279181138 
-3.669122391058338 
0.5751084295890961 
0 
0 
0 
0 
0 
-0.9196300431869432 
0 
-2.413091711642443 
0 
0 
-0.6232179525489039 
0.04774953640170354 
1.090199955770491 
0 
0.2975475977768934 
0 
-1.931191573151302 
-0.5137647459664698 
1.903458940763982 
-0.3724590273028330 
0 
0 
0 
-0.5148625470853887 
1.152854030172859 
-1.469847981205136 
0 
0.1716168699804613 
0 
-0.4530582665117269 
0 
0 
0 
0 
-0.2023857845257355 
0 
-1.961202535454796 
-3.807647923177791 
0.2265484817378045 
0 
-0.1705936619174833 
0 
0 
0 
0.5563656261180221 
-8.492171952450319 
0 
0 
0 
0 
0 
-2.142894004996179 
7.721794689771151 
-1.111304003798464 
-0.5515402978331747 
3.668549856534071 
0.6188364800812697 
0 
0.5226261155829349 
0.9610119482378034 
0 
0 
0 
0 
0 
0 
0 
0 
-1.662630712690673 
1.167687832825296 
-0.3290162066753618 
0 
1.569705548582439 
-2.885347578446396 
0 
0 
-2.844525769872361 
1.338066931258395 
7.381239638031507 
-2.627258159016048 
0 
0 
0 
0 
-0.04466319881674341 
5.122048824163998 
1.658161674881119 
1.188298047128533 
0.001099863898043698 
0.1480470482051974 
-0.2346901767990733 
-0.4877233496870823 
0 
-1.608923017094500 
0 
-0.09229348512217118 
0 
0 
1.337260219496691 
0 
0 
0 
-0.4206081058802305 
0.9442182335367120 
-2.247043165922658 
0 
-0.8528489639949730 
-2.079285339802980 
0 
0 
0 
0 
-2.588076792676188 
-0.06942095350332567 
0.1116396205014971 
2.798219207954186 
0 
7.165120146639509 
0 
1.188537966045077 
0 
0.7403461201864009 
0 
0 
0.3921914461710192 
-1.592575203265437 
0.3463891084400559 
-0.3093528238283418 
0 
-1.506460866032239 
0.3694877532815127 
0 
-2.106150852972756 
0 
0 
0 
0.4766049903638971 
0 
0.2307652583611390 
-0.7030592650243882 
0.4443661486889570 
0 
0 
0 
-1.084323898536152 
-3.231938719469714 
0 
-2.387332478681342 
1.400852135306459 
4.280417310608854 
-4.174892390764560 
0 
-0.1634534850870522 
0 
0 
1.206012639004254 
1.219435997865030 
0 
0 
0.1124447105485910 
3.381980336093240 
0 
0 
-1.338601224810184 
-1.388774152043151 
0 
0 
0 
0.8951184910584615 
0 
1.982131906879106 
-1.280351366530907 
0 
0.2408691607078690 
-1.818741761808781 
0 
1.090887710488592 
0 
1.145396019574891 
-0.1874662176799772 
-3.270380761188019 
0 
-0.7347236872555785 
-3.820880026912096 
-1.413220401939415 
0 
0.1578119431369250 
0 
0 
-3.092244210881848 
0 
0 
0.1014498131922581 
6.177880648656849 
-3.846083832453984 
-0.3911331164069507 
1.191574575030437 
0 
0.4709662752529193 
0 
-1.227655914151473 
0 
-0.5281708048085885 
0.6976890772528758 
3.916576479816179 
3.213621184139230 
1.415401504916894 
-0.2311011314650519 
0.8081934595951931 
0 
1.416493341859518 
0.2040673283898391 
0 
-0.4383103373038806 
-0.3466544013845492 
1.458330270516840 
-0.7423123002487055 
0 
0 
3.134586789696410 
0 
0 
-0.3985485820413497 
-0.5309651213269180 
1.283149916554447 
0 
-3.438538150380957 
1.187163085422808 
0 
-0.2983334800688673 
4.852592327985574 
0 
0 
1.556062746215314 
0 
-4.518877319480920 
0 
0.5142019897961503 
-1.381434182941310 
0 
0 
0 
0 
1.553302314646047 
0 
0 
0 
0 
5.138311250511426 
0.2559334131757530 
0 
-0.4658849733695620 
-0.01024212254045720 
0 
0 
5.194178533300105 
1.082488438811818 
3.304661350421966 
0.08035954775802301 
0 
-0.4004197126228171 
0 
0.4081418937483700 
0 
0 
0 
0 
0 
-0.6195218552479785 
-1.007762480413678 
0 
-0.5681673567735559 
0 
0 
0.3355036848583022 
-0.4467840401737661 
0.3710084275486315 
0 
0 
2.428803903121213 
0 
0.8762013736434371 
-0.09698028274344228 
0 
0 
0 
0.9459530649211012 
1.546219200454430 
1.135199947546073 
-1.843441835385166 
0 
0 
3.377401532630296 
-1.029141377636782 
0 
-0.07425598583967902 
1.563508206684310 
-0.3665213714286866 
-0.6361501453995408 
0 
0 
3.797732694466776 
0.4780165424520508 
0 
-1.441229864165276 
0.2831365777264172 
0 
0 
-4.388924591829143 
-1.116468194748193 
0.5326902806724940 
0.1317261274790764 
0 
0 
-0.1067028764256319 
0 
0 
-0.4668463483276818 
-1.613499768068226 
0 
0 
0 
0.5939964003775743 
2.752547175198738 
-0.5462777276953007 
1.827023526889575 
-1.747880848886954 
0.1420088666080910 
0 
-2.146928965421719 
1.822111487338778 
-1.865304898277710 
0.3836382262484428 
0.3591490231789261 
0 
0 
0 
0 
-0.3401684426006499 
0 
-0.2367585747901691 
1.733210057447971 
0 
0 
0 
5.676945870729153 
-1.298902352950400 
0.8983048853498592 
0 
0 
-0.3612076963554270 
0 
-0.7143493900054396 
0 
0 
0 
-0.06506160453056102 
0.1831627793121481 
0 
-2.976787985757255 
0 
0 
-1.093394222034906 
-1.118441816093900 
2.094069199507906 
0.4209440770915268 
0 
0.9415551763854806 
2.184778358272747 
0 
1.517091795193394 
1.273410070777153 
0 
0 
-0.6391119807419702 
-3.784474906254455 
0 
-4.858932544586217 
0 
-0.8097422703079145 
0 
0 
0.07504081161793552 
1.273337977177033 
-0.7405688606265166 
0 
0 
-0.2047822011255927 
0 
0.01652967137334949 
0.9459551174881490 
0 
0 
0 
0 
2.036532661809718 
0.01660950539903106 
-0.2876028601066152 
0 
0 
0 
1.391607117713282 
0 
-1.608164018141847 
0.9360988078761272 
0.4804485389902434 
3.543873548300179 
-0.6088574091100778 
-5.664242611097507 
0.4041566987292738 
0 
-0.4891411461427394 
0 
0 
0 
0 
0.5000611233835535 
-3.993216718281508 
-3.072616598174035 
0 
0 
-0.9654889309550776 
0 
-0.04684107468614640 
0 
8.715819003215321 
-2.993550530208980 
-1.409089512846750 
1.761421872413117 
-1.687677598468434 
-0.4803769772711652 
0.4353615757510940 
3.162687598506845 
0 
0 
0 
-0.9014846054203081 
-0.01276849210383244 
0.8649967634213340 
0 
0.05705090498204170 
0.5167243143642264 
0.8263867368515337 
-0.6519580083865506 
0 
0 
-27.41455279646045 
-1.252291568740938 
0 
0 
-0.1336804862789337 
3.003111579723317 
1.827442744669672 
0.4545074920598358 
0 
-0.06001136975541010 
1.284280163245040 
0 
-0.7988480143917651 
0 
-1.066717719948067 
1.254799626319248 
0 
0.5994030676962211 
1.341622187034965 
1.525723085461679 
0.9837887945009112 
0 
0 
0 
1.706029911138564 
5.336163812191478 
0 
1.906517114793541 
0 
0 
0 
0.7231912911293727 
1.218778003004145 
5.043638116376937 
0 
0 
0 
0 
1.691900843408526 
0 
0.5509372824092876 
0.3548771090309232 
0 
2.166192925136047 
0.3764388074622638 
0.1692961240198768 
0 
0 
2.453325113647854 
0 
0 
0 
-1.640250344434191 
0 
0 
0.002567090825652429 
1.314041987567500 
-0.6588100704176010 
0 
0 
0 
2.446170792125316 
0.1306115166341406 
1.260353981051790 
0 
0 
0 
0 
0 
0.2868889842780522 
0 
0.1242259399514383 
3.047915378150156 
0 
0 
0 
1.862538411897983 
0 
1.711732985394185 
0 
0 
0 
-0.9797094393469337 
0 
1.422523717524725 
-0.2330355868136128 
0.8881483146896990 
0 
0.9518462754965001 
0 
-0.6552058217065821 
-0.9351830588604189 
0 
-0.4423070921057686 
0 
2.473842108381142 
0 
0 
2.022466131982671 
0 
0 
0 
0 
0 
-1.055847960572634 
0 
-1.743472616293176 
-2.120131890587042 
0 
5.262379851530842 
0 
0 
2.519752967786200 
0 
0 
0 
1.067930293333588 
0 
1.518561549014331 
0 
-1.073431230920622 
-0.1321294794713606 
0 
0 
2.451336330416161 
-1.811140968614440 
0 
0 
0.9720269154153398 
0.7424764931923524 
-0.8767910326660380 
0 
0 
0 
0 
-1.249786511938100 
-3.280107941420726 
-2.044707102231194 
0 
0 
-0.06076434494510719 
1.714201678687908 
0.9433766479448000 
1.497267493473844 
0 
1.337242575526510 
-0.4293217733356721 
0.3466490279608029 
-0.2390049112049815 
-0.1158316964631785 
1.941516261193096 
-1.107550981729477 
0.3070405054473349 
-0.04105291595392124 
0 
0 
0 
0 
0 
0 
0 
0 
1.339727355312312 
0 
-2.691475557944093 
0 
0 
8.077193497574033 
0 
0 
-1.498157724721072 
0 
-0.5633832539531131 
2.182909971363024 
0 
0 
0.2873142848464677 
4.430914593362132 
0.2253940822317719 
-0.8027030625732805 
0 
0 
0 
0 
-0.7210675145916810 
-1.885145672928698 
0.06667785704184180 
0 
0 
0 
0 
0 
0 
-1.953620253472469 
0 
0 
0 
0 
0.3438853877490051 
-0.3952789944110329 
0.3067830792752440 
0 
3.095278654956616 
0 
0.06072199288796433 
-1.008844227494526 
0 
-2.613847017517445 
0 
0 
0.2105424547405810 
3.524042638484767 
-0.5511212203496870 
-0.7543687955552583 
-0.5019440841972216 
-4.245801359512412 
0 
6.086513428603960 
0 
0 
-1.009252821422473 
2.278399549018483 
0 
0 
-0.9627861360255054 
0.3413315292431563 
1.720951212006131 
3.043848873565304 
-0.9877205106016029 
4.907076924606742 
0 
0 
0 
0 
0.05754571212287109 
0 
3.190058195814988 
0.6084418273584944 
0 
3.319318052733071 
-0.1523583561783308 
0.4748814852872121 
0 
0 
0 
0 
-1.809522825303803 
0 
-1.678246996696671 
0 
0 
0 
0 
-1.013134200973465 
0 
0 
1.100641529077333 
0 
0 
0 
0 
0 
0 
0 
-0.02668721184174153 
1.349706375883009 
0 
0 
0 
0 
0 
0 
0 
0 
0.4654314568078887 
0 
1.468167128438090 
0 
-1.524796903244372 
-4.760400475458035 
-3.486047622771975 
0 
0 
-0.2958375785982206 
-0.03551412933153453 
0 
0 
6.077513238433475 
0 
4.828247350057524 
0 
0 
-0.7974909116529187 
-2.417392578312855 
2.508948580535484 
0.4244586075987608 
0 
0 
0.6786131262156455 
0 
0 
-0.8034387656273032 
0.8697048624504453 
0 
0 
0 
0.1644473792080256 
0.03895247938120276 
0 
0 
0 
0 
0.7397197389567967 
0 
-0.3692770824588280 
0.8914707026683356 
0.2327664565447283 
0 
-0.03814747146516850 
0 
0 
0 
0 
0 
2.848240787960468 
0 
0 
-0.1100608963567378 
0 
2.494972292686776 
0 
0.6883719780769932 
0 
0.03845277730809418 
-0.04834695790699750 
0 
-3.596536157570970 
0 
0 
0 
0 
0 
-0.4746981345859793 
0.2796716964791315 
-2.439951522794192 
-0.001673303809855753 
6.015014044434700 
-0.6595904090868794 
6.246935682913467 
-0.8425654591343219 
0 
0 
0 
0.5693430873816153 
0.4115347073506921 
0 
0 
0 
0 
0 
1.838223395843786 
0 
0 
0 
-0.8930679434996420 
-0.5888617732360166 
0 
-2.896503852856891 
0 
0 
0 
0 
1.661049449417789 
0 
0 
0 
0 
0 
0.5894806501595019 
0.2860695234358085 
0.9715025900381189 
0 
4.441299902097192 
0 
0 
-1.396874267020398 
3.032444525462060 
0 
0 
-1.946837200131176 
1.155167013173985 
0 
0.1781287694796192 
0 
0 
-0.1102359221347853 
0 
4.889779043177920 
0 
0 
-0.5966237650175401 
0 
1.046942593244916 
-1.178736223557215 
-0.3024846338207584 
0.7754327267592327 
0.9338309206507985 
0.3062259750341827 
-0.1146768994446978 
0 
-0.1133542277653963 
0 
0 
1.888498380040713 
0 
-0.8707803327208213 
4.432542041960029 
8.249477917042588 
0.5989842915660037 
0 
4.880653966556927 
0 
-0.04842256529131686 
0 
0 
1.794255832667701 
0 
0 
0 
0 
-1.193156223837475 
2.224012145481059 
-0.3927685206443569 
0 
0.6309786285524719 
1.270392530222266 
0.3626415275194854 
-4.393190692824120 
0 
3.806718914743440 
0 
-0.3391192227752042 
0 
0 
0 
0 
0 
-0.6916414389262050 
0 
0 
-0.9900108321559220 
0 
0 
0.1347629786987826 
-1.111156096567393 
0 
0 
0 
-2.453749398775409 
0 
0.08209765129231612 
-2.963760441654662 
0 
0 
0 
-2.051161774122163 
0.9106178248804357 
1.319363681793710 
0 
0.8035308325919892 
0 
2.353264936280222 
-2.680313047149079 
0 
0 
0 
0 
0 
-10.45219500726198 
-2.010313317570979 
-1.198697260141426 
1.142524563199635 
0 
0 
0 
0 
0 
-4.801787378753171 
0 
0 
2.374111930682223 
-2.115044070477931 
0 
0.4885236783305627 
1.394380785914682 
1.762037307027313 
0 
2.592677226841028 
0 
-0.1090974672088790 
1.210871123118421 
0 
0.8839416684219643 
0.8988585244157541 
0 
1.963467244153094 
-0.2281608577513885 
0 
-1.029618127689113 
-2.005158556157844 
0 
-3.006201962691153 
-0.7832183787182858 
0 
-0.2718104606307437 
0 
3.366577684205399 
0 
1.535377548276292 
1.418844549208894 
-0.1531223426954389 
1.775759007750487 
0.1625959724107507 
0 
0 
-0.07615998614876784 
-1.563370873884018 
-1.462312834910832 
-2.314823813824446 
0 
0.5576007708892707 
0.4075218902187383 
0 
0 
0 
0 
3.342414500713149 
0 
0 
0 
0 
0 
-1.451286928527199 
0 
0 
0 
1.286353201214738 
-0.4471596874097923 
0 
-0.7283568422750084 
-3.789734626328602 
0 
-2.115160810364926 
-1.196215692583117 
0 
0 
-0.8497642036555721 
0 
0 
0 
0 
0 
1.442639728367887 
0 
0 
0 
-4.098143886265355 
0 
0 
0 
2.436972118331213 
1.677505485828065 
0 
0 
0 
3.370484892766362 
-0.8039045144871549 
1.626756643498289 
0 
0.05593605949701019 
1.124278913784690 
0 
0.3930112894420088 
1.299961475959511 
0 
0 
0.1932075596523181 
-1.245029944062254 
-0.9952380331332047 
-0.3318662272576092 
1.114154255395462 
-0.7533832279766710 
0 
1.128336989506993 
0 
1.800678509444184 
6.354409419844854 
0 
0 
1.787094126575676 
1.788734823483455 
1.559875606758334 
0.5790751537944547 
-5.163226418320162 
0 
-0.9024111044003278 
0 
-1.534901326883580 
-4.178573055500577 
-1.112434239179969 
0 
0 
2.364888257797392 
-0.08109807886834973 
0 
-1.135609933593763 
1.495672576141668 
0 
0 
0 
0 
0 
-1.948490922028232 
-0.4978937962736880 
0 
0 
0.6523044403093780 
2.347137458449259 
0.1648166566862385 
0 
0 
0 
4.374768417736513 
0 
0.4077453999910000 
1.665897991705905 
-0.9908573688669240 
0 
5.890552226077688 
0 
0 
0 
0 
0 
-1.051364982391271 
0.8740316307941295 
0 
-4.710428506866441 
0 
-0.7156396081683960 
0 
0 
-0.004635171551858053 
0 
0 
0 
0 
0.5219834234868264 
0.2531432911693834 
-0.9152383759871325 
0 
0 
-1.135503311734914 
-0.3138375368484064 
0.1337773204435398 
0.3928166641056397 
0 
-5.037666623162145 
0.9956363389106135 
2.378445220704410 
3.160002373511261 
0 
0 
0 
0.3832462645964258 
1.034771821756988 
0 
-1.032902485949637 
0 
0 
0 
2.483178450002920 
0.2978278877210172 
1.512973221073539 
0 
0 
0 
0 
0.03113776085945691 
0 
0.1697976028932007 
0 
0.6708622278049534 
0 
0 
-10.15248765957752 
0 
-0.4025883786417304 
0.06685212456607596 
0.2048351172456093 
0 
0 
0 
0 
-0.5171279502424925 
0 
1.025757974502835 
2.545715406313807 
1.483569639921448 
0.3850115618613939 
-4.369067817019556 
0 
1.232735591574665 
-0.4114829557633806 
0 
0.5405419509349244 
-0.5001800752721492 
0 
0.1947951655480432 
3.080549473484366 
0 
0 
0 
6.697895777167515 
0 
0 
0 
-0.5793512606534439 
0.2528400085605974 
0 
-0.2487375148757021 
0.3817170682421119 
0 
1.047506250917748 
0 
0.3391235182808408 
0 
0 
0 
0 
0 
-0.4923026953236777 
0 
0 
0 
0 
0 
-0.5700001256978697 
-0.6717787363908646 
0 
1.524439297855657 
0 
-1.459632770552007 
0 
0.1971930119098819 
0 
0 
2.562337872702886 
0 
0 
1.692867518862532 
1.209039906653000 
-0.3081422200724295 
0 
0 
2.513942445268888 
1.178025460831347 
0 
0 
0 
-5.742094400810866 
0 
-1.939995240920930 
-0.08551922948110702 
0.5714281573442170 
-0.1808748049420760 
0.7814668408158294 
0 
0 
0 
0 
0 
-1.469873039439064 
-0.1657451786562371 
0 
0 
0.1436588189483796 
-0.1676899050711931 
0 
0 
0 
0 
0.4278884178804158 
0.9090543438965868 
1.080911055709491 
0 
0 
0.1337744688071077 
-2.681421213971303 
2.268130210965164 
0 
-2.701718721520406 
0 
0 
3.771376285134451 
0 
0 
0 
0 
0 
0 
0.4401875035471715 
4.059078242391692 
0 
0 
0.8557683986948794 
0 
0 
0 
0 
0.3854478974602786 
0 
0 
-1.340090679789504 
-0.5922216218819107 
-0.2245038032989946 
0 
0 
6.092756698258151 
0 
0 
-1.493680502747461 
0.9050449317752004 
-0.6917837862735041 
0 
-0.4500780217992132 
0 
0 
0 
0.4907186779836507 
0 
0 
-1.013847566132464 
0 
3.219838484255500 
-1.134471633596681 
0 
0 
0.7536843750381361 
0.1368750095980358 
0 
0 
0 
0 
0 
-0.1996847055494841 
1.387929759212215 
0 
-1.220689601226994 
0 
0.4839959988021608 
0 
0 
0 
0.2951600766835907 
0 
-3.016823645495315 
0 
0 
0 
0 
0.6612281578184498 
3.936096827670782 
0.8974880006467223 
0 
-1.246387687910632 
0 
0 
-1.264300991160825 
-1.227051304198099 
1.110205266297816 
0 
0.09226745414623382 
3.263727054134058 
0 
-0.001230898152769144 
0 
-0.8838745924566058 
1.523560367364926 
0 
0.1289466996998027 
1.844739773328554 
-0.7179795120066750 
0.5161014974677397 
-0.02944271965693712 
0 
0 
0 
0 
0 
-0.1815696758816420 
0 
0 
0 
0 
0.1799661148433790 
0 
0 
0.3708379573573631 
0 
0 
4.840175227131243 
-1.692921114058641 
0 
-1.879777089236848 
-0.7876926306712270 
0 
-0.4420454422940258 
-1.478685424476563 
1.927291735274856 
-0.7877941417382482 
0.2096669727036756 
0 
-0.06815293913017978 
0 
0 
0.7485771407915512 
0 
-2.752823076875089 
-0.1919262273708675 
0 
3.075584735563771 
0 
0.09038142694864265 
0 
0 
1.651138353799787 
0.9105235132398911 
0 
0 
-1.440907651585045 
0 
-0.4543252763894269 
0 
0 
0 
0.8443076329657015 
0.2726365947112490 
0.6099357722991438 
0.6287115950728799 
0 
0 
0 
0 
0.5431608488997404 
0 
-0.5251888684446955 
0 
0.9994452013312611 
2.219882101899269 
1.101119950466655 
0.8700542616657587 
1.017593687622391 
-0.4610851686344592 
-1.584821878443523 
1.648076939944437 
0 
-0.6104501813656924 
0 
-0.3126663695610094 
0 
-0.06809766981267541 
-2.587502207804265 
2.541470296254060 
0 
1.100632625180959 
-0.02057077992563805 
-1.459203019091222 
0 
-0.8714737215207591 
0 
0 
1.618713977129954 
5.848605153062356 
0 
0 
-1.996630441361427 
-1.010731871759508 
0 
0 
0 
0 
0 
-0.4244090362418372 
0 
-4.377659415336085 
0 
-0.6136884107512888 
-0.7160175924863861 
-0.2673041823565954 
0 
0.01442999397479593 
0 
0 
0 
1.287145782342445 
0 
0.3826009066544890 
0 
0 
-1.059237943944327 
1.277405369933154 
0 
-3.889752590049708 
6.763388003626394 
0.3691935450897852 
0 
0 
0 
0 
-0.5735995472889005 
0 
0 
0 
0.1279572477055061 
0.04168617787070172 
-0.6235087327010229 
0 
7.982714467345852 
0 
0 
0 
9.370495790666133 
0 
-2.295867485946014 
-0.8475122906088279 
-0.7487678235044293 
0.1201685884520707 
0 
0 
0 
0 
0 
0 
0 
0 
0.8813506633775190 
1.296950601249380 
-1.419861046693632 
5.491984308910586 
0 
0 
0 
0 
-0.4168918586539869 
-0.7141095196652454 
0.009390376366987696 
0 
0 
0 
1.841803880406745 
-0.9541479316714258 
0 
-0.4192626017666342 
8.933025458540676 
0 
0 
0 
0 
0 
1.873141892032904 
4.792591211230166 
0.7654729072693307 
-1.677235882123176 
0 
-4.938140718787454 
0 
2.025985910780699 
1.310630644765535 
-3.333394211717831 
-0.7991995184952967 
0 
0 
0 
0 
0 
0 
0 
0 
0.1394334498800975 
0 
0.6237435746816686 
5.425422479910434 
0 
-0.3227927303875189 
2.036434611488959 
0.7365982146001278 
0 
6.149685055941291 
0 
0 
0.3326270218639749 
0 
-0.7749219074699320 
0 
0.05445704791871736 
0.6734726829728455 
0 
-0.8451491726936753 
0 
0.01987574245789459 
-1.666424101527384 
-2.665104236383431 
0 
0.7384587220501408 
3.362417585866457 
0 
0 
0 
0 
0 
0 
2.172064638053650 
0 
0 
0.5475929003259232 
0 
0 
1.957590446663696 
-0.6698642014238994 
2.350736466438375 
0.1841529773838129 
0.3251766665349583 
-0.6985039968709967 
0 
2.376492388771683 
0 
0 
0.02659912072925318 
0.8387331159982413 
0 
1.358021341679707 
0.1902659550502920 
0 
-3.071366157598250 
0 
1.942167964791693 
0 
0 
0 
-0.7553138205490991 
1.651345352452345 
1.458173910022842 
0 
0.6898063407148596 
0 
0 
3.229832774250059 
1.369329045696079 
0 
0.4333394709792154 
0.8523255163871876 
0.7833351137853757 
0 
1.079927546675548 
-2.147981420684530 
0 
-2.590424383134722 
0 
2.000824674624520 
0.7370587173559543 
0 
0 
0.7505961882077381 
2.353978994841990 
1.641016366630703 
1.302414621252516 
0 
0 
0 
0 
-4.185523563285912 
0 
0 
1.429792582741262 
-11.72775768377396 
-1.380963704694274 
-3.717222502860683 
-1.324881215733046 
-0.6943308337262385 
0 
-1.208122882117161 
1.158002592612992 
0 
0 
0 
0 
-0.8188187876647053 
-1.506106074188607 
0 
-2.174547758307447 
1.512952416494797 
-1.638010632906103 
3.211201425872004 
0 
1.708416407917263 
0 
0.7704339058778324 
-1.715237485017884 
-0.006588693301008464 
-0.6673497221627472 
0.3086350241512081 
-0.7967826230503328 
0.2411531005217191 
0 
0 
0.3517823392443358 
0 
-0.3462573782839731 
-0.3277823980408681 
0 
0.4995035403160220 
0.6295779795565900 
0 
0 
-0.4494668316695076 
0.5151037987061647 
0 
0 
-1.051077933256390 
-0.6253228474502426 
1.102723290084601 
-3.442434170711779 
1.395646549822204 
2.581811515357349 
0 
0 
0 
1.046836967183504 
0 
-0.9877827031315185 
-4.094269652857072 
1.286168368102507 
0 
-2.042761294467684 
0 
0.1701242370534321 
-1.894289818662031 
0 
1.148262983323975 
-0.4905861374544868 
-0.6807411687490694 
2.169261381786742 
4.612597818101866 
-0.2924246188778557 
0 
0.5337153730351757 
0 
-2.349028201438999 
0 
0 
0.4505921503003263 
2.120701435826635 
-5.718050246702367 
0 
1.051214707347739 
-3.327152960499809 
0 
0 
-1.584698381699371 
-4.124770589421526 
-0.9967874452926038 
-6.356535217105259 
-3.314404364020178 
0 
-1.347839914671624 
0 
0 
2.414055341791995 
4.341753741410324 
0 
0 
0 
5.034169624991507 
0 
0 
-3.224878035680128 
0 
4.046120276529046 
0 
-0.5370726024916310 
2.075367630331213 
0.7839328452110905 
2.876668091600393 
0 
3.026901375507936 
0.4560476329148204 
0 
0.7393152996075985 
-1.584628134434605 
0 
0 
-1.115130065060750 
0 
0 
0 
-0.4191534160625553 
0.2764862905743264 
-1.136720576909092 
0 
-0.1682415361733507 
0 
1.145477555801801 
0 
0 
0 
0.4685114911978268 
0 
0 
3.135220678054541 
0 
0 
2.023129923503051 
0.02980234355905520 
2.647126123929875 
-0.3567142841058315 
-3.600375853390006 
-4.288721445598790 
0 
0.01513283659288445 
-24.91405252804817 
0 
0.5625677583756830 
0 
-1.793194360942450 
0.4781918918453720 
0 
2.650601200146126 
0 
-2.733654809501348 
-3.373897416201197 
1.096649882304162 
0 
0.5419359951614808 
0 
0 
0 
3.943846360126661 
0 
1.818868931678952 
-2.244055001047002 
0 
0.6749921460549854 
0 
1.232694458593602 
-1.565385226990600 
0.8438571959387707 
0 
0 
0 
0 
0 
0.9124503150922816 
0 
-1.399345400855236 
0 
5.351433739920370 
0.03587113503015982 
0.2497299614015716 
0 
0 
-2.551446222904056 
0 
0.4913041903274447 
0 
-3.188359810459834 
0 
0.1745954091867464 
0 
0 
0.4325469233592887 
3.090104643126749 
0 
0.8230126826552696 
0 
4.247132427032366 
0 
0 
0 
0 
1.431687231660309 
0 
1.425109352420288 
1.665426649607753 
8.799841809097460 
0 
0 
0 
-3.220353302662856 
0 
0.6765116313906716 
0 
0 
0 
-1.317750773109929 
1.788172847894537 
0 
0 
0 
3.008934010826037 
0 
0 
-1.386240545761140 
0.03212882656729859 
0 
0 
-1.091840298037919 
0 
0 
-0.3193015887505333 
0 
-2.452046521119053 
1.876206505053204 
0 
0 
-0.4207359017098074 
-1.180364359487332 
-0.2748171766539249 
2.993239451754543 
-3.006728038149214 
-0.7286214058033446 
0 
0 
0 
1.991047997905814 
0 
2.528015590113943 
0 
-1.675244487196838 
-3.537542551854300 
3.366269366354905 
0 
0 
-0.3218027104717156 
1.185421613357200 
-0.1027245849113233 
0.05261492182835891 
0.6704491133812467 
0 
0 
0.5629792220513026 
-3.800956063042969 
0 
1.110964887139854 
0 
0 
0 
-1.317477393767297 
0 
0.9265164573313229 
3.110361272184191 
-0.02444970662069745 
0 
-0.7631199745159521 
-0.4938280619353361 
0 
0.3596914736423513 
3.740517836276966 
0.4892614767198927 
3.835949624699092 
-1.875931262802835 
-2.518150596650234 
0 
0 
-0.9781226744496068 
0 
2.666976717910079 
0.1440642446494613 
1.008143784659485 
0.3361266776519472 
0 
0 
0.04334733060913010 
0 
-0.8167937785263291 
0 
0 
0 
1.122530710638026 
0.3262585796296562 
0.5236903190498113 
-1.854591155747288 
0 
0 
0 
0 
0.4142263810642181 
2.855801065441338 
0 
-0.4396420754932249 
1.401732077218824 
0 
4.806511287769373 
-2.794392557094779 
-0.2559266942783594 
0 
-0.1439793810919162 
0 
0 
-0.1604082474675034 
-2.236408855132637 
2.064343847644708 
0 
-1.378099736819787 
-0.1471419345339654 
-0.3658225876972682 
-1.841346810610148 
0.8477482037475327 
0.2989541611332133 
7.169812006511444 
0 
0 
0 
-2.459416840951639 
0 
0 
4.855749771950269 
-1.350797524727683 
0 
-2.901824569492443 
2.622365567452969 
0 
4.436709479228897 
0 
-0.8540525431965653 
0.03403457463313613 
0.4065285206632165 
-0.2049382451611862 
1.526970643172336 
-0.2100268148001164 
-0.4587855257857332 
2.062872654727757 
5.982692594369586 
0 
0 
2.724039305846599 
0 
0 
0 
-0.04762085677576028 
0 
0 
0 
0 
0.3060606196784280 
0 
0 
0.04766120409830671 
-3.480451039201063 
0.3839421568238253 
-0.1651978655109339 
0 
0.3831111582170707 
0 
-0.4893303992531028 
0 
0.3795460809560510 
0 
0 
0 
0 
1.279936129875039 
0.4318823412222385 
0 
2.209958830325505 
0 
-1.024614895502938 
-4.677375039089293 
8.823199221657568 
0 
0 
0.4654193437378938 
1.159953738092282 
0 
0 
0 
-2.659621668047889 
0 
0 
0 
3.008640159395703 
-1.598993345638444 
0 
0 
0.8400581184516318 
-0.4518282434840707 
-1.136810507811279 
0 
-0.2050658190805766 
7.939446982749976 
0 
0 
-0.03251210686932502 
-0.5813675434860963 
-0.1809690372218982 
0 
0 
0 
0.1700162177539658 
0.3242471594470249 
-0.1103370492703300 
-1.814531649745593 
0 
0 
0 
2.566919811035476 
1.619652235662453 
0 
0 
-0.6990217839684578 
0 
0.9306457846888435 
0 
0 
0 
0 
1.262391164355643 
0 
0 
0.4283340309567388 
0 
0 
0 
0 
-2.081466423385905 
-1.767193764298713 
1.117974295315694 
0 
0 
0 
1.227842310166582 
0 
0 
0 
2.142264107074547 
3.173108588399428 
0 
0 
0 
0 
-1.230197830007270 
0 
0.07951332832075386 
0 
0 
-0.9236287321227586 
0 
0.2283195696078425 
0 
2.143674350438532 
0 
0 
0 
-2.506556811326211 
0 
2.229328010362015 
0 
-0.3967558325304366 
0 
-1.794313533488597 
0.1231019312616423 
0 
0 
-0.1795129915530878 
0 
-0.9265294996610320 
0 
0 
0 
4.496128258221371 
0 
0 
5.488420853327352 
2.861968162863343 
0 
-0.8564672274051921 
-0.5576993852622733 
0 
0 
0 
0 
0 
0 
0 
0 
2.833501124391416 
0 
1.234508758249794 
0 
0.2367865462219698 
0 
1.030809589476219 
-0.9734594478257580 
-0.008842155727233902 
0 
-0.9732763591082385 
0 
0.5207193278937976 
0.05441890860268162 
0 
0 
0 
0 
0 
0 
0 
1.323528874109778 
4.162615082560761 
-2.324416099783928 
0 
0 
0.1821494070584808 
1.024639592480167 
-2.084367814358922 
-1.280295577040100 
0 
-0.2994817026320549 
0 
0 
0 
-0.6842691848528553 
-0.1100578350219702 
0 
0 
-0.4055995642716426 
1.288545105933817 
0 
1.333021515412423 
1.011620605884184 
0 
1.246040912647977 
1.115166012373270 
0 
1.416683829269210 
0 
0 
-1.312601107327026 
0 
0 
0 
0 
0 
2.175298950970586 
3.141524879284563 
-2.863946265490819 
0 
0 
0 
0 
0 
0 
0 
0.9954961320640703 
0.3588854456101791 
0 
0 
0 
3.504863877098174 
0 
-0.7648619230588424 
0.9961353510371920 
1.202659399587250 
-2.186532107060805 
0 
0 
0.1268033951997178 
2.149706579140358 
2.426254704204105 
0.03598817530269671 
-2.431212549478991 
0 
0 
-0.5786025227903715 
0 
0 
0 
0 
-1.082343938016538 
0 
0 
-1.553935675310755 
0.4590449697030902 
0 
0 
0 
-0.8345283552474109 
-3.409795466779606 
0 
0 
0.6624988549530193 
0 
0.4217799676880992 
0 
-1.180016944488552 
1.531690851217903 
0 
0 
0.7004622086219703 
-0.03709990371847032 
0.3597617749753672 
0 
0 
0 
1.800608159747143 
0.7805103710657908 
0.04825998326850965 
0 
0 
-3.557470133972054 
0 
0 
0.6594365529436972 
0 
0 
-0.6977433868852930 
4.600686271165573 
0 
0.5031592874769867 
0 
0 
0 
0 
2.774252998963552 
0 
0 
0.6539811365356389 
-0.2135561063405859 
0 
-2.890621836706081 
0 
0 
0 
0.6656746087071989 
-2.609191684170898 
0 
0 
0 
-1.405817830827658 
-1.296031460376724 
0.7453997223832305 
0 
0 
-0.3092633969945255 
-0.7604125826576320 
-1.266922095245856 
0 
0 
0.1247725002661728 
0 
0 
0 
0 
0 
-0.02066841460899838 
-2.123012026907684 
1.259755299875810 
0 
-0.1625195041289229 
0 
0 
0 
-0.5213702833862055 
0.8542715245681213 
0 
0 
0.5873054693791533 
0 
0 
-1.496037268528699 
0 
0 
-1.378182259813589 
0 
0.3645675848398179 
0 
1.605816181997293 
0.2827911612103571 
0 
0 
0 
0.1256691032861614 
0 
0 
0 
0 
-2.185810568050547 
0 
1.875027259783357 
0 
-6.992824861147645 
0 
1.167273097831685 
0 
0 
-0.6175282482839687 
-0.08044751345463287 
0 
-0.3457053189206638 
0 
0 
0.9635144798340360 
0 
0 
0 
0 
0 
0 
0 
0.8320376900605915 
0.6655964232641337 
-0.3681494491599324 
0 
0 
3.376109366416891 
0 
0 
0 
0 
0 
0 
1.029872053689530 
-2.004637463092192 
0 
0 
0.7052660749968880 
0 
0 
1.407918142450534 
0 
0 
0 
0 
0 
0 
2.343568885535914 
0 
0 
0 
-1.952695101563896 
-0.2884670925258045 
2.810157645970173 
0 
0.9470340436170754 
0 
-0.7138656871169815 
1.982850815627298 
-0.03848601810537944 
-0.4646256752932292 
0 
0 
0.6559881786418202 
-1.266928801873165 
0 
0 
1.126297176126912 
0 
0 
0 
0 
0 
0 
0 
0 
0 
0 
0.02194149251887883 
1.983015511496975 
0 
1.236685333164021 
4.640463475603657 
0 
0.5458353014651305 
0 
0 
0 
0 
4.861603491535376 
0 
-0.7523575248891767 
0.4741497641605451 
-2.832517650616711 
0 
-3.942625219789283 
-0.1310479517487526 
0 
-2.195791218415845 
0 
0 
0 
0 
0 
0 
2.394988007264559 
0 
0 
0 
-1.181589633274793 
0 
2.100181037438377 
0 
0 
0 
0 
0.8730353655272096 
1.474223434899061 
0 
0 
0 
-1.145052039224930 
1.221002902522689 
-0.2028080115302041 
0 
0 
-4.510400061161766 
1.636272072419099 
0.1544446045385650 
0 
-1.911632452351603 
0.4576262797364958 
-0.4381140700957951 
-0.8455435039467467 
0 
0.5575210150739207 
0 
0 
0 
0 
0 
-0.4540749015000811 
0 
0 
0 
-0.9394592469209448 
0 
-0.6720729175437465 
-0.3267380762646166 
3.113660360821692 
-0.8034656404205590 
0.9279006056882297 
-0.09677380546641723 
0 
1.568806037925186 
-0.3941588646790288 
3.937804762273415 
-5.524815598240831 
0 
-0.3867538047366481 
0.3084048258479870 
8.036669071486735 
0 
8.170985285655659 
0 
0 
-1.162042775520283 
0 
0 
0 
-0.01966392614029355 
0 
0 
0 
0 
0 
0 
0 
0 
0 
0 
0 
0 
-0.1710559958340022 
-1.377754250710157 
0 
3.231031319287114 
-1.415886030239299 
0 
0 
0 
-1.102954271536381 
0 
0 
0 
0 
0.07804119502230367 
0 
0 
0 
0 
-0.2450387226356121 
1.493637181492838 
-0.8216783850567948 
1.000273303613597 
0 
-1.474949305702717 
2.539746003580667 
-2.943090911237006 
-1.037335024890607 
0.1376299781037402 
0 
0 
-2.236559082906981 
0 
0 
2.333726886193360 
-1.167909767697862 
-0.1857446216369689 
-0.2894433237475260 
-2.644274526573504 
0 
0 
-0.6884711559516239 
0 
-0.3120460445769072 
-0.9423439372489686 
0.4600671927033976 
-0.09610402733606810 
-0.9048861943709430 
0 
0 
0 
1.717198697851675 
0 
0 
1.851850275684657 
0 
-0.6895489414800271 
0 
0 
-4.609499713147852 
-2.341985809046976 
0 
-0.6139622628944035 
0 
0.3584213000547001 
2.551975494561818 
0 
0 
0 
0 
0 
0.1816306650915740 
-3.208717332180780 
-1.940447780792649 
0.1651196124524471 
0 
0 
0 
1.868823424751031 
-0.8861073911663906 
4.476911676502033 
3.507364351256159 
0.5010580708204470 
-0.3906849738179794 
0 
0 
0 
0 
0.7230871613709886 
0.7395581756011809 
-1.883800191575630 
0 
-0.5781616142878194 
1.944762530166271 
0 
3.129311979393379 
0 
0 
0 
0 
0 
0 
-0.01247703348717598 
-2.137352603819117 
0 
-0.3468875927541316 
10.00000000000000 
-0.6417064398200536 
0 
0 
0 
0.2295954407585517 
0 
1.469680258724936 
0 
0 
-1.493724796528398 
0 
2.969831874606288 
-1.418754079802663 
0.7554716998434647 
1.338660628965934 
0.4765877407933409 
1.743865219883143 
0.2744760993817763 
0 
0 
0 
0 
0.9087778864001810 
0 
0 
0 
6.657385404011857 
0 
-0.5000135923498148 
-0.8748795770797302 
0 
0 
0.8991768926790156 
-1.799183722633224 
0 
-1.920115310248224 
0.2367441266974692 
0 
0 
0 
0 
0 
-0.4523926746295477 
0 
0 
0.07972648039733270 
0 
0.1292780732458106 
0 
0.2616138275113956 
1.942987390767294 
-0.2753344431207214 
-0.3642675257274243 
0 
0.8235527670798222 
0.1740849197048227 
0 
1.479240267396978 
-0.02522474345691328 
0 
0 
0 
0 
0 
0 
0 
0 
2.336425489431650 
0 
1.597404850703137 
0 
0 
0.7463473441128294 
-0.6031083537096328 
0 
0 
0 
0 
-1.016744574632905 
0.1945816682286326 
-2.037182472247923 
0 
0 
0 
0.5255048386260103 
0.2179274156770769 
8.115735111249206 
0 
0 
0.3950893935837366 
0 
0 
0.1199853317022570 
2.318619273626115 
0 
-0.4007095555862033 
0 
-0.3841364226770851 
0 
1.240030211717149 
0 
0 
-0.06774778668735637 
4.627733843348402 
0 
0.2532800551291352 
0 
0 
0 
0 
0.1233602996074210 
0 
0 
1.614084521618048 
0 
0 
0 
0 
0.3814924711874571 
0 
-0.7455326646468511 
-0.7532594708740787 
0 
4.909203865607999 
0.4068391125084812 
-2.567137934613563 
0 
-1.100425958977691 
0 
-0.4577420899288779 
0 
0 
0.09053436879634724 
0 
-0.08988886907712423 
0.5919768014907971 
0 
0 
0 
1.658079556611233 
0 
0 
0 
0.9439405088204893 
0 
0 
0 
-1.200664006356833 
-1.089204829112404 
0 
1.483629529339007 
2.774489361725737 
0 
0.5667379369137032 
0 
2.686046869938771 
0 
1.553463493598531 
0 
-1.085775520725946 
0 
0 
0 
0 
0 
-0.5649153999478413 
1.891364298108663 
-1.130678722972509 
0 
0 
-0.7866128944243029 
0 
0 
0.04964524233168691 
0 
0 
0 
-4.329926875883709 
0 
0.07258880595367849 
-1.013203830224198 
0 
0 
2.621627518366950 
0 
1.346332976416235 
0 
-2.340933162865627 
-2.271881265143897 
0 
-1.681060427241140 
0 
0 
0 
0 
-3.132825750475672 
-2.028820254320549 
0 
-0.8890349357280154 
-2.869813911669872 
0.1280865220527528 
0 
0 
0 
0.3219830809086676 
2.031773056874748 
-0.2778051789481888 
1.542607212447883 
0 
2.292136258574340 
-3.204453994279107 
2.055966171525413 
0 
0 
-2.193050222082445 
1.904749750666126 
-0.08341125298350949 
0 
0 
4.636363132481485 
-1.789003879922347 
0 
0 
4.984234078691239 
0 
0 
0 
-0.3585067864153200 
0 
-0.06381049307082218 
0 
0 
0 
0 
0.1808260219817003 
0 
0 
1.233861404467228 
0 
0 
0.8382491245270922 
-2.017483790687655 
8.145315227223545 
0 
1.098216227259662 
0 
0.7655154096371689 
0 
0 
0 
0 
0.4814249290307796 
0 
0 
-0.2929006886559291 
0 
-0.2587462721525917 
-0.3160846938939755 
1.227599271415288 
0.2023131548571435 
0 
0 
0 
0 
0 
2.422464133612947 
0 
0 
0 
0.04077594397090700 
0 
0 
0 
-0.6381113959137202 
2.750215191924595 
0 
0 
0 
0 
0 
0 
0 
0 
0 
0 
0.07514428641391796 
0 
0 
0 
0 
0 
0.6968667335848862 
0 
0 
-0.1368443395325654 
0 
0 
0 
0 
-2.404321304133362 
-0.01555936808313696 
0 
0 
0 
0 
0 
0 
1.446698587069549 
-3.932780726494027 
0.4161960074998975 
0 
0 
-0.7164161148270913 
0 
0 
0.09695405809881397 
0 
1.374518887471922 
-0.7987717513672464 
-1.108061023315737 
0 
0 
-0.6611988720498401 
0 
0 
0 
0 
2.255465349863163 
0 
2.540071731024875 
0.5395122386090832 
0 
0.1533456432333192 
0 
0 
1.763989363146759 
0 
0 
0.9398930421075202 
2.947578360153734 
0 
-0.1041823547071019 
-0.1718770214026260 
0.7881748136934460 
0.3926451179504408 
-2.102346828026117 
3.162724569111596 
0.8707703543898775 
0 
-0.3439040704637391 
0 
0 
0 
0.3707075567663311 
0 
0 
2.827747407905318 
0 
1.255583293243213 
0 
0.2260201020445802 
0 
1.392904818737956 
6.217159440504189 
0 
0 
0.8912114486562279 
0 
0.003088254772168786 
0.6300389878224927 
0.4017759188701016 
0 
-0.2594200709003144 
0 
0 
0 
-0.3532536350986320 
0 
0 
6.585504689696963 
0 
0 
0 
-2.698543140742638 
0 
-1.245160453684445 
0 
-1.180624701553578 
0 
0 
1.153506436457210 
0 
0 
0.2914443322282723 
0 
0 
0 
0.2507321467137842 
0 
0 
0 
-2.198750021485077 
-1.783685262678608 
0 
0 
-5.839400574920806 
0 
0 
0 
0 
0 
0 
0 
0.4281895796112328 
0 
-1.291995226483532 
0 
0 
1.772671815534907 
1.979945357802716 
0 
0 
1.015151889292157 
0 
-0.9073181997226536 
-1.334068745295282 
-1.201030841917834 
0 
0 
0 
0 
0 
0 
-0.5291621829297382 
1.612649095672480 
0 
3.913494425926166 
0.2190411570672720 
1.635588394010271 
2.493446730253471 
2.002579809140800 
0.2935026078188540 
0 
-0.1933039738924632 
0 
0 
1.862564219577560 
0 
5.109343728652979 
0 
1.783809440143372 
0 
0 
-0.2707874312976737 
0.2543406834318720 
0 
0 
0 
2.081536252166975 
0 
-1.140666964776672 
0 
0 
0 
0 
1.385601673136765 
0 
0 
0 
1.912016422505110 
2.728016134483997 
0 
0 
0 
0 
0 
0.1171042081063199 
0 
0 
3.468166810167908 
0 
0 
1.655906164000486 
0.01166036253668357 
0 
0 
-0.2148581142185750 
1.325349302220044 
0 
0 
0 
0 
-0.2448653147080381 
0 
0 
0 
0 
0 
0 
0.2205203688294621 
-0.1225451930794519 
0 
0.8968152619159288 
0.7028314589451695 
0.2988110178549967 
0 
0 
0 
0 
0 
0 
0 
-0.1874486065233293 
0 
0 
0 
0 
0 
0 
0 
0.3579272056624811 
1.342598189549931 
0 
1.267707089366444 
0 
0 
1.408208202632546 
0.6245936859613688 
0 
0 
0.1744720659544065 
-1.217572855733059 
0 
0 
0 
0.3567532440883202 
0 
0 
0.5353434597419199 
1.789556623039809 
0 
3.838838699211108 
-0.8699154709357637 
-2.985321626556031 
0.6249786693893640 
-1.154518184794437 
7.064799700369289 
0 
2.054503541856502 
0 
0 
0 
1.583195196454782 
-0.03601471733045736 
5.276521277853805 
-2.591660534222415 
0 
0 
0.4568023217028614 
0 
-2.193575148283844 
-0.4623893334238929 
0 
0 
0 
-2.423190110135010 
0 
0 
0.7119480427460412 
1.821883549329223 
1.759196463308744 
0 
0 
0 
-3.331213432991075 
0 
0 
0 
0.9154465213821115 
-0.4624964720169038 
-5.168003783204621 
0 
0 
0 
0 
0 
0 
-0.9169420659444911 
0 
0 
0 
0 
0 
0.7828691721291654 
0 
-4.650895749297169 
-0.03877808295557594 
0 
0 
-3.010129485279435 
0 
0 
0 
0 
-0.6563226333515392 
0 
0 
0 
0 
-0.4970387703539716 
0 
0 
0 
0 
0 
0.9169481661915729 
0 
0.9147209641784078 
0 
0 
0 
0 
-0.5449582089401455 
0 
0 
0 
0 
0 
0 
0 
-0.7829830519330863 
0 
0 
0 
0 
0 
0 
-4.922964090954581 
0 
-1.205918232392878 
-4.035320677092262 
-2.758880557082911 
-0.3531416590755001 
-1.082152325166397 
0.9588012671522528 
0 
0 
0 
0 
-1.528750216165705 
-2.960579822915286 
0 
0 
0 
0 
0 
0 
-4.216507744330535 
0 
-0.4386108733831997 
2.318894771676039 
0 
0 
0 
0 
0 
0 
0 
0 
0.5266176235299549 
0.4118156394297619 
0.9761364368500087 
2.001594659948805 
0 
1.307776600331886 
0.5715215993161934 
0 
0 
0 
2.034420833786623 
-0.04705066209431497 
0 
4.067571794029282 
-0.6009789572137589 
0 
6.030988536092249 
0 
0 
0 
0 
0 
0 
-0.4403459902146908 
0 
0.2967542041582671 
-1.859868460701798 
0 
0 
0 
0.08827458864659776 
0 
0 
0 
-0.9583668743308880 
0 
3.505690944712442 
0 
0 
0 
0 
-1.661171948996769 
1.438273021811670 
2.281113726117719 
0 
0 
-1.680928682882111 
-1.377579567172292 
0 
0 
0 
0 
1.155206350552243 
-0.1648786460387148 
-1.508988260949946 
0 
2.871797188833226 
0 
0 
0 
-1.459009622543255 
0.6727318657602346 
1.770236958585678 
0 
0 
0 
0 
0 
0 
-1.264966063746660 
6.996824284741403 
0 
2.507938740401276 
0.2709724241065539 
0 
0 
0.09003492944727310 
0 
1.148023063357100 
0 
0 
0.1996990963439058 
-0.3016046791645790 
0 
-0.06534398634211395 
0 
0.1640318293829002 
0.3927634030990648 
0 
-0.5053374171300613 
0 
0 
0 
7.212729909931658 
0 
0 
0 
0 
0 
0 
-0.4356116639952055 
0 
0 
0 
2.065073112008784 
-1.822196953794272 
0 
1.528220278330020 
1.404857363179518 
0.04371002636495108 
0 
0.7491051002440320 
0 
0 
0 
0 
0 
0 
-8.999489167905208 
0.01306380312414968 
0 
0 
0 
0 
0 
0 
0 
0 
0 
0 
0 
-0.1978034909220294 
0.9881160517360674 
0 
0 
0 
0 
2.931341208223917 
7.036628512168601 
0 
2.465069231291285 
0 
0 
0 
-3.319721478369131 
-1.376520873691690 
0.5101382978986770 
0.4704791800416017 
0 
0 
0.7935471050063070 
0 
0 
0 
-0.1322871801023390 
0 
0 
0 
0 
0 
0 
0 
-1.710874707189603 
0 
0 
-0.6253398013441471 
1.401751238830596 
0 
0.8043325541248010 
0 
0 
1.998243115045523 
0 
-1.028512010804739 
0 
0 
0 
0.07202487098434482 
4.017119942442193 
3.471003952432048 
0 
0 
-0.4939316537314755 
0 
0.6746534219013520 
0 
2.228074641045265 
0 
0 
0 
0 
0 
4.096141619594899 
0 
-0.8891121310386862 
0.7835023905164319 
0.9700603912405319 
0 
0 
1.135270129252611 
0 
0 
0 
0 
-3.155540914808388 
0.4102468543254845 
0 
0 
0.2372751576856533 
0 
0 
0 
0 
0 
0 
-2.080483472695621 
0 
0.07444216549357212 
0.5317575366854987 
-2.139314631656220 
0.03037432112774530 
0 
1.207309557908543 
0.4501596619995571 
0 
-0.1313654176564802 
0.8018493123662358 
0 
0 
-0.1098860585488682 
0 
0 
0 
0.02492596827539224 
0.8054425753696395 
0 
0 
0.1268542578073885 
0.2846485245319985 
0 
0 
0 
0 
0 
0 
0 
2.114641417318766 
0 
0 
0 
0 
-0.05735795527274229 
0 
0 
0 
0.7313320870486000 
1.193890049276503 
0 
-4.111865935494403 
1.542826103882854 
-0.5624885238453358 
6.218644347837299 
2.095602922344231 
0 
0 
-0.5297166867667692 
0 
0 
0 
0.6738704488391070 
-0.4067540570014273 
-1.103294061703781 
-1.065512702663477 
0 
0.5922826430525670 
1.508592282660526 
0 
0.3603062250344241 
0 
-0.07492837261012887 
0 
0 
-0.03418745851405469 
-11.45852612142089 
3.483420047393389 
0 
0 
4.611557237915048 
-0.2193602156393630 
1.774770592805147 
0 
0 
0 
0 
0 
0.02380075993831643 
-0.2828426530390750 
0 
0 
0 
0 
-0.4996383442576218 
0 
2.079102224205057 
0 
-1.600389993414520 
1.020964087513651 
0 
0 
1.261812703008722 
0 
-2.740645822005886 
0.4306707081102426 
0 
0 
0 
0 
0 
1.359340984818822 
0 
-0.07375338930175279 
0.4577384968473836 
0 
0 
0 
0.4170336892094115 
1.551579567068944 
0 
0 
0 
-0.8204508707757870 
0 
0 
-0.1297780897145765 
1.691642994446068 
-1.485038635286007 
0.8243925590847279 
-2.851413281981751 
0 
0 
0 
0 
0 
1.263314603544859 
-0.3005141927635535 
1.614304080854085 
0.02135157240332331 
0 
-5.967341754740831 
0 
0.8025723379971308 
0 
0 
-0.8440523996472844 
0 
-1.562370327289357 
-0.1198598178037851 
0 
0 
0 
-1.516807564335677 
0 
0 
-1.535221795486500 
0 
0.1581212359911743 
-2.312730615667772 
0 
0 
0 
0 
0 
-1.963393810999237 
0 
-2.161379589028896 
-2.312275201245136 
1.894592322329753 
0 
0 
-0.4067358031484324 
0 
-4.252908333867433 
-1.440993338755621 
0 
0.2335338775781834 
0 
0 
0 
0.2064025360359749 
2.884907065464740 
-0.4136897037569380 
0 
-0.3979180899880526 
0 
-2.380896854451442 
0 
0 
0 
0 
0 
-0.7017522353141725 
0 
-0.3321967288043182 
0 
0 
2.550629623834061 
-0.05723969959266273 
0 
-0.7234468463734110 
-1.176188380712222 
0 
0 
0 
-2.244102275823376 
0 
0 
0.7473521448335689 
0.1241536305441087 
0 
0 
3.609550722751981 
0 
0 
1.353058361790675 
0 
-0.04940263110157273 
0.5496190533322776 
-2.235071928488866 
0 
0 
0 
0 
0 
0.6026284662628942 
3.573537486324637 
0 
2.087242442024133 
-0.09905765010939405 
0 
-4.193754727406692 
0 
0 
0.4274139841087061 
6.420371880816594 
0 
-0.4085897610641120 
1.444759447538504 
0 
0 
2.057136280574918 
1.059531600641694 
0 
-0.2849107547194821 
0 
0 
5.985211235476799 
0 
0.7378274729367574 
0 
0 
0 
0 
0 
0 
0.5432620078159109 
4.766463709185945 
-3.404621123588425 
0 
4.607192936042742 
0 
0 
0 
0 
9.266006497697767 
0.6985485425505603 
0 
0 
0.9425900659887207 
0 
0 
0 
0 
0 
0 
7.045016887265565 
1.223179239635215 
6.411147144605793 
0 
1.515213926519042 
1.753005833488749 
0 
-2.792326267127038 
0 
0 
1.078765828455015 
0 
-5.859091706645668 
0 
0 
0 
0 
-0.9332754109876683 
-1.253103228514608 
-1.516488328826361 
0 
0 
0 
-2.232106222175169 
2.213596689546292 
0 
0 
0 
0.4864205708269879 
0 
-2.915162644583513 
0 
2.424694811840675 
-2.592813273350112 
-3.093081600456483 
0 
0 
-0.1105081412664256 
0 
0 
0 
0 
0 
0 
0 
0.6919090033337010 
1.366904373910231 
0 
0 
0.1031079651364952 
0 
0 
0.4996814866206358 
0.1361803787283255 
0 
0 
-0.1560459651517947 
2.614601698598740 
0 
-0.5211230982302576 
0 
0 
0 
0.3851843396034674 
0 
0 
1.224627287169590 
0.06165760348818339 
0.1400722292278864 
0 
0 
0 
4.965991908356547 
-0.8544112676055897 
0 
0.2906970393005022 
2.802471799614912 
0 
0 
0 
0.7577433897056225 
-1.911858883826148 
0 
0 
0 
0 
0 
0 
-0.1321834619854359 
-1.532960972839452 
0 
0.7178430567923607 
1.334133730387087 
-1.386726163910426 
0.5889449195901044 
0 
0 
0 
0 
0 
1.431728552568457 
0 
0 
1.777215513871940 
0 
3.358363399740691 
0 
0 
0 
0 
0 
0 
0 
0 
-2.477950993877903 
0 
0 
0.4180157710016635 
-1.208819638526367 
0 
0 
0 
0.3506739073869552 
0 
0 
-2.360621092894829 
0 
0 
0 
0 
0 
0.2342523215670365 
0 
0.7554947525118627 
0 
0 
-0.8192626308565387 
-3.741465429301324 
3.897810457308657 
-3.313186677611836 
0 
0 
1.192572281417914 
0 
0.7878886128051437 
-0.1511138024699765 
0 
0 
0 
0 
0 
0 
0.4415448628621190 
-1.502502073266681 
-1.783768589875935 
0 
0 
0 
1.939307448840574 
-4.288018158515129 
0 
2.051326369008502 
1.112483795133027 
0 
0 
0 
1.160135794704249 
0 
1.281326393611213 
-0.5859050216118001 
0 
-3.462257358526894 
0 
-3.649000351835646 
-0.03409001045395645 
0 
-3.329289592362912 
0.1880324975771428 
1.442392462110096 
0.1805442608103272 
0 
0 
0.3172355925118462 
4.930585854523454 
0.1055350088563825 
-4.392943910982438 
0 
0 
0 
0 
0.2508262872031560 
0 
0.4856779321119529 
0 
0 
0 
0 
0 
0 
0.2453529099449625 
-1.089406453937246 
0 
0 
0 
0.6560896438362882 
-0.3412501547740148 
0 
0 
-2.440934208575673 
-0.4312606490007361 
0 
-0.4944401958284621 
1.218196216084751 
0 
-0.03691935590540389 
0 
-1.219166514179996 
0 
0 
0.09472603612962010 
-0.4077435994693346 
0 
3.182778216683490 
0.9251769642052761 
0.6254839034402570 
0 
-1.489351711764629 
0.3405631999148171 
-2.662249420733630 
0 
-0.3145188653750162 
0 
0.1185335722941070 
0 
0 
0 
0 
0 
0.2782881360875893 
0 
0 
0 
0 
0.6788164840651439 
0.2440613074099591 
0 
0 
0 
0 
0 
0.6876500143439309 
0 
0 
0 
0 
0 
4.843642329465541 
0 
-1.489141987765281 
0 
0 
0 
0 
2.300498415271516 
0 
-0.09790676561455580 
0.02077012193558694 
0 
0 
0 
-2.304192868173270 
3.678261809727694 
0 
0.6553174794072124 
0 
0.8844550794349288 
1.074899079397351 
0 
0 
-0.2385657128556520 
1.197349585198250 
0 
3.463288678294978 
0 
-1.357838309049596 
-0.09419644995163684 
0 
1.740032080801866 
0 
0 
0 
0.9047642347488976 
-0.3958315401414182 
0 
0 
-1.591433558576480 
0 
-0.04536246005403100 
0 
-1.027293632363557 
3.352796638860401 
0.6422292007305318 
-0.7856130266221057 
-0.2211518848571826 
0.08613950997164582 
0.5999996878221657 
-1.840525001081061 
0 
-0.9828798539090409 
0.07415926482976576 
0.6929109665450530 
2.872082329088725 
1.194127200395521 
0.4293022564109306 
-0.6379498947389413 
0 
-0.5290610909954838 
0 
0 
0 
5.039396111684260 
-0.1952538090085021 
0 
2.099853412762875 
1.016507010005044 
-1.684107838497996 
-1.486327013638572 
2.541326579262587 
-1.624807361373593 
0.9839580104282608 
0.3889257816384704 
-0.8681635223589634 
0 
-0.2910481614888132 
1.448076448739310 
0.6600857470551237 
0 
0 
0 
0 
0 
0 
1.242146100057453 
0.5978232531165858 
0 
5.391928591804433 
-1.502588270213255 
1.096453014229985 
0.3742361050026191 
0 
0 
1.651856619636597 
-0.4125926867569856 
-2.011257306871060 
-0.9210923460707687 
0 
0 
0 
0 
0 
0 
-0.8077978395494527 
-2.565206333377751 
-1.127833034934175 
0 
0 
0 
0 
0 
0 
0 
0.1086410430241198 
3.150284684975033 
0 
0 
-0.09266180336558662 
0 
0.6488296673699110 
0 
0 
0 
0 
2.228238677431461 
0 
0 
1.098889287936514 
0 
1.512946329131490 
-0.7343014702012823 
0 
0 
-0.06890683554622427 
-0.2146340031427279 
-0.2108065048415992 
0 
0 
0 
0 
0 
0 
0 
0 
0 
0 
-1.027784167323088 
0 
-2.052862350630535 
0 
0 
0.02341921623199750 
0.7253640492845852 
0 
-0.4884932465155285 
0 
0 
0.1704291469844093 
-0.1058942880363185 
-1.755006698454474 
0 
-0.07566112955488280 
0 
0 
0 
0 
0 
0 
0.9009316146008988 
0 
-0.8732255554226824 
-0.1340396556861302 
0 
-1.646448360320882 
0 
0 
0 
-5.197221752535552 
0 
1.928976941093954 
0.003085039090087755 
0 
0 
0 
-1.648071307033641 
-1.748107655778380 
0.4428921614550875 
3.612026518303962 
0 
0 
0 
-1.064355870438944 
0 
0.4420286169093564 
-5.410008701439207 
0 
0 
-0.7129825012248766 
0 
-0.3669252885900616 
0 
0 
0 
7.632944020179059 
0 
0 
0 
0.7951008680909255 
0 
0 
0 
0 
1.405073591029405 
0 
0 
0.4646379036962918 
0 
0 
0 
0 
0 
0 
0 
0 
-0.04107931382255503 
0.9483216140715150 
0 
0 
2.824195166845470 
0 
0 
0 
0 
0 
1.376928415678411 
0.05044895368021540 
-0.3566028098646021 
0 
0.5702568613763160 
0 
1.905373637654530 
0 
0 
0 
0.9326239913165683 
0 
0 
0 
0 
-2.755481080385842 
0.1831211662407049 
3.432803095187315 
0 
0 
0 
0 
0 
0 
-2.649767533332774 
1.046060395040633 
0 
0 
0 
0 
0 
0.07840656881805111 
0.1261205557992675 
0 
-1.684514817585222 
0 
-0.6592213499094015 
1.299624596893704 
0 
2.651409758163792 
0 
0.3810311643924658 
0 
1.360014337953393 
0 
0 
-1.181999591290349 
0 
-0.5941858628257950 
1.677463321297112 
0 
0 
2.467944965979941 
0 
0 
-0.1648236923088442 
0 
0 
0 
0 
0 
0 
0 
0.05431188859330904 
0 
0 
0 
-1.062358317652083 
0 
4.422306185123634 
0 
4.315038730715902 
0 
0 
-1.267092789782779 
0 
0 
-0.2661446143208179 
0 
0 
0 
1.103116276412971 
0.5527707391103758 
0.1300645726512200 
0.07193210640920467 
0 
-0.5319215646248030 
0 
1.403199113758358 
0 
0.6782713079810673 
-1.089114306289290 
0 
0 
0 
-1.170288568372011 
4.718783451511610 
-2.435497335939231 
-4.309965944952290 
0 
1.295094913040684 
0 
0.6411557830128058 
0 
1.392512667344869 
0 
2.665256697301913 
-1.052685373254660 
0 
0 
1.123044647021064 
0 
0 
0 
0 
0 
0 
0.5143852236146484 
0 
0 
2.527111291574608 
0 
0 
0 
0 
0 
-0.7857762293979484 
0 
0 
0 
0 
0.2684111035766885 
0 
0 
-0.5115683322186206 
0 
0 
0 
0.1931770334740046 
0 
0.1763334052292924 
1.116995783636918 
0 
0 
0 
0 
0.4978038513213845 
0 
0 
-1.230818891209938 
0 
-2.851892851941711 
-0.1379516903705657 
0 
0 
-0.7859536441392951 
0 
0 
0 
0 
0 
3.819343533287182 
0 
0 
0 
0 
0 
3.776725747110133 
1.757462438641245 
0 
-0.6425523161116231 
0 
-0.6254637426544097 
0 
-0.2443235569240116 
0 
0 
0 
0 
-0.1577095258446568 
0 
0 
-0.8994684647445639 
0 
0.7234454303519615 
-3.743465113882112 
5.699320499394492 
0.05250954126545393 
3.846145238408477 
-1.339585338440660 
0.1722302117572061 
0.2086131573156596 
0.2449127180237849 
0 
0.5527734005468046 
0 
-4.429046350637181 
0.2394247947639275 
0 
3.224306294096381 
-2.189297691645660 
0 
